{"learner":{"attributes":{"scikit_learn":"{\"_estimator_type\": \"classifier\"}"},"feature_names":["frac_diff","volatility","signal_strength"],"feature_types":["float","float","float"],"gradient_booster":{"model":{"cats":{"enc":[],"feature_segments":[],"sorted_idx":[]},"gbtree_model_param":{"num_parallel_tree":"1","num_trees":"200"},"iteration_indptr":[0,1,2,3,4,5,6,7,8,9,10,11,12,13,14,15,16,17,18,19,20,21,22,23,24,25,26,27,28,29,30,31,32,33,34,35,36,37,38,39,40,41,42,43,44,45,46,47,48,49,50,51,52,53,54,55,56,57,58,59,60,61,62,63,64,65,66,67,68,69,70,71,72,73,74,75,76,77,78,79,80,81,82,83,84,85,86,87,88,89,90,91,92,93,94,95,96,97,98,99,100,101,102,103,104,105,106,107,108,109,110,111,112,113,114,115,116,117,118,119,120,121,122,123,124,125,126,127,128,129,130,131,132,133,134,135,136,137,138,139,140,141,142,143,144,145,146,147,148,149,150,151,152,153,154,155,156,157,158,159,160,161,162,163,164,165,166,167,168,169,170,171,172,173,174,175,176,177,178,179,180,181,182,183,184,185,186,187,188,189,190,191,192,193,194,195,196,197,198,199,200],"tree_info":[0,0,0,0,0,0,0,0,0,0,0,0,0,0,0,0,0,0,0,0,0,0,0,0,0,0,0,0,0,0,0,0,0,0,0,0,0,0,0,0,0,0,0,0,0,0,0,0,0,0,0,0,0,0,0,0,0,0,0,0,0,0,0,0,0,0,0,0,0,0,0,0,0,0,0,0,0,0,0,0,0,0,0,0,0,0,0,0,0,0,0,0,0,0,0,0,0,0,0,0,0,0,0,0,0,0,0,0,0,0,0,0,0,0,0,0,0,0,0,0,0,0,0,0,0,0,0,0,0,0,0,0,0,0,0,0,0,0,0,0,0,0,0,0,0,0,0,0,0,0,0,0,0,0,0,0,0,0,0,0,0,0,0,0,0,0,0,0,0,0,0,0,0,0,0,0,0,0,0,0,0,0,0,0,0,0,0,0,0,0,0,0,0,0,0,0,0,0,0,0],"trees":[{"base_weights":[2.6774455E-2,2.3239869E-1,-1.2652143E0,3.7159786E-1,-1.931859E-1,-7.834443E-1,-9.006014E-2,2.1200806E-2,7.8310674E-1,1.0059506E0,-4.4692472E-1,6.948418E-2,-1.026227E0,-4.2304802E-1,7.4200135E-1,1.1905899E0,2.0789139E-1,1.4170806E0,-4.6327945E-2,-3.3290848E-1,-8.1818186E-2,-1.1766747E0,4.1202676E-2,3.325326E-4,-4.4283226E-2,2.5070384E-2,8.454785E-2,4.9185168E-2,7.853659E-2,4.7319308E-2,-8.705187E-3,-2.0465435E-2,8.1707165E-2,-1.1316315E-2,-6.2586606E-2,-6.837691E-2,9.710517E-3],"categories":[],"categories_nodes":[],"categories_segments":[],"categories_sizes":[],"default_left":[0,0,0,0,0,0,0,0,0,0,0,0,0,0,0,0,0,0,0,0,0,0,0,0,0,0,0,0,0,0,0,0,0,0,0,0,0],"id":0,"left_children":[1,3,5,7,9,11,-1,13,15,17,19,-1,21,23,25,27,29,31,-1,33,-1,35,-1,-1,-1,-1,-1,-1,-1,-1,-1,-1,-1,-1,-1,-1,-1],"loss_changes":[9.776941E1,1.8873661E1,1.1637558E1,3.4517056E1,2.4450409E1,1.640047E1,0E0,4.2064182E1,2.5562752E1,1.2502772E1,8.378307E0,0E0,8.236536E0,1.6167675E1,1.05859375E1,3.507431E0,1.3387471E1,5.429537E0,0E0,5.7195177E0,0E0,6.6901817E0,0E0,0E0,0E0,0E0,0E0,0E0,0E0,0E0,0E0,0E0,0E0,0E0,0E0,0E0,0E0],"parents":[2147483647,0,0,1,1,2,2,3,3,4,4,5,5,7,7,8,8,9,9,10,10,12,12,13,13,14,14,15,15,16,16,17,17,19,19,21,21],"right_children":[2,4,6,8,10,12,-1,14,16,18,20,-1,22,24,26,28,30,32,-1,34,-1,36,-1,-1,-1,-1,-1,-1,-1,-1,-1,-1,-1,-1,-1,-1,-1],"split_conditions":[6.2702155E-1,1.5180515E1,2.062035E0,-3.3456595E0,-2.8332944E0,-2.9136032E1,-9.006014E-2,2.500899E0,3.1413896E0,8.457151E1,2.4945483E-1,6.948418E-2,1.9895128E0,3.889664E-2,-1.2165515E1,2.8151124E0,2.677962E-2,1.9845666E-2,-4.6327945E-2,1.580765E2,-8.1818186E-2,3.2455423E0,4.1202676E-2,3.325326E-4,-4.4283226E-2,2.5070384E-2,8.454785E-2,4.9185168E-2,7.853659E-2,4.7319308E-2,-8.705187E-3,-2.0465435E-2,8.1707165E-2,-1.1316315E-2,-6.2586606E-2,-6.837691E-2,9.710517E-3],"split_indices":[1,0,1,0,2,0,0,2,0,0,1,0,1,1,0,2,1,1,0,0,0,2,0,0,0,0,0,0,0,0,0,0,0,0,0,0,0],"split_type":[0,0,0,0,0,0,0,0,0,0,0,0,0,0,0,0,0,0,0,0,0,0,0,0,0,0,0,0,0,0,0,0,0,0,0,0,0],"sum_hessian":[3.6591193E2,3.1637927E2,4.953267E1,2.3849858E2,7.7880684E1,2.7382103E1,2.2150568E1,1.293821E2,1.0911648E2,1.3083807E1,6.4796875E1,2.2769887E0,2.5105114E1,8.030256E1,4.9079544E1,6.324432E1,4.5872158E1,1.1008523E1,2.075284E0,6.0296875E1,4.5E0,2.3553978E1,1.5511364E0,4.2143467E1,3.8159092E1,4.0372158E1,8.707386E0,4.3278408E1,1.996591E1,1.5134943E1,3.0737217E1,1.0752841E0,9.933239E0,5.514631E1,5.150568E0,2.0677557E1,2.8764205E0],"tree_param":{"num_deleted":"0","num_feature":"3","num_nodes":"37","size_leaf_vector":"1"}},{"base_weights":[-1.2201641E-2,1.7426072E-1,-1.2073053E0,6.345526E-1,6.015591E-2,-7.8133976E-1,-8.786592E-2,1.6516952E-1,1.0300326E0,-6.626247E-1,2.671647E-1,6.7127384E-2,-1.0093199E0,-1.3453612E-1,6.1232198E-2,3.1554037E-1,1.1100814E0,3.5992864E-1,-1.1278174E0,6.7993176E-1,-7.771716E-2,-8.506571E-2,-6.7091036E-1,3.5301386E-4,-5.0824054E-2,4.743391E-2,-2.1055682E-2,5.728924E-2,5.928395E-3,-5.0374724E-2,3.1014029E-2,-6.412244E-2,8.71475E-3,9.249941E-3,5.4347493E-2,3.921262E-2,-1.2738611E-2,-1.1939991E-2,-8.142533E-2],"categories":[],"categories_nodes":[],"categories_segments":[],"categories_sizes":[],"default_left":[0,0,0,0,0,0,0,0,0,0,0,0,0,0,0,0,0,0,0,0,0,0,0,0,0,0,0,0,0,0,0,0,0,0,0,0,0,0,0],"id":1,"left_children":[1,3,5,7,9,11,-1,13,15,17,19,-1,21,23,-1,25,27,29,31,33,35,-1,37,-1,-1,-1,-1,-1,-1,-1,-1,-1,-1,-1,-1,-1,-1,-1,-1],"loss_changes":[8.0718285E1,1.6421665E1,1.0080238E1,1.1367088E1,3.7917843E1,1.5566553E1,0E0,9.567192E0,1.5680237E0,2.725662E1,2.806773E1,0E0,5.19915E0,3.0021477E0,0E0,2.6271572E0,9.177971E-1,7.1783495E0,8.083828E0,1.7865368E1,1.669931E1,0E0,7.818452E0,0E0,0E0,0E0,0E0,0E0,0E0,0E0,0E0,0E0,0E0,0E0,0E0,0E0,0E0,0E0,0E0],"parents":[2147483647,0,0,1,1,2,2,3,3,4,4,5,5,7,7,8,8,9,9,10,10,12,12,13,13,15,15,16,16,17,17,18,18,19,19,20,20,22,22],"right_children":[2,4,6,8,10,12,-1,14,16,18,20,-1,22,24,-1,26,28,30,32,34,36,-1,38,-1,-1,-1,-1,-1,-1,-1,-1,-1,-1,-1,-1,-1,-1,-1,-1],"split_conditions":[6.2702155E-1,1.8548122E-2,2.5072582E0,1.3705621E-2,-1.0769254E1,-2.9136032E1,-8.786592E-2,3.0419402E0,-3.0125866E0,3.703847E-2,3.5640438E0,6.7127384E-2,-7.6299443E0,-2.4840212E1,6.1232198E-2,-3.266333E0,3.7941875E0,-3.03266E0,3.0496733E0,-2.5749621E0,-2.8677552E0,-8.506571E-2,1.603912E1,3.5301386E-4,-5.0824054E-2,4.743391E-2,-2.1055682E-2,5.728924E-2,5.928395E-3,-5.0374724E-2,3.1014029E-2,-6.412244E-2,8.71475E-3,9.249941E-3,5.4347493E-2,3.921262E-2,-1.2738611E-2,-1.1939991E-2,-8.142533E-2],"split_indices":[1,1,1,1,0,0,0,2,2,1,0,0,0,0,0,2,2,2,2,2,2,0,0,0,0,0,0,0,0,0,0,0,0,0,0,0,0,0,0],"split_type":[0,0,0,0,0,0,0,0,0,0,0,0,0,0,0,0,0,0,0,0,0,0,0,0,0,0,0,0,0,0,0,0,0,0,0,0,0,0,0],"sum_hessian":[3.6027817E2,3.123923E2,4.7885857E1,6.115115E1,2.5124115E2,2.835021E1,1.9535645E1,2.8611126E1,3.2540024E1,5.5446434E1,1.9579472E2,2.2742424E0,2.6075968E1,2.2982748E1,5.628377E0,3.7762423E0,2.876378E1,1.7407904E1,3.8038532E1,8.868355E1,1.0711117E2,7.2412896E0,1.8834679E1,2.0658085E1,2.3246639E0,1.8760223E0,1.90022E0,2.7613844E1,1.1499374E0,2.325284E0,1.508262E1,3.4014294E1,4.0242376E0,4.067607E1,4.8007477E1,1.7667894E1,8.9443275E1,1.3839189E1,4.9954906E0],"tree_param":{"num_deleted":"0","num_feature":"3","num_nodes":"39","size_leaf_vector":"1"}},{"base_weights":[2.2617383E-2,2.0713168E-1,-1.1384121E0,2.6542753E-1,-6.4369875E-1,-6.752502E-1,-8.027391E-2,-1.02433875E-1,4.4376943E-1,-9.9756557E-1,-1.755056E-1,4.8615586E-2,-8.639984E-1,3.8385367E-1,-9.681925E-1,7.6196975E-1,1.1049002E-1,6.2279385E-3,-1.1372546E0,7.990283E-1,-9.505537E-1,-8.1723146E-2,-4.4291145E-1,9.538388E-4,3.627263E-2,-5.4437436E-2,1.3758533E-2,2.7719683E-3,5.0178885E-2,3.4176107E-2,-1.4735028E-2,-1.9879848E-2,-6.299071E-2,-2.8605336E-2,7.3116206E-2,9.02218E-3,-6.2879674E-2,1.5148552E-3,-7.5994864E-2],"categories":[],"categories_nodes":[],"categories_segments":[],"categories_sizes":[],"default_left":[0,0,0,0,0,0,0,0,0,0,0,0,0,0,0,0,0,0,0,0,0,0,0,0,0,0,0,0,0,0,0,0,0,0,0,0,0,0,0],"id":2,"left_children":[1,3,5,7,9,11,-1,13,15,17,19,-1,21,23,25,27,29,-1,31,33,35,-1,37,-1,-1,-1,-1,-1,-1,-1,-1,-1,-1,-1,-1,-1,-1,-1,-1],"loss_changes":[7.6989296E1,1.5546668E1,9.57761E0,1.9125185E1,3.166626E0,9.07215E0,0E0,4.0691936E1,2.070747E1,1.9088326E0,8.23399E0,0E0,7.153433E0,7.7169657E0,5.505398E0,1.7036442E1,2.270703E1,0E0,4.1692066E-1,5.3176355E0,2.299656E0,0E0,8.746386E0,0E0,0E0,0E0,0E0,0E0,0E0,0E0,0E0,0E0,0E0,0E0,0E0,0E0,0E0,0E0,0E0],"parents":[2147483647,0,0,1,1,2,2,3,3,4,4,5,5,7,7,8,8,9,9,10,10,12,12,13,13,14,14,15,15,16,16,18,18,19,19,20,20,22,22],"right_children":[2,4,6,8,10,12,-1,14,16,18,20,-1,22,24,26,28,30,-1,32,34,36,-1,38,-1,-1,-1,-1,-1,-1,-1,-1,-1,-1,-1,-1,-1,-1,-1,-1],"split_conditions":[6.2702155E-1,8.122849E1,2.062035E0,-1.0769254E1,1.1814121E2,-2.9136032E1,-8.027391E-2,3.7596356E-2,3.5640438E0,-3.0575528E0,1.580765E2,4.8615586E-2,-7.6299443E0,2.500899E0,3.252957E-1,-2.8410716E0,-2.5012505E0,6.2279385E-3,7.8223236E-2,2.575352E0,2.5836017E0,-8.1723146E-2,1.603912E1,9.538388E-4,3.627263E-2,-5.4437436E-2,1.3758533E-2,2.7719683E-3,5.0178885E-2,3.4176107E-2,-1.4735028E-2,-1.9879848E-2,-6.299071E-2,-2.8605336E-2,7.3116206E-2,9.02218E-3,-6.2879674E-2,1.5148552E-3,-7.5994864E-2],"split_indices":[1,0,1,0,0,0,0,1,0,2,0,0,0,2,1,2,2,0,1,2,2,0,0,0,0,0,0,0,0,0,0,0,0,0,0,0,0,0,0],"split_type":[0,0,0,0,0,0,0,0,0,0,0,0,0,0,0,0,0,0,0,0,0,0,0,0,0,0,0,0,0,0,0,0,0,0,0,0,0,0,0],"sum_hessian":[3.5728192E2,3.0899683E2,4.8285107E1,2.8982693E2,1.9169872E1,2.5471874E1,2.2813232E1,9.477092E1,1.9505603E2,1.0273983E1,8.895888E0,2.1914642E0,2.328041E1,6.1041294E1,3.372963E1,9.9127365E1,9.592866E1,1.1493716E0,9.124612E0,3.9270878E0,4.968801E0,7.208838E0,1.6071571E1,3.0029787E1,3.1011507E1,3.0861643E1,2.8679864E0,2.557328E1,7.3554085E1,3.9450176E1,5.6478485E1,1.9002932E0,7.224318E0,1.3251915E0,2.6018963E0,1.1489377E0,3.8198633E0,1.1840801E1,4.2307706E0],"tree_param":{"num_deleted":"0","num_feature":"3","num_nodes":"39","size_leaf_vector":"1"}},{"base_weights":[-9.427766E-3,1.5319945E-1,-1.1163135E0,2.1155077E-1,-6.793428E-1,-7.690143E-1,-8.347798E-2,-6.504559E-2,4.2799988E-1,-1.2642322E0,-2.4914795E-1,5.116685E-2,-9.6487117E-1,-4.5228624E-1,6.5445936E-1,9.410098E-1,1.0134262E-1,-1.1819092E-2,-7.353922E-2,-9.4221574E-1,8.183963E-1,-8.004152E-2,-6.1417675E-1,1.5679522E-3,-3.4093566E-2,2.3039393E-2,7.4434385E-2,3.635988E-2,6.055857E-2,4.3022964E-2,-6.228929E-3,-2.1816174E-2,-7.092058E-2,5.7494145E-2,1.0789766E-2,-1.3155646E-2,-7.436268E-2],"categories":[],"categories_nodes":[],"categories_segments":[],"categories_sizes":[],"default_left":[0,0,0,0,0,0,0,0,0,0,0,0,0,0,0,0,0,0,0,0,0,0,0,0,0,0,0,0,0,0,0,0,0,0,0,0,0],"id":3,"left_children":[1,3,5,7,9,11,-1,13,15,17,19,-1,21,23,25,27,29,-1,-1,31,33,-1,35,-1,-1,-1,-1,-1,-1,-1,-1,-1,-1,-1,-1,-1,-1],"loss_changes":[6.588658E1,1.5649472E1,7.7249413E0,1.7930912E1,5.004937E0,1.1749863E1,0E0,3.7114933E1,2.8039467E1,1.5025663E0,1.0706206E1,0E0,5.295698E0,9.6262665E0,6.850395E0,2.8850937E0,1.7891195E1,0E0,0E0,1.4545422E0,9.146519E-1,0E0,5.667948E0,0E0,0E0,0E0,0E0,0E0,0E0,0E0,0E0,0E0,0E0,0E0,0E0,0E0,0E0],"parents":[2147483647,0,0,1,1,2,2,3,3,4,4,5,5,7,7,8,8,9,9,10,10,12,12,13,13,14,14,15,15,16,16,19,19,20,20,22,22],"right_children":[2,4,6,8,10,12,-1,14,16,18,20,-1,22,24,26,28,30,-1,-1,32,34,-1,36,-1,-1,-1,-1,-1,-1,-1,-1,-1,-1,-1,-1,-1,-1],"split_conditions":[6.2702155E-1,8.122849E1,2.5072582E0,-3.3456595E0,1.1111609E2,-2.9136032E1,-8.347798E-2,2.500899E0,3.3625019E0,7.3291324E-2,9.173247E-2,5.116685E-2,-7.6299443E0,1.9845666E-2,-1.1374212E1,7.25693E-2,-2.7402055E0,-1.1819092E-2,-7.353922E-2,6.972889E-2,1.20319754E-1,-8.004152E-2,1.603912E1,1.5679522E-3,-3.4093566E-2,2.3039393E-2,7.4434385E-2,3.635988E-2,6.055857E-2,4.3022964E-2,-6.228929E-3,-2.1816174E-2,-7.092058E-2,5.7494145E-2,1.0789766E-2,-1.3155646E-2,-7.436268E-2],"split_indices":[1,0,1,0,0,0,0,2,0,1,1,0,0,1,0,1,2,0,0,1,1,0,0,0,0,0,0,0,0,0,0,0,0,0,0,0,0],"split_type":[0,0,0,0,0,0,0,0,0,0,0,0,0,0,0,0,0,0,0,0,0,0,0,0,0,0,0,0,0,0,0,0,0,0,0,0,0],"sum_hessian":[3.640667E2,3.1818024E2,4.5886475E1,2.9803726E2,2.0142973E1,2.9658451E1,1.6228024E1,1.3114674E2,1.6689052E2,7.7149916E0,1.242798E1,2.5054374E0,2.7153013E1,8.550108E1,4.5645657E1,6.419406E1,1.0269646E2,1.6497718E0,6.06522E0,7.60687E0,4.8211102E0,8.384173E0,1.876884E1,2.7800274E1,5.770081E1,3.8305206E1,7.3404503E0,3.789487E1,2.6299192E1,2.2909544E1,7.978691E1,4.617589E0,2.9892812E0,2.5243065E0,2.2968037E0,1.4314392E1,4.4544487E0],"tree_param":{"num_deleted":"0","num_feature":"3","num_nodes":"37","size_leaf_vector":"1"}},{"base_weights":[6.62009E-3,1.7848183E-1,-1.1356604E0,3.070314E-1,-2.2282052E-1,2.3839222E-2,-1.2084721E0,-7.725948E-2,5.541768E-1,7.1116036E-1,-4.1423142E-1,-9.220605E-1,-7.772097E-2,4.6482798E-1,-9.992079E-1,3.7426698E-1,9.2101556E-1,1.2842693E0,-5.3987224E-2,-2.4889569E-1,-1.2436476E0,-1.0371516E0,2.3988056E-1,-1.6429779E-4,4.171244E-2,-5.562058E-2,3.2046647E-3,9.021609E-3,3.457063E-2,6.0978033E-2,2.1164348E-2,-2.388674E-2,7.6481484E-2,-7.2346195E-3,-5.5045098E-2,-8.668161E-3,-7.549178E-2,1.2029083E-2,-5.8690667E-2,3.420385E-2,-1.7661193E-2],"categories":[],"categories_nodes":[],"categories_segments":[],"categories_sizes":[],"default_left":[0,0,0,0,0,0,0,0,0,0,0,0,0,0,0,0,0,0,0,0,0,0,0,0,0,0,0,0,0,0,0,0,0,0,0,0,0,0,0,0,0],"id":4,"left_children":[1,3,5,7,9,-1,11,13,15,17,19,21,-1,23,25,27,29,31,-1,33,35,37,39,-1,-1,-1,-1,-1,-1,-1,-1,-1,-1,-1,-1,-1,-1,-1,-1,-1,-1],"loss_changes":[7.141243E1,1.637822E1,6.1615562E0,2.2825161E1,1.4111015E1,0E0,3.1048584E0,4.782598E1,9.298256E0,1.5256084E1,8.572704E0,3.9283085E0,0E0,1.0440715E1,4.33313E0,6.005205E0,6.5261955E0,5.3539143E0,0E0,4.746445E0,2.7340298E0,4.686735E0,1.1088969E0,0E0,0E0,0E0,0E0,0E0,0E0,0E0,0E0,0E0,0E0,0E0,0E0,0E0,0E0,0E0,0E0,0E0,0E0],"parents":[2147483647,0,0,1,1,2,2,3,3,4,4,6,6,7,7,8,8,9,9,10,10,11,11,13,13,14,14,15,15,16,16,17,17,19,19,20,20,21,21,22,22],"right_children":[2,4,6,8,10,-1,12,14,16,18,20,22,-1,24,26,28,30,32,-1,34,36,38,40,-1,-1,-1,-1,-1,-1,-1,-1,-1,-1,-1,-1,-1,-1,-1,-1,-1,-1],"split_conditions":[6.8532425E-1,1.603912E1,-3.8200558E1,-1.0769254E1,-2.8677552E0,2.3839222E-2,2.5072582E0,3.7596356E-2,2.7952871E0,8.457151E1,1.6316263E-1,3.4224308E0,-7.772097E-2,-3.3607914E1,3.5150173E-1,7.25693E-2,3.3625019E0,1.6712616E1,-5.3987224E-2,1.580765E2,2.5152245E0,-3.182144E0,4.077835E0,-1.6429779E-4,4.171244E-2,-5.562058E-2,3.2046647E-3,9.021609E-3,3.457063E-2,6.0978033E-2,2.1164348E-2,-2.388674E-2,7.6481484E-2,-7.2346195E-3,-5.5045098E-2,-8.668161E-3,-7.549178E-2,1.2029083E-2,-5.8690667E-2,3.420385E-2,-1.7661193E-2],"split_indices":[1,0,0,0,2,0,1,1,2,0,1,2,0,0,1,1,0,0,0,0,2,2,2,0,0,0,0,0,0,0,0,0,0,0,0,0,0,0,0,0,0],"split_type":[0,0,0,0,0,0,0,0,0,0,0,0,0,0,0,0,0,0,0,0,0,0,0,0,0,0,0,0,0,0,0,0,0,0,0,0,0,0,0,0,0],"sum_hessian":[3.6173334E2,3.1515973E2,4.657359E1,2.3887546E2,7.628429E1,1.7725095E0,4.480108E1,9.376537E1,1.4511008E2,1.2512882E1,6.3771404E1,2.6514713E1,1.8286366E1,5.9359177E1,3.44062E1,9.871649E1,4.6393578E1,9.693689E0,2.8191922E0,5.425609E1,9.515317E0,2.4222822E1,2.2918906E0,2.6619371E1,3.2739803E1,3.1053883E1,3.352318E0,6.224325E1,3.6473244E1,2.8092827E1,1.8300753E1,1.0690991E0,8.624591E0,4.9385853E1,4.870234E0,2.2240746E0,7.2912426E0,2.2669864E0,2.1955837E1,1.2227483E0,1.0691422E0],"tree_param":{"num_deleted":"0","num_feature":"3","num_nodes":"41","size_leaf_vector":"1"}},{"base_weights":[-5.1800967E-3,1.9101545E-1,-8.530887E-1,5.6720203E-1,8.738175E-2,-6.154626E-1,-7.473231E-2,1.8072546E-1,9.936569E-1,-5.86761E-1,2.645203E-1,-3.3211625E-1,-8.226646E-2,-4.0980342E-1,6.3340974E-1,6.820057E-1,1.3067667E0,2.7594364E-1,-1.1216837E0,6.5113205E-1,-6.415968E-2,-6.5011156E-1,5.213007E-1,3.235256E-2,-3.38065E-2,4.925876E-2,8.4600254E-4,6.2094044E-2,1.131486E-2,3.7014775E-3,7.35664E-2,-4.461123E-2,2.3170223E-2,-6.1505824E-2,2.8080654E-3,9.952318E-3,5.5075027E-2,4.0127054E-2,-1.2328736E-2,5.6527626E-2,-4.4413045E-2,4.2773824E-2,-3.764303E-2],"categories":[],"categories_nodes":[],"categories_segments":[],"categories_sizes":[],"default_left":[0,0,0,0,0,0,0,0,0,0,0,0,0,0,0,0,0,0,0,0,0,0,0,0,0,0,0,0,0,0,0,0,0,0,0,0,0,0,0,0,0,0,0],"id":5,"left_children":[1,3,5,7,9,11,-1,13,15,17,19,21,-1,23,25,27,29,31,33,35,37,39,41,-1,-1,-1,-1,-1,-1,-1,-1,-1,-1,-1,-1,-1,-1,-1,-1,-1,-1,-1,-1],"loss_changes":[6.147687E1,1.1651204E1,9.666336E0,1.0474276E1,2.839594E1,1.4736179E1,0E0,9.651295E0,2.0858707E0,2.316224E1,2.3927233E1,1.1825128E1,0E0,4.8994107E0,4.3812838E0,4.1537285E0,2.7569332E0,4.7397094E0,3.9982529E0,1.7384892E1,1.6404074E1,1.4269039E1,5.772579E0,0E0,0E0,0E0,0E0,0E0,0E0,0E0,0E0,0E0,0E0,0E0,0E0,0E0,0E0,0E0,0E0,0E0,0E0,0E0,0E0],"parents":[2147483647,0,0,1,1,2,2,3,3,4,4,5,5,7,7,8,8,9,9,10,10,11,11,13,13,14,14,15,15,16,16,17,17,18,18,19,19,20,20,21,21,22,22],"right_children":[2,4,6,8,10,12,-1,14,16,18,20,22,-1,24,26,28,30,32,34,36,38,40,42,-1,-1,-1,-1,-1,-1,-1,-1,-1,-1,-1,-1,-1,-1,-1,-1,-1,-1,-1,-1],"split_conditions":[2.7797523E-1,1.8548122E-2,2.5072582E0,2.500899E0,-1.0557887E1,1.3386533E1,-7.473231E-2,-3.3607914E1,3.0972743E0,3.85403E-2,3.5640438E0,2.7952871E0,-8.226646E-2,6.1542494E-3,-2.6755667E0,2.6791635E0,-2.48135E3,-3.03266E0,3.0496733E0,-2.5161552E0,-2.8677552E0,-2.3172583E1,1.4595443E0,3.235256E-2,-3.38065E-2,4.925876E-2,8.4600254E-4,6.2094044E-2,1.131486E-2,3.7014775E-3,7.35664E-2,-4.461123E-2,2.3170223E-2,-6.1505824E-2,2.8080654E-3,9.952318E-3,5.5075027E-2,4.0127054E-2,-1.2328736E-2,5.6527626E-2,-4.4413045E-2,4.2773824E-2,-3.764303E-2],"split_indices":[1,1,1,2,0,0,0,0,2,1,0,2,0,1,2,2,0,2,2,2,2,0,1,0,0,0,0,0,0,0,0,0,0,0,0,0,0,0,0,0,0,0,0],"split_type":[0,0,0,0,0,0,0,0,0,0,0,0,0,0,0,0,0,0,0,0,0,0,0,0,0,0,0,0,0,0,0,0,0,0,0,0,0,0,0,0,0,0,0],"sum_hessian":[3.6757077E2,2.991304E2,6.8440346E1,6.3641376E1,2.3548903E2,5.137202E1,1.7068327E1,3.4132465E1,2.950891E1,4.852046E1,1.8696857E2,4.1324837E1,1.0047186E1,1.4852297E1,1.928017E1,1.6381695E1,1.31272135E1,1.875584E1,2.9764618E1,8.546215E1,1.01506424E2,3.028022E1,1.1044617E1,2.7016983E0,1.2150599E1,1.1894944E1,7.3852262E0,6.5766177E0,9.805078E0,1.7167563E0,1.1410458E1,2.0737398E0,1.66821E1,2.7214834E1,2.5497842E0,4.3369373E1,4.2092777E1,1.7058338E1,8.444808E1,3.129963E0,2.7150257E1,9.0101185E0,2.0344982E0],"tree_param":{"num_deleted":"0","num_feature":"3","num_nodes":"43","size_leaf_vector":"1"}},{"base_weights":[2.3123536E-2,2.1066083E-1,-7.4551934E-1,-1.21567376E-1,3.602666E-1,-4.4785476E-1,-6.918707E-2,3.315172E-1,-1.0346508E0,4.631433E-1,-5.2072453E-1,-1.8033084E-1,-7.8319184E-2,-4.145748E-1,5.602439E-1,-1.2047538E0,2.2792318E-1,6.8052995E-1,2.3142096E-1,-7.124136E-2,-2.8211728E-1,-7.494826E-1,3.952742E-1,-1.4924606E-4,-4.738211E-2,3.1948537E-2,-4.587942E-2,-6.1684724E-2,-1.2553041E-2,-5.428491E-2,5.399061E-2,1.6400106E-2,6.057782E-2,3.387374E-2,-3.7859732E-3,6.482233E-2,-2.5720788E-2,3.488537E-2,-4.863106E-2,-2.6425997E-2,3.318578E-2],"categories":[],"categories_nodes":[],"categories_segments":[],"categories_sizes":[],"default_left":[0,0,0,0,0,0,0,0,0,0,0,0,0,0,0,0,0,0,0,0,0,0,0,0,0,0,0,0,0,0,0,0,0,0,0,0,0,0,0,0,0],"id":6,"left_children":[1,3,5,7,9,11,-1,13,15,17,19,21,-1,23,25,27,29,31,33,-1,35,37,39,-1,-1,-1,-1,-1,-1,-1,-1,-1,-1,-1,-1,-1,-1,-1,-1,-1,-1],"loss_changes":[5.2100082E1,1.4479969E1,1.284861E1,3.796084E1,1.8414804E1,1.4626776E1,0E0,1.0732481E1,6.803318E0,8.913757E0,4.222667E0,1.3838909E1,0E0,3.2908564E0,6.1148443E0,4.340706E-1,6.152405E0,1.6899841E1,1.2200745E1,0E0,7.3437986E0,7.5022783E0,5.6098633E0,0E0,0E0,0E0,0E0,0E0,0E0,0E0,0E0,0E0,0E0,0E0,0E0,0E0,0E0,0E0,0E0,0E0,0E0],"parents":[2147483647,0,0,1,1,2,2,3,3,4,4,5,5,7,7,8,8,9,9,10,10,11,11,13,13,14,14,15,15,16,16,17,17,18,18,20,20,21,21,22,22],"right_children":[2,4,6,8,10,12,-1,14,16,18,20,22,-1,24,26,28,30,32,34,-1,36,38,40,-1,-1,-1,-1,-1,-1,-1,-1,-1,-1,-1,-1,-1,-1,-1,-1,-1,-1],"split_conditions":[2.7797523E-1,-1.1374212E1,2.062035E0,3.7596356E-2,8.122849E1,1.603912E1,-6.918707E-2,-2.4212727E3,2.9932892E0,3.5640438E0,5.603687E-2,-3.3456595E0,-7.8319184E-2,-2.7355542E3,-1.665302E1,2.3586708E-1,-1.7512802E1,2.5509953E0,-2.5072818E0,-7.124136E-2,6.2047157E-2,-2.3172583E1,3.3624238E-1,-1.4924606E-4,-4.738211E-2,3.1948537E-2,-4.587942E-2,-6.1684724E-2,-1.2553041E-2,-5.428491E-2,5.399061E-2,1.6400106E-2,6.057782E-2,3.387374E-2,-3.7859732E-3,6.482233E-2,-2.5720788E-2,3.488537E-2,-4.863106E-2,-2.6425997E-2,3.318578E-2],"split_indices":[1,0,1,1,0,0,0,0,2,0,1,0,0,0,0,1,0,2,2,0,1,0,1,0,0,0,0,0,0,0,0,0,0,0,0,0,0,0,0,0,0],"split_type":[0,0,0,0,0,0,0,0,0,0,0,0,0,0,0,0,0,0,0,0,0,0,0,0,0,0,0,0,0,0,0,0,0,0,0,0,0,0,0,0,0],"sum_hessian":[3.5934207E2,2.8944724E2,6.989484E1,8.992934E1,1.995179E2,4.8824825E1,2.1070011E1,6.0530296E1,2.9399038E1,1.7908029E2,2.0437601E1,4.0338173E1,8.486652E0,1.4011887E1,4.651841E1,2.5948826E1,3.450214E0,9.1398964E1,8.768133E1,3.229464E0,1.7208138E1,2.0130896E1,2.0207277E1,8.474324E0,5.5375624E0,4.4704548E1,1.8138629E0,2.4899626E1,1.0491985E0,1.2493081E0,2.2009056E0,5.5904087E1,3.5494877E1,3.526334E1,5.2417988E1,1.6198227E0,1.5588315E1,2.4051628E0,1.7725733E1,4.331687E0,1.587559E1],"tree_param":{"num_deleted":"0","num_feature":"3","num_nodes":"41","size_leaf_vector":"1"}},{"base_weights":[2.132657E-2,1.9380918E-1,-7.214076E-1,9.511285E-2,6.1281705E-1,-4.9117696E-1,-7.00093E-2,-1.9849476E-1,3.002828E-1,9.505923E-1,-6.785908E-1,-2.897118E-1,-7.4232854E-2,5.1946618E-2,-6.053939E-1,8.0591244E-1,4.875342E-2,3.418797E-1,1.007228E0,4.1878585E-2,-9.7800523E-1,-7.1234626E-1,1.1705292E-1,1.28077585E-2,-3.092586E-2,-5.612693E-2,3.481273E-2,2.7733255E-2,6.4649366E-2,3.458519E-2,-6.74171E-3,3.472288E-2,-2.8378963E-2,5.3381335E-2,2.066214E-2,-6.5226965E-2,-5.7660285E-3,4.3239273E-2,-5.023219E-2,2.5389925E-2,-2.0226317E-2],"categories":[],"categories_nodes":[],"categories_segments":[],"categories_sizes":[],"default_left":[0,0,0,0,0,0,0,0,0,0,0,0,0,0,0,0,0,0,0,0,0,0,0,0,0,0,0,0,0,0,0,0,0,0,0,0,0,0,0,0,0],"id":7,"left_children":[1,3,5,7,9,11,-1,13,15,17,19,21,-1,23,25,27,29,31,33,-1,35,37,39,-1,-1,-1,-1,-1,-1,-1,-1,-1,-1,-1,-1,-1,-1,-1,-1,-1,-1],"loss_changes":[4.6538277E1,1.2129378E1,1.001223E1,1.449966E1,2.5072927E1,1.0111355E1,0E0,1.0140979E1,1.7957394E1,1.2003593E0,6.354755E0,7.824664E0,0E0,8.692359E0,2.627726E1,5.027628E0,1.137308E1,2.1025722E0,1.0110283E0,0E0,2.848034E0,1.1114558E1,5.056954E0,0E0,0E0,0E0,0E0,0E0,0E0,0E0,0E0,0E0,0E0,0E0,0E0,0E0,0E0,0E0,0E0,0E0,0E0],"parents":[2147483647,0,0,1,1,2,2,3,3,4,4,5,5,7,7,8,8,9,9,10,10,11,11,13,13,14,14,15,15,16,16,17,17,18,18,20,20,21,21,22,22],"right_children":[2,4,6,8,10,12,-1,14,16,18,20,22,-1,24,26,28,30,32,34,-1,36,38,40,-1,-1,-1,-1,-1,-1,-1,-1,-1,-1,-1,-1,-1,-1,-1,-1,-1,-1],"split_conditions":[2.8330636E-1,3.0653083E0,2.5072582E0,-3.3456595E0,1.8918608E1,1.603912E1,-7.00093E-2,3.889664E-2,3.5640438E0,3.1267383E0,3.1122904E0,-2.7454014E0,-7.4232854E-2,-1.665302E1,-1.0769254E1,1.0621198E-1,-2.8677552E0,9.468979E-2,4.2738543E0,4.1878585E-2,1.1566731E2,-2.3172583E1,4.9588675E0,1.28077585E-2,-3.092586E-2,-5.612693E-2,3.481273E-2,2.7733255E-2,6.4649366E-2,3.458519E-2,-6.74171E-3,3.472288E-2,-2.8378963E-2,5.3381335E-2,2.066214E-2,-6.5226965E-2,-5.7660285E-3,4.3239273E-2,-5.023219E-2,2.5389925E-2,-2.0226317E-2],"split_indices":[1,2,1,0,0,0,0,1,0,2,2,0,0,0,0,1,2,1,2,0,0,0,0,0,0,0,0,0,0,0,0,0,0,0,0,0,0,0,0,0,0],"split_type":[0,0,0,0,0,0,0,0,0,0,0,0,0,0,0,0,0,0,0,0,0,0,0,0,0,0,0,0,0,0,0,0,0,0,0,0,0,0,0,0,0],"sum_hessian":[3.611803E2,2.937117E2,6.7468605E1,2.3871089E2,5.5000805E1,5.166746E1,1.5801146E1,9.8206055E1,1.4050484E2,4.3806793E1,1.1194012E1,4.403029E1,7.6371703E0,6.1330334E1,3.6875725E1,4.5943733E1,9.456111E1,4.327881E0,3.9478912E1,1.5496405E0,9.644371E0,2.1225471E1,2.280482E1,4.74853E1,1.3845035E1,2.648918E1,1.0386543E1,3.1720268E1,1.4223464E1,2.038882E1,7.417229E1,3.2891524E0,1.0387286E0,3.5111267E1,4.367644E0,6.6246834E0,3.0196877E0,3.0125048E0,1.8212967E1,1.3052699E1,9.752121E0],"tree_param":{"num_deleted":"0","num_feature":"3","num_nodes":"41","size_leaf_vector":"1"}},{"base_weights":[-5.4446552E-2,7.6870576E-2,-1.0281794E0,1.2083782E-1,-5.625265E-1,-6.448531E-1,-6.8240315E-2,-1.00441374E-1,2.934069E-1,-9.24696E-1,-1.5813784E-1,7.9434264E-1,-8.621421E-1,-4.7531146E-1,5.729682E-1,7.461689E-1,1.0536846E-3,-3.229357E-1,-1.0896703E0,3.7099066E-1,-6.4294994E-2,1.1131528E-2,4.8822932E-2,-9.986472E-1,2.4417562E-2,-4.4774003E-3,-3.486767E-2,1.9269386E-2,6.786908E-2,2.4541397E-2,5.3287018E-2,2.4948426E-2,-1.735471E-2,3.397944E-2,-5.435288E-2,-6.593782E-2,-6.4369403E-3,-5.276033E-2,3.8967546E-2,1.9097917E-3,-5.343614E-2],"categories":[],"categories_nodes":[],"categories_segments":[],"categories_sizes":[],"default_left":[0,0,0,0,0,0,0,0,0,0,0,0,0,0,0,0,0,0,0,0,0,0,0,0,0,0,0,0,0,0,0,0,0,0,0,0,0,0,0,0,0],"id":8,"left_children":[1,3,5,7,9,11,-1,13,15,17,19,21,23,25,27,29,31,33,35,37,-1,-1,-1,39,-1,-1,-1,-1,-1,-1,-1,-1,-1,-1,-1,-1,-1,-1,-1,-1,-1],"loss_changes":[4.5728527E1,8.937803E0,4.6032143E0,1.1333841E1,2.8527231E0,7.4910364E0,0E0,3.3204796E1,2.204866E1,7.00016E-1,6.9699264E0,1.3405085E-1,4.062042E0,7.1626835E0,6.4079657E0,4.810055E0,1.7893074E1,3.573946E0,1.5681686E0,5.5876255E0,0E0,0E0,0E0,1.3441162E0,0E0,0E0,0E0,0E0,0E0,0E0,0E0,0E0,0E0,0E0,0E0,0E0,0E0,0E0,0E0,0E0,0E0],"parents":[2147483647,0,0,1,1,2,2,3,3,4,4,5,5,7,7,8,8,9,9,10,10,11,11,12,12,13,13,14,14,15,15,16,16,17,17,18,18,19,19,23,23],"right_children":[2,4,6,8,10,12,-1,14,16,18,20,22,24,26,28,30,32,34,36,38,-1,-1,-1,40,-1,-1,-1,-1,-1,-1,-1,-1,-1,-1,-1,-1,-1,-1,-1,-1,-1],"split_conditions":[6.8532425E-1,8.122849E1,2.062035E0,-3.1289785E0,1.1814121E2,-3.4451978E0,-6.8240315E-2,2.500899E0,3.5640438E0,7.8223236E-2,8.2995105E2,-3.9220755E0,1.9895128E0,2.371938E-2,-1.2060786E1,-4.5166153E-1,-2.5012505E0,2.7342324E0,3.4224308E0,-2.8121734E0,-6.4294994E-2,1.1131528E-2,4.8822932E-2,-1.7661308E1,2.4417562E-2,-4.4774003E-3,-3.486767E-2,1.9269386E-2,6.786908E-2,2.4541397E-2,5.3287018E-2,2.4948426E-2,-1.735471E-2,3.397944E-2,-5.435288E-2,-6.593782E-2,-6.4369403E-3,-5.276033E-2,3.8967546E-2,1.9097917E-3,-5.343614E-2],"split_indices":[1,0,1,0,0,2,0,2,0,1,0,2,1,1,0,0,2,2,2,2,0,0,0,0,0,0,0,0,0,0,0,0,0,0,0,0,0,0,0,0,0],"split_type":[0,0,0,0,0,0,0,0,0,0,0,0,0,0,0,0,0,0,0,0,0,0,0,0,0,0,0,0,0,0,0,0,0,0,0,0,0,0,0,0,0],"sum_hessian":[3.5600537E2,3.1451154E2,4.1493816E1,2.9503488E2,1.9476648E1,2.076443E1,2.0729387E1,1.2945601E2,1.6557889E2,9.595918E0,9.880732E0,2.3754082E0,1.838902E1,8.335086E1,4.610515E1,6.435744E1,1.0122145E2,2.701052E0,6.894866E0,7.1820583E0,2.6986728E0,1.1107922E0,1.264616E0,1.693754E1,1.4514805E0,3.0962177E1,5.2388683E1,3.841104E1,7.6941066E0,3.71834E1,2.7174036E1,4.1473537E1,5.9747913E1,1.2161269E0,1.484925E0,5.2668715E0,1.6279944E0,1.2460885E0,5.93597E0,1.1010652E0,1.5836474E1],"tree_param":{"num_deleted":"0","num_feature":"3","num_nodes":"41","size_leaf_vector":"1"}},{"base_weights":[-2.7754001E-2,1.1069164E-1,-9.505215E-1,4.7377458E-1,2.295091E-2,3.9312628E-1,-1.0287834E0,-2.4489683E-1,7.269489E-1,-4.9670762E-1,1.6286655E-1,4.595266E-2,-1.9480838E-2,-1.6985065E-1,-1.0946037E0,6.836097E-1,-5.0730896E-1,2.791094E-1,9.8119265E-1,2.1503966E-2,-7.303552E-1,4.8378766E-1,-9.631315E-2,2.8946826E-2,-4.5474272E-2,-7.016065E-2,-8.170608E-1,4.572265E-2,2.757238E-3,-3.3135626E-2,1.1808801E-2,3.297778E-2,-3.608581E-2,5.0754763E-2,1.0631329E-2,2.4154205E-2,-4.344829E-2,-4.3046672E-2,2.1161031E-2,5.602852E-3,4.4284742E-2,1.7139936E-2,-1.8160809E-2,-1.4671782E-2,-5.3145897E-2],"categories":[],"categories_nodes":[],"categories_segments":[],"categories_sizes":[],"default_left":[0,0,0,0,0,0,0,0,0,0,0,0,0,0,0,0,0,0,0,0,0,0,0,0,0,0,0,0,0,0,0,0,0,0,0,0,0,0,0,0,0,0,0,0,0],"id":9,"left_children":[1,3,5,7,9,11,13,15,17,19,21,-1,-1,23,25,27,29,31,33,35,37,39,41,-1,-1,-1,43,-1,-1,-1,-1,-1,-1,-1,-1,-1,-1,-1,-1,-1,-1,-1,-1,-1,-1],"loss_changes":[4.5059635E1,9.765258E0,5.2428093E0,1.1035637E1,1.8127113E1,1.698452E0,2.2877884E0,4.3167534E0,4.7793007E0,6.420497E0,1.6374287E1,0E0,0E0,2.906888E0,2.3187408E0,5.322273E-1,1.6905901E0,7.1274652E0,5.1143074E-1,7.5756407E0,5.860592E0,1.3028755E1,1.2949925E1,0E0,0E0,0E0,2.7384796E0,0E0,0E0,0E0,0E0,0E0,0E0,0E0,0E0,0E0,0E0,0E0,0E0,0E0,0E0,0E0,0E0,0E0,0E0],"parents":[2147483647,0,0,1,1,2,2,3,3,4,4,5,5,6,6,7,7,8,8,9,9,10,10,13,13,14,14,15,15,16,16,17,17,18,18,19,19,20,20,21,21,22,22,26,26],"right_children":[2,4,6,8,10,12,14,16,18,20,22,-1,-1,24,26,28,30,32,34,36,38,40,42,-1,-1,-1,44,-1,-1,-1,-1,-1,-1,-1,-1,-1,-1,-1,-1,-1,-1,-1,-1,-1,-1],"split_conditions":[6.2702155E-1,1.8548122E-2,-3.8200558E1,-2.4212727E3,-1.0769254E1,1.0709015E0,-3.6718698E0,5.51135E-3,-2.5301616E0,3.85403E-2,3.1413896E0,4.595266E-2,-1.9480838E-2,2.062035E0,-2.214694E0,-2.855366E3,3.0419402E0,-2.6838615E0,4.140527E0,2.6026618E0,3.5150173E-1,-2.503089E0,-2.5095751E0,2.8946826E-2,-4.5474272E-2,-7.016065E-2,1.4595443E0,4.572265E-2,2.757238E-3,-3.3135626E-2,1.1808801E-2,3.297778E-2,-3.608581E-2,5.0754763E-2,1.0631329E-2,2.4154205E-2,-4.344829E-2,-4.3046672E-2,2.1161031E-2,5.602852E-3,4.4284742E-2,1.7139936E-2,-1.8160809E-2,-1.4671782E-2,-5.3145897E-2],"split_indices":[1,1,0,0,0,1,2,1,2,1,0,0,0,1,0,0,2,2,2,2,1,2,2,0,0,0,1,0,0,0,0,0,0,0,0,0,0,0,0,0,0,0,0,0,0],"split_type":[0,0,0,0,0,0,0,0,0,0,0,0,0,0,0,0,0,0,0,0,0,0,0,0,0,0,0,0,0,0,0,0,0,0,0,0,0,0,0,0,0,0,0,0,0],"sum_hessian":[3.5088507E2,3.058739E2,4.5011158E1,5.8673866E1,2.4720004E2,2.2559764E0,4.275518E1,1.5293574E1,4.338029E1,5.189767E1,1.9530238E2,1.2451878E0,1.0107887E0,3.2979937E0,3.9457188E1,3.0161777E0,1.2277397E1,1.6468874E1,2.6911417E1,1.6409866E1,3.5487804E1,8.687077E1,1.0843161E2,1.7468228E0,1.551171E0,1.6762531E1,2.2694656E1,1.8731043E0,1.1430733E0,1.0244689E1,2.0327084E0,1.2179892E1,4.288982E0,2.5467255E1,1.4441638E0,1.1108966E1,5.3009005E0,3.210714E1,3.3806634E0,4.5793976E1,4.1076794E1,4.0884163E1,6.754745E1,7.952016E0,1.4742641E1],"tree_param":{"num_deleted":"0","num_feature":"3","num_nodes":"45","size_leaf_vector":"1"}},{"base_weights":[-3.9554488E-2,8.771557E-2,-9.4487214E-1,1.8074907E-1,-2.1594913E-1,-2.4131889E-2,-1.0340778E0,-8.074155E-2,4.907017E-1,3.4211698E-1,-5.3898656E-1,5.0238397E-2,-4.044875E-2,-6.974738E-2,-8.305208E-1,-4.1803524E-1,5.3987235E-1,6.977602E-1,2.1234371E-1,7.027423E-1,-9.452497E-1,3.2540955E-2,-6.10146E-1,-1.8047933E-1,-5.39427E-2,-3.973137E-2,-1.1649675E-2,1.5562139E-2,7.1360044E-2,6.2097427E-2,3.0264933E-2,-7.89244E-3,3.5025872E-2,-5.8896095E-2,4.3606363E-2,-6.0363002E-2,6.842673E-5,-3.9182615E-2,7.5763545E-4,1.8633742E-2,-4.6035793E-2],"categories":[],"categories_nodes":[],"categories_segments":[],"categories_sizes":[],"default_left":[0,0,0,0,0,0,0,0,0,0,0,0,0,0,0,0,0,0,0,0,0,0,0,0,0,0,0,0,0,0,0,0,0,0,0,0,0,0,0,0,0],"id":10,"left_children":[1,3,5,7,9,11,13,15,17,19,21,-1,-1,-1,23,25,27,29,31,33,35,-1,37,39,-1,-1,-1,-1,-1,-1,-1,-1,-1,-1,-1,-1,-1,-1,-1,-1,-1],"loss_changes":[4.0680485E1,8.792204E0,3.549015E0,1.9306568E1,1.3365876E1,4.7432923E0,1.7537613E0,2.7396091E1,6.1295986E0,1.3393696E1,4.350934E0,0E0,0E0,0E0,4.296072E0,5.7142334E0,8.916208E0,2.3689728E0,8.766663E0,8.033141E0,1.5955577E0,0E0,4.8485126E0,3.9836166E0,0E0,0E0,0E0,0E0,0E0,0E0,0E0,0E0,0E0,0E0,0E0,0E0,0E0,0E0,0E0,0E0,0E0],"parents":[2147483647,0,0,1,1,2,2,3,3,4,4,5,5,6,6,7,7,8,8,9,9,10,10,14,14,15,15,16,16,17,17,18,18,19,19,20,20,22,22,23,23],"right_children":[2,4,6,8,10,12,14,16,18,20,22,-1,-1,-1,24,26,28,30,32,34,36,-1,38,40,-1,-1,-1,-1,-1,-1,-1,-1,-1,-1,-1,-1,-1,-1,-1,-1,-1],"split_conditions":[6.2702155E-1,1.6269793E1,-2.9551014E1,-3.018692E0,-2.5095751E0,1.0709015E0,-7.6299443E0,2.500899E0,3.5640438E0,8.457151E1,1.597737E-2,5.0238397E-2,-4.044875E-2,-6.974738E-2,6.375077E-2,-3.03266E0,-1.2060786E1,2.5926791E-2,1.1298217E1,2.1876484E-2,1.338311E-1,3.2540955E-2,1.1111609E2,2.5642695E0,-5.39427E-2,-3.973137E-2,-1.1649675E-2,1.5562139E-2,7.1360044E-2,6.2097427E-2,3.0264933E-2,-7.89244E-3,3.5025872E-2,-5.8896095E-2,4.3606363E-2,-6.0363002E-2,6.842673E-5,-3.9182615E-2,7.5763545E-4,1.8633742E-2,-4.6035793E-2],"split_indices":[1,0,0,0,2,1,0,2,0,0,1,0,0,0,0,2,0,1,0,1,1,0,0,2,0,0,0,0,0,0,0,0,0,0,0,0,0,0,0,0,0],"split_type":[0,0,0,0,0,0,0,0,0,0,0,0,0,0,0,0,0,0,0,0,0,0,0,0,0,0,0,0,0,0,0,0,0,0,0,0,0,0,0,0,0],"sum_hessian":[3.513491E2,3.0883588E2,4.251321E1,2.3671767E2,7.2118225E1,3.867293E0,3.8645916E1,1.2879753E2,1.0792014E2,2.6418922E1,4.56993E1,1.552201E0,2.3150918E0,1.1826611E1,2.6819307E1,8.3657455E1,4.514007E1,6.1021893E1,4.6898247E1,2.0992495E1,5.4264264E0,2.1192317E0,4.3580067E1,7.8908453E0,1.8928461E1,2.647728E1,5.7180176E1,3.6966125E1,8.173946E0,7.056771E0,5.3965122E1,2.7057001E1,1.9841246E1,1.2425437E0,1.9749952E1,4.0344176E0,1.3920089E0,3.391592E1,9.664148E0,4.8002925E0,3.090553E0],"tree_param":{"num_deleted":"0","num_feature":"3","num_nodes":"41","size_leaf_vector":"1"}},{"base_weights":[6.1406683E-2,2.313494E-1,-6.77109E-1,2.7918074E-1,-3.8882837E-1,-4.4875917E-1,-6.450596E-2,4.276101E-2,4.036911E-1,-6.221345E-2,-2.0951484E-1,-2.2117789E-1,-7.140521E-2,4.1140878E-1,-7.476517E-1,8.124743E-2,6.2070626E-1,6.836175E-2,-5.122525E-1,-3.5789943E-1,1.1284659E0,-1.534799E-3,2.8439417E-2,-2.1093361E-2,-5.5845376E-2,1.0769498E-2,-4.682904E-2,4.5868993E-2,1.6161174E-2,-5.2903224E-2,-4.8084432E-4,4.3634113E-2,-2.3189468E-2,2.0136666E-2,6.924852E-2],"categories":[],"categories_nodes":[],"categories_segments":[],"categories_sizes":[],"default_left":[0,0,0,0,0,0,0,0,0,0,0,0,0,0,0,0,0,0,0,0,0,0,0,0,0,0,0,0,0,0,0,0,0,0,0],"id":11,"left_children":[1,3,5,7,9,11,-1,13,15,-1,17,19,-1,21,23,25,27,-1,29,31,33,-1,-1,-1,-1,-1,-1,-1,-1,-1,-1,-1,-1,-1,-1],"loss_changes":[4.4553402E1,8.661123E0,8.719755E0,7.8792286E0,2.97007E0,1.081319E1,0E0,2.7598034E1,1.2236874E1,0E0,9.585952E0,8.098697E0,0E0,4.5062637E0,3.1550198E0,1.0003452E1,8.953125E0,0E0,4.4736624E0,5.4376917E0,2.010951E-1,0E0,0E0,0E0,0E0,0E0,0E0,0E0,0E0,0E0,0E0,0E0,0E0,0E0,0E0],"parents":[2147483647,0,0,1,1,2,2,3,3,4,4,5,5,7,7,8,8,10,10,11,11,13,13,14,14,15,15,16,16,18,18,19,19,20,20],"right_children":[2,4,6,8,10,12,-1,14,16,-1,18,20,-1,22,24,26,28,-1,30,32,34,-1,-1,-1,-1,-1,-1,-1,-1,-1,-1,-1,-1,-1,-1],"split_conditions":[2.7797523E-1,8.122849E1,2.5072582E0,-1.1374212E1,5.603687E-2,1.603912E1,-6.450596E-2,3.85403E-2,3.6322683E-2,-6.221345E-2,6.2047157E-2,1.1087024E1,-7.140521E-2,-2.4212727E3,7.492697E-2,1.8918608E1,1.7790688E0,6.836175E-2,9.113859E-2,-2.9136032E1,1.4439368E0,-1.534799E-3,2.8439417E-2,-2.1093361E-2,-5.5845376E-2,1.0769498E-2,-4.682904E-2,4.5868993E-2,1.6161174E-2,-5.2903224E-2,-4.8084432E-4,4.3634113E-2,-2.3189468E-2,2.0136666E-2,6.924852E-2],"split_indices":[1,0,1,0,1,0,0,1,1,0,1,0,0,0,1,0,0,0,1,0,1,0,0,0,0,0,0,0,0,0,0,0,0,0,0],"split_type":[0,0,0,0,0,0,0,0,0,0,0,0,0,0,0,0,0,0,0,0,0,0,0,0,0,0,0,0,0,0,0,0,0,0,0],"sum_hessian":[3.5274387E2,2.8731537E2,6.542851E1,2.6725323E2,2.0062124E1,4.8932816E1,1.6495699E1,9.265804E1,1.745952E2,2.4473975E0,1.7614727E1,4.0700607E1,8.232209E0,6.3514458E1,2.9143583E1,7.078957E1,1.0380562E2,2.2709084E0,1.5343819E1,3.762404E1,3.0765688E0,1.6885452E1,4.6629005E1,1.6621426E1,1.2522158E1,6.3242985E1,7.546593E0,5.0930176E1,5.2875443E1,6.826207E0,8.517611E0,2.4072442E0,3.5216793E1,1.4745846E0,1.6019843E0],"tree_param":{"num_deleted":"0","num_feature":"3","num_nodes":"35","size_leaf_vector":"1"}},{"base_weights":[-2.5395684E-2,8.717836E-2,-7.808267E-1,-9.4604775E-2,2.1560293E-1,-5.0005317E-1,-6.26171E-2,-3.682675E-1,3.9245045E-1,7.3988175E-1,-2.3671627E-2,4.2488337E-2,-6.4706975E-1,-9.2130005E-2,-6.7756605E-1,2.2025499E-1,1.2214979E0,6.339245E-2,5.754097E-1,6.154452E-1,-9.476577E-2,-6.5566055E-2,-3.6433226E-1,-2.9634241E-2,1.605475E-2,2.2951402E-2,-4.0857404E-2,2.5161138E-2,-4.3350622E-2,6.5674864E-2,1.812669E-2,-5.09954E-2,3.6451053E-2,-5.983842E-2,4.6065506E-2,-5.9376832E-2,-2.114793E-3,1.503028E-2,-4.282738E-2],"categories":[],"categories_nodes":[],"categories_segments":[],"categories_sizes":[],"default_left":[0,0,0,0,0,0,0,0,0,0,0,0,0,0,0,0,0,0,0,0,0,0,0,0,0,0,0,0,0,0,0,0,0,0,0,0,0,0,0],"id":12,"left_children":[1,3,5,7,9,11,-1,13,15,17,19,-1,21,23,25,27,29,-1,31,33,35,-1,37,-1,-1,-1,-1,-1,-1,-1,-1,-1,-1,-1,-1,-1,-1,-1,-1],"loss_changes":[2.9725409E1,7.1269445E0,5.374853E0,1.703473E1,2.243354E1,6.5182996E0,0E0,6.911089E0,6.3078675E0,4.13562E0,5.677247E0,0E0,4.722596E0,9.352171E0,6.459961E0,1.2548019E1,1.3255692E-1,0E0,1.1660937E1,8.038143E0,6.380204E0,0E0,7.067524E0,0E0,0E0,0E0,0E0,0E0,0E0,0E0,0E0,0E0,0E0,0E0,0E0,0E0,0E0,0E0,0E0],"parents":[2147483647,0,0,1,1,2,2,3,3,4,4,5,5,7,7,8,8,9,9,10,10,12,12,13,13,14,14,15,15,16,16,18,18,19,19,20,20,22,22],"right_children":[2,4,6,8,10,12,-1,14,16,18,20,-1,22,24,26,28,30,-1,32,34,36,-1,38,-1,-1,-1,-1,-1,-1,-1,-1,-1,-1,-1,-1,-1,-1,-1,-1],"split_conditions":[6.2702155E-1,-3.1289785E0,2.5072582E0,2.500899E0,2.5182235E0,-2.9136032E1,-6.26171E-2,-1.9321695E1,-1.2060786E1,3.293972E-2,1.951665E-2,4.2488337E-2,-7.6299443E0,-3.3607914E1,1.8548122E-2,3.293972E-2,2.4061365E-1,6.339245E-2,3.6322683E-2,1.3419611E-2,2.0816566E-2,-6.5566055E-2,3.3625019E0,-2.9634241E-2,1.605475E-2,2.2951402E-2,-4.0857404E-2,2.5161138E-2,-4.3350622E-2,6.5674864E-2,1.812669E-2,-5.09954E-2,3.6451053E-2,-5.983842E-2,4.6065506E-2,-5.9376832E-2,-2.114793E-3,1.503028E-2,-4.282738E-2],"split_indices":[1,0,1,2,0,0,0,0,0,1,1,0,0,0,1,1,1,0,1,1,1,0,0,0,0,0,0,0,0,0,0,0,0,0,0,0,0,0,0],"split_type":[0,0,0,0,0,0,0,0,0,0,0,0,0,0,0,0,0,0,0,0,0,0,0,0,0,0,0,0,0,0,0,0,0,0,0,0,0,0,0],"sum_hessian":[3.4773782E2,3.034086E2,4.4329235E1,1.257188E2,1.7768979E2,2.9075909E1,1.5253327E1,8.064854E1,4.5070267E1,5.5026985E1,1.2266281E2,2.3862936E0,2.6689615E1,4.3294064E1,3.7354473E1,3.8367004E1,6.7032623E0,1.1476854E1,4.355013E1,1.1512433E1,1.11150375E2,6.8824177E0,1.9807198E1,1.9381836E1,2.391223E1,3.8353374E0,3.3519135E1,3.0870058E1,7.496948E0,5.576795E0,1.1264672E0,3.3297498E0,4.022038E1,1.2418547E0,1.0270578E1,4.1013064E0,1.0704907E2,8.590924E0,1.1216273E1],"tree_param":{"num_deleted":"0","num_feature":"3","num_nodes":"39","size_leaf_vector":"1"}},{"base_weights":[-5.701671E-2,5.190128E-2,-7.9420316E-1,-1.5300958E-1,1.9374925E-1,-4.8934472E-1,-6.538654E-2,-5.0887716E-1,4.4232458E-1,5.6842744E-1,8.978893E-4,4.1296538E-2,-6.322442E-1,-3.1989363E-1,-8.2722944E-1,2.4941838E-1,6.547915E-2,3.6558446E-1,8.856926E-1,1.0660067E-1,-4.9659926E-1,-6.419355E-2,-3.5006496E-1,-2.775457E-2,1.0573621E-2,-4.6811145E-2,8.117194E-3,2.6656723E-2,-3.19725E-2,4.4355925E-2,3.774543E-3,7.0863865E-2,1.4595325E-2,-8.999413E-4,4.098997E-2,2.2593588E-3,-3.9521605E-2,1.7456777E-2,-3.2654073E-2],"categories":[],"categories_nodes":[],"categories_segments":[],"categories_sizes":[],"default_left":[0,0,0,0,0,0,0,0,0,0,0,0,0,0,0,0,0,0,0,0,0,0,0,0,0,0,0,0,0,0,0,0,0,0,0,0,0,0,0],"id":13,"left_children":[1,3,5,7,9,11,-1,13,15,17,19,-1,21,23,25,27,-1,29,31,33,35,-1,37,-1,-1,-1,-1,-1,-1,-1,-1,-1,-1,-1,-1,-1,-1,-1,-1],"loss_changes":[2.8116858E1,8.912043E0,6.416445E0,2.6827667E1,1.3079874E1,6.1383758E0,0E0,4.4915333E0,7.6221867E0,3.6348343E0,6.390333E0,0E0,4.6106405E0,6.5207715E0,3.2601376E0,1.04542055E1,0E0,5.867577E0,6.936779E0,8.920543E0,3.4257712E0,0E0,4.5878954E0,0E0,0E0,0E0,0E0,0E0,0E0,0E0,0E0,0E0,0E0,0E0,0E0,0E0,0E0,0E0,0E0],"parents":[2147483647,0,0,1,1,2,2,3,3,4,4,5,5,7,7,8,8,9,9,10,10,12,12,13,13,14,14,15,15,17,17,18,18,19,19,20,20,22,22],"right_children":[2,4,6,8,10,12,-1,14,16,18,20,-1,22,24,26,28,-1,30,32,34,36,-1,38,-1,-1,-1,-1,-1,-1,-1,-1,-1,-1,-1,-1,-1,-1,-1,-1],"split_conditions":[6.2702155E-1,-3.1289785E0,2.5072582E0,2.500899E0,3.5640438E0,-2.9136032E1,-6.538654E-2,5.1005784E-2,-1.1374212E1,1.0621198E-1,8.122849E1,4.1296538E-2,-7.6299443E0,3.1874508E-2,3.558472E-1,3.293972E-2,6.547915E-2,3.4704663E-2,2.5934622E0,6.596427E1,7.8223236E-2,-6.419355E-2,-1.0780293E-1,-2.775457E-2,1.0573621E-2,-4.6811145E-2,8.117194E-3,2.6656723E-2,-3.19725E-2,4.4355925E-2,3.774543E-3,7.0863865E-2,1.4595325E-2,-8.999413E-4,4.098997E-2,2.2593588E-3,-3.9521605E-2,1.7456777E-2,-3.2654073E-2],"split_indices":[1,0,1,2,0,0,0,1,0,1,0,0,0,1,1,1,0,1,2,0,1,0,0,0,0,0,0,0,0,0,0,0,0,0,0,0,0,0,0],"split_type":[0,0,0,0,0,0,0,0,0,0,0,0,0,0,0,0,0,0,0,0,0,0,0,0,0,0,0,0,0,0,0,0,0,0,0,0,0,0,0],"sum_hessian":[3.4866537E2,3.0459204E2,4.4073338E1,1.24566696E2,1.8002534E2,2.8880928E1,1.519241E1,7.805417E1,4.6512524E1,6.051237E1,1.1951298E2,2.3618827E0,2.6519045E1,5.0236877E1,2.7817293E1,3.910247E1,7.410054E0,3.822535E1,2.2287018E1,9.921795E1,2.0295025E1,6.9408774E0,1.9578167E1,3.4792206E1,1.5444672E1,2.5105986E1,2.711307E0,2.9944693E1,9.157776E0,1.2926993E1,2.5298357E1,1.1027681E1,1.1259337E1,8.52918E1,1.3926154E1,7.4339957E0,1.2861029E1,5.873367E0,1.3704801E1],"tree_param":{"num_deleted":"0","num_feature":"3","num_nodes":"39","size_leaf_vector":"1"}},{"base_weights":[1.496543E-2,9.567513E-2,-1.0507188E0,1.9716104E-2,4.2376837E-1,-5.272494E-1,-6.419488E-2,-1.7766976E-1,1.6879286E-1,6.403542E-1,-4.290456E-1,-4.183848E-2,-9.286721E-1,2.4054456E-1,-4.3621776E-1,5.9128207E-1,-9.577618E-3,3.4517977E-1,7.638681E-1,4.2057168E-2,-6.775317E-1,-5.099687E-2,4.975774E-2,-1.4771792E-2,-5.4127138E-2,-6.2974426E-3,2.9381922E-2,-3.1731077E-3,-2.983649E-2,2.0553276E-2,4.8460748E-2,3.1828184E-2,-9.460091E-3,3.386126E-2,-1.7300544E-2,5.208529E-2,1.9934952E-2,-5.4202136E-2,-5.140738E-3],"categories":[],"categories_nodes":[],"categories_segments":[],"categories_sizes":[],"default_left":[0,0,0,0,0,0,0,0,0,0,0,0,0,0,0,0,0,0,0,0,0,0,0,0,0,0,0,0,0,0,0,0,0,0,0,0,0,0,0],"id":14,"left_children":[1,3,5,7,9,11,-1,13,15,17,19,21,23,25,27,29,31,33,35,-1,37,-1,-1,-1,-1,-1,-1,-1,-1,-1,-1,-1,-1,-1,-1,-1,-1,-1,-1],"loss_changes":[2.9738913E1,7.9975863E0,2.294485E0,7.7366123E0,1.1420534E1,1.7535865E0,0E0,1.2342783E1,1.1288711E1,1.5053844E0,4.616228E0,6.3004293E0,1.6617632E-1,5.6562653E0,4.1680536E0,2.6299162E0,1.2453286E1,3.9382837E0,2.9717503E0,0E0,2.5230165E0,0E0,0E0,0E0,0E0,0E0,0E0,0E0,0E0,0E0,0E0,0E0,0E0,0E0,0E0,0E0,0E0,0E0,0E0],"parents":[2147483647,0,0,1,1,2,2,3,3,4,4,5,5,7,7,8,8,9,9,10,10,11,11,12,12,13,13,14,14,15,15,16,16,17,17,18,18,20,20],"right_children":[2,4,6,8,10,12,-1,14,16,18,20,22,24,26,28,30,32,34,36,-1,38,-1,-1,-1,-1,-1,-1,-1,-1,-1,-1,-1,-1,-1,-1,-1,-1,-1,-1],"split_conditions":[1.4595443E0,3.0653083E0,2.5072582E0,-3.3456595E0,1.8918608E1,3.5640438E0,-6.419488E-2,2.371938E-2,1.327855E0,-1.2165515E1,3.1122904E0,-3.1289785E0,1.6573279E0,-3.3607914E1,-1.8736012E1,-4.5166153E-1,-2.8677552E0,3.6931427E0,3.816863E0,4.2057168E-2,9.9936516E1,-5.099687E-2,4.975774E-2,-1.4771792E-2,-5.4127138E-2,-6.2974426E-3,2.9381922E-2,-3.1731077E-3,-2.983649E-2,2.0553276E-2,4.8460748E-2,3.1828184E-2,-9.460091E-3,3.386126E-2,-1.7300544E-2,5.208529E-2,1.9934952E-2,-5.4202136E-2,-5.140738E-3],"split_indices":[1,2,1,0,0,0,0,1,0,0,2,0,1,0,0,0,2,2,0,0,0,0,0,0,0,0,0,0,0,0,0,0,0,0,0,0,0,0,0],"split_type":[0,0,0,0,0,0,0,0,0,0,0,0,0,0,0,0,0,0,0,0,0,0,0,0,0,0,0,0,0,0,0,0,0,0,0,0,0,0,0],"sum_hessian":[3.4358807E2,3.2024454E2,2.3343533E1,2.6090158E2,5.9342957E1,8.19885E0,1.5144682E1,1.1217882E2,1.4872276E2,4.752288E1,1.1820074E1,4.21101E0,3.98784E0,4.288302E1,6.92958E1,4.346246E1,1.0526031E2,1.5138775E1,3.2384106E1,1.5437582E0,1.0276317E1,2.1755059E0,2.035504E0,1.3504118E0,2.6374283E0,2.1168507E1,2.1714512E1,2.1277845E1,4.8017956E1,3.0842802E1,1.26196575E1,2.234334E1,8.291697E1,1.0239812E1,4.898963E0,1.7339064E1,1.5045042E1,5.4998918E0,4.776425E0],"tree_param":{"num_deleted":"0","num_feature":"3","num_nodes":"39","size_leaf_vector":"1"}},{"base_weights":[-3.0653665E-2,6.996265E-2,-8.106295E-1,1.537425E-1,-1.9869994E-1,2.9867658E-2,-8.967742E-1,-2.0362255E-3,5.598408E-1,2.963377E-1,-5.056228E-1,-6.4229697E-1,-6.267006E-2,-1.7665617E-1,2.79368E-1,-3.539041E-2,5.9678805E-1,5.7578766E-1,-8.378588E-1,-3.352749E-1,-1.1908845E0,2.9096588E-2,-7.6057976E-1,-1.4175177E-2,1.5074081E-2,3.6752243E-2,-3.7217808E-3,4.6028193E-2,2.0049646E-2,-3.7032075E-2,4.3923672E-2,-5.2372523E-2,-8.23733E-3,-2.85168E-2,1.3404438E-2,-1.2096803E-2,-6.4363115E-2,-4.795205E-2,-4.0137325E-3],"categories":[],"categories_nodes":[],"categories_segments":[],"categories_sizes":[],"default_left":[0,0,0,0,0,0,0,0,0,0,0,0,0,0,0,0,0,0,0,0,0,0,0,0,0,0,0,0,0,0,0,0,0,0,0,0,0,0,0],"id":15,"left_children":[1,3,5,7,9,-1,11,13,15,17,19,21,-1,23,25,-1,27,29,31,33,35,-1,37,-1,-1,-1,-1,-1,-1,-1,-1,-1,-1,-1,-1,-1,-1,-1,-1],"loss_changes":[2.7313734E1,6.975666E0,5.3586864E0,1.4916403E1,1.1360384E1,0E0,2.6318932E0,8.471791E0,3.4841156E0,9.632366E0,4.9605093E0,3.9399252E0,0E0,5.5202417E0,1.0698458E1,0E0,3.6919765E0,1.01159725E1,6.899996E-1,5.5657883E0,4.8878193E-1,0E0,2.9550848E0,0E0,0E0,0E0,0E0,0E0,0E0,0E0,0E0,0E0,0E0,0E0,0E0,0E0,0E0,0E0,0E0],"parents":[2147483647,0,0,1,1,2,2,3,3,4,4,6,6,7,7,8,8,9,9,10,10,11,11,13,13,14,14,16,16,17,17,18,18,19,19,20,20,22,22],"right_children":[2,4,6,8,10,-1,12,14,16,18,20,22,-1,24,26,-1,28,30,32,34,36,-1,38,-1,-1,-1,-1,-1,-1,-1,-1,-1,-1,-1,-1,-1,-1,-1,-1],"split_conditions":[6.8532425E-1,1.5180515E1,-3.8200558E1,2.8085258E0,-2.5095751E0,2.9867658E-2,2.5072582E0,-2.214694E0,6.1542494E-3,8.457151E1,1.5850635E-1,-3.6718698E0,-6.267006E-2,2.500899E0,8.1623274E-1,-3.539041E-2,2.7658189E-2,2.3467993E-2,1.338311E-1,8.853091E-2,2.543699E0,2.9096588E-2,1.9895128E0,-1.4175177E-2,1.5074081E-2,3.6752243E-2,-3.7217808E-3,4.6028193E-2,2.0049646E-2,-3.7032075E-2,4.3923672E-2,-5.2372523E-2,-8.23733E-3,-2.85168E-2,1.3404438E-2,-1.2096803E-2,-6.4363115E-2,-4.795205E-2,-4.0137325E-3],"split_indices":[1,0,0,2,2,0,1,0,1,0,1,2,0,2,0,0,1,1,1,1,2,0,1,0,0,0,0,0,0,0,0,0,0,0,0,0,0,0,0],"split_type":[0,0,0,0,0,0,0,0,0,0,0,0,0,0,0,0,0,0,0,0,0,0,0,0,0,0,0,0,0,0,0,0,0,0,0,0,0,0,0],"sum_hessian":[3.463192E2,3.0755515E2,3.8764088E1,2.347716E2,7.278353E1,1.8928185E0,3.687127E1,1.70401E2,6.43706E1,2.7868599E1,4.4914932E1,2.3151886E1,1.3719384E1,1.05381065E2,6.501994E1,1.3087999E0,6.30618E1,2.275454E1,5.114059E0,3.7165337E1,7.749595E0,1.6944522E0,2.1457434E1,8.646596E1,1.8915106E1,2.7947617E1,3.7072327E1,2.2369274E1,4.0692524E1,3.9833615E0,1.877118E1,3.475681E0,1.6383778E0,2.678504E1,1.0380296E1,1.038147E0,6.711448E0,1.6294283E1,5.163151E0],"tree_param":{"num_deleted":"0","num_feature":"3","num_nodes":"39","size_leaf_vector":"1"}},{"base_weights":[4.3849215E-2,1.2926167E-1,-9.1191685E-1,3.8620287E-1,6.657327E-2,-6.106714E-1,-5.7349082E-2,7.331773E-2,6.805635E-1,-1.8024418E-1,2.1232112E-1,-3.8592452E-1,-5.3276498E-2,-2.7977446E-1,5.221168E-1,4.86107E-1,9.454202E-1,-2.5559947E-1,4.5062813E-1,6.339957E-1,-1.1779053E-2,-4.9189404E-2,6.5151914E-3,2.7753456E-2,-2.030108E-2,4.6123117E-2,-1.9796935E-3,1.1650624E-2,4.664488E-2,5.889826E-2,2.9136572E-2,2.053531E-2,-1.6400507E-2,-2.1022655E-2,5.647561E-2,3.4403205E-2,-3.222449E-2,3.9392807E-2,-8.438349E-3,3.2928135E-2,-2.5298705E-2],"categories":[],"categories_nodes":[],"categories_segments":[],"categories_sizes":[],"default_left":[0,0,0,0,0,0,0,0,0,0,0,0,0,0,0,0,0,0,0,0,0,0,0,0,0,0,0,0,0,0,0,0,0,0,0,0,0,0,0,0,0],"id":16,"left_children":[1,3,5,7,9,11,-1,13,15,17,19,21,-1,23,25,27,29,31,33,35,37,-1,39,-1,-1,-1,-1,-1,-1,-1,-1,-1,-1,-1,-1,-1,-1,-1,-1,-1,-1],"loss_changes":[2.8130764E1,5.0621862E0,1.3017406E0,5.636794E0,9.21618E0,1.0742912E0,0E0,5.066645E0,1.172718E0,4.6439877E0,1.5209117E1,2.6561818E0,0E0,2.125627E0,3.1896322E0,2.081963E0,3.5596752E-1,4.2713375E0,6.700008E0,4.3036823E0,1.3442587E1,0E0,2.943592E0,0E0,0E0,0E0,0E0,0E0,0E0,0E0,0E0,0E0,0E0,0E0,0E0,0E0,0E0,0E0,0E0,0E0,0E0],"parents":[2147483647,0,0,1,1,2,2,3,3,4,4,5,5,7,7,8,8,9,9,10,10,11,11,13,13,14,14,15,15,16,16,17,17,18,18,19,19,20,20,22,22],"right_children":[2,4,6,8,10,12,-1,14,16,18,20,22,-1,24,26,28,30,32,34,36,38,-1,40,-1,-1,-1,-1,-1,-1,-1,-1,-1,-1,-1,-1,-1,-1,-1,-1,-1,-1],"split_conditions":[1.0709015E0,1.8548122E-2,2.5072582E0,1.3705621E-2,-2.214694E0,1.603912E1,-5.7349082E-2,2.5802848E0,-3.4116068E0,3.0496733E0,3.5640438E0,-3.1289785E0,-5.3276498E-2,-3.255764E0,8.9172395E-3,1.6355544E-2,1.5364929E-2,-2.9136032E1,4.048685E-2,6.942581E-1,-2.8677552E0,-4.9189404E-2,3.5640438E0,2.7753456E-2,-2.030108E-2,4.6123117E-2,-1.9796935E-3,1.1650624E-2,4.664488E-2,5.889826E-2,2.9136572E-2,2.053531E-2,-1.6400507E-2,-2.1022655E-2,5.647561E-2,3.4403205E-2,-3.222449E-2,3.9392807E-2,-8.438349E-3,3.2928135E-2,-2.5298705E-2],"split_indices":[1,1,1,1,0,0,0,2,0,2,0,0,0,2,1,1,1,0,1,1,2,0,0,0,0,0,0,0,0,0,0,0,0,0,0,0,0,0,0,0,0],"split_type":[0,0,0,0,0,0,0,0,0,0,0,0,0,0,0,0,0,0,0,0,0,0,0,0,0,0,0,0,0,0,0,0,0,0,0,0,0,0,0,0,0],"sum_hessian":[3.4215085E2,3.1487653E2,2.7274324E1,6.0744034E1,2.5413249E2,1.3531289E1,1.3743034E1,3.0050982E1,3.0693054E1,9.426398E1,1.5986852E2,1.0293628E1,3.2376614E0,1.7029587E1,1.3021395E1,1.93337E1,1.1359352E1,8.473728E1,9.526696E0,5.484368E1,1.0502484E2,3.4820445E0,6.8115835E0,1.7907926E0,1.5238795E1,7.227753E0,5.7936416E0,1.33134985E1,6.0202026E0,5.5518246E0,5.807528E0,7.8481936E0,7.688909E1,4.3394217E0,5.187274E0,5.3061474E1,1.782208E0,1.6575768E1,8.8449066E1,2.8722067E0,3.939377E0],"tree_param":{"num_deleted":"0","num_feature":"3","num_nodes":"41","size_leaf_vector":"1"}},{"base_weights":[-1.5119066E-2,7.2641306E-2,-6.875645E-1,9.305409E-2,-9.6487707E-1,-4.3814203E-1,-5.6003153E-2,4.558789E-2,5.427624E-1,-1.039742E-2,-6.265263E-2,4.9629133E-2,-5.798376E-1,-1.5655346E-1,1.3836682E-1,7.1541435E-1,-7.1866936E-3,-5.9788585E-2,-3.271715E-1,5.935558E-3,-3.155623E-2,5.652466E-2,5.448851E-3,5.8515467E-2,2.5756914E-2,-6.7373306E-2,2.2173038E-2,-7.3054613E-4,-5.609498E-2],"categories":[],"categories_nodes":[],"categories_segments":[],"categories_sizes":[],"default_left":[0,0,0,0,0,0,0,0,0,0,0,0,0,0,0,0,0,0,0,0,0,0,0,0,0,0,0,0,0],"id":17,"left_children":[1,3,5,7,9,11,-1,13,15,-1,-1,-1,17,19,21,23,25,-1,27,-1,-1,-1,-1,-1,-1,-1,-1,-1,-1],"loss_changes":[2.02315E1,6.5154724E0,3.7783566E0,6.3462105E0,1.0355797E0,5.9968963E0,0E0,5.1052256E0,2.7020035E0,0E0,0E0,0E0,3.4937468E0,1.127557E1,5.309519E0,1.3674116E0,5.2944603E0,0E0,4.722744E0,0E0,0E0,0E0,0E0,0E0,0E0,0E0,0E0,0E0,0E0],"parents":[2147483647,0,0,1,1,2,2,3,3,4,4,5,5,7,7,8,8,12,12,13,13,14,14,15,15,16,16,18,18],"right_children":[2,4,6,8,10,12,-1,14,16,-1,-1,-1,18,20,22,24,26,-1,28,-1,-1,-1,-1,-1,-1,-1,-1,-1,-1],"split_conditions":[6.2702155E-1,1.580765E2,2.5072582E0,3.4224308E0,2.6841297E0,-2.9551014E1,-5.6003153E-2,-1.0769254E1,4.2738543E0,-1.039742E-2,-6.265263E-2,4.9629133E-2,-7.6299443E0,3.85403E-2,-9.169882E0,1.597737E-2,-1.9321695E1,-5.9788585E-2,1.603912E1,5.935558E-3,-3.155623E-2,5.652466E-2,5.448851E-3,5.8515467E-2,2.5756914E-2,-6.7373306E-2,2.2173038E-2,-7.3054613E-4,-5.609498E-2],"split_indices":[1,0,1,2,2,0,0,0,2,0,0,0,0,1,0,1,0,0,0,0,0,0,0,0,0,0,0,0,0],"split_type":[0,0,0,0,0,0,0,0,0,0,0,0,0,0,0,0,0,0,0,0,0,0,0,0,0,0,0,0,0],"sum_hessian":[3.4097876E2,3.0240417E2,3.857458E1,2.9746204E2,4.942142E0,2.5742119E1,1.2832462E1,2.70059E2,2.7403046E1,1.8374518E0,3.1046903E0,1.7785689E0,2.3963549E1,8.474158E1,1.8531741E2,2.062662E1,6.7764277E0,5.8849535E0,1.8078596E1,5.4107536E1,3.0634039E1,4.253813E0,1.810636E2,4.8246703E0,1.5801949E1,1.2043828E0,5.572045E0,1.3706368E1,4.372227E0],"tree_param":{"num_deleted":"0","num_feature":"3","num_nodes":"29","size_leaf_vector":"1"}},{"base_weights":[-6.0183216E-2,2.2472639E-2,-7.079126E-1,-1.6908129E-1,1.09529495E-1,-4.549093E-1,-5.9443172E-2,2.1651544E-2,-9.671374E-1,3.4376588E-1,-7.170681E-2,-7.760318E-1,-5.783047E-3,1.2756254E-1,-3.41508E-1,-1.2507771E0,3.8389784E-1,-9.154919E-2,5.2900916E-1,1.9594E-1,-2.4721831E-1,3.0122522E-2,-9.846607E-1,7.005404E-2,-3.4579003E-1,-2.6005438E-2,1.0830086E-2,-2.590701E-2,4.3214355E-2,-6.49337E-2,-2.009646E-2,6.2365826E-2,-4.4645436E-2,3.3127636E-2,-1.3448546E-2,6.9928047E-4,3.576334E-2,1.7881734E-2,-4.401872E-2,-1.4907138E-2,4.3210838E-2,-1.6230706E-2,-5.147585E-2,9.170267E-3,-4.5621928E-2],"categories":[],"categories_nodes":[],"categories_segments":[],"categories_sizes":[],"default_left":[0,0,0,0,0,0,0,0,0,0,0,0,0,0,0,0,0,0,0,0,0,0,0,0,0,0,0,0,0,0,0,0,0,0,0,0,0,0,0,0,0,0,0,0,0],"id":18,"left_children":[1,3,5,7,9,11,-1,13,15,17,19,21,23,25,27,29,31,33,35,37,39,-1,41,-1,43,-1,-1,-1,-1,-1,-1,-1,-1,-1,-1,-1,-1,-1,-1,-1,-1,-1,-1,-1,-1],"loss_changes":[1.8452097E1,5.1272826E0,4.2048187E0,1.4651657E1,8.991997E0,3.914991E0,0E0,3.0650206E0,7.5935287E0,7.4927683E0,5.681584E0,5.1482954E0,6.3860335E0,3.6619422E0,4.283413E0,1.1133003E-1,5.5080347E0,3.979292E0,6.2162952E0,8.677355E0,4.381863E0,0E0,8.4340096E-2,0E0,3.387384E0,0E0,0E0,0E0,0E0,0E0,0E0,0E0,0E0,0E0,0E0,0E0,0E0,0E0,0E0,0E0,0E0,0E0,0E0,0E0,0E0],"parents":[2147483647,0,0,1,1,2,2,3,3,4,4,5,5,7,7,8,8,9,9,10,10,11,11,12,12,13,13,14,14,15,15,16,16,17,17,18,18,19,19,20,20,22,22,24,24],"right_children":[2,4,6,8,10,12,-1,14,16,18,20,22,24,26,28,30,32,34,36,38,40,-1,42,-1,44,-1,-1,-1,-1,-1,-1,-1,-1,-1,-1,-1,-1,-1,-1,-1,-1,-1,-1,-1,-1],"split_conditions":[6.2702155E-1,-1.0769254E1,2.5072582E0,7.492697E-2,3.5640438E0,1.4439368E0,-5.9443172E-2,3.7596356E-2,3.3210778E-1,-2.7924972E0,-2.5072818E0,-2.9551014E1,1.4595443E0,-3.03266E0,6.380318E-2,2.6841297E0,-2.825965E0,-3.7405548E0,3.703847E-2,8.457151E1,3.558472E-1,3.0122522E-2,-3.318077E0,7.005404E-2,3.5640438E0,-2.6005438E-2,1.0830086E-2,-2.590701E-2,4.3214355E-2,-6.49337E-2,-2.009646E-2,6.2365826E-2,-4.4645436E-2,3.3127636E-2,-1.3448546E-2,6.9928047E-4,3.576334E-2,1.7881734E-2,-4.401872E-2,-1.4907138E-2,4.3210838E-2,-1.6230706E-2,-5.147585E-2,9.170267E-3,-4.5621928E-2],"split_indices":[1,0,1,1,0,1,0,1,1,2,2,0,1,2,1,2,2,2,1,0,1,0,2,0,0,0,0,0,0,0,0,0,0,0,0,0,0,0,0,0,0,0,0,0,0],"split_type":[0,0,0,0,0,0,0,0,0,0,0,0,0,0,0,0,0,0,0,0,0,0,0,0,0,0,0,0,0,0,0,0,0,0,0,0,0,0,0,0,0,0,0,0,0],"sum_hessian":[3.4335303E2,3.0535272E2,3.800033E1,9.511844E1,2.1023427E2,2.6176228E1,1.1824105E1,7.755574E1,1.75627E1,9.13166E1,1.1891767E2,1.4838746E1,1.13374815E1,6.0546764E1,1.7008974E1,1.4576651E1,2.98605E0,2.7409964E1,6.3906635E1,4.7050884E1,7.186679E1,1.7024455E0,1.3136301E1,1.5992879E0,9.7381935E0,6.7325826E0,5.3814182E1,1.533317E1,1.6758041E0,1.3296463E1,1.2801878E0,1.7951841E0,1.1908658E0,4.6998186E0,2.2710144E1,1.7258898E1,4.664774E1,4.1486145E1,5.56474E0,6.94179E1,2.448884E0,1.3600672E0,1.1776234E1,5.385234E0,4.3529596E0],"tree_param":{"num_deleted":"0","num_feature":"3","num_nodes":"45","size_leaf_vector":"1"}},{"base_weights":[-2.9755785E-4,8.628482E-2,-7.066645E-1,1.260208E-1,-4.7609827E-1,2.3694219E-2,-7.696528E-1,-5.845162E-2,2.6277456E-1,-9.731965E-1,-6.558322E-2,-5.6900823E-1,-5.3852346E-2,-2.682007E-1,3.1969538E-1,5.378278E-1,9.297828E-2,-2.503209E-1,-1.2231008E0,-5.451403E-2,2.2784135E-1,1.598981E-2,-6.672669E-1,-4.118986E-4,-2.8153706E-2,5.2083608E-2,6.508488E-3,5.1000625E-2,2.2610968E-2,3.2649003E-2,-1.386752E-3,3.245792E-2,-4.8077762E-2,-6.880804E-2,-1.0091251E-2,2.570045E-2,-4.6819963E-2,-4.1932292E-2,-5.240209E-3],"categories":[],"categories_nodes":[],"categories_segments":[],"categories_sizes":[],"default_left":[0,0,0,0,0,0,0,0,0,0,0,0,0,0,0,0,0,0,0,0,0,0,0,0,0,0,0,0,0,0,0,0,0,0,0,0,0,0,0],"id":19,"left_children":[1,3,5,7,9,-1,11,13,15,17,19,21,-1,23,25,27,29,31,33,-1,35,-1,37,-1,-1,-1,-1,-1,-1,-1,-1,-1,-1,-1,-1,-1,-1,-1,-1],"loss_changes":[2.111101E1,6.9315453E0,3.1674213E0,7.280649E0,4.119941E0,0E0,1.6175461E0,9.875216E0,7.6825886E0,1.3559599E0,3.9470208E0,2.3094206E0,0E0,6.1226745E0,5.9522767E0,2.1388092E0,7.0201964E0,2.940697E0,7.5079346E-1,0E0,3.9429252E0,0E0,2.0265474E0,0E0,0E0,0E0,0E0,0E0,0E0,0E0,0E0,0E0,0E0,0E0,0E0,0E0,0E0,0E0,0E0],"parents":[2147483647,0,0,1,1,2,2,3,3,4,4,6,6,7,7,8,8,9,9,10,10,11,11,13,13,14,14,15,15,16,16,17,17,18,18,20,20,22,22],"right_children":[2,4,6,8,10,-1,12,14,16,18,20,22,-1,24,26,28,30,32,34,-1,36,-1,38,-1,-1,-1,-1,-1,-1,-1,-1,-1,-1,-1,-1,-1,-1,-1,-1],"split_conditions":[6.2702155E-1,8.122849E1,-3.8200558E1,-3.1289785E0,1.1111609E2,2.3694219E-2,2.5072582E0,-2.503089E0,3.5640438E0,7.8223236E-2,5.603687E-2,-3.182144E0,-5.3852346E-2,-1.665302E1,2.6150012E0,2.5926791E-2,-2.8677552E0,2.6648376E0,3.1357195E0,-5.451403E-2,8.2995105E2,1.598981E-2,1.8878386E0,-4.118986E-4,-2.8153706E-2,5.2083608E-2,6.508488E-3,5.1000625E-2,2.2610968E-2,3.2649003E-2,-1.386752E-3,3.245792E-2,-4.8077762E-2,-6.880804E-2,-1.0091251E-2,2.570045E-2,-4.6819963E-2,-4.1932292E-2,-5.240209E-3],"split_indices":[1,0,0,0,0,0,1,2,0,1,1,2,0,0,2,1,2,2,2,0,0,0,1,0,0,0,0,0,0,0,0,0,0,0,0,0,0,0,0],"split_type":[0,0,0,0,0,0,0,0,0,0,0,0,0,0,0,0,0,0,0,0,0,0,0,0,0,0,0,0,0,0,0,0,0,0,0,0,0,0,0],"sum_hessian":[3.4318576E2,3.064952E2,3.6690563E1,2.869932E2,1.9502E1,1.5280429E0,3.516252E1,1.22423706E2,1.6456949E2,8.200831E0,1.1301169E1,2.3000523E1,1.2161998E1,7.8932495E1,4.3491215E1,6.1987835E1,1.0258166E2,2.6209917E0,5.579839E0,1.9111924E0,9.3899765E0,2.0651803E0,2.0935343E1,4.24958E1,3.6436695E1,8.1081E0,3.5383114E1,7.700472E0,5.428736E1,1.74092E1,8.5172455E1,1.1958768E0,1.4251149E0,4.5503764E0,1.0294629E0,7.98563E0,1.4043466E0,1.566982E1,5.2655225E0],"tree_param":{"num_deleted":"0","num_feature":"3","num_nodes":"39","size_leaf_vector":"1"}},{"base_weights":[2.8778775E-2,9.023949E-2,-7.0027167E-1,2.8073525E-1,-3.1465632E-3,-4.1340986E-1,-5.2148193E-2,3.4125966E-1,-6.234873E-1,-3.9055634E-1,1.0010541E-1,2.7664432E-2,-5.156938E-1,-8.305871E-2,5.119958E-1,-1.251424E-1,-5.107368E-2,2.904839E-1,-5.761037E-1,-9.7796774E-1,1.677414E-1,-6.20647E-1,2.3419032E-2,-1.6539305E-2,3.5443757E-2,1.2769903E-2,3.77631E-2,-3.7714805E-2,3.9912816E-2,-1.0971228E-2,6.1442044E-2,-3.8721673E-2,2.579104E-2,3.8477106E-3,-5.9592586E-2,2.0298151E-2,-2.4977012E-3,-4.4249203E-2,3.67262E-3],"categories":[],"categories_nodes":[],"categories_segments":[],"categories_sizes":[],"default_left":[0,0,0,0,0,0,0,0,0,0,0,0,0,0,0,0,0,0,0,0,0,0,0,0,0,0,0,0,0,0,0,0,0,0,0,0,0,0,0],"id":20,"left_children":[1,3,5,7,9,11,-1,13,15,17,19,-1,21,23,25,27,-1,29,31,33,35,37,-1,-1,-1,-1,-1,-1,-1,-1,-1,-1,-1,-1,-1,-1,-1,-1,-1],"loss_changes":[1.5637445E1,5.7191906E0,2.2366028E0,6.0003376E0,8.706787E0,1.9097714E0,0E0,7.2700863E0,1.2581744E0,5.955194E0,1.2697327E1,0E0,1.8785982E0,6.019015E0,4.256447E0,3.0668452E0,0E0,5.2800937E0,8.267314E0,2.4142532E0,8.452248E0,2.692904E0,0E0,0E0,0E0,0E0,0E0,0E0,0E0,0E0,0E0,0E0,0E0,0E0,0E0,0E0,0E0,0E0,0E0],"parents":[2147483647,0,0,1,1,2,2,3,3,4,4,5,5,7,7,8,8,9,9,10,10,12,12,13,13,14,14,15,15,17,17,18,18,19,19,20,20,21,21],"right_children":[2,4,6,8,10,12,-1,14,16,18,20,-1,22,24,26,28,-1,30,32,34,36,38,-1,-1,-1,-1,-1,-1,-1,-1,-1,-1,-1,-1,-1,-1,-1,-1,-1],"split_conditions":[9.192699E-1,2.677962E-2,2.5072582E0,1.8918608E1,-1.0557887E1,-3.1259587E0,-5.2148193E-2,1.3705621E-2,2.2187738E-2,3.7596356E-2,2.9377071E-2,2.7664432E-2,2.4195428E0,3.0419402E0,-3.1289785E0,2.8693326E0,-5.107368E-2,3.4704663E-2,3.3210778E-1,-2.9078965E0,3.3625019E0,2.8085258E0,2.3419032E-2,-1.6539305E-2,3.5443757E-2,1.2769903E-2,3.77631E-2,-3.7714805E-2,3.9912816E-2,-1.0971228E-2,6.1442044E-2,-3.8721673E-2,2.579104E-2,3.8477106E-3,-5.9592586E-2,2.0298151E-2,-2.4977012E-3,-4.4249203E-2,3.67262E-3],"split_indices":[1,1,1,0,0,2,0,1,1,1,1,0,1,2,0,2,0,1,1,2,0,2,0,0,0,0,0,0,0,0,0,0,0,0,0,0,0,0,0],"split_type":[0,0,0,0,0,0,0,0,0,0,0,0,0,0,0,0,0,0,0,0,0,0,0,0,0,0,0,0,0,0,0,0,0,0,0,0,0,0,0],"sum_hessian":[3.4657782E2,3.2044016E2,2.6137655E1,1.04752365E2,2.1568779E2,1.5428813E1,1.0708841E1,9.876415E1,5.9882154E0,4.4802525E1,1.7088525E2,1.0543811E0,1.4374433E1,2.8485268E1,7.0278885E1,3.2425032E0,2.7457123E0,9.471695E0,3.533083E1,9.293513E0,1.6159175E2,1.3322838E1,1.0515946E0,2.214144E1,6.343829E0,3.5199863E1,3.507902E1,2.0374358E0,1.2050674E0,6.6332893E0,2.8384058E0,3.0146067E1,5.1847644E0,1.6745375E0,7.6189756E0,7.674536E1,8.484639E1,9.449233E0,3.8736045E0],"tree_param":{"num_deleted":"0","num_feature":"3","num_nodes":"39","size_leaf_vector":"1"}},{"base_weights":[1.6659556E-2,6.4859666E-2,-9.2158544E-1,8.632967E-2,-6.0284134E-2,-5.7681736E-2,-4.9835768E-1,4.370656E-2,5.082068E-1,5.430947E-1,-5.390991E-2,2.7187333E-1,-1.3499816E-2,7.8188103E-1,-4.2778262E-1,5.3155024E-2,-7.733734E-3,-3.171902E-3,2.7440924E-2,-1.1947236E-2,5.488246E-3,4.12133E-2,-3.3880123E-3,4.63436E-2,-4.759137E-2],"categories":[],"categories_nodes":[],"categories_segments":[],"categories_sizes":[],"default_left":[0,0,0,0,0,0,0,0,0,0,0,0,0,0,0,0,0,0,0,0,0,0,0,0,0],"id":21,"left_children":[1,3,5,7,-1,-1,9,11,13,15,-1,17,19,21,23,-1,-1,-1,-1,-1,-1,-1,-1,-1,-1],"loss_changes":[1.544904E1,8.958704E0,1.0645237E0,5.7344418E0,0E0,0E0,5.218523E0,3.8131618E0,7.835313E0,1.4013181E0,0E0,5.4722567E0,6.537385E0,8.8452816E-1,6.0440326E0,0E0,0E0,0E0,0E0,0E0,0E0,0E0,0E0,0E0,0E0],"parents":[2147483647,0,0,1,1,2,2,3,3,6,6,7,7,8,8,9,9,11,11,12,12,13,13,14,14],"right_children":[2,4,6,8,-1,-1,10,12,14,16,-1,18,20,22,24,-1,-1,-1,-1,-1,-1,-1,-1,-1,-1],"split_conditions":[2.062035E0,8.2995105E2,-6.5974694E-1,3.4224308E0,-6.0284134E-2,-5.7681736E-2,3.5640438E0,1.9845666E-2,1.8918608E1,3.1515563E0,-5.390991E-2,1.3705621E-2,-3.018692E0,4.8500605E0,3.533678E0,5.3155024E-2,-7.733734E-3,-3.171902E-3,2.7440924E-2,-1.1947236E-2,5.488246E-3,4.12133E-2,-3.3880123E-3,4.63436E-2,-4.759137E-2],"split_indices":[1,0,0,2,0,0,0,1,0,1,0,1,0,2,2,0,0,0,0,0,0,0,0,0,0],"split_type":[0,0,0,0,0,0,0,0,0,0,0,0,0,0,0,0,0,0,0,0,0,0,0,0,0],"sum_hessian":[3.392935E2,3.2360016E2,1.569332E1,3.191393E2,4.460857E0,9.021287E0,6.672034E0,2.9085703E2,2.8282278E1,2.4088562E0,4.263178E0,5.7553448E1,2.3330357E2,2.2011095E1,6.271183E0,1.0802445E0,1.3286116E0,2.638217E1,3.117128E1,8.213832E1,1.5116525E2,2.0993677E1,1.017417E0,1.534867E0,4.736316E0],"tree_param":{"num_deleted":"0","num_feature":"3","num_nodes":"25","size_leaf_vector":"1"}},{"base_weights":[-9.232136E-3,3.4718353E-2,-9.465066E-1,5.800494E-2,-9.8835963E-1,-5.559954E-2,-6.366007E-1,-6.917291E-3,3.552531E-1,-1.0609162E-2,-6.1995257E-2,2.0690814E-2,-5.3757668E-2,5.14022E-2,-3.691576E-1,5.189412E-1,-2.9682675E-1,-4.768054E-4,3.0413313E-2,5.272154E-2,-2.4904585E-2,2.8551414E-3,3.364117E-2,-3.22089E-2,5.914377E-2],"categories":[],"categories_nodes":[],"categories_segments":[],"categories_sizes":[],"default_left":[0,0,0,0,0,0,0,0,0,0,0,0,0,0,0,0,0,0,0,0,0,0,0,0,0],"id":22,"left_children":[1,3,5,7,9,-1,11,13,15,-1,-1,-1,-1,17,19,21,23,-1,-1,-1,-1,-1,-1,-1,-1],"loss_changes":[1.3794238E1,7.6825967E0,6.1306E-2,6.059877E0,1.1384573E0,0E0,3.9276085E0,5.4821143E0,6.1619105E0,0E0,0E0,0E0,0E0,7.5941687E0,7.1298194E0,3.1849756E0,6.8938675E0,0E0,0E0,0E0,0E0,0E0,0E0,0E0,0E0],"parents":[2147483647,0,0,1,1,2,2,3,3,4,4,6,6,7,7,8,8,13,13,14,14,15,15,16,16],"right_children":[2,4,6,8,10,-1,12,14,16,-1,-1,-1,-1,18,20,22,24,-1,-1,-1,-1,-1,-1,-1,-1],"split_conditions":[2.062035E0,1.580765E2,-6.5974694E-1,3.0653083E0,2.6841297E0,-5.559954E-2,3.5640438E0,2.656643E-1,1.8918608E1,-1.0609162E-2,-6.1995257E-2,2.0690814E-2,-5.3757668E-2,1.4920747E-1,-2.9136032E1,-1.7512802E1,1.1814121E2,-4.768054E-4,3.0413313E-2,5.272154E-2,-2.4904585E-2,2.8551414E-3,3.364117E-2,-3.22089E-2,5.914377E-2],"split_indices":[1,0,0,2,2,0,0,1,0,0,0,0,0,1,0,0,0,0,0,0,0,0,0,0,0],"split_type":[0,0,0,0,0,0,0,0,0,0,0,0,0,0,0,0,0,0,0,0,0,0,0,0,0],"sum_hessian":[3.330653E2,3.1906668E2,1.3998652E1,3.1288824E2,6.1784406E0,7.438482E0,6.5601707E0,2.576019E2,5.5286327E1,1.9634569E0,4.214984E0,1.9488088E0,4.611362E0,2.2261906E2,3.4982834E1,4.435604E1,1.0930285E1,2.0154646E2,2.10726E1,2.3091338E0,3.26737E1,1.1428221E1,3.2927822E1,9.309575E0,1.6207103E0],"tree_param":{"num_deleted":"0","num_feature":"3","num_nodes":"25","size_leaf_vector":"1"}},{"base_weights":[2.6423903E-2,1.2573713E-1,-4.9635822E-1,-7.062797E-2,2.1394554E-1,-3.5813028E-1,-6.355306E-2,9.562892E-2,-1.124978E0,4.8034945E-1,1.7106485E-2,-1.7337471E-1,-4.9454678E-2,2.0714791E-1,-3.2100388E-1,-1.2097933E0,-7.190586E-3,-1.0512156E-1,7.133537E-1,6.1708146E-1,-5.907155E-2,-9.64373E-1,4.5585204E-2,-4.0949993E-3,2.3225978E-2,-2.7367974E-2,3.0336455E-2,-6.466543E-2,-9.353067E-3,3.4029696E-2,-1.4579532E-2,3.425731E-3,4.7937892E-2,4.4597227E-2,-3.5589356E-2,-1.3500866E-3,-5.2233245E-2,-1.0227571E-2,-5.9538264E-2,-2.3220792E-2,2.285507E-2],"categories":[],"categories_nodes":[],"categories_segments":[],"categories_sizes":[],"default_left":[0,0,0,0,0,0,0,0,0,0,0,0,0,0,0,0,0,0,0,0,0,0,0,0,0,0,0,0,0,0,0,0,0,0,0,0,0,0,0,0,0],"id":23,"left_children":[1,3,5,7,9,11,-1,13,15,17,19,21,-1,23,25,27,-1,29,31,33,35,37,39,-1,-1,-1,-1,-1,-1,-1,-1,-1,-1,-1,-1,-1,-1,-1,-1,-1,-1],"loss_changes":[1.7830193E1,5.0102386E0,5.416852E0,1.5908767E1,1.0439838E1,5.4153E0,0E0,3.7270508E0,8.5429096E-1,1.161924E1,5.320792E0,6.674399E0,0E0,4.706749E0,3.907868E0,7.1797943E-1,0E0,3.8557606E0,9.533842E0,5.4246364E0,3.2433646E0,1.1918907E0,6.7053165E0,0E0,0E0,0E0,0E0,0E0,0E0,0E0,0E0,0E0,0E0,0E0,0E0,0E0,0E0,0E0,0E0,0E0,0E0],"parents":[2147483647,0,0,1,1,2,2,3,3,4,4,5,5,7,7,8,8,9,9,10,10,11,11,13,13,14,14,15,15,17,17,18,18,19,19,20,20,21,21,22,22],"right_children":[2,4,6,8,10,12,-1,14,16,18,20,22,-1,24,26,28,-1,30,32,34,36,38,40,-1,-1,-1,-1,-1,-1,-1,-1,-1,-1,-1,-1,-1,-1,-1,-1,-1,-1],"split_conditions":[2.8330636E-1,-1.1374212E1,1.603912E1,7.492697E-2,3.3625019E0,2.5072582E0,-6.355306E-2,3.7596356E-2,2.2613983E-1,-2.7924972E0,-3.03266E0,3.3624238E-1,-4.9454678E-2,-3.3607914E1,-1.5724609E1,2.6841297E0,-7.190586E-3,-3.7405548E0,3.703847E-2,8.457151E1,8.2995105E2,-9.5634985E0,-2.7454014E0,-4.0949993E-3,2.3225978E-2,-2.7367974E-2,3.0336455E-2,-6.466543E-2,-9.353067E-3,3.4029696E-2,-1.4579532E-2,3.425731E-3,4.7937892E-2,4.4597227E-2,-3.5589356E-2,-1.3500866E-3,-5.2233245E-2,-1.0227571E-2,-5.9538264E-2,-2.3220792E-2,2.285507E-2],"split_indices":[1,0,0,1,0,1,0,1,1,2,2,1,0,0,0,2,0,2,1,0,0,0,0,0,0,0,0,0,0,0,0,0,0,0,0,0,0,0,0,0,0],"split_type":[0,0,0,0,0,0,0,0,0,0,0,0,0,0,0,0,0,0,0,0,0,0,0,0,0,0,0,0,0,0,0,0,0,0,0,0,0,0,0,0,0],"sum_hessian":[3.4121997E2,2.873848E2,5.383518E1,8.914159E1,1.9824321E2,4.6924805E1,6.9103727E0,7.77852E1,1.1356385E1,8.362457E1,1.1461863E2,3.7282658E1,9.642147E0,6.1757534E1,1.602767E1,1.0238333E1,1.1180527E0,2.3962564E1,5.966201E1,1.2113409E1,1.0250522E2,7.3448534E0,2.9937805E1,2.9409838E1,3.2347694E1,1.3213692E1,2.8139772E0,9.220809E0,1.0175239E0,4.0878577E0,1.9874706E1,1.679903E1,4.286298E1,1.0309738E1,1.8036712E0,1.0026997E2,2.2352471E0,2.1230302E0,5.221823E0,1.3311734E1,1.6626072E1],"tree_param":{"num_deleted":"0","num_feature":"3","num_nodes":"41","size_leaf_vector":"1"}},{"base_weights":[4.6766523E-2,1.5962651E-1,-5.123563E-1,1.1401336E-1,5.870335E-1,-2.598483E-1,-1.0036893E0,1.4935654E-1,-3.9373305E-1,7.8487146E-1,-5.2665955E-1,2.4599573E-3,-9.128432E-1,-1.2038852E0,-5.9253526E-1,-6.107087E-2,2.5099558E-1,-9.5882666E-1,6.794548E-2,8.581277E-1,1.4917576E-2,1.2727673E-2,-5.431193E-2,-3.1654996E-1,4.7946417E-1,-5.5518936E-2,-1.4766693E-3,-1.6276797E-2,-1.2606767E0,4.259506E-2,-5.478421E-2,1.1067935E-2,-3.346767E-2,8.90258E-3,3.2328624E-2,-6.050074E-2,1.3176672E-2,2.5355715E-2,-3.212154E-2,1.9345565E-2,4.9437594E-2,1.275023E-2,-1.1689245E-2,2.163412E-2,-3.3747E-2,-2.9452553E-2,3.465334E-2,-6.643672E-2,-1.5697619E-2],"categories":[],"categories_nodes":[],"categories_segments":[],"categories_sizes":[],"default_left":[0,0,0,0,0,0,0,0,0,0,0,0,0,0,0,0,0,0,0,0,0,0,0,0,0,0,0,0,0,0,0,0,0,0,0,0,0,0,0,0,0,0,0,0,0,0,0,0,0],"id":24,"left_children":[1,3,5,7,9,11,13,15,17,19,21,23,25,27,29,31,33,35,37,39,41,-1,-1,43,45,-1,-1,-1,47,-1,-1,-1,-1,-1,-1,-1,-1,-1,-1,-1,-1,-1,-1,-1,-1,-1,-1,-1,-1],"loss_changes":[2.1395247E1,5.4267597E0,6.806508E0,4.6503487E0,6.347373E0,6.6783385E0,8.495922E-1,5.1469955E0,4.481001E0,1.2997885E0,2.3140821E0,4.534815E0,1.9166489E0,1.7826462E-1,6.8835735E0,1.3711663E1,4.558958E0,2.675981E0,3.5232847E0,9.243059E-1,2.4110235E-1,0E0,0E0,5.0884843E0,3.133646E0,0E0,0E0,0E0,2.7458954E-1,0E0,0E0,0E0,0E0,0E0,0E0,0E0,0E0,0E0,0E0,0E0,0E0,0E0,0E0,0E0,0E0,0E0,0E0,0E0,0E0],"parents":[2147483647,0,0,1,1,2,2,3,3,4,4,5,5,6,6,7,7,8,8,9,9,10,10,11,11,12,12,13,13,14,14,15,15,16,16,17,17,18,18,19,19,20,20,23,23,24,24,28,28],"right_children":[2,4,6,8,10,12,14,16,18,20,22,24,26,28,30,32,34,36,38,40,42,-1,-1,44,46,-1,-1,-1,48,-1,-1,-1,-1,-1,-1,-1,-1,-1,-1,-1,-1,-1,-1,-1,-1,-1,-1,-1,-1],"split_conditions":[2.7797523E-1,3.4224308E0,4.9588675E0,8.457151E1,1.4309075E-1,2.062035E0,1.4439368E0,-1.0769254E1,-2.5012505E0,4.8500605E0,1.44743185E1,-2.7454014E0,-6.5974694E-1,5.940091E0,1.5398037E0,3.889664E-2,1.3013932E-1,1.3738614E-1,1.580765E2,-2.0300545E1,1.1066031E0,1.2727673E-2,-5.431193E-2,-3.2264943E0,3.3624238E-1,-5.5518936E-2,-1.4766693E-3,-1.6276797E-2,3.3865228E0,4.259506E-2,-5.478421E-2,1.1067935E-2,-3.346767E-2,8.90258E-3,3.2328624E-2,-6.050074E-2,1.3176672E-2,2.5355715E-2,-3.212154E-2,1.9345565E-2,4.9437594E-2,1.275023E-2,-1.1689245E-2,2.163412E-2,-3.3747E-2,-2.9452553E-2,3.465334E-2,-6.643672E-2,-1.5697619E-2],"split_indices":[1,2,0,0,1,1,1,0,2,2,0,0,0,0,1,1,1,1,0,0,0,0,0,2,1,0,0,0,2,0,0,0,0,0,0,0,0,0,0,0,0,0,0,0,0,0,0,0,0],"split_type":[0,0,0,0,0,0,0,0,0,0,0,0,0,0,0,0,0,0,0,0,0,0,0,0,0,0,0,0,0,0,0,0,0,0,0,0,0,0,0,0,0,0,0,0,0,0,0,0,0],"sum_hessian":[3.3675885E2,2.8079446E2,5.5964382E1,2.5486217E2,2.5932297E1,3.79763E1,1.7988083E1,2.3893616E2,1.5926008E1,2.2271254E1,3.6610417E0,2.7803755E1,1.0172544E1,1.0800918E1,7.1871653E0,7.795073E1,1.6098543E2,6.676796E0,9.249212E0,2.0231806E1,2.039448E0,1.7554309E0,1.9056107E0,1.6862719E1,1.0941036E1,8.103323E0,2.0692205E0,1.0647893E0,9.736129E0,1.6776991E0,5.509466E0,5.3668285E1,2.4282446E1,1.3714597E2,2.383947E1,5.5470147E0,1.1297812E0,5.8924904E0,3.356722E0,5.2510543E0,1.4980752E1,1.0248046E0,1.0146434E0,5.3891444E0,1.1473575E1,1.5299573E0,9.411078E0,8.7067175E0,1.0294114E0],"tree_param":{"num_deleted":"0","num_feature":"3","num_nodes":"49","size_leaf_vector":"1"}},{"base_weights":[-1.2273655E-2,5.648949E-2,-5.986561E-1,1.2772727E-1,-1.6839537E-1,4.5426694E-1,-7.1665996E-1,-9.939966E-3,4.9564388E-1,-1.3830622E-2,-1.0425438E0,4.9129955E-2,-2.2067906E-2,-5.7698663E-2,-4.771986E-1,-4.151151E-1,6.3480236E-2,8.288284E-1,3.0175704E-1,-5.583548E-1,1.5469803E-1,-3.567972E-1,-6.242E-2,-1.8135126E-1,-7.465682E-1,3.883166E-3,-5.0003827E-2,7.234546E-3,-1.831662E-2,4.582952E-2,-1.6711732E-2,-5.0928142E-2,2.3867076E-2,-7.5364135E-2,-1.0564019E-2,2.047761E-2,-1.1187191E-2,-4.9040664E-2,2.9146193E-2,3.0611276E-3,-4.247442E-2,-1.4999102E-2,-5.411739E-2],"categories":[],"categories_nodes":[],"categories_segments":[],"categories_sizes":[],"default_left":[0,0,0,0,0,0,0,0,0,0,0,0,0,0,0,0,0,0,0,0,0,0,0,0,0,0,0,0,0,0,0,0,0,0,0,0,0,0,0,0,0,0,0],"id":25,"left_children":[1,3,5,7,9,11,13,15,17,19,21,-1,-1,-1,23,25,27,29,31,33,35,37,-1,39,41,-1,-1,-1,-1,-1,-1,-1,-1,-1,-1,-1,-1,-1,-1,-1,-1,-1,-1],"loss_changes":[1.3833288E1,4.943413E0,4.799369E0,1.1851379E1,1.00299835E1,2.4403467E0,2.880579E0,5.118689E0,3.865304E0,5.976471E0,1.1294594E0,0E0,0E0,0E0,1.6877813E0,7.685711E0,5.141824E0,2.6399584E0,1.0186746E1,4.7491865E0,4.8945074E0,2.903262E0,0E0,2.0331545E0,1.4228582E0,0E0,0E0,0E0,0E0,0E0,0E0,0E0,0E0,0E0,0E0,0E0,0E0,0E0,0E0,0E0,0E0,0E0,0E0],"parents":[2147483647,0,0,1,1,2,2,3,3,4,4,5,5,6,6,7,7,8,8,9,9,10,10,14,14,15,15,16,16,17,17,18,18,19,19,20,20,21,21,23,23,24,24],"right_children":[2,4,6,8,10,12,14,16,18,20,22,-1,-1,-1,24,26,28,30,32,34,36,38,-1,40,42,-1,-1,-1,-1,-1,-1,-1,-1,-1,-1,-1,-1,-1,-1,-1,-1,-1,-1],"split_conditions":[6.2702155E-1,1.603912E1,-2.9136032E1,2.8085258E0,1.6316263E-1,1.0709015E0,-7.6299443E0,-3.201123E0,2.6451565E-2,2.514735E-2,2.5152245E0,4.9129955E-2,-2.2067906E-2,-5.7698663E-2,3.5640438E0,4.315067E-2,2.6267126E0,4.2738543E0,-1.4418357E1,2.5571578E0,8.122849E1,-2.5662558E0,-6.242E-2,4.5129056E0,1.5398037E0,3.883166E-3,-5.0003827E-2,7.234546E-3,-1.831662E-2,4.582952E-2,-1.6711732E-2,-5.0928142E-2,2.3867076E-2,-7.5364135E-2,-1.0564019E-2,2.047761E-2,-1.1187191E-2,-4.9040664E-2,2.9146193E-2,3.0611276E-3,-4.247442E-2,-1.4999102E-2,-5.411739E-2],"split_indices":[1,0,0,2,1,1,0,2,1,1,2,0,0,0,0,1,2,2,0,2,0,2,0,1,1,0,0,0,0,0,0,0,0,0,0,0,0,0,0,0,0,0,0],"split_type":[0,0,0,0,0,0,0,0,0,0,0,0,0,0,0,0,0,0,0,0,0,0,0,0,0,0,0,0,0,0,0,0,0,0,0,0,0,0,0,0,0,0,0],"sum_hessian":[3.4123605E2,3.0622922E2,3.5006832E1,2.3288821E2,7.334101E1,3.240748E0,3.1766083E1,1.7018228E2,6.270592E1,6.3184673E1,1.0156335E1,1.9772512E0,1.2634966E0,9.88843E0,2.1877653E1,2.5393316E1,1.4478897E2,2.1862148E1,4.0843773E1,1.4386874E1,4.8797802E1,2.975987E0,7.1803484E0,1.12238245E1,1.0653829E1,1.4253355E1,1.1139962E1,1.2233737E2,2.2451595E1,2.0525276E1,1.3368721E0,4.2305875E0,3.6613186E1,2.9576397E0,1.14292345E1,2.911122E1,1.968658E1,1.7621282E0,1.2138587E0,8.900703E0,2.3231206E0,5.385077E0,5.268752E0],"tree_param":{"num_deleted":"0","num_feature":"3","num_nodes":"43","size_leaf_vector":"1"}},{"base_weights":[-2.1770962E-2,1.04928985E-2,-4.834486E-2,8.817887E-2,-2.485359E-1,3.5389666E-2,7.0829767E-1,-1.1295522E-1,-6.367894E-2,-6.853775E-2,3.4636104E-1,-3.2188278E-2,8.438128E-1,-9.036235E-1,2.0886209E-2,-1.5242472E-3,-4.3834817E-2,2.2061007E-2,-2.269295E-2,3.0742887E-2,7.039086E-2,-6.0567107E-2,-1.681186E-2,5.3034633E-2,-4.4575967E-3],"categories":[],"categories_nodes":[],"categories_segments":[],"categories_sizes":[],"default_left":[0,0,0,0,0,0,0,0,0,0,0,0,0,0,0,0,0,0,0,0,0,0,0,0,0],"id":26,"left_children":[1,3,-1,5,7,9,11,13,-1,15,17,-1,19,21,23,-1,-1,-1,-1,-1,-1,-1,-1,-1,-1],"loss_changes":[1.0033474E1,6.4379697E0,0E0,8.028499E0,1.0115992E1,7.3849545E0,4.069828E0,7.0347986E0,0E0,5.2489605E0,4.543662E0,0E0,1.4493084E0,1.2724061E0,6.6939163E0,0E0,0E0,0E0,0E0,0E0,0E0,0E0,0E0,0E0,0E0],"parents":[2147483647,0,0,1,1,3,3,4,4,5,5,6,6,7,7,9,9,10,10,12,12,13,13,14,14],"right_children":[2,4,-1,6,8,10,12,14,-1,16,18,-1,20,22,24,-1,-1,-1,-1,-1,-1,-1,-1,-1,-1],"split_conditions":[2.5072582E0,1.603912E1,-4.834486E-2,1.2067201E1,2.4945483E-1,2.8085258E0,1.3705621E-2,1.788288E1,-6.367894E-2,2.7440171E0,9.245655E0,-3.2188278E-2,5.7997588E-2,2.2187738E-2,1.8918608E1,-1.5242472E-3,-4.3834817E-2,2.2061007E-2,-2.269295E-2,3.0742887E-2,7.039086E-2,-6.0567107E-2,-1.681186E-2,5.3034633E-2,-4.4575967E-3],"split_indices":[1,0,0,0,1,2,1,0,0,2,0,0,1,1,0,0,0,0,0,0,0,0,0,0,0],"split_type":[0,0,0,0,0,0,0,0,0,0,0,0,0,0,0,0,0,0,0,0,0,0,0,0,0],"sum_hessian":[3.2770465E2,3.1784332E2,9.861348E0,2.450187E2,7.28246E1,2.2677129E2,1.8247421E1,6.529795E1,7.5266523E0,1.7055199E2,5.62193E1,1.320638E0,1.6926785E1,8.620557E0,5.667739E1,1.638736E2,6.6783996E0,5.066235E1,5.556951E0,1.3526091E1,3.4006932E0,4.853395E0,3.7671614E0,4.597161E0,5.208023E1],"tree_param":{"num_deleted":"0","num_feature":"3","num_nodes":"25","size_leaf_vector":"1"}},{"base_weights":[1.70149E-3,3.2697354E-2,-4.7762856E-2,4.6645574E-2,-5.3564467E-2,-9.267557E-2,1.4189874E-1,-2.9901028E-1,2.6607728E-1,2.7795216E-1,-8.170696E-2,3.183628E-2,-1.8665811E-2,1.6970513E-2,-3.8955655E-2,6.3733007E-3,3.001059E-2,2.2301066E-3,-5.6520075E-2],"categories":[],"categories_nodes":[],"categories_segments":[],"categories_sizes":[],"default_left":[0,0,0,0,0,0,0,0,0,0,0,0,0,0,0,0,0,0,0],"id":27,"left_children":[1,3,-1,5,-1,7,9,11,13,15,17,-1,-1,-1,-1,-1,-1,-1,-1],"loss_changes":[1.0106962E1,5.1314816E0,0E0,4.350547E0,0E0,9.948586E0,5.940297E0,6.1556635E0,4.0362763E0,5.799222E0,9.899412E0,0E0,0E0,0E0,0E0,0E0,0E0,0E0,0E0],"parents":[2147483647,0,0,1,1,3,3,5,5,6,6,7,7,8,8,9,9,10,10],"right_children":[2,4,-1,6,-1,8,10,12,14,16,18,-1,-1,-1,-1,-1,-1,-1,-1],"split_conditions":[2.5072582E0,8.2995105E2,-4.7762856E-2,-3.1289785E0,-5.3564467E-2,-2.5072818E0,1.6269793E1,-3.989011E0,3.7495863E-1,1.3013932E-1,1.9146083E-1,3.183628E-2,-1.8665811E-2,1.6970513E-2,-3.8955655E-2,6.3733007E-3,3.001059E-2,2.2301066E-3,-5.6520075E-2],"split_indices":[1,0,0,0,0,2,0,2,1,1,1,0,0,0,0,0,0,0,0],"split_type":[0,0,0,0,0,0,0,0,0,0,0,0,0,0,0,0,0,0,0],"sum_hessian":[3.3868753E2,3.2899713E2,9.690377E0,3.258381E2,3.1590245E0,1.3232349E2,1.9351463E2,8.411292E1,4.8210556E1,1.2015997E2,7.335467E1,5.631125E0,7.84818E1,4.568075E1,2.5298028E0,8.286152E1,3.7298447E1,6.632382E1,7.030845E0],"tree_param":{"num_deleted":"0","num_feature":"3","num_nodes":"19","size_leaf_vector":"1"}},{"base_weights":[1.3454425E-3,7.3686175E-2,-6.3657445E-1,5.172314E-2,7.16122E-1,-7.1937436E-1,1.9994514E-1,8.417162E-2,-6.389778E-1,9.6952677E-1,-2.5590165E-2,-1.2705667E-1,-8.6298513E-1,4.452433E-2,-3.342707E-2,1.1651946E-1,-3.668845E-1,-9.150266E-1,-1.06296785E-1,2.5804034E-1,6.9740996E-2,5.8109003E-1,-3.7397448E-2,-5.2652337E-2,-6.037944E-1,4.0987227E-3,3.6190737E-2,-4.0300827E-2,-1.2953923E-3,-6.519561E-2,-9.514718E-3,3.950896E-2,-2.5783598E-2,4.8235882E-2,-4.4308703E-2,4.354576E-2,3.1613277E-3,9.802017E-3,-3.8636502E-2],"categories":[],"categories_nodes":[],"categories_segments":[],"categories_sizes":[],"default_left":[0,0,0,0,0,0,0,0,0,0,0,0,0,0,0,0,0,0,0,0,0,0,0,0,0,0,0,0,0,0,0,0,0,0,0,0,0,0,0],"id":28,"left_children":[1,3,5,7,9,11,13,15,17,19,-1,21,23,-1,-1,25,27,29,31,33,-1,35,-1,-1,37,-1,-1,-1,-1,-1,-1,-1,-1,-1,-1,-1,-1,-1,-1],"loss_changes":[1.5112332E1,4.1127706E0,2.454071E0,6.4516397E0,3.4971995E0,2.490531E0,2.866252E0,4.0338535E0,1.8033681E0,2.163722E0,0E0,3.5729408E0,5.67646E-1,0E0,0E0,5.311135E0,2.7559762E0,2.1142588E0,2.4418561E0,4.3700194E0,0E0,5.2988195E-1,0E0,0E0,1.8647294E0,0E0,0E0,0E0,0E0,0E0,0E0,0E0,0E0,0E0,0E0,0E0,0E0,0E0,0E0],"parents":[2147483647,0,0,1,1,2,2,3,3,4,4,5,5,6,6,7,7,8,8,9,9,11,11,12,12,15,15,16,16,17,17,18,18,19,19,21,21,24,24],"right_children":[2,4,6,8,10,12,14,16,18,20,-1,22,24,-1,-1,26,28,30,32,34,-1,36,-1,-1,38,-1,-1,-1,-1,-1,-1,-1,-1,-1,-1,-1,-1,-1,-1],"split_conditions":[6.685336E-1,3.558472E-1,3.533678E0,2.7797523E-1,9.245655E0,-3.045556E0,1.4595443E0,8.122849E1,2.6841297E0,-2.7454014E0,-2.5590165E-2,1.0709015E0,1.8878386E0,4.452433E-2,-3.342707E-2,6.596427E1,1.1111609E2,3.3210778E-1,1.7790688E0,-2.8780346E0,6.9740996E-2,-2.9136032E1,-3.7397448E-2,-5.2652337E-2,2.062035E0,4.0987227E-3,3.6190737E-2,-4.0300827E-2,-1.2953923E-3,-6.519561E-2,-9.514718E-3,3.950896E-2,-2.5783598E-2,4.8235882E-2,-4.4308703E-2,4.354576E-2,3.1613277E-3,9.802017E-3,-3.8636502E-2],"split_indices":[1,1,2,1,0,2,1,0,2,0,0,1,1,0,0,0,0,1,0,2,0,0,0,0,1,0,0,0,0,0,0,0,0,0,0,0,0,0,0],"split_type":[0,0,0,0,0,0,0,0,0,0,0,0,0,0,0,0,0,0,0,0,0,0,0,0,0,0,0,0,0,0,0,0,0,0,0,0,0,0,0],"sum_hessian":[3.254618E2,2.931076E2,3.2354195E1,2.8446313E2,8.6444645E0,2.9567593E1,2.786604E0,2.7253772E2,1.1925427E1,7.34013E0,1.3043349E0,6.137679E0,2.3429913E1,1.5382199E0,1.2483839E0,2.549924E2,1.7545305E1,7.382075E0,4.5433526E0,3.3472102E0,3.9929197E0,2.8973112E0,3.2403677E0,1.1750547E1,1.1679366E1,2.4234215E2,1.2650258E1,7.0727315E0,1.0472573E1,4.2840977E0,3.0979772E0,1.1326954E0,3.4106572E0,2.1662116E0,1.1809987E0,1.4205475E0,1.4767638E0,2.0086868E0,9.670679E0],"tree_param":{"num_deleted":"0","num_feature":"3","num_nodes":"39","size_leaf_vector":"1"}},{"base_weights":[-1.6963169E-2,6.551746E-2,-4.4768316E-1,1.3730627E-2,4.50724E-1,-3.4070003E-1,-5.639693E-2,1.5501405E-1,-8.330513E-2,7.183592E-1,-2.0986678E-1,-4.1877353E-1,4.549027E-2,7.234709E-2,1.3274076E0,-9.757859E-1,-2.2242552E-2,-3.723612E-1,1.0122367E0,6.485628E-1,-9.532683E-1,-1.0597664E0,-2.9913974E-1,7.7059404E-3,-5.2945573E-2,2.1319956E-2,7.180276E-2,-2.0212778E-3,-6.83725E-2,-2.867319E-2,3.149924E-3,-3.2170642E-2,2.1970501E-2,2.6049051E-2,6.6369526E-2,6.2178023E-2,-1.9153493E-3,-1.6459776E-2,-6.048767E-2,-1.919705E-2,-5.9438534E-2,2.4884608E-2,-2.4489535E-2],"categories":[],"categories_nodes":[],"categories_segments":[],"categories_sizes":[],"default_left":[0,0,0,0,0,0,0,0,0,0,0,0,0,0,0,0,0,0,0,0,0,0,0,0,0,0,0,0,0,0,0,0,0,0,0,0,0,0,0,0,0,0,0],"id":29,"left_children":[1,3,5,7,9,11,-1,13,15,17,19,21,-1,23,25,27,29,31,33,35,37,39,41,-1,-1,-1,-1,-1,-1,-1,-1,-1,-1,-1,-1,-1,-1,-1,-1,-1,-1,-1,-1],"loss_changes":[1.1703335E1,5.5128727E0,3.468484E0,3.3704975E0,5.9417925E0,4.987117E0,0E0,9.602404E0,7.9261785E0,7.921425E0,7.1390824E0,3.1407585E0,0E0,8.908128E0,2.7251244E-2,3.3575811E0,6.4979377E0,1.5427876E0,2.2206764E0,2.2289271E0,5.430789E-1,1.2761068E-1,6.2281055E0,0E0,0E0,0E0,0E0,0E0,0E0,0E0,0E0,0E0,0E0,0E0,0E0,0E0,0E0,0E0,0E0,0E0,0E0,0E0,0E0],"parents":[2147483647,0,0,1,1,2,2,3,3,4,4,5,5,7,7,8,8,9,9,10,10,11,11,13,13,14,14,15,15,16,16,17,17,18,18,19,19,20,20,21,21,22,22],"right_children":[2,4,6,8,10,12,-1,14,16,18,20,22,-1,24,26,28,30,32,34,36,38,40,42,-1,-1,-1,-1,-1,-1,-1,-1,-1,-1,-1,-1,-1,-1,-1,-1,-1,-1,-1,-1],"split_conditions":[2.8330636E-1,1.4920747E-1,1.603912E1,2.6451565E-2,1.44743185E1,1.2067201E1,-5.639693E-2,2.5732081E-2,-2.1742563E1,-8.297595E0,2.6026618E0,3.3624238E-1,4.549027E-2,1.8918608E1,-8.32597E-1,-3.0125866E0,3.3147775E-2,-2.615485E0,6.451632E-1,1.6316263E-1,2.861875E0,-9.5634985E0,4.6509016E-1,7.7059404E-3,-5.2945573E-2,2.1319956E-2,7.180276E-2,-2.0212778E-3,-6.83725E-2,-2.867319E-2,3.149924E-3,-3.2170642E-2,2.1970501E-2,2.6049051E-2,6.6369526E-2,6.2178023E-2,-1.9153493E-3,-1.6459776E-2,-6.048767E-2,-1.919705E-2,-5.9438534E-2,2.4884608E-2,-2.4489535E-2],"split_indices":[1,1,0,1,0,0,0,1,0,0,2,1,0,0,0,2,1,2,0,1,2,0,1,0,0,0,0,0,0,0,0,0,0,0,0,0,0,0,0,0,0,0,0],"split_type":[0,0,0,0,0,0,0,0,0,0,0,0,0,0,0,0,0,0,0,0,0,0,0,0,0,0,0,0,0,0,0,0,0,0,0,0,0,0,0,0,0,0,0],"sum_hessian":[3.27604E2,2.7566373E2,5.1940273E1,2.4390852E2,3.1755203E1,4.6178646E1,5.7616296E0,9.906827E1,1.4484024E2,2.2536999E1,9.218205E0,4.4091003E1,2.0876417E0,9.353473E1,5.5335436E0,8.315925E0,1.3652432E2,4.726739E0,1.7810259E1,4.337328E0,4.8808775E0,5.6987767E0,3.8392227E1,8.803499E1,5.4997435E0,1.1253859E0,4.408158E0,2.7800083E0,5.535917E0,1.7517536E1,1.1900678E2,3.6990254E0,1.0277137E0,7.9973087E0,9.812951E0,1.8898125E0,2.4475155E0,2.0868053E0,2.7940722E0,1.5507778E0,4.147999E0,7.1013627E0,3.1290865E1],"tree_param":{"num_deleted":"0","num_feature":"3","num_nodes":"43","size_leaf_vector":"1"}},{"base_weights":[2.8343381E-2,6.129788E-2,-7.658058E-1,8.119948E-2,-8.837321E-1,-5.2239817E-2,-3.3902952E-1,6.8032056E-2,6.546892E-2,-3.2838395E-1,-5.5363007E-2,5.7397926E-1,-4.8324075E-2,2.6625477E-2,4.6446115E-1,-4.021458E-2,1.3783504E-2,-8.232347E-3,5.5157255E-2,2.4368672E-3,-2.7561089E-2,3.2348234E-2,-1.7002843E-2],"categories":[],"categories_nodes":[],"categories_segments":[],"categories_sizes":[],"default_left":[0,0,0,0,0,0,0,0,0,0,0,0,0,0,0,0,0,0,0,0,0,0,0],"id":30,"left_children":[1,3,5,7,9,-1,11,13,-1,15,-1,17,-1,19,21,-1,-1,-1,-1,-1,-1,-1,-1],"loss_changes":[8.701831E0,6.0611835E0,1.2234869E0,4.969591E0,4.6218252E-1,0E0,4.4034743E0,5.0851083E0,0E0,1.1792204E0,0E0,1.4964207E0,0E0,3.6330538E0,4.5231423E0,0E0,0E0,0E0,0E0,0E0,0E0,0E0,0E0],"parents":[2147483647,0,0,1,1,2,2,3,3,4,4,6,6,7,7,9,9,11,11,13,13,14,14],"right_children":[2,4,6,8,10,-1,12,14,-1,16,-1,18,-1,20,22,-1,-1,-1,-1,-1,-1,-1,-1],"split_conditions":[2.062035E0,1.580765E2,-6.5974694E-1,1.388095E2,2.6841297E0,-5.2239817E-2,3.5640438E0,3.4224308E0,6.546892E-2,5.603687E-2,-5.5363007E-2,2.5079894E0,-4.8324075E-2,3.2194867E0,1.8918608E1,-4.021458E-2,1.3783504E-2,-8.232347E-3,5.5157255E-2,2.4368672E-3,-2.7561089E-2,3.2348234E-2,-1.7002843E-2],"split_indices":[1,0,0,0,2,0,0,2,0,1,0,2,0,2,0,0,0,0,0,0,0,0,0],"split_type":[0,0,0,0,0,0,0,0,0,0,0,0,0,0,0,0,0,0,0,0,0,0,0],"sum_hessian":[3.2970804E2,3.1745743E2,1.2250594E1,3.1180515E2,5.6523E0,6.5322456E0,5.718348E0,3.095419E2,2.2632363E0,2.330742E0,3.321558E0,2.3638783E0,3.3544698E0,2.8123444E2,2.8307463E1,1.1182401E0,1.2125016E0,1.2741858E0,1.0896925E0,2.7175128E2,9.483161E0,2.3232944E1,5.074518E0],"tree_param":{"num_deleted":"0","num_feature":"3","num_nodes":"23","size_leaf_vector":"1"}},{"base_weights":[1.1425769E-2,4.4977672E-2,-5.2371975E-2,5.9396315E-2,-5.141238E-2,1.050004E-1,-2.1235648E-1,-1.8343607E-1,1.4125402E-1,-7.850181E-2,-5.6080222E-2,-4.118302E-3,-5.021107E-2,3.5324235E-2,3.1798237E-3,-2.2219002E-2,1.2671311E-2],"categories":[],"categories_nodes":[],"categories_segments":[],"categories_sizes":[],"default_left":[0,0,0,0,0,0,0,0,0,0,0,0,0,0,0,0,0],"id":31,"left_children":[1,3,-1,5,-1,7,9,11,13,15,-1,-1,-1,-1,-1,-1,-1],"loss_changes":[1.1829786E1,5.0504594E0,0E0,3.9768949E0,0E0,2.890183E0,5.533017E0,2.4905314E0,1.0660658E1,5.132411E0,0E0,0E0,0E0,0E0,0E0,0E0,0E0],"parents":[2147483647,0,0,1,1,3,3,5,5,6,6,7,7,8,8,9,9],"right_children":[2,4,-1,6,-1,8,10,12,14,16,-1,-1,-1,-1,-1,-1,-1],"split_conditions":[2.5072582E0,8.2995105E2,-5.2371975E-2,2.656643E-1,-5.141238E-2,1.3705621E-2,1.44743185E1,-2.4840212E1,1.8548122E-2,-3.1289785E0,-5.6080222E-2,-4.118302E-3,-5.021107E-2,3.5324235E-2,3.1798237E-3,-2.2219002E-2,1.2671311E-2],"split_indices":[1,0,0,1,0,1,0,0,1,0,0,0,0,0,0,0,0],"split_type":[0,0,0,0,0,0,0,0,0,0,0,0,0,0,0,0,0],"sum_hessian":[3.3065466E2,3.2142725E2,9.227433E0,3.1809827E2,3.3289535E0,2.729131E2,4.5185184E1,3.00191E1,2.42894E2,4.0333794E1,4.85139E0,2.7707588E1,2.3115127E0,2.83622E1,2.145318E2,1.902457E1,2.1309221E1],"tree_param":{"num_deleted":"0","num_feature":"3","num_nodes":"17","size_leaf_vector":"1"}},{"base_weights":[-3.5329524E-2,1.5310762E-3,-6.9757247E-1,-9.172455E-3,6.2808834E-2,-5.1393937E-2,-3.931668E-1,1.6679266E-1,-9.1732465E-2,9.6782915E-2,-4.8272908E-2,2.3626208E-2,5.034649E-1,-3.7048304E-1,-2.5954187E-2,-3.8213593E-1,4.0748138E-2,-3.2876302E-3,3.955789E-2,2.9964795E-2,-3.1403493E-2,5.636991E-3,-3.6336076E-2,-1.9343868E-2,4.506133E-3,3.4701016E-2,-4.790185E-2],"categories":[],"categories_nodes":[],"categories_segments":[],"categories_sizes":[],"default_left":[0,0,0,0,0,0,0,0,0,0,0,0,0,0,0,0,0,0,0,0,0,0,0,0,0,0,0],"id":32,"left_children":[1,3,5,7,-1,-1,9,11,13,15,-1,17,19,21,23,25,-1,-1,-1,-1,-1,-1,-1,-1,-1,-1,-1],"loss_changes":[7.911691E0,4.1473675E0,1.314085E0,4.4660454E0,0E0,0E0,3.0410614E0,4.72097E0,3.825691E0,2.5720532E0,0E0,4.850269E0,3.5479035E0,6.9435554E0,7.1700177E0,3.530587E0,0E0,0E0,0E0,0E0,0E0,0E0,0E0,0E0,0E0,0E0,0E0],"parents":[2147483647,0,0,1,1,2,2,3,3,6,6,7,7,8,8,9,9,11,11,12,12,13,13,14,14,15,15],"right_children":[2,4,6,8,-1,-1,10,12,14,16,-1,18,20,22,24,26,-1,-1,-1,-1,-1,-1,-1,-1,-1,-1,-1],"split_conditions":[1.4595443E0,1.4439368E0,-2.8825824E0,2.677962E-2,6.2808834E-2,-5.1393937E-2,2.6267126E0,2.8085258E0,3.9534725E-2,-2.5662558E0,-4.8272908E-2,2.5732081E-2,1.9447138E1,-2.6335268E0,-7.6299443E0,-1.0149734E0,4.0748138E-2,-3.2876302E-3,3.955789E-2,2.9964795E-2,-3.1403493E-2,5.636991E-3,-3.6336076E-2,-1.9343868E-2,4.506133E-3,3.4701016E-2,-4.790185E-2],"split_indices":[1,1,0,1,0,0,2,2,1,2,0,1,0,2,0,0,0,0,0,0,0,0,0,0,0,0,0],"split_type":[0,0,0,0,0,0,0,0,0,0,0,0,0,0,0,0,0,0,0,0,0,0,0,0,0,0,0],"sum_hessian":[3.230641E2,3.0697546E2,1.608864E1,3.0536307E2,1.6123998E0,6.576211E0,9.512429E0,9.719188E1,2.0817117E2,5.572548E0,3.939881E0,6.894422E1,2.824766E1,3.886013E1,1.6931105E2,3.6238744E0,1.9486734E0,6.257206E1,6.3721647E0,2.6475763E1,1.771896E0,1.6780966E1,2.2079165E1,4.0633736E1,1.286773E2,1.1917708E0,2.4321036E0],"tree_param":{"num_deleted":"0","num_feature":"3","num_nodes":"27","size_leaf_vector":"1"}},{"base_weights":[2.0728523E-3,3.1665735E-2,-7.980383E-1,4.5360584E-2,-5.076052E-2,-5.006314E-2,-4.9362767E-1,-7.99105E-2,1.370955E-1,4.9962815E-2,-4.9610578E-2,-2.5518078E-1,2.3042773E-1,4.3550032E-1,1.8089268E-2,2.137739E-3,-2.9491264E-2,3.778056E-2,4.2236196E-3,6.308412E-2,9.887179E-3,2.6328454E-2,-1.8438295E-3],"categories":[],"categories_nodes":[],"categories_segments":[],"categories_sizes":[],"default_left":[0,0,0,0,0,0,0,0,0,0,0,0,0,0,0,0,0,0,0,0,0,0,0],"id":33,"left_children":[1,3,5,7,-1,-1,9,11,13,-1,-1,15,17,19,21,-1,-1,-1,-1,-1,-1,-1,-1],"loss_changes":[7.816979E0,4.609456E0,2.3420715E-1,3.6325405E0,0E0,0E0,5.968383E0,7.3395195E0,6.465725E0,0E0,0E0,8.601285E0,3.6797087E0,9.9510355E0,3.6909068E0,0E0,0E0,0E0,0E0,0E0,0E0,0E0,0E0],"parents":[2147483647,0,0,1,1,2,2,3,3,6,6,7,7,8,8,11,11,12,12,13,13,14,14],"right_children":[2,4,6,8,-1,-1,10,12,14,-1,-1,16,18,20,22,-1,-1,-1,-1,-1,-1,-1,-1],"split_conditions":[2.062035E0,8.2995105E2,2.500899E0,-3.1289785E0,-5.076052E-2,-5.006314E-2,2.5674443E0,-2.503089E0,1.327855E0,4.9962815E-2,-4.9610578E-2,-1.665302E1,2.6150012E0,3.4704663E-2,-3.03266E0,2.137739E-3,-2.9491264E-2,3.778056E-2,4.2236196E-3,6.308412E-2,9.887179E-3,2.6328454E-2,-1.8438295E-3],"split_indices":[1,0,2,0,0,0,2,2,0,0,0,0,2,1,2,0,0,0,0,0,0,0,0],"split_type":[0,0,0,0,0,0,0,0,0,0,0,0,0,0,0,0,0,0,0,0,0,0,0],"sum_hessian":[3.2807513E2,3.1729993E2,1.0775221E1,3.1414703E2,3.1528857E0,5.088773E0,5.686448E0,1.3285382E2,1.8129321E2,1.1722504E0,4.514198E0,8.501659E1,4.7837234E1,5.0929478E1,1.3036374E2,4.5436497E1,3.958009E1,9.494971E0,3.8342262E1,1.041874E1,4.051074E1,1.1880385E1,1.18483345E2],"tree_param":{"num_deleted":"0","num_feature":"3","num_nodes":"23","size_leaf_vector":"1"}},{"base_weights":[2.3996014E-2,1.0372867E-1,-3.8392207E-1,-1.2309025E-1,2.1256217E-1,-2.7547064E-1,-5.579256E-2,-1.1127476E-2,-9.2651147E-1,9.5258343E-1,1.5960144E-1,-1.3840337E-1,-4.3221217E-2,-2.9010186E-1,1.5664129E-1,-1.1027973E0,-1.9585334E-1,5.9777584E-2,3.0554509E-2,-6.059159E-2,1.8053316E-1,-8.4652346E-1,3.527704E-2,-3.625193E-2,2.0588396E-2,2.1872966E-2,-1.34094125E-2,-5.9441276E-2,-1.6616516E-2,2.1267215E-2,-3.6419503E-2,-2.1510847E-2,2.3937494E-2,4.1719925E-2,5.2568326E-3,-5.590863E-2,-8.156553E-3,2.6598493E-2,-1.2864544E-2],"categories":[],"categories_nodes":[],"categories_segments":[],"categories_sizes":[],"default_left":[0,0,0,0,0,0,0,0,0,0,0,0,0,0,0,0,0,0,0,0,0,0,0,0,0,0,0,0,0,0,0,0,0,0,0,0,0,0,0],"id":34,"left_children":[1,3,5,7,9,11,-1,13,15,17,19,21,-1,23,25,27,29,-1,31,-1,33,35,37,-1,-1,-1,-1,-1,-1,-1,-1,-1,-1,-1,-1,-1,-1,-1,-1],"loss_changes":[1.0601782E1,6.751254E0,3.924202E0,7.99261E0,7.077466E0,3.7356126E0,0E0,3.747473E0,1.1840763E0,2.6782913E0,5.194894E0,4.9409056E0,0E0,9.473354E0,6.087442E0,1.7102814E-1,1.4109933E0,0E0,9.3984306E-1,0E0,8.372467E0,1.2850928E0,4.936172E0,0E0,0E0,0E0,0E0,0E0,0E0,0E0,0E0,0E0,0E0,0E0,0E0,0E0,0E0,0E0,0E0],"parents":[2147483647,0,0,1,1,2,2,3,3,4,4,5,5,7,7,8,8,9,9,10,10,11,11,13,13,14,14,15,15,16,16,18,18,20,20,21,21,22,22],"right_children":[2,4,6,8,10,12,-1,14,16,18,20,22,-1,24,26,28,30,-1,32,-1,34,36,38,-1,-1,-1,-1,-1,-1,-1,-1,-1,-1,-1,-1,-1,-1,-1,-1],"split_conditions":[2.8330636E-1,-1.1374212E1,1.603912E1,7.492697E-2,-4.4965305E0,2.5072582E0,-5.579256E-2,-3.3607914E1,1.6316263E-1,1.717171E-1,1.3419611E-2,3.3624238E-1,-4.3221217E-2,2.5571578E0,2.6512485E0,2.6841297E0,-1.5724609E1,5.9777584E-2,-2.7924972E0,-6.059159E-2,1.951665E-2,2.6447513E0,6.8532425E-1,-3.625193E-2,2.0588396E-2,2.1872966E-2,-1.34094125E-2,-5.9441276E-2,-1.6616516E-2,2.1267215E-2,-3.6419503E-2,-2.1510847E-2,2.3937494E-2,4.1719925E-2,5.2568326E-3,-5.590863E-2,-8.156553E-3,2.6598493E-2,-1.2864544E-2],"split_indices":[1,0,0,1,0,1,0,0,1,1,1,1,0,2,2,2,0,0,2,0,1,2,1,0,0,0,0,0,0,0,0,0,0,0,0,0,0,0,0],"split_type":[0,0,0,0,0,0,0,0,0,0,0,0,0,0,0,0,0,0,0,0,0,0,0,0,0,0,0,0,0,0,0,0,0,0,0,0,0,0,0],"sum_hessian":[3.237396E2,2.714308E2,5.2308807E1,8.7967514E1,1.8346329E2,4.675708E1,5.5517287E0,7.809785E1,9.86967E0,1.1118449E1,1.7234483E2,3.8931534E1,7.825544E0,2.9054829E1,4.9043015E1,7.5409465E0,2.3287237E0,8.564836E0,2.5536137E0,1.7355905E0,1.7060925E2,6.904965E0,3.202657E1,1.791821E1,1.1136619E1,2.9508062E1,1.9534952E1,6.2950635E0,1.2458832E0,1.1677933E0,1.1609304E0,1.2789204E0,1.2746933E0,1.659807E1,1.5401117E2,4.4856896E0,2.4192755E0,1.1568478E1,2.0458094E1],"tree_param":{"num_deleted":"0","num_feature":"3","num_nodes":"39","size_leaf_vector":"1"}},{"base_weights":[8.683043E-3,3.8664732E-2,-7.889367E-1,1.1847163E-1,-2.3674859E-1,-5.0341453E-2,-3.8465634E-1,5.960134E-2,7.4656785E-1,-7.224147E-2,-5.4519504E-2,2.2605421E-2,-4.530322E-2,-1.3077404E-1,2.2135109E-1,8.176291E-1,-8.617102E-3,-6.384946E-2,-1.1277817E-2,-1.291764E-2,8.089305E-3,1.3758409E-2,-4.2256773E-2,2.444095E-2,6.5213144E-2,7.751205E-3,-1.6688483E-2],"categories":[],"categories_nodes":[],"categories_segments":[],"categories_sizes":[],"default_left":[0,0,0,0,0,0,0,0,0,0,0,0,0,0,0,0,0,0,0,0,0,0,0,0,0,0,0],"id":35,"left_children":[1,3,5,7,9,-1,11,13,15,17,-1,-1,-1,19,21,23,-1,-1,25,-1,-1,-1,-1,-1,-1,-1,-1],"loss_changes":[7.9988284E0,7.1075444E0,6.8017864E-1,9.214077E0,1.0130081E1,0E0,2.967242E0,7.112049E0,1.5364075E0,4.5408535E0,0E0,0E0,0E0,4.0090084E0,7.3915725E0,2.5644064E0,0E0,0E0,3.27194E0,0E0,0E0,0E0,0E0,0E0,0E0,0E0,0E0],"parents":[2147483647,0,0,1,1,2,2,3,3,4,4,6,6,7,7,8,8,9,9,13,13,14,14,15,15,18,18],"right_children":[2,4,6,8,10,-1,12,14,16,18,-1,-1,-1,20,22,24,-1,-1,26,-1,-1,-1,-1,-1,-1,-1,-1],"split_conditions":[2.062035E0,1.6269793E1,-6.5974694E-1,1.1298217E1,1.6316263E-1,-5.0341453E-2,3.5640438E0,-2.5818975E0,4.140527E0,1.6999092E1,-5.4519504E-2,2.2605421E-2,-4.530322E-2,-3.018692E0,9.581028E0,2.7619245E0,-8.617102E-3,-6.384946E-2,8.122849E1,-1.291764E-2,8.089305E-3,1.3758409E-2,-4.2256773E-2,2.444095E-2,6.5213144E-2,7.751205E-3,-1.6688483E-2],"split_indices":[1,0,0,0,1,0,0,2,2,0,0,0,0,0,0,2,0,0,0,0,0,0,0,0,0,0,0],"split_type":[0,0,0,0,0,0,0,0,0,0,0,0,0,0,0,0,0,0,0,0,0,0,0,0,0,0,0],"sum_hessian":[3.3220767E2,3.2108978E2,1.1117903E1,2.4939275E2,7.1697044E1,6.2558203E0,4.8620825E0,2.2902184E2,2.03709E1,6.1021988E1,1.0675054E1,1.9175974E0,2.944485E0,1.0528984E2,1.23731995E2,1.901096E1,1.3599386E0,1.9784116E0,5.904358E1,7.339911E1,3.1890738E1,1.1849451E2,5.237488E0,1.2541426E1,6.4695344E0,3.929784E1,1.9745737E1],"tree_param":{"num_deleted":"0","num_feature":"3","num_nodes":"27","size_leaf_vector":"1"}},{"base_weights":[-2.2243867E-3,2.4082452E-2,-7.494917E-1,-2.3935301E-2,4.524299E-1,-4.8752975E-2,-3.6134127E-1,7.562192E-1,-3.5885736E-2,7.230253E-1,-3.7380254E-1,3.1787843E-2,-4.5549218E-2,9.314525E-3,4.5261662E-2,-6.659891E-1,-1.3070828E-2,9.133419E-1,2.8892854E-1,2.5776812E-1,-6.72584E-1,-1.6900629E-2,-4.9923718E-2,2.941213E-2,-1.573851E-3,2.522496E-2,5.4534078E-2,-1.8211957E-2,2.828068E-2,4.3836217E-3,1.6350254E-2,-5.8243133E-2,3.7426115E-3],"categories":[],"categories_nodes":[],"categories_segments":[],"categories_sizes":[],"default_left":[0,0,0,0,0,0,0,0,0,0,0,0,0,0,0,0,0,0,0,0,0,0,0,0,0,0,0,0,0,0,0,0,0],"id":36,"left_children":[1,3,5,7,9,-1,11,13,15,17,19,-1,-1,-1,-1,21,23,25,27,29,31,-1,-1,-1,-1,-1,-1,-1,-1,-1,-1,-1,-1],"loss_changes":[6.3437214E0,6.4241896E0,6.084852E-1,2.6500077E0,7.308536E0,0E0,3.6603827E0,1.9567442E-1,3.9882991E0,1.7234268E0,1.7633123E0,0E0,0E0,0E0,0E0,7.197671E-1,2.9995694E0,6.2869835E-1,1.7953722E0,1.1711776E-2,2.2937176E0,0E0,0E0,0E0,0E0,0E0,0E0,0E0,0E0,0E0,0E0,0E0,0E0],"parents":[2147483647,0,0,1,1,2,2,3,3,4,4,6,6,7,7,8,8,9,9,10,10,15,15,16,16,17,17,18,18,19,19,20,20],"right_children":[2,4,6,8,10,-1,12,14,16,18,20,-1,-1,-1,-1,22,24,26,28,30,32,-1,-1,-1,-1,-1,-1,-1,-1,-1,-1,-1,-1],"split_conditions":[2.062035E0,3.357197E0,-6.5974694E-1,5.51135E-3,1.8918608E1,-4.8752975E-2,3.3625019E0,-2.9035983E0,-2.5143567E3,5.1005784E-2,3.533678E0,3.1787843E-2,-4.5549218E-2,9.314525E-3,4.5261662E-2,-2.7355542E3,-1.9885884E3,-2.3725037E1,1.120898E-1,1.1566731E2,4.477214E0,-1.6900629E-2,-4.9923718E-2,2.941213E-2,-1.573851E-3,2.522496E-2,5.4534078E-2,-1.8211957E-2,2.828068E-2,4.3836217E-3,1.6350254E-2,-5.8243133E-2,3.7426115E-3],"split_indices":[1,2,0,1,0,0,0,2,0,1,2,0,0,0,0,0,0,0,1,0,2,0,0,0,0,0,0,0,0,0,0,0,0],"split_type":[0,0,0,0,0,0,0,0,0,0,0,0,0,0,0,0,0,0,0,0,0,0,0,0,0,0,0,0,0,0,0,0,0],"sum_hessian":[3.207822E2,3.1080826E2,9.973938E0,2.8032764E2,3.048061E1,5.351771E0,4.622167E0,3.2896764E0,2.7703796E2,2.3054918E1,7.4256926E0,1.5868384E0,3.0353284E0,1.148231E0,2.1414454E0,8.6954565E0,2.683425E2,1.5260437E1,7.794481E0,2.428836E0,4.9968567E0,5.392604E0,3.302852E0,7.0504904E0,2.6129202E2,5.7799773E0,9.48046E0,2.2251503E0,5.56933E0,1.3582547E0,1.0705813E0,2.6759422E0,2.3209145E0],"tree_param":{"num_deleted":"0","num_feature":"3","num_nodes":"33","size_leaf_vector":"1"}},{"base_weights":[-3.3508744E-2,-7.773096E-3,-8.176459E-1,4.4985106E-3,-4.8915792E-2,-4.8677843E-2,-4.228399E-1,-3.1168798E-2,3.6029157E-1,2.9809168E-2,-4.3255392E-2,-1.4283617E-1,5.2813414E-2,7.307538E-1,6.631031E-2,-1.0202219E-2,2.9147748E-2,1.2771817E-2,-1.1147524E-2,4.7324423E-2,7.3113376E-3,-4.5276176E-2,2.3242831E-2],"categories":[],"categories_nodes":[],"categories_segments":[],"categories_sizes":[],"default_left":[0,0,0,0,0,0,0,0,0,0,0,0,0,0,0,0,0,0,0,0,0,0,0],"id":37,"left_children":[1,3,5,7,-1,-1,9,11,13,-1,-1,15,17,19,21,-1,-1,-1,-1,-1,-1,-1,-1],"loss_changes":[6.536556E0,3.7552512E0,2.2194624E-1,3.9704762E0,0E0,0E0,2.625811E0,2.6754787E0,3.0561428E0,0E0,0E0,5.555835E0,9.170411E0,1.4394927E0,7.002913E0,0E0,0E0,0E0,0E0,0E0,0E0,0E0,0E0],"parents":[2147483647,0,0,1,1,2,2,3,3,6,6,7,7,8,8,11,11,12,12,13,13,14,14],"right_children":[2,4,6,8,-1,-1,10,12,14,-1,-1,16,18,20,22,-1,-1,-1,-1,-1,-1,-1,-1],"split_conditions":[2.062035E0,8.2995105E2,-6.5974694E-1,3.4224308E0,-4.8915792E-2,-4.8677843E-2,5.268773E0,-3.1289785E0,3.6931427E0,2.9809168E-2,-4.3255392E-2,3.0496733E0,2.6026618E0,1.0444816E1,-1.2165515E1,-1.0202219E-2,2.9147748E-2,1.2771817E-2,-1.1147524E-2,4.7324423E-2,7.3113376E-3,-4.5276176E-2,2.3242831E-2],"split_indices":[1,0,0,2,0,0,0,0,2,0,0,2,2,0,0,0,0,0,0,0,0,0,0],"split_type":[0,0,0,0,0,0,0,0,0,0,0,0,0,0,0,0,0,0,0,0,0,0,0],"sum_hessian":[3.2322308E2,3.1392972E2,9.293367E0,3.109929E2,2.9368498E0,5.6114597E0,3.6819074E0,2.834865E2,2.750637E1,1.0090214E0,2.6728861E0,1.2138523E2,1.6210127E2,1.1512771E1,1.5993601E1,1.1260756E2,8.777677E0,9.348503E1,6.861624E1,7.956853E0,3.5559177E0,4.28145E0,1.1712151E1],"tree_param":{"num_deleted":"0","num_feature":"3","num_nodes":"23","size_leaf_vector":"1"}},{"base_weights":[-3.3173446E-2,1.2945963E-2,-4.6911633E-1,-6.0606757E-3,6.092407E-1,2.1145016E-1,-5.671407E-1,2.3702197E-2,-8.611059E-1,6.237924E-2,6.370673E-2,3.4649692E-2,-3.0795274E-2,-8.376891E-1,-3.1962928E-1,3.442738E-2,-4.6009526E-2,-1.1334269E0,-6.281181E-2,4.763289E-2,-3.4717494E-1,1.7573884E-2,-9.8727894E-1,4.7729123E-2,-5.5728596E-1,-6.167295E-3,5.3767944E-3,-1.0222534E-2,-6.493845E-2,1.0895863E-2,-1.681958E-2,-3.65594E-3,-3.0960454E-2,-3.3654366E-2,-6.1561555E-2,-4.7411304E-2,-1.4094173E-2],"categories":[],"categories_nodes":[],"categories_segments":[],"categories_sizes":[],"default_left":[0,0,0,0,0,0,0,0,0,0,0,0,0,0,0,0,0,0,0,0,0,0,0,0,0,0,0,0,0,0,0,0,0,0,0,0,0],"id":38,"left_children":[1,3,5,7,9,11,13,15,17,19,-1,-1,-1,21,23,25,-1,27,29,-1,31,-1,33,-1,35,-1,-1,-1,-1,-1,-1,-1,-1,-1,-1,-1,-1],"loss_changes":[6.4473577E0,3.2983336E0,2.1664824E0,7.214943E0,3.1891463E0,2.255793E0,1.5460854E0,2.8072379E0,2.001954E0,2.5126247E0,0E0,0E0,0E0,2.539321E0,5.30529E0,3.1513073E0,0E0,8.176584E-1,3.4090987E-1,0E0,3.1492412E-1,0E0,3.0467033E-2,0E0,1.2310128E0,0E0,0E0,0E0,0E0,0E0,0E0,0E0,0E0,0E0,0E0,0E0,0E0],"parents":[2147483647,0,0,1,1,2,2,3,3,4,4,5,5,6,6,7,7,8,8,9,9,13,13,14,14,15,15,17,17,18,18,20,20,22,22,24,24],"right_children":[2,4,6,8,10,12,14,16,18,20,-1,-1,-1,22,24,26,-1,28,30,-1,32,-1,34,-1,36,-1,-1,-1,-1,-1,-1,-1,-1,-1,-1,-1,-1],"split_conditions":[6.2702155E-1,3.558472E-1,-3.4451978E0,2.8330636E-1,2.6985364E0,2.062035E0,1.4439368E0,8.2995105E2,3.3624238E-1,-3.2264943E0,6.370673E-2,3.4649692E-2,-3.0795274E-2,-2.9551014E1,1.4595443E0,-1.1374212E1,-4.6009526E-2,-9.5634985E0,-1.2312571E0,4.763289E-2,1.7790688E0,1.7573884E-2,-1.0780293E-1,4.7729123E-2,-2.8825824E0,-6.167295E-3,5.3767944E-3,-1.0222534E-2,-6.493845E-2,1.0895863E-2,-1.681958E-2,-3.65594E-3,-3.0960454E-2,-3.3654366E-2,-6.1561555E-2,-4.7411304E-2,-1.4094173E-2],"split_indices":[1,1,2,1,2,1,1,0,1,2,0,0,0,0,1,0,0,0,0,0,0,0,0,0,0,0,0,0,0,0,0,0,0,0,0,0,0],"split_type":[0,0,0,0,0,0,0,0,0,0,0,0,0,0,0,0,0,0,0,0,0,0,0,0,0,0,0,0,0,0,0,0,0,0,0,0,0],"sum_hessian":[3.1937537E2,2.8969788E2,2.9677507E1,2.8170837E2,7.9894977E0,3.5907083E0,2.6086798E1,2.7317194E2,8.536435E0,4.9840436E0,3.0054536E0,2.3723402E0,1.218368E0,1.132418E1,1.4762618E1,2.7105554E2,2.1164E0,6.052085E0,2.4843504E0,1.1525577E0,3.831486E0,1.1145372E0,1.0209642E1,1.8463972E0,1.2916222E1,8.56119E1,1.8544363E2,1.252338E0,4.7997465E0,1.326572E0,1.1577785E0,2.540693E0,1.290793E0,6.105424E0,4.104219E0,4.328609E0,8.587612E0],"tree_param":{"num_deleted":"0","num_feature":"3","num_nodes":"37","size_leaf_vector":"1"}},{"base_weights":[-3.1684324E-2,-1.1418768E-2,-4.035398E-2,1.7208029E-2,-4.4336808E-1,-8.45111E-3,4.605048E-1,-6.3434444E-2,-1.9447891E-1,1.140376E-2,-6.1166074E-2,9.6687555E-1,-4.3183395E-1,-5.691614E-1,2.8506637E-1,-3.025444E-3,7.894196E-3,5.5685807E-2,-9.094135E-3,-5.8256257E-2,1.4322557E-2,8.236646E-3,-6.0511835E-2,5.2170295E-2,-7.5521483E-3],"categories":[],"categories_nodes":[],"categories_segments":[],"categories_sizes":[],"default_left":[0,0,0,0,0,0,0,0,0,0,0,0,0,0,0,0,0,0,0,0,0,0,0,0,0],"id":39,"left_children":[1,3,-1,5,7,9,11,-1,13,15,-1,17,19,21,23,-1,-1,-1,-1,-1,-1,-1,-1,-1,-1],"loss_changes":[4.771769E0,3.6865435E0,0E0,3.18866E0,3.5594597E0,6.421752E0,7.3479605E0,0E0,2.932385E0,2.7733035E0,0E0,1.9052324E0,3.6225142E0,4.42836E0,2.6143918E0,0E0,0E0,0E0,0E0,0E0,0E0,0E0,0E0,0E0,0E0],"parents":[2147483647,0,0,1,1,3,3,4,4,5,5,6,6,8,8,9,9,11,11,12,12,13,13,14,14],"right_children":[2,4,-1,6,8,10,12,-1,14,16,-1,18,20,22,24,-1,-1,-1,-1,-1,-1,-1,-1,-1,-1],"split_conditions":[2.5072582E0,8.457151E1,-4.035398E-2,5.6076466E1,-2.7669153E0,5.0562416E1,8.349442E-2,-6.3434444E-2,9.173247E-2,8.726376E-2,-6.1166074E-2,2.674239E0,2.7212636E0,7.3291324E-2,1.08606815E-1,-3.025444E-3,7.894196E-3,5.5685807E-2,-9.094135E-3,-5.8256257E-2,1.4322557E-2,8.236646E-3,-6.0511835E-2,5.2170295E-2,-7.5521483E-3],"split_indices":[1,0,0,0,2,0,1,0,1,1,0,2,2,1,1,0,0,0,0,0,0,0,0,0,0],"split_type":[0,0,0,0,0,0,0,0,0,0,0,0,0,0,0,0,0,0,0,0,0,0,0,0,0],"sum_hessian":[3.0325357E2,2.9651855E2,6.735016E0,2.7898914E2,1.7529428E1,2.6465137E2,1.4337756E1,3.112134E0,1.4417294E1,2.6137036E2,3.2810152E0,9.09381E0,5.2439466E0,7.988652E0,6.4286413E0,1.7569968E2,8.567069E1,8.090183E0,1.0036272E0,2.2870367E0,2.9569097E0,4.071123E0,3.9175296E0,1.8387506E0,4.5898905E0],"tree_param":{"num_deleted":"0","num_feature":"3","num_nodes":"25","size_leaf_vector":"1"}},{"base_weights":[-3.830656E-2,-1.3389771E-2,