{"learner":{"attributes":{"scikit_learn":"{\"_estimator_type\": \"classifier\"}"},"feature_names":["frac_diff","volatility","signal_strength"],"feature_types":["float","float","float"],"gradient_booster":{"model":{"cats":{"enc":[],"feature_segments":[],"sorted_idx":[]},"gbtree_model_param":{"num_parallel_tree":"1","num_trees":"100"},"iteration_indptr":[0,1,2,3,4,5,6,7,8,9,10,11,12,13,14,15,16,17,18,19,20,21,22,23,24,25,26,27,28,29,30,31,32,33,34,35,36,37,38,39,40,41,42,43,44,45,46,47,48,49,50,51,52,53,54,55,56,57,58,59,60,61,62,63,64,65,66,67,68,69,70,71,72,73,74,75,76,77,78,79,80,81,82,83,84,85,86,87,88,89,90,91,92,93,94,95,96,97,98,99,100],"tree_info":[0,0,0,0,0,0,0,0,0,0,0,0,0,0,0,0,0,0,0,0,0,0,0,0,0,0,0,0,0,0,0,0,0,0,0,0,0,0,0,0,0,0,0,0,0,0,0,0,0,0,0,0,0,0,0,0,0,0,0,0,0,0,0,0,0,0,0,0,0,0,0,0,0,0,0,0,0,0,0,0,0,0,0,0,0,0,0,0,0,0,0,0,0,0,0,0,0,0,0,0],"trees":[{"base_weights":[2.4399561E-8,2.701053E-1,-1.7122302E0,6.415853E-1,-1.7241669E-1,-6.380368E-1,-1.8265277E-2,-3.7909833E-1,1.0215771E0,1.5962115E-1,-4.6968728E-1,3.203663E-4,-1.1111111E-2,4.6954143E-1,-8.282983E-1,1.3132088E0,5.342099E-1,3.357997E-1,-1.4285714E-2,-1.6190477E-2,-2.6765394E-1,-1.1111111E-2,8.956661E-3,-1.7333332E-2,4.6760208E-4,1.7305482E-2,1.0863213E-2,-9.452054E-3,7.4316645E-3,-6.3803676E-3,4.5627216E-3,1.3281249E-2,-4.160092E-3],"categories":[],"categories_nodes":[],"categories_segments":[],"categories_sizes":[],"default_left":[0,0,0,0,0,0,0,0,0,0,0,0,0,0,0,0,0,0,0,0,0,0,0,0,0,0,0,0,0,0,0,0,0],"id":0,"left_children":[1,3,5,7,9,11,-1,13,15,17,19,-1,-1,21,23,25,27,29,-1,-1,31,-1,-1,-1,-1,-1,-1,-1,-1,-1,-1,-1,-1],"loss_changes":[7.9546974E1,2.4532763E1,1.7120285E0,3.1794228E1,6.844878E0,1.2372264E0,0E0,9.041477E0,7.7239037E0,9.753963E0,8.028787E0,0E0,0E0,6.7164874E0,1.2121583E1,1.5668602E0,8.083906E0,3.8864474E0,0E0,0E0,8.173685E0,0E0,0E0,0E0,0E0,0E0,0E0,0E0,0E0,0E0,0E0,0E0,0E0],"parents":[2147483647,0,0,1,1,2,2,3,3,4,4,5,5,7,7,8,8,9,9,10,10,13,13,14,14,15,15,16,16,17,17,20,20],"right_children":[2,4,6,8,10,12,-1,14,16,18,20,-1,-1,22,24,26,28,30,-1,-1,32,-1,-1,-1,-1,-1,-1,-1,-1,-1,-1,-1,-1],"split_conditions":[6.356727E-1,6.0844788E1,-2.9654045E0,-2.0693653E0,1.4573004E-2,3.6831899E0,-1.8265277E-2,2.43078E-2,1.8198387E1,7.391117E2,6.8532234E1,3.203663E-4,-1.1111111E-2,2.0093694E-2,4.275363E-2,4.0271085E-2,4.419711E1,9.745367E-3,-1.4285714E-2,-1.6190477E-2,7.350155E1,-1.1111111E-2,8.956661E-3,-1.7333332E-2,4.6760208E-4,1.7305482E-2,1.0863213E-2,-9.452054E-3,7.4316645E-3,-6.3803676E-3,4.5627216E-3,1.3281249E-2,-4.160092E-3],"split_indices":[1,0,2,0,1,1,0,1,0,0,0,0,0,1,1,1,0,1,0,0,0,0,0,0,0,0,0,0,0,0,0,0,0],"split_type":[0,0,0,0,0,0,0,0,0,0,0,0,0,0,0,0,0,0,0,0,0,0,0,0,0,0,0,0,0,0,0,0,0],"sum_hessian":[1.7E2,1.4756395E2,2.2436047E1,7.9976746E1,6.758721E1,2.7906976E0,1.964535E1,2.1697674E1,5.827907E1,3.2145348E1,3.544186E1,1.5406977E0,1.25E0,7.4941864E0,1.4203488E1,3.5401165E1,2.2877907E1,2.964535E1,2.5E0,4.25E0,3.119186E1,1.25E0,6.2441864E0,6.5E0,7.7034883E0,1.0133721E1,2.5267443E1,2.3953488E0,2.048256E1,2.7906976E0,2.6854652E1,1.9767442E0,2.9215117E1],"tree_param":{"num_deleted":"0","num_feature":"3","num_nodes":"33","size_leaf_vector":"1"}},{"base_weights":[-2.6378347E-4,2.6730216E-1,-1.6964695E0,6.3527715E-1,-1.7103249E-1,-6.345096E-1,-1.8092912E-2,-3.7615618E-1,1.011834E0,1.5754035E-1,-4.6519083E-1,3.1842332E-4,-1.1049573E-2,4.6460146E-1,-8.2115114E-1,1.3009045E0,5.287908E-1,3.3238405E-1,-1.4184194E-2,-1.6060265E-2,-2.646959E-1,-1.1049573E-2,8.879614E-3,-1.7184231E-2,4.6346398E-4,9.707386E-3,1.561224E-2,-9.3855215E-3,7.360906E-3,-6.3334424E-3,4.518754E-3,1.31934425E-2,-4.1198866E-3],"categories":[],"categories_nodes":[],"categories_segments":[],"categories_sizes":[],"default_left":[0,0,0,0,0,0,0,0,0,0,0,0,0,0,0,0,0,0,0,0,0,0,0,0,0,0,0,0,0,0,0,0,0],"id":1,"left_children":[1,3,5,7,9,11,-1,13,15,17,19,-1,-1,21,23,25,27,29,-1,-1,31,-1,-1,-1,-1,-1,-1,-1,-1,-1,-1,-1,-1],"loss_changes":[7.805904E1,2.4070927E1,1.6597061E0,3.1220634E1,6.702331E0,1.2234946E0,0E0,8.873211E0,7.589184E0,9.604467E0,7.91019E0,0E0,0E0,6.6253386E0,1.1913376E1,1.6129608E0,7.953937E0,3.8225293E0,0E0,0E0,8.054433E0,0E0,0E0,0E0,0E0,0E0,0E0,0E0,0E0,0E0,0E0,0E0,0E0],"parents":[2147483647,0,0,1,1,2,2,3,3,4,4,5,5,7,7,8,8,9,9,10,10,13,13,14,14,15,15,16,16,17,17,20,20],"right_children":[2,4,6,8,10,12,-1,14,16,18,20,-1,-1,22,24,26,28,30,-1,-1,32,-1,-1,-1,-1,-1,-1,-1,-1,-1,-1,-1,-1],"split_conditions":[6.356727E-1,6.0844788E1,-2.9654045E0,-2.0693653E0,1.4573004E-2,3.6831899E0,-1.8092912E-2,2.43078E-2,1.8198387E1,7.391117E2,6.8532234E1,3.1842332E-4,-1.1049573E-2,2.0093694E-2,4.275363E-2,-6.2632483E-1,4.419711E1,9.745367E-3,-1.4184194E-2,-1.6060265E-2,7.350155E1,-1.1049573E-2,8.879614E-3,-1.7184231E-2,4.6346398E-4,9.707386E-3,1.561224E-2,-9.3855215E-3,7.360906E-3,-6.3334424E-3,4.518754E-3,1.31934425E-2,-4.1198866E-3],"split_indices":[1,0,2,0,1,1,0,1,0,0,0,0,0,1,1,0,0,1,0,0,0,0,0,0,0,0,0,0,0,0,0,0,0],"split_type":[0,0,0,0,0,0,0,0,0,0,0,0,0,0,0,0,0,0,0,0,0,0,0,0,0,0,0,0,0,0,0,0,0],"sum_hessian":[1.6999504E2,1.4756067E2,2.243437E1,7.997425E1,6.758642E1,2.790659E0,1.9643711E1,2.1697023E1,5.827723E1,3.2145054E1,3.5441364E1,1.5406977E0,1.2499614E0,7.4940224E0,1.4203E1,3.539966E1,2.2877571E1,2.9645182E1,2.4998724E0,4.2497215E0,3.1191645E1,1.2499614E0,6.244061E0,6.499512E0,7.703488E0,1.7691006E1,1.7708654E1,2.3952954E0,2.0482275E1,2.7906694E0,2.6854511E1,1.976657E0,2.9214987E1],"tree_param":{"num_deleted":"0","num_feature":"3","num_nodes":"33","size_leaf_vector":"1"}},{"base_weights":[-5.385671E-4,2.6452118E-1,-1.6810927E0,6.290351E-1,-1.6966306E-1,-6.3101476E-1,-1.7924977E-2,-3.7325928E-1,1.0021986E0,-9.355261E-2,-1.4606131E-2,3.1649283E-4,-1.0988751E-2,4.597262E-1,-8.141178E-1,1.288744E0,5.234398E-1,-1.6491865E-1,1.1777582E-2,-1.0988751E-2,8.803527E-3,-1.7038608E-2,4.5936188E-4,1.7048163E-2,1.0633264E-2,-9.319745E-3,7.2910064E-3,-6.5904274E-4,-1.5231001E-2],"categories":[],"categories_nodes":[],"categories_segments":[],"categories_sizes":[],"default_left":[0,0,0,0,0,0,0,0,0,0,0,0,0,0,0,0,0,0,0,0,0,0,0,0,0,0,0,0,0],"id":2,"left_children":[1,3,5,7,9,11,-1,13,15,17,-1,-1,-1,19,21,23,25,27,-1,-1,-1,-1,-1,-1,-1,-1,-1,-1,-1],"loss_changes":[7.660749E1,2.3617344E1,1.6097641E0,3.0657341E1,6.602071E0,1.2099773E0,0E0,8.708559E0,7.456707E0,6.167261E0,0E0,0E0,0E0,6.5356665E0,1.1710907E1,1.6007423E0,7.8262806E0,8.40035E0,0E0,0E0,0E0,0E0,0E0,0E0,0E0,0E0,0E0,0E0,0E0],"parents":[2147483647,0,0,1,1,2,2,3,3,4,4,5,5,7,7,8,8,9,9,13,13,14,14,15,15,16,16,17,17],"right_children":[2,4,6,8,10,12,-1,14,16,18,-1,-1,-1,20,22,24,26,28,-1,-1,-1,-1,-1,-1,-1,-1,-1,-1,-1],"split_conditions":[6.356727E-1,6.0844788E1,-2.9654045E0,-2.0693653E0,4.2101096E-2,3.6831899E0,-1.7924977E-2,2.43078E-2,1.8198387E1,3.901726E-2,-1.4606131E-2,3.1649283E-4,-1.0988751E-2,2.0093694E-2,4.275363E-2,4.0271085E-2,4.419711E1,2.423817E-2,1.1777582E-2,-1.0988751E-2,8.803527E-3,-1.7038608E-2,4.5936188E-4,1.7048163E-2,1.0633264E-2,-9.319745E-3,7.2910064E-3,-6.5904274E-4,-1.5231001E-2],"split_indices":[1,0,2,0,1,1,0,1,0,1,0,0,0,1,1,1,0,1,0,0,0,0,0,0,0,0,0,0,0],"split_type":[0,0,0,0,0,0,0,0,0,0,0,0,0,0,0,0,0,0,0,0,0,0,0,0,0,0,0,0,0],"sum_hessian":[1.699805E2,1.475511E2,2.2429401E1,7.996702E1,6.758408E1,2.790544E0,1.9638859E1,2.1695087E1,5.8271935E1,6.483413E1,2.7499526E0,1.5406975E0,1.2498465E0,7.493536E0,1.4201551E1,3.539536E1,2.2876574E1,6.2212082E1,2.622048E0,1.2498465E0,6.2436895E0,6.4980645E0,7.7034864E0,1.0131628E1,2.5263731E1,2.3951364E0,2.0481438E1,5.8962135E1,3.249944E0],"tree_param":{"num_deleted":"0","num_feature":"3","num_nodes":"29","size_leaf_vector":"1"}},{"base_weights":[-7.6998404E-4,2.618189E-1,-1.666086E0,6.2292236E-1,-1.6824122E-1,-6.275518E-1,-1.776131E-2,-3.7040627E-1,9.9275756E-1,1.5612543E-1,-4.5866063E-1,3.1457288E-4,-1.0928632E-2,4.5491478E-1,-8.071951E-1,1.1844449E0,3.1362626E-1,3.296434E-1,-1.4079799E-2,-1.5927577E-2,-2.594899E-1,-1.0928632E-2,8.728385E-3,-1.689634E-2,4.5529506E-4,-6.423393E-3,1.2669424E-2,6.0250824E-3,-6.543526E-3,-6.2821265E-3,4.4815987E-3,1.31112775E-2,-4.0562535E-3],"categories":[],"categories_nodes":[],"categories_segments":[],"categories_sizes":[],"default_left":[0,0,0,0,0,0,0,0,0,0,0,0,0,0,0,0,0,0,0,0,0,0,0,0,0,0,0,0,0,0,0,0,0],"id":3,"left_children":[1,3,5,7,9,11,-1,13,15,17,19,-1,-1,21,23,25,27,29,-1,-1,31,-1,-1,-1,-1,-1,-1,-1,-1,-1,-1,-1,-1],"loss_changes":[7.519575E1,2.3172256E1,1.562088E0,3.0108006E1,6.532325E0,1.1966696E0,0E0,8.547433E0,7.3434563E0,9.459484E0,7.817534E0,0E0,0E0,6.447445E0,1.1513955E1,7.7248154E0,4.4224424E0,3.760386E0,0E0,0E0,7.92024E0,0E0,0E0,0E0,0E0,0E0,0E0,0E0,0E0,0E0,0E0,0E0,0E0],"parents":[2147483647,0,0,1,1,2,2,3,3,4,4,5,5,7,7,8,8,9,9,10,10,13,13,14,14,15,15,16,16,17,17,20,20],"right_children":[2,4,6,8,10,12,-1,14,16,18,20,-1,-1,22,24,26,28,30,-1,-1,32,-1,-1,-1,-1,-1,-1,-1,-1,-1,-1,-1,-1],"split_conditions":[6.356727E-1,6.0844788E1,-2.9654045E0,-2.0693653E0,1.4573004E-2,3.6831899E0,-1.776131E-2,2.43078E-2,5.162291E1,7.391117E2,6.8532234E1,3.1457288E-4,-1.0928632E-2,2.0093694E-2,4.275363E-2,-3.5465E0,2.7653747E0,9.745367E-3,-1.4079799E-2,-1.5927577E-2,7.350155E1,-1.0928632E-2,8.728385E-3,-1.689634E-2,4.5529506E-4,-6.423393E-3,1.2669424E-2,6.0250824E-3,-6.543526E-3,-6.2821265E-3,4.4815987E-3,1.31112775E-2,-4.0562535E-3],"split_indices":[1,0,2,0,1,1,0,1,0,0,0,0,0,1,1,2,2,1,0,0,0,0,0,0,0,0,0,0,0,0,0,0,0],"split_type":[0,0,0,0,0,0,0,0,0,0,0,0,0,0,0,0,0,0,0,0,0,0,0,0,0,0,0,0,0,0,0,0,0],"sum_hessian":[1.6995966E2,1.475384E2,2.2421238E1,7.995505E1,6.758337E1,2.790354E0,1.9630884E1,2.1691902E1,5.826314E1,3.214422E1,3.543915E1,1.5406973E0,1.2496567E0,7.4927354E0,1.4199167E1,4.48578E1,1.3405343E1,2.9644747E1,2.4994698E0,4.2488494E0,3.1190302E1,1.2496567E0,6.2430787E0,6.4956822E0,7.703485E0,1.645024E0,4.3212776E1,1.0614985E1,2.7903576E0,2.7905726E0,2.6854174E1,1.9764149E0,2.9213886E1],"tree_param":{"num_deleted":"0","num_feature":"3","num_nodes":"33","size_leaf_vector":"1"}},{"base_weights":[-1.1374446E-3,2.589955E-1,-1.6514351E0,6.1665547E-1,-1.669004E-1,-6.2412035E-1,-1.760174E-2,-3.6759603E-1,9.831189E-1,-9.144803E-2,-1.4471027E-2,3.1266588E-4,-1.0869203E-2,4.501657E-1,-8.0038005E-1,1.2650968E0,5.122544E-1,-1.6241138E-1,1.1721541E-2,-1.0869203E-2,8.654168E-3,-1.6757308E-2,4.5126496E-4,9.378754E-3,1.524372E-2,-9.287617E-3,7.1617947E-3,-6.4298784E-4,-1.5085514E-2],"categories":[],"categories_nodes":[],"categories_segments":[],"categories_sizes":[],"default_left":[0,0,0,0,0,0,0,0,0,0,0,0,0,0,0,0,0,0,0,0,0,0,0,0,0,0,0,0,0],"id":4,"left_children":[1,3,5,7,9,11,-1,13,15,17,-1,-1,-1,19,21,23,25,27,-1,-1,-1,-1,-1,-1,-1,-1,-1,-1,-1],"loss_changes":[7.380676E1,2.272614E1,1.5165443E0,2.9555494E1,6.4920435E0,1.1835684E0,0E0,8.389733E0,7.2189827E0,6.0933E0,0E0,0E0,0E0,6.360646E0,1.1322311E1,1.6566887E0,7.6805167E0,8.251064E0,0E0,0E0,0E0,0E0,0E0,0E0,0E0,0E0,0E0,0E0,0E0],"parents":[2147483647,0,0,1,1,2,2,3,3,4,4,5,5,7,7,8,8,9,9,13,13,14,14,15,15,16,16,17,17],"right_children":[2,4,6,8,10,12,-1,14,16,18,-1,-1,-1,20,22,24,26,28,-1,-1,-1,-1,-1,-1,-1,-1,-1,-1,-1],"split_conditions":[6.356727E-1,6.0844788E1,-2.9654045E0,-2.0693653E0,4.2101096E-2,3.6831899E0,-1.760174E-2,2.43078E-2,1.8198387E1,3.901726E-2,-1.4471027E-2,3.1266588E-4,-1.0869203E-2,2.0093694E-2,4.275363E-2,-6.2632483E-1,4.419711E1,2.423817E-2,1.1721541E-2,-1.0869203E-2,8.654168E-3,-1.6757308E-2,4.5126496E-4,9.378754E-3,1.524372E-2,-9.287617E-3,7.1617947E-3,-6.4298784E-4,-1.5085514E-2],"split_indices":[1,0,2,0,1,1,0,1,0,1,0,0,0,1,1,0,0,1,0,0,0,0,0,0,0,0,0,0,0],"split_type":[0,0,0,0,0,0,0,0,0,0,0,0,0,0,0,0,0,0,0,0,0,0,0,0,0,0,0,0,0],"sum_hessian":[1.6992848E2,1.4751851E2,2.240997E1,7.993912E1,6.757939E1,2.79009E0,1.9619879E1,2.16875E1,5.825162E1,6.482989E1,2.749501E0,1.540697E0,1.2493931E0,7.4916267E0,1.4195873E1,3.5378437E1,2.2873184E1,6.2207798E1,2.6220932E0,1.2493931E0,6.2422338E0,6.4923916E0,7.703482E0,1.7681099E1,1.7697338E1,2.3949664E0,2.0478218E1,5.8958412E1,3.2493827E0],"tree_param":{"num_deleted":"0","num_feature":"3","num_nodes":"29","size_leaf_vector":"1"}},{"base_weights":[-1.3764175E-3,2.5634682E-1,-1.6371276E0,6.106948E-1,-1.6550508E-1,-6.2071997E-1,-1.7446116E-2,-3.6482763E-1,9.7391707E-1,-9.059593E-2,-1.4367527E-2,3.1077059E-4,-1.0810456E-2,4.4547737E-1,-7.9366976E-1,1.1632453E0,3.0383274E-1,-1.6103859E-1,1.1636949E-2,-1.0810456E-2,8.580851E-3,-1.662141E-2,4.4727253E-4,-6.3698613E-3,1.2446661E-2,5.905596E-3,-6.548113E-3,-6.36666E-4,-1.4973205E-2],"categories":[],"categories_nodes":[],"categories_segments":[],"categories_sizes":[],"default_left":[0,0,0,0,0,0,0,0,0,0,0,0,0,0,0,0,0,0,0,0,0,0,0,0,0,0,0,0,0],"id":5,"left_children":[1,3,5,7,9,11,-1,13,15,17,-1,-1,-1,19,21,23,25,27,-1,-1,-1,-1,-1,-1,-1,-1,-1,-1,-1],"loss_changes":[7.246272E1,2.2298626E1,1.4729996E0,2.9027258E1,6.4003587E0,1.1706692E0,0E0,8.235367E0,7.1616554E0,6.0037494E0,0E0,0E0,0E0,6.2752385E0,1.1135777E1,7.5109024E0,4.34573E0,8.128922E0,0E0,0E0,0E0,0E0,0E0,0E0,0E0,0E0,0E0,0E0,0E0],"parents":[2147483647,0,0,1,1,2,2,3,3,4,4,5,5,7,7,8,8,9,9,13,13,14,14,15,15,16,16,17,17],"right_children":[2,4,6,8,10,12,-1,14,16,18,-1,-1,-1,20,22,24,26,28,-1,-1,-1,-1,-1,-1,-1,-1,-1,-1,-1],"split_conditions":[6.356727E-1,6.0844788E1,-2.9654045E0,-2.0693653E0,4.2101096E-2,3.6831899E0,-1.7446116E-2,2.43078E-2,5.162291E1,3.901726E-2,-1.4367527E-2,3.1077059E-4,-1.0810456E-2,2.0093694E-2,4.275363E-2,-3.5465E0,2.7653747E0,2.423817E-2,1.1636949E-2,-1.0810456E-2,8.580851E-3,-1.662141E-2,4.4727253E-4,-6.3698613E-3,1.2446661E-2,5.905596E-3,-6.548113E-3,-6.36666E-4,-1.4973205E-2],"split_indices":[1,0,2,0,1,1,0,1,0,1,0,0,0,1,1,2,2,1,0,0,0,0,0,0,0,0,0,0,0],"split_type":[0,0,0,0,0,0,0,0,0,0,0,0,0,0,0,0,0,0,0,0,0,0,0,0,0,0,0,0,0],"sum_hessian":[1.698918E2,1.4749612E2,2.2395687E1,7.9918434E1,6.757769E1,2.7897537E0,1.9605934E1,2.1681913E1,5.823652E1,6.4828865E1,2.7488213E0,1.5406966E0,1.249057E0,7.490219E0,1.4191694E1,4.4833202E1,1.34033165E1,6.2206856E1,2.6220112E0,1.249057E0,6.241162E0,6.488216E0,7.7034783E0,1.6447201E0,4.318848E1,1.0612978E1,2.7903383E0,5.8958336E1,3.2485223E0],"tree_param":{"num_deleted":"0","num_feature":"3","num_nodes":"29","size_leaf_vector":"1"}},{"base_weights":[-1.7103666E-3,2.536195E-1,-1.623151E0,6.046136E-1,-1.6412379E-1,-6.1735034E-1,-1.7294291E-2,-3.6210003E-1,9.6456516E-1,1.55332E-1,-4.502319E-1,3.0888538E-4,-1.0752375E-2,4.408486E-1,-7.8706163E-1,1.1521754E0,3.007716E-1,3.2753247E-1,-1.3972928E-2,-1.5792876E-2,-2.5216523E-1,-1.0752375E-2,8.50842E-3,-1.6488539E-2,4.4331374E-4,-6.3304757E-3,1.2329755E-2,5.8522336E-3,-6.4996E-3,-6.2267557E-3,4.450796E-3,1.3034344E-2,-3.9706854E-3],"categories":[],"categories_nodes":[],"categories_segments":[],"categories_sizes":[],"default_left":[0,0,0,0,0,0,0,0,0,0,0,0,0,0,0,0,0,0,0,0,0,0,0,0,0,0,0,0,0,0,0,0,0],"id":6,"left_children":[1,3,5,7,9,11,-1,13,15,17,19,-1,-1,21,23,25,27,29,-1,-1,31,-1,-1,-1,-1,-1,-1,-1,-1,-1,-1,-1,-1],"loss_changes":[7.1142815E1,2.1868538E1,1.431366E0,2.8497833E1,6.3376303E0,1.1579672E0,0E0,8.0842495E0,7.028202E0,9.318835E0,7.7490463E0,0E0,0E0,6.1911945E0,1.0954154E1,7.3893433E0,4.27529E0,3.6999137E0,0E0,0E0,7.7724066E0,0E0,0E0,0E0,0E0,0E0,0E0,0E0,0E0,0E0,0E0,0E0,0E0],"parents":[2147483647,0,0,1,1,2,2,3,3,4,4,5,5,7,7,8,8,9,9,10,10,13,13,14,14,15,15,16,16,17,17,20,20],"right_children":[2,4,6,8,10,12,-1,14,16,18,20,-1,-1,22,24,26,28,30,-1,-1,32,-1,-1,-1,-1,-1,-1,-1,-1,-1,-1,-1,-1],"split_conditions":[6.356727E-1,6.0844788E1,-2.9654045E0,-2.0693653E0,1.4573004E-2,3.6831899E0,-1.7294291E-2,2.43078E-2,5.162291E1,7.391117E2,6.8532234E1,3.0888538E-4,-1.0752375E-2,2.0093694E-2,4.275363E-2,-3.5465E0,2.7653747E0,9.745367E-3,-1.3972928E-2,-1.5792876E-2,7.350155E1,-1.0752375E-2,8.50842E-3,-1.6488539E-2,4.4331374E-4,-6.3304757E-3,1.2329755E-2,5.8522336E-3,-6.4996E-3,-6.2267557E-3,4.450796E-3,1.3034344E-2,-3.9706854E-3],"split_indices":[1,0,2,0,1,1,0,1,0,0,0,0,0,1,1,2,2,1,0,0,0,0,0,0,0,0,0,0,0,0,0,0,0],"split_type":[0,0,0,0,0,0,0,0,0,0,0,0,0,0,0,0,0,0,0,0,0,0,0,0,0,0,0,0,0,0,0,0,0],"sum_hessian":[1.6984729E2,1.4746881E2,2.2378475E1,7.989365E1,6.7575165E1,2.789346E0,1.958913E1,2.167517E1,5.821848E1,3.21429E1,3.5432266E1,1.5406963E0,1.2486496E0,7.488518E0,1.4186652E1,4.4816185E1,1.3402297E1,2.9644136E1,2.4987636E0,4.2473326E0,3.1184935E1,1.2486496E0,6.2398686E0,6.483178E0,7.703474E0,1.644625E0,4.317156E1,1.0611781E1,2.7905157E0,2.790392E0,2.6853745E1,1.976044E0,2.920889E1],"tree_param":{"num_deleted":"0","num_feature":"3","num_nodes":"33","size_leaf_vector":"1"}},{"base_weights":[-2.0641647E-3,2.5090438E-1,-1.6094937E0,5.9862536E-1,-1.6282406E-1,-6.14011E-1,-1.7146131E-2,-3.5941213E-1,9.553577E-1,-8.855754E-2,-1.4237932E-2,3.070119E-4,-1.0694949E-2,4.3627828E-1,-7.8055274E-1,1.1412898E0,2.9774514E-1,-1.5860496E-1,1.1581936E-2,-1.0694949E-2,8.436854E-3,-1.6358592E-2,4.393909E-4,-6.291412E-3,1.2214822E-2,5.7994383E-3,-6.4515513E-3,-6.211466E-4,-1.4833985E-2],"categories":[],"categories_nodes":[],"categories_segments":[],"categories_sizes":[],"default_left":[0,0,0,0,0,0,0,0,0,0,0,0,0,0,0,0,0,0,0,0,0,0,0,0,0,0,0,0,0],"id":7,"left_children":[1,3,5,7,9,11,-1,13,15,17,-1,-1,-1,19,21,23,25,27,-1,-1,-1,-1,-1,-1,-1,-1,-1,-1,-1],"loss_changes":[6.985293E1,2.1451466E1,1.3915405E0,2.7979807E1,6.2952924E0,1.1454586E0,0E0,7.9362984E0,6.8982925E0,5.932035E0,0E0,0E0,0E0,6.1084886E0,1.0777257E1,7.2703667E0,4.206059E0,7.9867067E0,0E0,0E0,0E0,0E0,0E0,0E0,0E0,0E0,0E0,0E0,0E0],"parents":[2147483647,0,0,1,1,2,2,3,3,4,4,5,5,7,7,8,8,9,9,13,13,14,14,15,15,16,16,17,17],"right_children":[2,4,6,8,10,12,-1,14,16,18,-1,-1,-1,20,22,24,26,28,-1,-1,-1,-1,-1,-1,-1,-1,-1,-1,-1],"split_conditions":[6.356727E-1,6.0844788E1,-2.9654045E0,-2.0693653E0,4.2101096E-2,3.6831899E0,-1.7146131E-2,2.43078E-2,5.162291E1,3.901726E-2,-1.4237932E-2,3.070119E-4,-1.0694949E-2,2.0093694E-2,4.275363E-2,-3.5465E0,2.7653747E0,2.423817E-2,1.1581936E-2,-1.0694949E-2,8.436854E-3,-1.6358592E-2,4.393909E-4,-6.291412E-3,1.2214822E-2,5.7994383E-3,-6.4515513E-3,-6.211466E-4,-1.4833985E-2],"split_indices":[1,0,2,0,1,1,0,1,0,1,0,0,0,1,1,2,2,1,0,0,0,0,0,0,0,0,0,0,0],"split_type":[0,0,0,0,0,0,0,0,0,0,0,0,0,0,0,0,0,0,0,0,0,0,0,0,0,0,0,0,0],"sum_hessian":[1.6979225E2,1.4743382E2,2.2358425E1,7.986436E1,6.7569466E1,2.7888682E0,1.9569557E1,2.1667305E1,5.8197052E1,6.482192E1,2.7475471E0,1.5406959E0,1.2481724E0,7.486532E0,1.4180773E1,4.479601E1,1.3401044E1,6.2200058E1,2.6218607E0,1.2481724E0,6.23836E0,6.477304E0,7.703469E0,1.6444974E0,4.3151512E1,1.0610412E1,2.7906327E0,5.895314E1,3.2469194E0],"tree_param":{"num_deleted":"0","num_feature":"3","num_nodes":"29","size_leaf_vector":"1"}},{"base_weights":[-2.3878522E-3,2.4824896E-1,-1.5961442E0,5.927274E-1,-1.6146831E-1,-6.107014E-1,-1.7001495E-2,-3.567632E-1,9.462906E-1,-8.7733775E-2,-1.41385E-2,3.051509E-4,-1.0638168E-2,4.3176508E-1,-7.7414095E-1,1.2199739E0,4.9007872E-1,-1.5726802E-1,1.1499287E-2,-1.0638168E-2,8.366137E-3,-1.6231477E-2,4.354999E-4,1.6380893E-2,9.962604E-3,-9.320033E-3,6.921286E-3,-6.150394E-4,-1.4726363E-2],"categories":[],"categories_nodes":[],"categories_segments":[],"categories_sizes":[],"default_left":[0,0,0,0,0,0,0,0,0,0,0,0,0,0,0,0,0,0,0,0,0,0,0,0,0,0,0,0,0],"id":8,"left_children":[1,3,5,7,9,11,-1,13,15,17,-1,-1,-1,19,21,23,25,27,-1,-1,-1,-1,-1,-1,-1,-1,-1,-1,-1],"loss_changes":[6.859595E1,2.1040237E1,1.3534164E0,2.7472855E1,6.2076025E0,1.1331404E0,0E0,7.7914295E0,6.7902374E0,5.845291E0,0E0,0E0,0E0,6.0270944E0,1.0604916E1,1.7647285E0,7.5004663E0,7.8702016E0,0E0,0E0,0E0,0E0,0E0,0E0,0E0,0E0,0E0,0E0,0E0],"parents":[2147483647,0,0,1,1,2,2,3,3,4,4,5,5,7,7,8,8,9,9,13,13,14,14,15,15,16,16,17,17],"right_children":[2,4,6,8,10,12,-1,14,16,18,-1,-1,-1,20,22,24,26,28,-1,-1,-1,-1,-1,-1,-1,-1,-1,-1,-1],"split_conditions":[6.356727E-1,6.0844788E1,-2.9654045E0,-2.0693653E0,4.2101096E-2,3.6831899E0,-1.7001495E-2,2.43078E-2,1.8198387E1,3.901726E-2,-1.41385E-2,3.051509E-4,-1.0638168E-2,2.0093694E-2,4.275363E-2,4.0271085E-2,4.419711E1,2.423817E-2,1.1499287E-2,-1.0638168E-2,8.366137E-3,-1.6231477E-2,4.354999E-4,1.6380893E-2,9.962604E-3,-9.320033E-3,6.921286E-3,-6.150394E-4,-1.4726363E-2],"split_indices":[1,0,2,0,1,1,0,1,0,1,0,0,0,1,1,1,0,1,0,0,0,0,0,0,0,0,0,0,0],"split_type":[0,0,0,0,0,0,0,0,0,0,0,0,0,0,0,0,0,0,0,0,0,0,0,0,0,0,0,0,0],"sum_hessian":[1.6973232E2,1.473967E2,2.2335617E1,7.983068E1,6.756601E1,2.7883217E0,1.9547295E1,2.1658346E1,5.817234E1,6.481977E1,2.74624E0,1.5406953E0,1.2476264E0,7.484268E0,1.4174078E1,3.5313496E1,2.2858843E1,6.219828E1,2.6214871E0,1.2476264E0,6.236642E0,6.4706144E0,7.7034636E0,1.0105071E1,2.5208424E1,2.3943095E0,2.0464535E1,5.8953022E1,3.2452583E0],"tree_param":{"num_deleted":"0","num_feature":"3","num_nodes":"29","size_leaf_vector":"1"}},{"base_weights":[-2.596825E-3,2.4575283E-1,-1.5830917E0,5.8713907E-1,-1.6012613E-1,-6.074212E-1,-1.686026E-2,-3.5415217E-1,9.376544E-1,1.5451075E-1,-4.420341E-1,3.0330048E-4,-1.0582019E-2,4.273078E-1,-7.678234E-1,1.1214986E0,2.8835535E-1,3.25404E-1,-1.3868251E-2,-1.5661394E-2,-2.450453E-1,-1.0582019E-2,8.29625E-3,-1.61071E-2,4.3164493E-4,-6.2397495E-3,1.2007083E-2,5.684968E-3,-6.45502E-3,-7.7279373E-3,4.2468533E-3,1.2958225E-2,-3.887497E-3],"categories":[],"categories_nodes":[],"categories_segments":[],"categories_sizes":[],"default_left":[0,0,0,0,0,0,0,0,0,0,0,0,0,0,0,0,0,0,0,0,0,0,0,0,0,0,0,0,0,0,0,0,0],"id":9,"left_children":[1,3,5,7,9,11,-1,13,15,17,19,-1,-1,21,23,25,27,29,-1,-1,31,-1,-1,-1,-1,-1,-1,-1,-1,-1,-1,-1,-1],"loss_changes":[6.737811E1,2.065044E1,1.3168983E0,2.6989058E1,6.149634E0,1.121008E0,0E0,7.649562E0,6.736843E0,9.180768E0,7.6810803E0,0E0,0E0,5.9469857E0,1.0436965E1,7.0743065E0,4.1335106E0,3.6692514E0,0E0,0E0,7.6283484E0,0E0,0E0,0E0,0E0,0E0,0E0,0E0,0E0,0E0,0E0,0E0,0E0],"parents":[2147483647,0,0,1,1,2,2,3,3,4,4,5,5,7,7,8,8,9,9,10,10,13,13,14,14,15,15,16,16,17,17,20,20],"right_children":[2,4,6,8,10,12,-1,14,16,18,20,-1,-1,22,24,26,28,30,-1,-1,32,-1,-1,-1,-1,-1,-1,-1,-1,-1,-1,-1,-1],"split_conditions":[6.356727E-1,6.0844788E1,-2.9654045E0,-2.0693653E0,1.4573004E-2,3.6831899E0,-1.686026E-2,2.43078E-2,5.162291E1,7.391117E2,6.8532234E1,3.0330048E-4,-1.0582019E-2,2.0093694E-2,4.275363E-2,-3.5465E0,2.7653747E0,6.2416527E1,-1.3868251E-2,-1.5661394E-2,7.350155E1,-1.0582019E-2,8.29625E-3,-1.61071E-2,4.3164493E-4,-6.2397495E-3,1.2007083E-2,5.684968E-3,-6.45502E-3,-7.7279373E-3,4.2468533E-3,1.2958225E-2,-3.887497E-3],"split_indices":[1,0,2,0,1,1,0,1,0,0,0,0,0,1,1,2,2,0,0,0,0,0,0,0,0,0,0,0,0,0,0,0,0],"split_type":[0,0,0,0,0,0,0,0,0,0,0,0,0,0,0,0,0,0,0,0,0,0,0,0,0,0,0,0,0,0,0,0,0],"sum_hessian":[1.6966609E2,1.4735596E2,2.2310135E1,7.979418E1,6.756177E1,2.7877078E0,1.9522429E1,2.1648321E1,5.8145863E1,3.2141083E1,3.5420685E1,1.5406947E0,1.2470131E0,7.481732E0,1.416659E1,4.474843E1,1.3397436E1,2.9643307E1,2.497774E0,4.2452135E0,3.1175472E1,1.2470131E0,6.234719E0,6.463133E0,7.703457E0,1.6439779E0,4.310445E1,1.060681E1,2.790626E0,1.8952445E0,2.7748062E1,1.9755365E0,2.9199936E1],"tree_param":{"num_deleted":"0","num_feature":"3","num_nodes":"33","size_leaf_vector":"1"}},{"base_weights":[-2.9482543E-3,2.4312626E-1,-1.5703263E0,5.8140767E-1,-1.5889008E-1,-6.041702E-1,-1.6722307E-2,-3.5157788E-1,9.28844E-1,-8.5784934E-2,-1.4014085E-2,3.0146175E-4,-1.0526492E-2,4.229057E-1,-7.615977E-1,1.1111094E0,2.854549E-1,-1.5493155E-1,1.1445267E-2,-1.0526492E-2,8.227182E-3,-1.5985373E-2,4.2782768E-4,-6.2014256E-3,1.1897448E-2,5.633937E-3,-6.407393E-3,-6.003198E-4,-1.4593018E-2],"categories":[],"categories_nodes":[],"categories_segments":[],"categories_sizes":[],"default_left":[0,0,0,0,0,0,0,0,0,0,0,0,0,0,0,0,0,0,0,0,0,0,0,0,0,0,0,0,0],"id":10,"left_children":[1,3,5,7,9,11,-1,13,15,17,-1,-1,-1,19,21,23,25,27,-1,-1,-1,-1,-1,-1,-1,-1,-1,-1,-1],"loss_changes":[6.617686E1,2.0261429E1,1.2819366E0,2.650278E1,6.106942E0,1.1090577E0,0E0,7.5106287E0,6.6151505E0,5.775975E0,0E0,0E0,0E0,5.8681383E0,1.027325E1,6.961994E0,4.066784E0,7.734279E0,0E0,0E0,0E0,0E0,0E0,0E0,0E0,0E0,0E0,0E0,0E0],"parents":[2147483647,0,0,1,1,2,2,3,3,4,4,5,5,7,7,8,8,9,9,13,13,14,14,15,15,16,16,17,17],"right_children":[2,4,6,8,10,12,-1,14,16,18,-1,-1,-1,20,22,24,26,28,-1,-1,-1,-1,-1,-1,-1,-1,-1,-1,-1],"split_conditions":[6.356727E-1,6.0844788E1,-2.9654045E0,-2.0693653E0,4.2101096E-2,3.6831899E0,-1.6722307E-2,2.43078E-2,5.162291E1,3.901726E-2,-1.4014085E-2,3.0146175E-4,-1.0526492E-2,2.0093694E-2,4.275363E-2,-3.5465E0,2.7653747E0,2.423817E-2,1.1445267E-2,-1.0526492E-2,8.227182E-3,-1.5985373E-2,4.2782768E-4,-6.2014256E-3,1.1897448E-2,5.633937E-3,-6.407393E-3,-6.003198E-4,-1.4593018E-2],"split_indices":[1,0,2,0,1,1,0,1,0,1,0,0,0,1,1,2,2,1,0,0,0,0,0,0,0,0,0,0,0],"split_type":[0,0,0,0,0,0,0,0,0,0,0,0,0,0,0,0,0,0,0,0,0,0,0,0,0,0,0,0,0],"sum_hessian":[1.6958974E2,1.4730768E2,2.2282059E1,7.975265E1,6.755503E1,2.7870274E0,1.9495031E1,2.1637262E1,5.8115383E1,6.481084E1,2.744187E0,1.540694E0,1.2463334E0,7.478932E0,1.4158331E1,4.471977E1,1.3395612E1,6.2189693E1,2.6211457E0,1.2463334E0,6.2325983E0,6.4548817E0,7.7034497E0,1.6437764E0,4.3075993E1,1.0604923E1,2.7906885E0,5.8947025E1,3.2426715E0],"tree_param":{"num_deleted":"0","num_feature":"3","num_nodes":"29","size_leaf_vector":"1"}},{"base_weights":[-3.259183E-3,2.4057083E-1,-1.5578382E0,5.7575965E-1,-1.5757246E-1,-6.0094774E-1,-1.658752E-2,-3.4903994E-1,9.2016315E-1,-8.498842E-2,-1.3918477E-2,2.9963432E-4,-1.0471576E-2,4.1855696E-1,-7.554617E-1,1.1008842E0,2.825869E-1,1.504704E-1,-4.5173538E-1,-1.0471576E-2,8.158906E-3,-1.5866213E-2,4.2404054E-4,-6.163412E-3,1.1789566E-2,5.5834376E-3,-6.3602156E-3,-1.1642064E-3,9.462118E-3,1.6093139E-3,-7.7168993E-3],"categories":[],"categories_nodes":[],"categories_segments":[],"categories_sizes":[],"default_left":[0,0,0,0,0,0,0,0,0,0,0,0,0,0,0,0,0,0,0,0,0,0,0,0,0,0,0,0,0,0,0],"id":11,"left_children":[1,3,5,7,9,11,-1,13,15,17,-1,-1,-1,19,21,23,25,27,29,-1,-1,-1,-1,-1,-1,-1,-1,-1,-1,-1,-1],"loss_changes":[6.500652E1,1.9876091E1,1.2484131E0,2.6026724E1,6.023005E0,1.097286E0,0E0,7.374543E0,6.496521E0,5.7507114E0,0E0,0E0,0E0,5.790526E0,1.011361E1,6.851967E0,4.001193E0,8.780922E0,5.2169795E0,0E0,0E0,0E0,0E0,0E0,0E0,0E0,0E0,0E0,0E0,0E0,0E0],"parents":[2147483647,0,0,1,1,2,2,3,3,4,4,5,5,7,7,8,8,9,9,13,13,14,14,15,15,16,16,17,17,18,18],"right_children":[2,4,6,8,10,12,-1,14,16,18,-1,-1,-1,20,22,24,26,28,30,-1,-1,-1,-1,-1,-1,-1,-1,-1,-1,-1,-1],"split_conditions":[6.356727E-1,6.0844788E1,-2.9654045E0,-2.0693653E0,4.2101096E-2,3.6831899E0,-1.658752E-2,2.43078E-2,5.162291E1,6.8539905E2,-1.3918477E-2,2.9963432E-4,-1.0471576E-2,2.0093694E-2,4.275363E-2,-3.5465E0,2.7653747E0,6.5138727E2,1.2763873E-2,-1.0471576E-2,8.158906E-3,-1.5866213E-2,4.2404054E-4,-6.163412E-3,1.1789566E-2,5.5834376E-3,-6.3602156E-3,-1.1642064E-3,9.462118E-3,1.6093139E-3,-7.7168993E-3],"split_indices":[1,0,2,0,1,1,0,1,0,0,0,0,0,1,1,2,2,0,1,0,0,0,0,0,0,0,0,0,0,0,0],"split_type":[0,0,0,0,0,0,0,0,0,0,0,0,0,0,0,0,0,0,0,0,0,0,0,0,0,0,0,0,0,0,0],"sum_hessian":[1.6950845E2,1.4725699E2,2.2251467E1,7.9707085E1,6.7549904E1,2.7862818E0,1.9465185E1,2.1625196E1,5.808189E1,6.480762E1,2.7422855E0,1.5406932E0,1.2455885E0,7.475873E0,1.41493225E1,4.4688313E1,1.3393579E1,3.982737E1,2.4980247E1,1.2455885E0,6.2302847E0,6.4458814E0,7.7034416E0,1.6435447E0,4.304477E1,1.0602886E1,2.7906923E0,3.0463598E1,9.363771E0,8.74049E0,1.6239758E1],"tree_param":{"num_deleted":"0","num_feature":"3","num_nodes":"31","size_leaf_vector":"1"}},{"base_weights":[-3.5306148E-3,2.3808439E-1,-1.5456177E0,5.7019323E-1,-1.5617537E-1,-5.9775376E-1,-1.6455783E-2,-3.4653726E-1,9.1160893E-1,1.5322067E-1,-4.3350786E-1,2.9781697E-4,-1.0417262E-2,4.1426092E-1,-7.494131E-1,1.1777694E0,4.6899414E-1,3.2288292E-1,-1.3774319E-2,-1.5528706E-2,-2.3759128E-1,-1.0417262E-2,8.091413E-3,-1.5749536E-2,4.2028632E-4,1.5957676E-2,9.556946E-3,-9.350523E-3,6.6928607E-3,-6.195802E-3,4.3954425E-3,1.2886554E-2,-3.801175E-3],"categories":[],"categories_nodes":[],"categories_segments":[],"categories_sizes":[],"default_left":[0,0,0,0,0,0,0,0,0,0,0,0,0,0,0,0,0,0,0,0,0,0,0,0,0,0,0,0,0,0,0,0,0],"id":12,"left_children":[1,3,5,7,9,11,-1,13,15,17,19,-1,-1,21,23,25,27,29,-1,-1,31,-1,-1,-1,-1,-1,-1,-1,-1,-1,-1,-1,-1],"loss_changes":[6.386604E1,1.94945E1,1.2162704E0,2.5560635E1,5.9481096E0,1.0856892E0,0E0,7.24124E0,6.403576E0,9.050807E0,7.615268E0,0E0,0E0,5.7141266E0,9.957903E0,1.8362808E0,7.32855E0,3.641457E0,0E0,0E0,7.4867077E0,0E0,0E0,0E0,0E0,0E0,0E0,0E0,0E0,0E0,0E0,0E0,0E0],"parents":[2147483647,0,0,1,1,2,2,3,3,4,4,5,5,7,7,8,8,9,9,10,10,13,13,14,14,15,15,16,16,17,17,20,20],"right_children":[2,4,6,8,10,12,-1,14,16,18,20,-1,-1,22,24,26,28,30,-1,-1,32,-1,-1,-1,-1,-1,-1,-1,-1,-1,-1,-1,-1],"split_conditions":[6.356727E-1,6.0844788E1,-2.9654045E0,-2.0693653E0,1.4573004E-2,3.6831899E0,-1.6455783E-2,2.43078E-2,1.8198387E1,7.391117E2,6.8532234E1,2.9781697E-4,-1.0417262E-2,2.0093694E-2,4.275363E-2,4.0271085E-2,4.419711E1,9.745367E-3,-1.3774319E-2,-1.5528706E-2,7.350155E1,-1.0417262E-2,8.091413E-3,-1.5749536E-2,4.2028632E-4,1.5957676E-2,9.556946E-3,-9.350523E-3,6.6928607E-3,-6.195802E-3,4.3954425E-3,1.2886554E-2,-3.801175E-3],"split_indices":[1,0,2,0,1,1,0,1,0,0,0,0,0,1,1,1,0,1,0,0,0,0,0,0,0,0,0,0,0,0,0,0,0],"split_type":[0,0,0,0,0,0,0,0,0,0,0,0,0,0,0,0,0,0,0,0,0,0,0,0,0,0,0,0,0,0,0,0,0],"sum_hessian":[1.6942274E2,1.4720432E2,2.221844E1,7.965763E1,6.754668E1,2.7854726E0,1.9432966E1,2.161215E1,5.8045483E1,3.2139225E1,3.540745E1,1.5406923E0,1.2447802E0,7.4725633E0,1.4139587E1,3.521093E1,2.2834553E1,2.9642603E1,2.4966226E0,4.2424097E0,3.1165043E1,1.2447802E0,6.227783E0,6.4361544E0,7.7034335E0,1.0070361E1,2.5140568E1,2.392772E0,2.0441782E1,2.7902546E0,2.6852348E1,1.9749283E0,2.9190115E1],"tree_param":{"num_deleted":"0","num_feature":"3","num_nodes":"33","size_leaf_vector":"1"}},{"base_weights":[-3.7530889E-3,2.3568532E-1,-1.533656E0,5.649119E-1,-1.549553E-1,-5.945877E-1,-1.6327E-2,-3.440689E-1,9.034437E-1,-8.29835E-2,-1.3798971E-2,2.960097E-4,-1.0363538E-2,4.100167E-1,-7.4344957E-1,1.0822991E0,2.7357662E-1,-1.5175791E-1,1.1399469E-2,-1.0363538E-2,8.02469E-3,-1.5635265E-2,4.1656636E-4,-4.296626E-3,1.1719458E-2,5.4736487E-3,-6.362662E-3,-5.771517E-4,-1.4455856E-2],"categories":[],"categories_nodes":[],"categories_segments":[],"categories_sizes":[],"default_left":[0,0,0,0,0,0,0,0,0,0,0,0,0,0,0,0,0,0,0,0,0,0,0,0,0,0,0,0,0],"id":13,"left_children":[1,3,5,7,9,11,-1,13,15,17,-1,-1,-1,19,21,23,25,27,-1,-1,-1,-1,-1,-1,-1,-1,-1,-1,-1],"loss_changes":[6.275555E1,1.9140335E1,1.1854515E0,2.511515E1,5.927872E0,1.0742631E0,0E0,7.1106505E0,6.3515587E0,5.707051E0,0E0,0E0,0E0,5.6389174E0,9.805992E0,6.687027E0,3.9325218E0,7.6036997E0,0E0,0E0,0E0,0E0,0E0,0E0,0E0,0E0,0E0,0E0,0E0],"parents":[2147483647,0,0,1,1,2,2,3,3,4,4,5,5,7,7,8,8,9,9,13,13,14,14,15,15,16,16,17,17],"right_children":[2,4,6,8,10,12,-1,14,16,18,-1,-1,-1,20,22,24,26,28,-1,-1,-1,-1,-1,-1,-1,-1,-1,-1,-1],"split_conditions":[6.356727E-1,6.0844788E1,-2.9654045E0,-2.0693653E0,4.2101096E-2,3.6831899E0,-1.6327E-2,2.43078E-2,5.162291E1,3.901726E-2,-1.3798971E-2,2.960097E-4,-1.0363538E-2,2.0093694E-2,4.275363E-2,-3.4077897E0,2.7653747E0,2.423817E-2,1.1399469E-2,-1.0363538E-2,8.02469E-3,-1.5635265E-2,4.1656636E-4,-4.296626E-3,1.1719458E-2,5.4736487E-3,-6.362662E-3,-5.771517E-4,-1.4455856E-2],"split_indices":[1,0,2,0,1,1,0,1,0,1,0,0,0,1,1,2,2,1,0,0,0,0,0,0,0,0,0,0,0],"split_type":[0,0,0,0,0,0,0,0,0,0,0,0,0,0,0,0,0,0,0,0,0,0,0,0,0,0,0,0,0],"sum_hessian":[1.693279E2,1.4714484E2,2.2183048E1,7.960702E1,6.753783E1,2.7846003E0,1.9398447E1,2.1598154E1,5.800886E1,6.4798325E1,2.7394984E0,1.5406914E0,1.2439088E0,7.4690084E0,1.4129147E1,4.4620304E1,1.3388558E1,6.2177532E1,2.6207952E0,1.2439088E0,6.2250996E0,6.425722E0,7.7034245E0,2.2852314E0,4.233507E1,1.0597865E1,2.7906938E0,5.893818E1,3.239353E0],"tree_param":{"num_deleted":"0","num_feature":"3","num_nodes":"29","size_leaf_vector":"1"}},{"base_weights":[-4.041049E-3,2.3323528E-1,-1.5219449E0,5.59517E-1,-1.536745E-1,-5.91449E-1,-1.6201066E-2,-3.4163424E-1,8.95148E-1,-8.22138E-2,-1.3706961E-2,2.9421583E-4,-1.0310396E-2,4.058229E-1,-7.3756915E-1,1.072551E0,2.7082762E-1,1.5106373E-1,-4.4562396E-1,-1.0310396E-2,7.958717E-3,-1.5523326E-2,4.1288065E-4,-6.085875E-3,1.1492491E-2,5.4248064E-3,-6.315903E-3,-1.1324028E-3,9.387521E-3,1.6109252E-3,-7.6257014E-3],"categories":[],"categories_nodes":[],"categories_segments":[],"categories_sizes":[],"default_left":[0,0,0,0,0,0,0,0,0,0,0,0,0,0,0,0,0,0,0,0,0,0,0,0,0,0,0,0,0,0,0],"id":14,"left_children":[1,3,5,7,9,11,-1,13,15,17,-1,-1,-1,19,21,23,25,27,29,-1,-1,-1,-1,-1,-1,-1,-1,-1,-1,-1,-1],"loss_changes":[6.166471E1,1.8780159E1,1.1558609E0,2.4668795E1,5.847448E0,1.0630069E0,0E0,6.9827023E0,6.24057E0,5.6450787E0,0E0,0E0,0E0,5.564874E0,9.657752E0,6.5767326E0,3.869279E0,8.604322E0,5.117903E0,0E0,0E0,0E0,0E0,0E0,0E0,0E0,0E0,0E0,0E0,0E0,0E0],"parents":[2147483647,0,0,1,1,2,2,3,3,4,4,5,5,7,7,8,8,9,9,13,13,14,14,15,15,16,16,17,17,18,18],"right_children":[2,4,6,8,10,12,-1,14,16,18,-1,-1,-1,20,22,24,26,28,30,-1,-1,-1,-1,-1,-1,-1,-1,-1,-1,-1,-1],"split_conditions":[6.356727E-1,6.0844788E1,-2.9654045E0,-2.0693653E0,4.2101096E-2,3.6831899E0,-1.6201066E-2,2.43078E-2,5.162291E1,6.8539905E2,-1.3706961E-2,2.9421583E-4,-1.0310396E-2,2.0093694E-2,4.275363E-2,-3.5465E0,2.7653747E0,6.5138727E2,1.2763873E-2,-1.0310396E-2,7.958717E-3,-1.5523326E-2,4.1288065E-4,-6.085875E-3,1.1492491E-2,5.4248064E-3,-6.315903E-3,-1.1324028E-3,9.387521E-3,1.6109252E-3,-7.6257014E-3],"split_indices":[1,0,2,0,1,1,0,1,0,0,0,0,0,1,1,2,2,0,1,0,0,0,0,0,0,0,0,0,0,0,0],"split_type":[0,0,0,0,0,0,0,0,0,0,0,0,0,0,0,0,0,0,0,0,0,0,0,0,0,0,0,0,0,0,0],"sum_hessian":[1.692279E2,1.4708255E2,2.2145367E1,7.955096E1,6.7531586E1,2.7836666E0,1.93617E1,2.1583233E1,5.7967724E1,6.4794556E1,2.7370338E0,1.5406905E0,1.2429761E0,7.4652143E0,1.4118019E1,4.458171E1,1.3386014E1,3.981873E1,2.4975822E1,1.2429761E0,6.222238E0,6.4146037E0,7.703415E0,1.6426117E0,4.29391E1,1.0595369E1,2.7906442E0,3.0455732E1,9.362996E0,8.738955E0,1.6236868E1],"tree_param":{"num_deleted":"0","num_feature":"3","num_nodes":"31","size_leaf_vector":"1"}},{"base_weights":[-4.3018227E-3,2.3083985E-1,-1.5104755E0,5.5417556E-1,-1.5231612E-1,-5.883377E-1,-1.6077884E-2,-3.3923244E-1,8.8694096E-1,-8.136033E-2,-1.3616468E-2,2.9243156E-4,-1.0257824E-2,4.016787E-1,-7.3176974E-1,1.0629147E0,2.6810873E-1,-1.496463E-1,1.1327254E-2,-1.0257824E-2,7.89348E-3,-1.5413647E-2,4.0922783E-4,-4.259886E-3,1.1513931E-2,5.376461E-3,-6.2695825E-3,-5.631389E-4,-1.4348298E-2],"categories":[],"categories_nodes":[],"categories_segments":[],"categories_sizes":[],"default_left":[0,0,0,0,0,0,0,0,0,0,0,0,0,0,0,0,0,0,0,0,0,0,0,0,0,0,0,0,0],"id":15,"left_children":[1,3,5,7,9,11,-1,13,15,17,-1,-1,-1,19,21,23,25,27,-1,-1,-1,-1,-1,-1,-1,-1,-1,-1,-1],"loss_changes":[6.0600254E1,1.8422043E1,1.1274643E0,2.4230473E1,5.769433E0,1.0519145E0,0E0,6.8573346E0,6.131691E0,5.624034E0,0E0,0E0,0E0,5.4919767E0,9.513049E0,6.4897614E0,3.8071055E0,7.4966755E0,0E0,0E0,0E0,0E0,0E0,0E0,0E0,0E0,0E0,0E0,0E0],"parents":[2147483647,0,0,1,1,2,2,3,3,4,4,5,5,7,7,8,8,9,9,13,13,14,14,15,15,16,16,17,17],"right_children":[2,4,6,8,10,12,-1,14,16,18,-1,-1,-1,20,22,24,26,28,-1,-1,-1,-1,-1,-1,-1,-1,-1,-1,-1],"split_conditions":[6.356727E-1,6.0844788E1,-2.9654045E0,-2.0693653E0,4.2101096E-2,3.6831899E0,-1.6077884E-2,2.43078E-2,5.162291E1,3.901726E-2,-1.3616468E-2,2.9243156E-4,-1.0257824E-2,2.0093694E-2,4.275363E-2,-3.4077897E0,2.7653747E0,2.423817E-2,1.1327254E-2,-1.0257824E-2,7.89348E-3,-1.5413647E-2,4.0922783E-4,-4.259886E-3,1.1513931E-2,5.376461E-3,-6.2695825E-3,-5.631389E-4,-1.4348298E-2],"split_indices":[1,0,2,0,1,1,0,1,0,1,0,0,0,1,1,2,2,1,0,0,0,0,0,0,0,0,0,0,0],"split_type":[0,0,0,0,0,0,0,0,0,0,0,0,0,0,0,0,0,0,0,0,0,0,0,0,0,0,0,0,0],"sum_hessian":[1.6912328E2,1.470178E2,2.2105469E1,7.9491E1,6.75268E1,2.7826724E0,1.9322796E1,2.1567413E1,5.7923584E1,6.479247E1,2.7343311E0,1.5406896E0,1.2419829E0,7.461188E0,1.4106225E1,4.4540306E1,1.3383281E1,6.2172344E1,2.6201277E0,1.2419829E0,6.219205E0,6.4028196E0,7.703405E0,2.2843814E0,4.2255924E1,1.0592742E1,2.790539E0,5.893611E1,3.2362318E0],"tree_param":{"num_deleted":"0","num_feature":"3","num_nodes":"29","size_leaf_vector":"1"}},{"base_weights":[-4.5818905E-3,2.2845021E-1,-1.4992405E0,5.4892915E-1,-1.5106037E-1,-5.852532E-1,-1.5957363E-2,-3.368628E-1,8.788754E-1,1.52507E-1,-4.23381E-1,2.906579E-4,-1.0205812E-2,3.9758337E-1,-7.2604954E-1,1.1380472E0,4.4915116E-1,3.2095438E-1,-1.3678417E-2,-1.5395056E-2,-2.2830544E-1,-1.0205812E-2,7.82897E-3,-1.5306159E-2,4.0560515E-4,8.144407E-3,1.4001804E-2,-9.390196E-3,6.479967E-3,-7.6794885E-3,4.1946587E-3,1.2819082E-2,-3.6961716E-3],"categories":[],"categories_nodes":[],"categories_segments":[],"categories_sizes":[],"default_left":[0,0,0,0,0,0,0,0,0,0,0,0,0,0,0,0,0,0,0,0,0,0,0,0,0,0,0,0,0,0,0,0,0],"id":16,"left_children":[1,3,5,7,9,11,-1,13,15,17,19,-1,-1,21,23,25,27,29,-1,-1,31,-1,-1,-1,-1,-1,-1,-1,-1,-1,-1,-1,-1],"loss_changes":[5.9557907E1,1.8077065E1,1.1001892E0,2.3802229E1,5.7289233E0,1.0409836E0,0E0,6.734488E0,6.0461426E0,8.925128E0,7.570253E0,0E0,0E0,5.4202027E0,9.371756E0,1.9197998E0,7.1786923E0,3.6089633E0,0E0,0E0,7.3338275E0,0E0,0E0,0E0,0E0,0E0,0E0,0E0,0E0,0E0,0E0,0E0,0E0],"parents":[2147483647,0,0,1,1,2,2,3,3,4,4,5,5,7,7,8,8,9,9,10,10,13,13,14,14,15,15,16,16,17,17,20,20],"right_children":[2,4,6,8,10,12,-1,14,16,18,20,-1,-1,22,24,26,28,30,-1,-1,32,-1,-1,-1,-1,-1,-1,-1,-1,-1,-1,-1,-1],"split_conditions":[6.356727E-1,6.0844788E1,-2.9654045E0,-2.0693653E0,1.4573004E-2,3.6831899E0,-1.5957363E-2,2.43078E-2,1.8198387E1,7.391117E2,6.8532234E1,2.906579E-4,-1.0205812E-2,2.0093694E-2,4.275363E-2,-6.2632483E-1,4.419711E1,6.2416527E1,-1.3678417E-2,-1.5395056E-2,7.350155E1,-1.0205812E-2,7.82897E-3,-1.5306159E-2,4.0560515E-4,8.144407E-3,1.4001804E-2,-9.390196E-3,6.479967E-3,-7.6794885E-3,4.1946587E-3,1.2819082E-2,-3.6961716E-3],"split_indices":[1,0,2,0,1,1,0,1,0,0,0,0,0,1,1,0,0,0,0,0,0,0,0,0,0,0,0,0,0,0,0,0,0],"split_type":[0,0,0,0,0,0,0,0,0,0,0,0,0,0,0,0,0,0,0,0,0,0,0,0,0,0,0,0,0,0,0,0,0],"sum_hessian":[1.6901097E2,1.4694754E2,2.2063425E1,7.942794E1,6.75196E1,2.781619E0,1.9281805E1,2.1550718E1,5.7877224E1,3.2136097E1,3.5383503E1,1.5406884E0,1.2409307E0,7.456935E0,1.4093784E1,3.5074844E1,2.280238E1,2.9640919E1,2.4951777E0,4.238884E0,3.1144617E1,1.2409307E0,6.2160044E0,6.3903904E0,7.703394E0,1.753485E1,1.7539995E1,2.3906362E0,2.0411743E1,1.8953224E0,2.7745596E1,1.9742374E0,2.917038E1],"tree_param":{"num_deleted":"0","num_feature":"3","num_nodes":"33","size_leaf_vector":"1"}},{"base_weights":[-4.8192185E-3,2.2613285E-1,-1.4882321E0,5.4389244E-1,-1.4991398E-1,-5.821952E-1,-1.5839418E-2,-3.3452463E-1,8.710906E-1,-7.955452E-2,-1.3503434E-2,2.8889545E-4,-1.0154353E-2,3.9353538E-1,-7.204064E-1,1.0453836E0,2.5945184E-1,-1.474621E-1,1.1273853E-2,-1.0154353E-2,7.7651655E-3,-1.5200796E-2,4.0201607E-4,-4.231636E-3,1.132861E-2,5.271012E-3,-6.2711244E-3,-5.496207E-4,-1.4224125E-2],"categories":[],"categories_nodes":[],"categories_segments":[],"categories_sizes":[],"default_left":[0,0,0,0,0,0,0,0,0,0,0,0,0,0,0,0,0,0,0,0,0,0,0,0,0,0,0,0,0],"id":17,"left_children":[1,3,5,7,9,11,-1,13,15,17,-1,-1,-1,19,21,23,25,27,-1,-1,-1,-1,-1,-1,-1,-1,-1,-1,-1],"loss_changes":[5.854173E1,1.775144E1,1.073986E0,2.3389599E1,5.67901E0,1.0302114E0,0E0,6.614091E0,6.000492E0,5.557528E0,0E0,0E0,0E0,5.349529E0,9.233774E0,6.318714E0,3.7420473E0,7.370417E0,0E0,0E0,0E0,0E0,0E0,0E0,0E0,0E0,0E0,0E0,0E0],"parents":[2147483647,0,0,1,1,2,2,3,3,4,4,5,5,7,7,8,8,9,9,13,13,14,14,15,15,16,16,17,17],"right_children":[2,4,6,8,10,12,-1,14,16,18,-1,-1,-1,20,22,24,26,28,-1,-1,-1,-1,-1,-1,-1,-1,-1,-1,-1],"split_conditions":[6.356727E-1,6.0844788E1,-2.9654045E0,-2.0693653E0,4.2101096E-2,3.6831899E0,-1.5839418E-2,2.43078E-2,5.162291E1,3.901726E-2,-1.3503434E-2,2.8889545E-4,-1.0154353E-2,2.0093694E-2,4.275363E-2,-3.4077897E0,2.7653747E0,2.423817E-2,1.1273853E-2,-1.0154353E-2,7.7651655E-3,-1.5200796E-2,4.0201607E-4,-4.231636E-3,1.132861E-2,5.271012E-3,-6.2711244E-3,-5.496207E-4,-1.4224125E-2],"split_indices":[1,0,2,0,1,1,0,1,0,1,0,0,0,1,1,2,2,1,0,0,0,0,0,0,0,0,0,0,0],"split_type":[0,0,0,0,0,0,0,0,0,0,0,0,0,0,0,0,0,0,0,0,0,0,0,0,0,0,0,0,0],"sum_hessian":[1.6889389E2,1.4687459E2,2.2019299E1,7.936491E1,6.750968E1,2.7805076E0,1.923879E1,2.1533178E1,5.7831734E1,6.477913E1,2.7305567E0,1.5406873E0,1.2398202E0,7.452461E0,1.4080717E1,4.445473E1,1.3377002E1,6.2159584E1,2.6195424E0,1.2398202E0,6.212641E0,6.3773336E0,7.703383E0,2.283447E0,4.2171284E1,1.0586458E1,2.790543E0,5.8927402E1,3.2321837E0],"tree_param":{"num_deleted":"0","num_feature":"3","num_nodes":"29","size_leaf_vector":"1"}},{"base_weights":[-5.092636E-3,2.237994E-1,-1.477443E0,4.6897563E-1,-2.5381154E-1,-5.791634E-1,-1.5723957E-2,-3.322171E-1,6.9864696E-1,5.453434E-1,-4.1335437E-1,2.871436E-4,-1.0103438E-2,3.8953447E-1,-7.1483874E-1,1.0361787E0,1.9930856E-1,1.0446258E0,-5.0515324E-1,-1.4914901E-2,-2.72576E-1,-1.0103438E-2,7.70206E-3,-1.5097495E-2,3.9845885E-4,-5.981342E-3,1.1111323E-2,5.185249E-3,-6.1496366E-3,2.3163564E-3,1.20625235E-2,2.576934E-3,-1.0580549E-2,9.318339E-3,-3.564766E-3],"categories":[],"categories_nodes":[],"categories_segments":[],"categories_sizes":[],"default_left":[0,0,0,0,0,0,0,0,0,0,0,0,0,0,0,0,0,0,0,0,0,0,0,0,0,0,0,0,0,0,0,0,0,0,0],"id":18,"left_children":[1,3,5,7,9,11,-1,13,15,17,19,-1,-1,21,23,25,27,29,31,-1,33,-1,-1,-1,-1,-1,-1,-1,-1,-1,-1,-1,-1,-1,-1],"loss_changes":[5.7544888E1,1.7425934E1,1.0488052E0,1.8267805E1,6.7002378E0,1.0195949E0,0E0,6.4960957E0,1.2686893E1,5.18641E0,6.1048627E0,0E0,0E0,5.2799397E0,9.09898E0,6.226864E0,8.660618E0,5.5454874E-1,1.7638965E0,0E0,4.2902946E0,0E0,0E0,0E0,0E0,0E0,0E0,0E0,0E0,0E0,0E0,0E0,0E0,0E0,0E0],"parents":[2147483647,0,0,1,1,2,2,3,3,4,4,5,5,7,7,8,8,9,9,10,10,13,13,14,14,15,15,16,16,17,17,18,18,20,20],"right_children":[2,4,6,8,10,12,-1,14,16,18,20,-1,-1,22,24,26,28,30,32,-1,34,-1,-1,-1,-1,-1,-1,-1,-1,-1,-1,-1,-1,-1,-1],"split_conditions":[6.356727E-1,7.617915E1,-2.9654045E0,-2.0693653E0,-3.0270128E0,3.6831899E0,-1.5723957E-2,2.43078E-2,5.162291E1,7.243174E2,5.8984607E2,2.871436E-4,-1.0103438E-2,2.0093694E-2,4.275363E-2,-3.5465E0,1.4794113E-2,1.0549969E-2,1.1096119E-2,-1.4914901E-2,6.0032214E2,-1.0103438E-2,7.70206E-3,-1.5097495E-2,3.9845885E-4,-5.981342E-3,1.1111323E-2,5.185249E-3,-6.1496366E-3,2.3163564E-3,1.20625235E-2,2.576934E-3,-1.0580549E-2,9.318339E-3,-3.564766E-3],"split_indices":[1,0,2,0,2,1,0,1,0,0,0,0,0,1,1,2,1,1,1,0,0,0,0,0,0,0,0,0,0,0,0,0,0,0,0],"split_type":[0,0,0,0,0,0,0,0,0,0,0,0,0,0,0,0,0,0,0,0,0,0,0,0,0,0,0,0,0,0,0,0,0,0,0],"sum_hessian":[1.6877052E2,1.4679736E2,2.1973164E1,9.701426E1,4.9783108E1,2.779339E0,1.9193825E1,2.1514814E1,7.549944E1,7.882293E0,4.1900814E1,1.5406861E0,1.238653E0,7.447773E0,1.4067041E1,4.440705E1,3.1092392E1,5.3466935E0,2.5355997E0,3.731203E0,3.8169613E1,1.238653E0,6.20912E0,6.363671E0,7.703371E0,1.6412241E0,4.2765827E1,2.259698E1,8.495412E0,1.2901789E0,4.0565147E0,1.2898711E0,1.2457285E0,1.8276026E0,3.6342007E1],"tree_param":{"num_deleted":"0","num_feature":"3","num_nodes":"35","size_leaf_vector":"1"}},{"base_weights":[-5.290067E-3,2.2157443E-1,-1.4668665E0,4.6449962E-1,-2.5136065E-1,-5.7615733E-1,-1.5610908E-2,-3.2993963E-1,6.9220185E-1,5.406676E-1,-4.0948686E-1,2.85403E-4,-1.00530535E-2,3.8557932E-1,-7.0934457E-1,1.0270703E0,1.9730555E-1,1.0364959E0,-5.024627E-1,-1.4808247E-2,-2.697168E-1,-1.00530535E-2,7.6396363E-3,-1.4996193E-2,3.949328E-4,-4.1953046E-3,1.1134633E-2,5.1362035E-3,-6.0949163E-3,2.303369E-3,1.1966345E-2,2.562408E-3,-1.0525091E-2,-1.1265569E-3,-9.845623E-3],"categories":[],"categories_nodes":[],"categories_segments":[],"categories_sizes":[],"default_left":[0,0,0,0,0,0,0,0,0,0,0,0,0,0,0,0,0,0,0,0,0,0,0,0,0,0,0,0,0,0,0,0,0,0,0],"id":19,"left_children":[1,3,5,7,9,11,-1,13,15,17,19,-1,-1,21,23,25,27,29,31,-1,33,-1,-1,-1,-1,-1,-1,-1,-1,-1,-1,-1,-1,-1,-1],"loss_changes":[5.6575363E1,1.7087805E1,1.0245857E0,1.7945597E1,6.58069E0,1.0091308E0,0E0,6.380436E0,1.2466389E1,5.1143327E0,6.0237937E0,0E0,0E0,5.211409E0,8.967272E0,6.135662E0,8.502256E0,5.4367113E-1,1.7448969E0,0E0,4.2866116E0,0E0,0E0,0E0,0E0,0E0,0E0,0E0,0E0,0E0,0E0,0E0,0E0,0E0,0E0],"parents":[2147483647,0,0,1,1,2,2,3,3,4,4,5,5,7,7,8,8,9,9,10,10,13,13,14,14,15,15,16,16,17,17,18,18,20,20],"right_children":[2,4,6,8,10,12,-1,14,16,18,20,-1,-1,22,24,26,28,30,32,-1,34,-1,-1,-1,-1,-1,-1,-1,-1,-1,-1,-1,-1,-1,-1],"split_conditions":[6.356727E-1,7.617915E1,-2.9654045E0,-2.0693653E0,-3.0270128E0,3.6831899E0,-1.5610908E-2,2.43078E-2,5.162291E1,7.243174E2,5.8984607E2,2.85403E-4,-1.00530535E-2,2.0093694E-2,4.275363E-2,-3.4077897E0,1.4794113E-2,1.0549969E-2,1.1096119E-2,-1.4808247E-2,3.2285593E0,-1.00530535E-2,7.6396363E-3,-1.4996193E-2,3.949328E-4,-4.1953046E-3,1.1134633E-2,5.1362035E-3,-6.0949163E-3,2.303369E-3,1.1966345E-2,2.562408E-3,-1.0525091E-2,-1.1265569E-3,-9.845623E-3],"split_indices":[1,0,2,0,2,1,0,1,0,0,0,0,0,1,1,2,1,1,1,0,2,0,0,0,0,0,0,0,0,0,0,0,0,0,0],"split_type":[0,0,0,0,0,0,0,0,0,0,0,0,0,0,0,0,0,0,0,0,0,0,0,0,0,0,0,0,0,0,0,0,0,0,0],"sum_hessian":[1.6864346E2,1.4671837E2,2.1925085E1,9.694168E1,4.977669E1,2.7781148E0,1.914697E1,2.1495653E1,7.544603E1,7.8813066E0,4.1895386E1,1.5406849E0,1.23743E0,7.4428754E0,1.4052776E1,4.435689E1,3.1089138E1,5.346384E0,2.5349224E0,3.7277157E0,3.816767E1,1.23743E0,6.205446E0,6.349418E0,7.7033587E0,2.2824543E0,4.207444E1,2.259419E1,8.494947E0,1.2901183E0,4.056266E0,1.2898802E0,1.2450423E0,3.2241398E1,5.926272E0],"tree_param":{"num_deleted":"0","num_feature":"3","num_nodes":"35","size_leaf_vector":"1"}},{"base_weights":[-5.572328E-3,2.1927616E-1,-1.4564958E0,5.2876717E-1,-1.461341E-1,-5.7317686E-1,-1.5500189E-2,-3.1155547E-1,8.5434186E-1,-7.6890916E-2,-1.3301229E-2,2.836725E-4,-1.0003196E-2,4.912646E-1,-6.157319E-1,1.1158242E0,4.3032795E-1,-1.441886E-1,1.118759E-2,-1.0003196E-2,9.927512E-3,-1.2520583E-2,5.397893E-4,1.5239177E-2,8.946786E-3,-9.427399E-3,6.277971E-3,-5.315418E-4,-1.4014842E-2],"categories":[],"categories_nodes":[],"categories_segments":[],"categories_sizes":[],"default_left":[0,0,0,0,0,0,0,0,0,0,0,0,0,0,0,0,0,0,0,0,0,0,0,0,0,0,0,0,0],"id":20,"left_children":[1,3,5,7,9,11,-1,13,15,17,-1,-1,-1,19,21,23,25,27,-1,-1,-1,-1,-1,-1,-1,-1,-1,-1,-1],"loss_changes":[5.562018E1,1.6773548E1,1.0013008E0,2.2194374E1,5.5123444E0,9.9881613E-1,0E0,5.9470625E0,5.9543915E0,5.4528556E0,0E0,0E0,0E0,6.160004E0,7.4004636E0,1.8196602E0,7.035598E0,7.152797E0,0E0,0E0,0E0,0E0,0E0,0E0,0E0,0E0,0E0,0E0,0E0],"parents":[2147483647,0,0,1,1,2,2,3,3,4,4,5,5,7,7,8,8,9,9,13,13,14,14,15,15,16,16,17,17],"right_children":[2,4,6,8,10,12,-1,14,16,18,-1,-1,-1,20,22,24,26,28,-1,-1,-1,-1,-1,-1,-1,-1,-1,-1,-1],"split_conditions":[6.356727E-1,6.0844788E1,-2.9654045E0,-2.0069077E0,4.2101096E-2,3.6831899E0,-1.5500189E-2,2.2170652E-2,1.8198387E1,3.901726E-2,-1.3301229E-2,2.836725E-4,-1.0003196E-2,2.0093694E-2,4.275363E-2,4.0271085E-2,4.419711E1,2.423817E-2,1.118759E-2,-1.0003196E-2,9.927512E-3,-1.2520583E-2,5.397893E-4,1.5239177E-2,8.946786E-3,-9.427399E-3,6.277971E-3,-5.315418E-4,-1.4014842E-2],"split_indices":[1,0,2,0,1,1,0,1,0,1,0,0,0,1,1,1,0,1,0,0,0,0,0,0,0,0,0,0,0],"split_type":[0,0,0,0,0,0,0,0,0,0,0,0,0,0,0,0,0,0,0,0,0,0,0,0,0,0,0,0,0],"sum_hessian":[1.6851067E2,1.4663554E2,2.1875126E1,7.91505E1,6.748504E1,2.7768357E0,1.909829E1,2.2114658E1,5.7035843E1,6.4762474E1,2.7225597E0,1.5406835E0,1.2361522E0,5.9075794E0,1.6207079E1,3.427033E1,2.2765514E1,6.2144077E1,2.618401E0,1.2361522E0,4.6714272E0,7.86479E0,8.34229E0,9.973889E0,2.4296438E1,2.3878562E0,2.0377657E1,5.892024E1,3.2238398E0],"tree_param":{"num_deleted":"0","num_feature":"3","num_nodes":"29","size_leaf_vector":"1"}},{"base_weights":[-5.716385E-3,2.1714896E-1,-1.4463242E0,4.5628428E-1,-2.4785562E-1,-5.7022154E-1,-1.5391724E-2,-3.252521E-1,6.802418E-1,5.3731614E-1,-4.0466008E-1,2.819521E-4,-9.953855E-3,3.8008055E-1,-6.9953E-1,1.0105956E0,1.9302656E-1,1.028918E0,-4.976294E-1,-1.464158E-2,-2.6661703E-1,-9.953855E-3,7.5426623E-3,-1.4814824E-2,3.8666025E-4,-5.904966E-3,1.0843322E-2,5.063349E-3,-6.057446E-3,2.293437E-3,1.1875812E-2,2.5509633E-3,-1.0440903E-2,-1.1118994E-3,-9.74282E-3],"categories":[],"categories_nodes":[],"categories_segments":[],"categories_sizes":[],"default_left":[0,0,0,0,0,0,0,0,0,0,0,0,0,0,0,0,0,0,0,0,0,0,0,0,0,0,0,0,0,0,0,0,0,0,0],"id":21,"left_children":[1,3,5,7,9,11,-1,13,15,17,19,-1,-1,21,23,25,27,29,31,-1,33,-1,-1,-1,-1,-1,-1,-1,-1,-1,-1,-1,-1,-1,-1],"loss_changes":[5.4695396E1,1.652122E1,9.7888565E-1,1.7338627E1,6.4669385E0,9.886484E-1,0E0,6.1948566E0,1.209166E1,5.0296326E0,5.8812265E0,0E0,0E0,5.091608E0,8.730248E0,5.983143E0,8.335492E0,5.3268623E-1,1.7197793E0,0E0,4.1989465E0,0E0,0E0,0E0,0E0,0E0,0E0,0E0,0E0,0E0,0E0,0E0,0E0,0E0,0E0],"parents":[2147483647,0,0,1,1,2,2,3,3,4,4,5,5,7,7,8,8,9,9,10,10,13,13,14,14,15,15,16,16,17,17,18,18,20,20],"right_children":[2,4,6,8,10,12,-1,14,16,18,20,-1,-1,22,24,26,28,30,32,-1,34,-1,-1,-1,-1,-1,-1,-1,-1,-1,-1,-1,-1,-1,-1],"split_conditions":[6.356727E-1,7.617915E1,-2.9654045E0,-2.0693653E0,-3.0270128E0,3.6831899E0,-1.5391724E-2,2.43078E-2,5.162291E1,7.243174E2,5.8984607E2,2.819521E-4,-9.953855E-3,2.0093694E-2,4.275363E-2,-3.5465E0,1.4794113E-2,1.0549969E-2,1.1096119E-2,-1.464158E-2,3.2285593E0,-9.953855E-3,7.5426623E-3,-1.4814824E-2,3.8666025E-4,-5.904966E-3,1.0843322E-2,5.063349E-3,-6.057446E-3,2.293437E-3,1.1875812E-2,2.5509633E-3,-1.0440903E-2,-1.1118994E-3,-9.74282E-3],"split_indices":[1,0,2,0,2,1,0,1,0,0,0,0,0,1,1,2,1,1,1,0,2,0,0,0,0,0,0,0,0,0,0,0,0,0,0],"split_type":[0,0,0,0,0,0,0,0,0,0,0,0,0,0,0,0,0,0,0,0,0,0,0,0,0,0,0,0,0,0,0,0,0,0,0],"sum_hessian":[1.6837976E2,1.4655641E2,2.1823347E1,9.679628E1,4.976013E1,2.7755032E0,1.9047844E1,2.1459066E1,7.533721E1,7.8792853E0,4.1880848E1,1.5406823E0,1.2348208E0,7.434025E0,1.4025041E1,4.4255665E1,3.1081549E1,5.345827E0,2.5334578E0,3.7203279E0,3.816052E1,1.2348208E0,6.199204E0,6.3217134E0,7.703327E0,1.6398717E0,4.261579E1,2.2587847E1,8.493703E0,1.2900696E0,4.055758E0,1.2898842E0,1.2435737E0,3.2237255E1,5.9232655E0],"tree_param":{"num_deleted":"0","num_feature":"3","num_nodes":"35","size_leaf_vector":"1"}},{"base_weights":[-6.0033593E-3,2.1489193E-1,-1.4363463E0,4.519677E-1,-2.4579814E-1,-5.67291E-1,-1.5285446E-2,-3.2306018E-1,6.740257E-1,5.327534E-1,-4.0127346E-1,2.8024177E-4,-9.905019E-3,3.762372E-1,-6.942348E-1,1.0018435E0,1.9109038E-1,1.0210029E0,-4.9500602E-1,-1.4539983E-2,-2.6424465E-1,-9.905019E-3,7.481942E-3,-1.4718888E-2,3.8323796E-4,-4.155194E-3,1.0868364E-2,5.0156E-3,-6.0037104E-3,2.2805827E-3,1.1782434E-2,2.536592E-3,-1.0386982E-2,9.257979E-3,-3.4725768E-3],"categories":[],"categories_nodes":[],"categories_segments":[],"categories_sizes":[],"default_left":[0,0,0,0,0,0,0,0,0,0,0,0,0,0,0,0,0,0,0,0,0,0,0,0,0,0,0,0,0,0,0,0,0,0,0],"id":22,"left_children":[1,3,5,7,9,11,-1,13,15,17,19,-1,-1,21,23,25,27,29,31,-1,33,-1,-1,-1,-1,-1,-1,-1,-1,-1,-1,-1,-1,-1,-1],"loss_changes":[5.377987E1,1.6217148E1,9.573097E-1,1.7034603E1,6.357026E0,9.7862387E-1,0E0,6.085182E0,1.1884346E1,4.960191E0,5.8005147E0,0E0,0E0,5.025916E0,8.606808E0,5.896633E0,8.183327E0,5.223994E-1,1.7014012E0,0E0,4.1898823E0,0E0,0E0,0E0,0E0,0E0,0E0,0E0,0E0,0E0,0E0,0E0,0E0,0E0,0E0],"parents":[2147483647,0,0,1,1,2,2,3,3,4,4,5,5,7,7,8,8,9,9,10,10,13,13,14,14,15,15,16,16,17,17,18,18,20,20],"right_children":[2,4,6,8,10,12,-1,14,16,18,20,-1,-1,22,24,26,28,30,32,-1,34,-1,-1,-1,-1,-1,-1,-1,-1,-1,-1,-1,-1,-1,-1],"split_conditions":[6.356727E-1,7.617915E1,-2.9654045E0,-2.0693653E0,-3.0270128E0,3.6831899E0,-1.5285446E-2,2.43078E-2,5.162291E1,7.243174E2,5.8984607E2,2.8024177E-4,-9.905019E-3,2.0093694E-2,4.275363E-2,-3.4077897E0,1.4794113E-2,1.0549969E-2,1.1096119E-2,-1.4539983E-2,6.0032214E2,-9.905019E-3,7.481942E-3,-1.4718888E-2,3.8323796E-4,-4.155194E-3,1.0868364E-2,5.0156E-3,-6.0037104E-3,2.2805827E-3,1.1782434E-2,2.536592E-3,-1.0386982E-2,9.257979E-3,-3.4725768E-3],"split_indices":[1,0,2,0,2,1,0,1,0,0,0,0,0,1,1,2,1,1,1,0,0,0,0,0,0,0,0,0,0,0,0,0,0,0,0],"split_type":[0,0,0,0,0,0,0,0,0,0,0,0,0,0,0,0,0,0,0,0,0,0,0,0,0,0,0,0,0,0,0,0,0,0,0],"sum_hessian":[1.6823624E2,1.4646643E2,2.1769808E1,9.67149E1,4.975153E1,2.7741177E0,1.8995691E1,2.1437792E1,7.527711E1,7.877564E0,4.1873966E1,1.5406809E0,1.233437E0,7.4285927E0,1.4009199E1,4.4199734E1,3.1077374E1,5.3449535E0,2.5326102E0,3.7158697E0,3.8158096E1,1.233437E0,6.195156E0,6.3058853E0,7.703314E0,2.2805145E0,4.191922E1,2.2584393E1,8.492981E0,1.2900034E0,4.05495E0,1.2898855E0,1.2427245E0,1.8261853E0,3.6331913E1],"tree_param":{"num_deleted":"0","num_feature":"3","num_nodes":"35","size_leaf_vector":"1"}},{"base_weights":[-6.1775814E-3,2.127871E-1,-1.4265553E0,4.4772252E-1,-2.4343623E-1,-5.64385E-1,-1.5181283E-2,-3.2089588E-1,6.6790855E-1,5.2824885E-1,-3.975342E-1,2.7854435E-4,-9.856684E-3,3.724367E-1,-6.890067E-1,9.932447E-1,1.8917583E-1,1.0131942E0,-4.924069E-1,-1.4440219E-2,-2.6147166E-1,-9.856684E-3,7.42186E-3,-1.4624738E-2,3.7984687E-4,-5.8442447E-3,1.066121E-2,4.9683554E-3,-5.9505454E-3,2.2678045E-3,1.1690435E-2,2.522307E-3,-1.0333644E-2,-1.0735632E-3,-9.637744E-3],"categories":[],"categories_nodes":[],"categories_segments":[],"categories_sizes":[],"default_left":[0,0,0,0,0,0,0,0,0,0,0,0,0,0,0,0,0,0,0,0,0,0,0,0,0,0,0,0,0,0,0,0,0,0,0],"id":23,"left_children":[1,3,5,7,9,11,-1,13,15,17,19,-1,-1,21,23,25,27,29,31,-1,33,-1,-1,-1,-1,-1,-1,-1,-1,-1,-1,-1,-1,-1,-1],"loss_changes":[5.2891876E1,1.5904862E1,9.365349E-1,1.6737272E1,6.243995E0,9.687418E-1,0E0,5.9776454E0,1.1682514E1,4.891941E0,5.726106E0,0E0,0E0,4.961216E0,8.486082E0,5.813286E0,8.034044E0,5.12393E-1,1.6832747E0,0E0,4.134556E0,0E0,0E0,0E0,0E0,0E0,0E0,0E0,0E0,0E0,0E0,0E0,0E0,0E0,0E0],"parents":[2147483647,0,0,1,1,2,2,3,3,4,4,5,5,7,7,8,8,9,9,10,10,13,13,14,14,15,15,16,16,17,17,18,18,20,20],"right_children":[2,4,6,8,10,12,-1,14,16,18,20,-1,-1,22,24,26,28,30,32,-1,34,-1,-1,-1,-1,-1,-1,-1,-1,-1,-1,-1,-1,-1,-1],"split_conditions":[6.356727E-1,7.617915E1,-2.9654045E0,-2.0693653E0,-3.0270128E0,3.6831899E0,-1.5181283E-2,2.43078E-2,5.162291E1,7.243174E2,5.8984607E2,2.7854435E-4,-9.856684E-3,2.0093694E-2,4.275363E-2,-3.5465E0,1.4794113E-2,1.0549969E-2,1.1096119E-2,-1.4440219E-2,3.2285593E0,-9.856684E-3,7.42186E-3,-1.4624738E-2,3.7984687E-4,-5.8442447E-3,1.066121E-2,4.9683554E-3,-5.9505454E-3,2.2678045E-3,1.1690435E-2,2.522307E-3,-1.0333644E-2,-1.0735632E-3,-9.637744E-3],"split_indices":[1,0,2,0,2,1,0,1,0,0,0,0,0,1,1,2,1,1,1,0,2,0,0,0,0,0,0,0,0,0,0,0,0,0,0],"split_type":[0,0,0,0,0,0,0,0,0,0,0,0,0,0,0,0,0,0,0,0,0,0,0,0,0,0,0,0,0,0,0,0,0,0,0],"sum_hessian":[1.6808746E2,1.4637288E2,2.1714577E1,9.6630806E1,4.9742077E1,2.772681E0,1.8941896E1,2.1415808E1,7.5215E1,7.8754973E0,4.186658E1,1.5406793E0,1.2320017E0,7.4229712E0,1.3992836E1,4.41422E1,3.1072798E1,5.343801E0,2.5316963E0,3.7110589E0,3.815552E1,1.2320017E0,6.19097E0,6.2895365E0,7.703299E0,1.6390779E0,4.250312E1,2.2580685E1,8.492112E0,1.2899344E0,4.053867E0,1.2898828E0,1.2418137E0,3.2234707E1,5.920813E0],"tree_param":{"num_deleted":"0","num_feature":"3","num_nodes":"35","size_leaf_vector":"1"}},{"base_weights":[-6.458108E-3,2.105837E-1,-1.4169464E0,4.435123E-1,-2.4142666E-1,-5.6150323E-1,-1.5079173E-2,-3.1875852E-1,6.61845E-1,5.2380097E-1,-3.9422E-1,2.768547E-4,-9.808839E-3,4.7783038E-1,-6.318997E-1,9.847271E-1,1.8728265E-1,1.0054896E0,-4.8983172E-1,-1.4342235E-2,-2.5914943E-1,-9.808839E-3,9.684594E-3,-1.2221762E-2,3.764859E-4,-4.1194297E-3,1.0687258E-2,4.921608E-3,-5.89794E-3,2.255101E-3,1.1599781E-2,2.5081064E-3,-1.0280879E-2,9.214013E-3,-3.4157762E-3],"categories":[],"categories_nodes":[],"categories_segments":[],"categories_sizes":[],"default_left":[0,0,0,0,0,0,0,0,0,0,0,0,0,0,0,0,0,0,0,0,0,0,0,0,0,0,0,0,0,0,0,0,0,0,0],"id":24,"left_children":[1,3,5,7,9,11,-1,13,15,17,19,-1,-1,21,23,25,27,29,31,-1,33,-1,-1,-1,-1,-1,-1,-1,-1,-1,-1,-1,-1,-1,-1],"loss_changes":[5.201466E1,1.5613117E1,9.165268E-1,1.6445004E1,6.13813E0,9.58997E-1,0E0,5.8877907E0,1.1483921E1,4.8248568E0,5.6488376E0,0E0,0E0,5.8797913E0,6.569046E0,5.7292747E0,7.8875847E0,5.0265646E-1,1.6653948E0,0E0,4.1247053E0,0E0,0E0,0E0,0E0,0E0,0E0,0E0,0E0,0E0,0E0,0E0,0E0,0E0,0E0],"parents":[2147483647,0,0,1,1,2,2,3,3,4,4,5,5,7,7,8,8,9,9,10,10,13,13,14,14,15,15,16,16,17,17,18,18,20,20],"right_children":[2,4,6,8,10,12,-1,14,16,18,20,-1,-1,22,24,26,28,30,32,-1,34,-1,-1,-1,-1,-1,-1,-1,-1,-1,-1,-1,-1,-1,-1],"split_conditions":[6.356727E-1,7.617915E1,-2.9654045E0,-2.0693653E0,-3.0270128E0,3.6831899E0,-1.5079173E-2,2.2170652E-2,5.162291E1,7.243174E2,5.8984607E2,2.768547E-4,-9.808839E-3,2.0093694E-2,4.275363E-2,-3.4077897E0,1.4794113E-2,1.0549969E-2,1.1096119E-2,-1.4342235E-2,6.0032214E2,-9.808839E-3,9.684594E-3,-1.2221762E-2,3.764859E-4,-4.1194297E-3,1.0687258E-2,4.921608E-3,-5.89794E-3,2.255101E-3,1.1599781E-2,2.5081064E-3,-1.0280879E-2,9.214013E-3,-3.4157762E-3],"split_indices":[1,0,2,0,2,1,0,1,0,0,0,0,0,1,1,2,1,1,1,0,0,0,0,0,0,0,0,0,0,0,0,0,0,0,0],"split_type":[0,0,0,0,0,0,0,0,0,0,0,0,0,0,0,0,0,0,0,0,0,0,0,0,0,0,0,0,0,0,0,0,0,0,0],"sum_hessian":[1.6793292E2,1.4627522E2,2.1657701E1,9.654352E1,4.973171E1,2.7711937E0,1.8886509E1,2.1393133E1,7.515038E1,7.873095E0,4.1858616E1,1.5406778E0,1.230516E0,5.8882627E0,1.550487E1,4.4082542E1,3.1067837E1,5.342377E0,2.530718E0,3.7059054E0,3.815271E1,1.230516E0,4.657747E0,7.8015866E0,7.7032843E0,2.279333E0,4.180321E1,2.2576735E1,8.491102E0,1.2898624E0,4.0525146E0,1.2898759E0,1.2408422E0,1.8257511E0,3.6326958E1],"tree_param":{"num_deleted":"0","num_feature":"3","num_nodes":"35","size_leaf_vector":"1"}},{"base_weights":[-6.5988167E-3,2.0855638E-1,-1.4075135E0,4.3939993E-1,-2.3911433E-1,-5.586454E-1,-1.4979051E-2,-3.1637773E-1,6.5587693E-1,5.194088E-1,-3.9055508E-1,2.7517628E-4,-9.76148E-3,3.6717293E-1,-6.795855E-1,9.7635686E-1,1.8541043E-1,9.978864E-1,-4.872801E-1,-1.4245987E-2,-2.5642928E-1,-9.76148E-3,7.3287194E-3,-1.4455944E-2,3.731544E-4,-5.7842783E-3,1.0484007E-2,4.875349E-3,-5.8458857E-3,2.242472E-3,1.1510438E-2,2.4939908E-3,-1.0228679E-2,-1.0361092E-3,-9.534616E-3],"categories":[],"categories_nodes":[],"categories_segments":[],"categories_sizes":[],"default_left":[0,0,0,0,0,0,0,0,0,0,0,0,0,0,0,0,0,0,0,0,0,0,0,0,0,0,0,0,0,0,0,0,0,0,0],"id":25,"left_children":[1,3,5,7,9,11,-1,13,15,17,19,-1,-1,21,23,25,27,29,31,-1,33,-1,-1,-1,-1,-1,-1,-1,-1,-1,-1,-1,-1,-1,-1],"loss_changes":[5.1165535E1,1.5314772E1,8.9725876E-1,1.6152454E1,6.029193E0,9.4938886E-1,0E0,5.8043547E0,1.1290531E1,4.75891E0,5.5776644E0,0E0,0E0,4.8481183E0,8.270035E0,5.649395E0,7.7438846E0,4.9318027E-1,1.6477587E0,0E0,4.071417E0,0E0,0E0,0E0,0E0,0E0,0E0,0E0,0E0,0E0,0E0,0E0,0E0,0E0,0E0],"parents":[2147483647,0,0,1,1,2,2,3,3,4,4,5,5,7,7,8,8,9,9,10,10,13,13,14,14,15,15,16,16,17,17,18,18,20,20],"right_children":[2,4,6,8,10,12,-1,14,16,18,20,-1,-1,22,24,26,28,30,32,-1,34,-1,-1,-1,-1,-1,-1,-1,-1,-1,-1,-1,-1,-1,-1],"split_conditions":[6.356727E-1,7.617915E1,-2.9654045E0,-2.0693653E0,-3.0270128E0,3.6831899E0,-1.4979051E-2,2.43078E-2,5.162291E1,7.243174E2,5.8984607E2,2.7517628E-4,-9.76148E-3,2.0093694E-2,4.275363E-2,-3.5465E0,1.4794113E-2,1.0549969E-2,1.1096119E-2,-1.4245987E-2,3.2285593E0,-9.76148E-3,7.3287194E-3,-1.4455944E-2,3.731544E-4,-5.7842783E-3,1.0484007E-2,4.875349E-3,-5.8458857E-3,2.242472E-3,1.1510438E-2,2.4939908E-3,-1.0228679E-2,-1.0361092E-3,-9.534616E-3],"split_indices":[1,0,2,0,2,1,0,1,0,0,0,0,0,1,1,2,1,1,1,0,2,0,0,0,0,0,0,0,0,0,0,0,0,0,0],"split_type":[0,0,0,0,0,0,0,0,0,0,0,0,0,0,0,0,0,0,0,0,0,0,0,0,0,0,0,0,0,0,0,0,0,0,0],"sum_hessian":[1.6777776E2,1.461785E2,2.1599249E1,9.645797E1,4.9720535E1,2.7696571E0,1.8829592E1,2.1374062E1,7.508391E1,7.870364E0,4.185017E1,1.5406764E0,1.2289808E0,7.412657E0,1.3961405E1,4.40214E1,3.1062504E1,5.3406878E0,2.5296764E0,3.7004175E0,3.8149754E1,1.2289808E0,6.183676E0,6.2581363E0,7.703269E0,1.6382109E0,4.238319E1,2.257255E1,8.489954E0,1.2897875E0,4.0509005E0,1.2898649E0,1.2398115E0,3.2231842E1,5.917909E0],"tree_param":{"num_deleted":"0","num_feature":"3","num_nodes":"35","size_leaf_vector":"1"}},{"base_weights":[-6.873235E-3,2.0640424E-1,-1.3982517E0,4.352909E-1,-2.3715109E-1,-5.558112E-1,-1.4880856E-2,-3.1429252E-1,6.499595E-1,5.150709E-1,-3.8731122E-1,2.7350633E-4,-9.714593E-3,4.705972E-1,-6.228784E-1,9.680622E-1,1.8355893E-1,9.903824E-1,-4.8475176E-1,-1.4151422E-2,-2.5415596E-1,-9.714593E-3,9.558409E-3,-1.2066997E-2,3.6985235E-4,-4.0839575E-3,1.0511E-2,4.829573E-3,-5.7943724E-3,2.2299173E-3,1.14223715E-2,2.4799588E-3,-1.0177031E-2,9.170195E-3,-3.3600535E-3],"categories":[],"categories_nodes":[],"categories_segments":[],"categories_sizes":[],"default_left":[0,0,0,0,0,0,0,0,0,0,0,0,0,0,0,0,0,0,0,0,0,0,0,0,0,0,0,0,0,0,0,0,0,0,0],"id":26,"left_children":[1,3,5,7,9,11,-1,13,15,17,19,-1,-1,21,23,25,27,29,31,-1,33,-1,-1,-1,-1,-1,-1,-1,-1,-1,-1,-1,-1,-1,-1],"loss_changes":[5.032447E1,1.5034733E1,8.7866974E-1,1.5871521E1,5.927208E0,9.3991363E-1,0E0,5.7064753E0,1.1100155E1,4.6940784E0,5.503625E0,0E0,0E0,5.740736E0,6.3908067E0,5.5679092E0,7.602894E0,4.8395538E-1,1.6303606E0,0E0,4.060714E0,0E0,0E0,0E0,0E0,0E0,0E0,0E0,0E0,0E0,0E0,0E0,0E0,0E0,0E0],"parents":[2147483647,0,0,1,1,2,2,3,3,4,4,5,5,7,7,8,8,9,9,10,10,13,13,14,14,15,15,16,16,17,17,18,18,20,20],"right_children":[2,4,6,8,10,12,-1,14,16,18,20,-1,-1,22,24,26,28,30,32,-1,34,-1,-1,-1,-1,-1,-1,-1,-1,-1,-1,-1,-1,-1,-1],"split_conditions":[6.356727E-1,7.617915E1,-2.9654045E0,-2.0693653E0,-3.0270128E0,3.6831899E0,-1.4880856E-2,2.2170652E-2,5.162291E1,7.243174E2,5.8984607E2,2.7350633E-4,-9.714593E-3,2.0093694E-2,4.275363E-2,-3.4077897E0,1.4794113E-2,1.0549969E-2,1.1096119E-2,-1.4151422E-2,6.0032214E2,-9.714593E-3,9.558409E-3,-1.2066997E-2,3.6985235E-4,-4.0839575E-3,1.0511E-2,4.829573E-3,-5.7943724E-3,2.2299173E-3,1.14223715E-2,2.4799588E-3,-1.0177031E-2,9.170195E-3,-3.3600535E-3],"split_indices":[1,0,2,0,2,1,0,1,0,0,0,0,0,1,1,2,1,1,1,0,0,0,0,0,0,0,0,0,0,0,0,0,0,0,0],"split_type":[0,0,0,0,0,0,0,0,0,0,0,0,0,0,0,0,0,0,0,0,0,0,0,0,0,0,0,0,0,0,0,0,0,0,0],"sum_hessian":[1.6761304E2,1.4607378E2,2.1539267E1,9.636529E1,4.970849E1,2.7680721E0,1.8771194E1,2.1350203E1,7.501508E1,7.8673134E0,4.1841175E1,1.5406747E0,1.2273974E0,5.877003E0,1.54732E1,4.395828E1,3.1056807E1,5.3387403E0,2.5285726E0,3.6946046E0,3.814657E1,1.2273974E0,4.6496058E0,7.7699466E0,7.7032533E0,2.2780745E0,4.1680202E1,2.2568136E1,8.488671E0,1.2897098E0,4.049031E0,1.28985E0,1.2387226E0,1.8252662E0,3.6321304E1],"tree_param":{"num_deleted":"0","num_feature":"3","num_nodes":"35","size_leaf_vector":"1"}},{"base_weights":[-7.0090042E-3,2.0442607E-1,-1.3891557E0,4.3127725E-1,-2.3488681E-1,-5.5300033E-1,-1.478453E-2,-3.1196553E-1,6.44134E-1,5.1078624E-1,-3.8371858E-1,2.718481E-4,-9.668175E-3,3.6202112E-1,-6.703825E-1,9.599091E-1,1.8172775E-1,9.829752E-1,-4.822464E-1,-1.4058499E-2,-2.5148743E-1,-9.668175E-3,7.2374516E-3,-1.4292813E-2,3.6657808E-4,-5.725054E-3,1.0311467E-2,4.784272E-3,-5.7433955E-3,2.212827E-3,1.1337615E-2,2.4660095E-3,-1.012593E-2,-9.995162E-4,-9.433376E-3],"categories":[],"categories_nodes":[],"categories_segments":[],"categories_sizes":[],"default_left":[0,0,0,0,0,0,0,0,0,0,0,0,0,0,0,0,0,0,0,0,0,0,0,0,0,0,0,0,0,0,0,0,0,0,0],"id":27,"left_children":[1,3,5,7,9,11,-1,13,15,17,19,-1,-1,21,23,25,27,29,31,-1,33,-1,-1,-1,-1,-1,-1,-1,-1,-1,-1,-1,-1,-1,-1],"loss_changes":[4.9510258E1,1.474815E1,8.607521E-1,1.5590183E1,5.822195E0,9.305695E-1,0E0,5.6369023E0,1.0914703E1,4.630334E0,5.4354787E0,0E0,0E0,4.738141E0,8.06255E0,5.491184E0,7.4645596E0,4.768877E-1,1.6131967E0,0E0,4.009493E0,0E0,0E0,0E0,0E0,0E0,0E0,0E0,0E0,0E0,0E0,0E0,0E0,0E0,0E0],"parents":[2147483647,0,0,1,1,2,2,3,3,4,4,5,5,7,7,8,8,9,9,10,10,13,13,14,14,15,15,16,16,17,17,18,18,20,20],"right_children":[2,4,6,8,10,12,-1,14,16,18,20,-1,-1,22,24,26,28,30,32,-1,34,-1,-1,-1,-1,-1,-1,-1,-1,-1,-1,-1,-1,-1,-1],"split_conditions":[6.356727E-1,7.617915E1,-2.9654045E0,-2.0693653E0,-3.0270128E0,3.6831899E0,-1.478453E-2,2.43078E-2,5.162291E1,7.243174E2,5.8984607E2,2.718481E-4,-9.668175E-3,2.0093694E-2,4.275363E-2,-3.5465E0,1.4794113E-2,6.489852E2,1.1096119E-2,-1.4058499E-2,3.2285593E0,-9.668175E-3,7.2374516E-3,-1.4292813E-2,3.6657808E-4,-5.725054E-3,1.0311467E-2,4.784272E-3,-5.7433955E-3,2.212827E-3,1.1337615E-2,2.4660095E-3,-1.012593E-2,-9.995162E-4,-9.433376E-3],"split_indices":[1,0,2,0,2,1,0,1,0,0,0,0,0,1,1,2,1,0,1,0,2,0,0,0,0,0,0,0,0,0,0,0,0,0,0],"split_type":[0,0,0,0,0,0,0,0,0,0,0,0,0,0,0,0,0,0,0,0,0,0,0,0,0,0,0,0,0,0,0,0,0,0,0],"sum_hessian":[1.67448E2,1.4597018E2,2.1477818E1,9.6274506E1,4.9695675E1,2.7664397E0,1.8711378E1,2.1329964E1,7.494454E1,7.8639493E0,4.1831726E1,1.540673E0,1.2257668E0,7.401579E0,1.3928386E1,4.389378E1,3.105076E1,5.336541E0,2.527408E0,3.6884756E0,3.814325E1,1.2257668E0,6.175812E0,6.225148E0,7.703237E0,1.6372731E0,4.2256508E1,2.2563501E1,8.487259E0,1.2896156E0,4.0469255E0,1.2898313E0,1.2375766E0,3.2228676E1,5.914572E0],"tree_param":{"num_deleted":"0","num_feature":"3","num_nodes":"35","size_leaf_vector":"1"}},{"base_weights":[-7.2776796E-3,2.023231E-1,-1.3802207E0,4.272651E-1,-2.3296855E-1,-5.502124E-1,-1.46900145E-2,-3.099305E-1,6.383564E-1,5.0655323E-1,-3.805432E-1,2.7020043E-4,-9.622216E-3,3.5838526E-1,-6.6544896E-1,9.5182645E-1,1.7991659E-1,9.756618E-1,-4.7976378E-1,-1.3967169E-2,-2.4926199E-1,-9.622216E-3,7.1799015E-3,-1.42063685E-2,3.6333493E-4,-4.048776E-3,1.0339342E-2,4.7394396E-3,-5.692944E-3,2.1540183E-3,1.12724025E-2,2.452143E-3,-1.0075364E-2,9.126529E-3,-3.3053858E-3],"categories":[],"categories_nodes":[],"categories_segments":[],"categories_sizes":[],"default_left":[0,0,0,0,0,0,0,0,0,0,0,0,0,0,0,0,0,0,0,0,0,0,0,0,0,0,0,0,0,0,0,0,0,0,0],"id":28,"left_children":[1,3,5,7,9,11,-1,13,15,17,19,-1,-1,21,23,25,27,29,31,-1,33,-1,-1,-1,-1,-1,-1,-1,-1,-1,-1,-1,-1,-1,-1],"loss_changes":[4.870338E1,1.4479279E1,8.434677E-1,1.5320066E1,5.7239323E0,9.2135406E-1,0E0,5.5381203E0,1.0732073E1,4.56765E0,5.364467E0,0E0,0E0,4.6777143E0,7.9534755E0,5.4122086E0,7.3288207E0,4.8712635E-1,1.5962629E0,0E0,3.9978843E0,0E0,0E0,0E0,0E0,0E0,0E0,0E0,0E0,0E0,0E0,0E0,0E0,0E0,0E0],"parents":[2147483647,0,0,1,1,2,2,3,3,4,4,5,5,7,7,8,8,9,9,10,10,13,13,14,14,15,15,16,16,17,17,18,18,20,20],"right_children":[2,4,6,8,10,12,-1,14,16,18,20,-1,-1,22,24,26,28,30,32,-1,34,-1,-1,-1,-1,-1,-1,-1,-1,-1,-1,-1,-1,-1,-1],"split_conditions":[6.356727E-1,7.617915E1,-2.9654045E0,-2.0693653E0,-3.0270128E0,3.6831899E0,-1.46900145E-2,2.43078E-2,5.162291E1,7.243174E2,5.8984607E2,2.7020043E-4,-9.622216E-3,2.0093694E-2,4.275363E-2,-3.4077897E0,1.4794113E-2,1.0549969E-2,1.1096119E-2,-1.3967169E-2,6.0032214E2,-9.622216E-3,7.1799015E-3,-1.42063685E-2,3.6333493E-4,-4.048776E-3,1.0339342E-2,4.7394396E-3,-5.692944E-3,2.1540183E-3,1.12724025E-2,2.452143E-3,-1.0075364E-2,9.126529E-3,-3.3053858E-3],"split_indices":[1,0,2,0,2,1,0,1,0,0,0,0,0,1,1,2,1,1,1,0,0,0,0,0,0,0,0,0,0,0,0,0,0,0,0],"split_type":[0,0,0,0,0,0,0,0,0,0,0,0,0,0,0,0,0,0,0,0,0,0,0,0,0,0,0,0,0,0,0,0,0,0,0],"sum_hessian":[1.6727377E2,1.4585883E2,2.141495E1,9.617679E1,4.9682034E1,2.764761E0,1.8650188E1,2.1304987E1,7.48718E1,7.8602843E0,4.182175E1,1.5406713E0,1.2240897E0,7.3951907E0,1.3909797E1,4.382743E1,3.1044373E1,5.334101E0,2.5261831E0,3.6820388E0,3.813971E1,1.2240897E0,6.1711006E0,6.2065754E0,7.7032213E0,2.2767417E0,4.155069E1,2.2558653E1,8.48572E0,1.2891706E0,4.0449305E0,1.2898086E0,1.2363745E0,1.8247309E0,3.631498E1],"tree_param":{"num_deleted":"0","num_feature":"3","num_nodes":"35","size_leaf_vector":"1"}},{"base_weights":[-7.436299E-3,2.0036647E-1,-1.371442E0,4.2331734E-1,-2.307511E-1,-5.4744726E-1,-1.459726E-2,-3.079199E-1,6.326676E-1,5.023656E-1,-3.7702072E-1,2.685624E-4,-9.576712E-3,4.6075428E-1,-6.102778E-1,9.4387984E-1,1.781253E-1,9.6842974E-1,-4.7730348E-1,-1.3877393E-2,-2.4664381E-1,-9.576712E-3,9.382233E-3,-1.1855471E-2,3.6012195E-4,-5.666557E-3,1.0143354E-2,4.69507E-3,-5.643009E-3,2.1374125E-3,1.1189713E-2,2.4383587E-3,-1.0025324E-2,-1.1440679E-2,-1.2949854E-3],"categories":[],"categories_nodes":[],"categories_segments":[],"categories_sizes":[],"default_left":[0,0,0,0,0,0,0,0,0,0,0,0,0,0,0,0,0,0,0,0,0,0,0,0,0,0,0,0,0,0,0,0,0,0,0],"id":29,"left_children":[1,3,5,7,9,11,-1,13,15,17,19,-1,-1,21,23,25,27,29,31,-1,33,-1,-1,-1,-1,-1,-1,-1,-1,-1,-1,-1,-1,-1,-1],"loss_changes":[4.7920425E1,1.4202483E1,8.267975E-1,1.50557995E1,5.6226387E0,9.122647E-1,0E0,5.459252E0,1.0554115E1,4.505952E0,5.2991614E0,0E0,0E0,5.544067E0,6.1475067E0,5.3383675E0,7.1956306E0,4.8015976E-1,1.5795562E0,0E0,3.966179E0,0E0,0E0,0E0,0E0,0E0,0E0,0E0,0E0,0E0,0E0,0E0,0E0,0E0,0E0],"parents":[2147483647,0,0,1,1,2,2,3,3,4,4,5,5,7,7,8,8,9,9,10,10,13,13,14,14,15,15,16,16,17,17,18,18,20,20],"right_children":[2,4,6,8,10,12,-1,14,16,18,20,-1,-1,22,24,26,28,30,32,-1,34,-1,-1,-1,-1,-1,-1,-1,-1,-1,-1,-1,-1,-1,-1],"split_conditions":[6.356727E-1,7.617915E1,-2.9654045E0,-2.0693653E0,-3.0270128E0,3.6831899E0,-1.459726E-2,2.2170652E-2,5.162291E1,7.243174E2,5.8984607E2,2.685624E-4,-9.576712E-3,2.0093694E-2,4.275363E-2,-3.5465E0,1.4794113E-2,6.489852E2,1.1096119E-2,-1.3877393E-2,-2.8120377E0,-9.576712E-3,9.382233E-3,-1.1855471E-2,3.6012195E-4,-5.666557E-3,1.0143354E-2,4.69507E-3,-5.643009E-3,2.1374125E-3,1.1189713E-2,2.4383587E-3,-1.0025324E-2,-1.1440679E-2,-1.2949854E-3],"split_indices":[1,0,2,0,2,1,0,1,0,0,0,0,0,1,1,2,1,0,1,0,2,0,0,0,0,0,0,0,0,0,0,0,0,0,0],"split_type":[0,0,0,0,0,0,0,0,0,0,0,0,0,0,0,0,0,0,0,0,0,0,0,0,0,0,0,0,0,0,0,0,0,0,0],"sum_hessian":[1.6709532E2,1.457446E2,2.1350712E1,9.607689E1,4.9667717E1,2.763037E0,1.8587675E1,2.1279417E1,7.479747E1,7.8563676E0,4.181135E1,1.5406696E0,1.2223674E0,5.8593984E0,1.5420018E1,4.3759815E1,3.1037655E1,5.331467E0,2.5249E0,3.6753032E0,3.8136047E1,1.2223674E0,4.6370306E0,7.716814E0,7.703204E0,1.6362666E0,4.212355E1,2.2553598E1,8.484056E0,1.2890537E0,4.0424137E0,1.2897823E0,1.2351177E0,3.3911276E0,3.474492E1],"tree_param":{"num_deleted":"0","num_feature":"3","num_nodes":"35","size_leaf_vector":"1"}},{"base_weights":[-7.686412E-3,1.9831754E-1,-1.3628153E0,4.1942722E-1,-2.2891763E-1,-5.4470456E-1,-1.4506214E-2,-3.0566785E-1,6.27024E-1,4.982276E-1,-3.7395495E-1,2.6693445E-4,-9.531652E-3,3.533945E-1,-6.5655905E-1,9.3599886E-1,1.7635342E-1,9.612876E-1,-4.748653E-1,-1.3789128E-2,-2.4451739E-1,-9.531652E-3,7.091289E-3,-1.4051319E-2,3.5693363E-4,-4.013886E-3,1.0172056E-2,4.6511553E-3,-5.593586E-3,2.0794766E-3,1.1126245E-2,2.4246557E-3,-9.975804E-3,-9.409049E-4,-9.323478E-3],"categories":[],"categories_nodes":[],"categories_segments":[],"categories_sizes":[],"default_left":[0,0,0,0,0,0,0,0,0,0,0,0,0,0,0,0,0,0,0,0,0,0,0,0,0,0,0,0,0,0,0,0,0,0,0],"id":30,"left_children":[1,3,5,7,9,11,-1,13,15,17,19,-1,-1,21,23,25,27,29,31,-1,33,-1,-1,-1,-1,-1,-1,-1,-1,-1,-1,-1,-1,-1,-1],"loss_changes":[4.7146587E1,1.394781E1,8.1069946E-1,1.4789612E1,5.5284667E0,9.032991E-1,0E0,5.3793006E0,1.0378786E1,4.44527E0,5.2304897E0,0E0,0E0,4.5722904E0,7.7581363E0,5.261898E0,7.0649357E0,4.9014473E-1,1.5630717E0,0E0,3.961372E0,0E0,0E0,0E0,0E0,0E0,0E0,0E0,0E0,0E0,0E0,0E0,0E0,0E0,0E0],"parents":[2147483647,0,0,1,1,2,2,3,3,4,4,5,5,7,7,8,8,9,9,10,10,13,13,14,14,15,15,16,16,17,17,18,18,20,20],"right_children":[2,4,6,8,10,12,-1,14,16,18,20,-1,-1,22,24,26,28,30,32,-1,34,-1,-1,-1,-1,-1,-1,-1,-1,-1,-1,-1,-1,-1,-1],"split_conditions":[6.356727E-1,7.617915E1,-2.9654045E0,-2.0693653E0,-3.0270128E0,3.6831899E0,-1.4506214E-2,2.43078E-2,5.162291E1,7.243174E2,5.8984607E2,2.6693445E-4,-9.531652E-3,2.0093694E-2,4.275363E-2,-3.4077897E0,1.4794113E-2,1.0549969E-2,1.1096119E-2,-1.3789128E-2,3.2285593E0,-9.531652E-3,7.091289E-3,-1.4051319E-2,3.5693363E-4,-4.013886E-3,1.0172056E-2,4.6511553E-3,-5.593586E-3,2.0794766E-3,1.1126245E-2,2.4246557E-3,-9.975804E-3,-9.409049E-4,-9.323478E-3],"split_indices":[1,0,2,0,2,1,0,1,0,0,0,0,0,1,1,2,1,1,1,0,2,0,0,0,0,0,0,0,0,0,0,0,0,0,0],"split_type":[0,0,0,0,0,0,0,0,0,0,0,0,0,0,0,0,0,0,0,0,0,0,0,0,0,0,0,0,0,0,0,0,0,0,0],"sum_hessian":[1.6691803E2,1.4563287E2,2.128516E1,9.59787E1,4.965418E1,2.7612686E0,1.8523891E1,2.1257607E1,7.472109E1,7.852163E0,4.1802017E1,1.5406678E0,1.2206008E0,7.383116E0,1.3874491E1,4.369047E1,3.1030617E1,5.3286033E0,2.5235593E0,3.668277E0,3.813374E1,1.2206008E0,6.1625147E0,6.1713033E0,7.703187E0,2.2753377E0,4.1415134E1,2.2548342E1,8.482275E0,1.2885251E0,4.040078E0,1.2897522E0,1.2338071E0,3.222336E1,5.9103794E0],"tree_param":{"num_deleted":"0","num_feature":"3","num_nodes":"35","size_leaf_vector":"1"}},{"base_weights":[-7.936337E-3,1.9629641E-1,-1.3543358E0,4.1557026E-1,-2.2706307E-1,-5.419841E-1,-1.4416822E-2,-3.0370468E-1,6.2146634E-1,4.9413332E-1,-3.7087628E-1,2.6531544E-4,-9.48703E-3,4.5388672E-1,-6.0173494E-1,-5.2936804E-1,7.3456675E-1,9.542235E-1,-4.724489E-1,-1.3702334E-2,-2.4235924E-1,-9.48703E-3,9.26227E-3,-1.1711313E-2,3.537754E-4,-9.640356E-3,7.437617E-3,-8.388417E-3,7.969643E-3,2.063341E-3,1.1045534E-2,2.4110344E-3,-9.926793E-3,9.09105E-3,-3.2303378E-3],"categories":[],"categories_nodes":[],"categories_segments":[],"categories_sizes":[],"default_left":[0,0,0,0,0,0,0,0,0,0,0,0,0,0,0,0,0,0,0,0,0,0,0,0,0,0,0,0,0,0,0,0,0,0,0],"id":31,"left_children":[1,3,5,7,9,11,-1,13,15,17,19,-1,-1,21,23,25,27,29,31,-1,33,-1,-1,-1,-1,-1,-1,-1,-1,-1,-1,-1,-1,-1,-1],"loss_changes":[4.638836E1,1.3695384E1,7.951584E-1,1.4535419E1,5.435364E0,8.9445496E-1,0E0,5.292553E0,1.0234571E1,4.385535E0,5.163721E0,0E0,0E0,5.41448E0,5.9852586E0,4.784385E0,7.4715195E0,4.8327684E-1,1.5468062E0,0E0,3.9285915E0,0E0,0E0,0E0,0E0,0E0,0E0,0E0,0E0,0E0,0E0,0E0,0E0,0E0,0E0],"parents":[2147483647,0,0,1,1,2,2,3,3,4,4,5,5,7,7,8,8,9,9,10,10,13,13,14,14,15,15,16,16,17,17,18,18,20,20],"right_children":[2,4,6,8,10,12,-1,14,16,18,20,-1,-1,22,24,26,28,30,32,-1,34,-1,-1,-1,-1,-1,-1,-1,-1,-1,-1,-1,-1,-1,-1],"split_conditions":[6.356727E-1,7.617915E1,-2.9654045E0,-2.0693653E0,-3.0270128E0,3.6831899E0,-1.4416822E-2,2.2170652E-2,1.1021687E-2,7.243174E2,5.8984607E2,2.6531544E-4,-9.48703E-3,2.0093694E-2,4.275363E-2,3.0794954E0,-3.6934757E0,6.489852E2,1.1096119E-2,-1.3702334E-2,6.0032214E2,-9.48703E-3,9.26227E-3,-1.1711313E-2,3.537754E-4,-9.640356E-3,7.437617E-3,-8.388417E-3,7.969643E-3,2.063341E-3,1.1045534E-2,2.4110344E-3,-9.926793E-3,9.09105E-3,-3.2303378E-3],"split_indices":[1,0,2,0,2,1,0,1,1,0,0,0,0,1,1,2,2,0,1,0,0,0,0,0,0,0,0,0,0,0,0,0,0,0,0],"split_type":[0,0,0,0,0,0,0,0,0,0,0,0,0,0,0,0,0,0,0,0,0,0,0,0,0,0,0,0,0,0,0,0,0,0,0],"sum_hessian":[1.6673111E2,1.4551276E2,2.1218344E1,9.587426E1,4.96385E1,2.7594566E0,1.8458887E1,2.1231018E1,7.464324E1,7.8477182E0,4.1790783E1,1.5406659E0,1.2187908E0,5.846441E0,1.5384578E1,6.349944E0,6.82933E1,5.325556E0,2.5221624E0,3.6609683E0,3.8129814E1,1.2187908E0,4.6276503E0,7.681408E0,7.70317E0,4.91475E0,1.4351939E0,2.1303802E0,6.616292E1,1.2883871E0,4.0371685E0,1.2897186E0,1.2324438E0,1.8242064E0,3.6305607E1],"tree_param":{"num_deleted":"0","num_feature":"3","num_nodes":"35","size_leaf_vector":"1"}},{"base_weights":[-8.106084E-3,1.9435227E-1,-1.3459998E0,4.7454968E-1,-1.3297005E-1,-5.392855E-1,-1.4329042E-2,-2.8836316E-1,7.7055246E-1,-6.733464E-2,-1.2663649E-2,2.637065E-4,-9.44284E-3,4.4980302E-1,-5.683445E-1,1.0161722E0,3.7751004E-1,-1.3369955E-1,1.1078175E-2,-9.44284E-3,9.195199E-3,-1.1628429E-2,4.4425039E-4,1.4344254E-2,7.941458E-3,-9.710986E-3,5.738533E-3,-4.730697E-4,-1.3376053E-2],"categories":[],"categories_nodes":[],"categories_segments":[],"categories_sizes":[],"default_left":[0,0,0,0,0,0,0,0,0,0,0,0,0,0,0,0,0,0,0,0,0,0,0,0,0,0,0,0,0],"id":32,"left_children":[1,3,5,7,9,11,-1,13,15,17,-1,-1,-1,19,21,23,25,27,-1,-1,-1,-1,-1,-1,-1,-1,-1,-1,-1],"loss_changes":[4.5649536E1,1.3491501E1,7.8015137E-1,1.8085993E1,4.9963536E0,8.857299E-1,0E0,4.9760823E0,5.144661E0,5.266263E0,0E0,0E0,0E0,5.3466787E0,6.245003E0,2.0786095E0,6.8100805E0,6.4903936E0,0E0,0E0,0E0,0E0,0E0,0E0,0E0,0E0,0E0,0E0,0E0],"parents":[2147483647,0,0,1,1,2,2,3,3,4,4,5,5,7,7,8,8,9,9,13,13,14,14,15,15,16,16,17,17],"right_children":[2,4,6,8,10,12,-1,14,16,18,-1,-1,-1,20,22,24,26,28,-1,-1,-1,-1,-1,-1,-1,-1,-1,-1,-1],"split_conditions":[6.356727E-1,6.0844788E1,-2.9654045E0,-2.0069077E0,4.2101096E-2,3.6831899E0,-1.4329042E-2,2.2170652E-2,1.8198387E1,3.901726E-2,-1.2663649E-2,2.637065E-4,-9.44284E-3,2.0093694E-2,4.275363E-2,4.0271085E-2,4.419711E1,2.423817E-2,1.1078175E-2,-9.44284E-3,9.195199E-3,-1.1628429E-2,4.4425039E-4,1.4344254E-2,7.941458E-3,-9.710986E-3,5.738533E-3,-4.730697E-4,-1.3376053E-2],"split_indices":[1,0,2,0,1,1,0,1,0,1,0,0,0,1,1,1,0,1,0,0,0,0,0,0,0,0,0,0,0],"split_type":[0,0,0,0,0,0,0,0,0,0,0,0,0,0,0,0,0,0,0,0,0,0,0,0,0,0,0,0,0],"sum_hessian":[1.6656494E2,1.4541463E2,2.1150309E1,7.8104836E1,6.73098E1,2.7576025E0,1.8392706E1,2.1840162E1,5.626467E1,6.462665E1,2.6831496E0,1.5406641E0,1.2169384E0,5.8390517E0,1.600111E1,3.3650455E1,2.2614216E1,6.2010906E1,2.6157432E0,1.2169384E0,4.622113E0,7.6660028E0,8.335108E0,9.775244E0,2.3875214E1,2.3724966E0,2.0241718E1,5.8828644E1,3.1822634E0],"tree_param":{"num_deleted":"0","num_feature":"3","num_nodes":"29","size_leaf_vector":"1"}},{"base_weights":[-8.226634E-3,1.9249213E-1,-1.337803E0,4.7045228E-1,-1.3189235E-1,-5.366086E-1,-1.4242823E-2,-2.8627637E-1,7.6411194E-1,-6.671188E-2,-1.2589431E-2,2.621076E-4,-9.399075E-3,3.4719148E-1,-6.1063033E-1,1.008404E0,3.7373495E-1,-1.3259634E-1,1.1002304E-2,-9.399075E-3,6.974169E-3,-1.3834523E-2,4.4028717E-4,1.4249761E-2,7.875741E-3,-9.641916E-3,5.6867567E-3,-4.6842048E-4,-1.3293595E-2],"categories":[],"categories_nodes":[],"categories_segments":[],"categories_sizes":[],"default_left":[0,0,0,0,0,0,0,0,0,0,0,0,0,0,0,0,0,0,0,0,0,0,0,0,0,0,0,0,0],"id":33,"left_children":[1,3,5,7,9,11,-1,13,15,17,-1,-1,-1,19,21,23,25,27,-1,-1,-1,-1,-1,-1,-1,-1,-1,-1,-1],"loss_changes":[4.4928772E1,1.325404E1,7.656479E-1,1.7776642E1,4.933213E0,8.7712276E-1,0E0,4.90012E0,5.0775185E0,5.190889E0,0E0,0E0,0E0,4.425845E0,7.8789463E0,2.0597725E0,6.7045364E0,6.403735E0,0E0,0E0,0E0,0E0,0E0,0E0,0E0,0E0,0E0,0E0,0E0],"parents":[2147483647,0,0,1,1,2,2,3,3,4,4,5,5,7,7,8,8,9,9,13,13,14,14,15,15,16,16,17,17],"right_children":[2,4,6,8,10,12,-1,14,16,18,-1,-1,-1,20,22,24,26,28,-1,-1,-1,-1,-1,-1,-1,-1,-1,-1,-1],"split_conditions":[6.356727E-1,6.0844788E1,-2.9654045E0,-2.0069077E0,4.2101096E-2,3.6831899E0,-1.4242823E-2,2.43078E-2,1.8198387E1,3.901726E-2,-1.2589431E-2,2.621076E-4,-9.399075E-3,2.0093694E-2,4.275363E-2,4.0271085E-2,4.419711E1,2.423817E-2,1.1002304E-2,-9.399075E-3,6.974169E-3,-1.3834523E-2,4.4028717E-4,1.4249761E-2,7.875741E-3,-9.641916E-3,5.6867567E-3,-4.6842048E-4,-1.3293595E-2],"split_indices":[1,0,2,0,1,1,0,1,0,1,0,0,0,1,1,1,0,1,0,0,0,0,0,0,0,0,0,0,0],"split_type":[0,0,0,0,0,0,0,0,0,0,0,0,0,0,0,0,0,0,0,0,0,0,0,0,0,0,0,0,0],"sum_hessian":[1.6638899E2,1.4530789E2,2.1081104E1,7.8011086E1,6.729681E1,2.7557068E0,1.8325397E1,2.1816778E1,5.6194305E1,6.461891E1,2.6778991E0,1.5406622E0,1.2150447E0,7.364127E0,1.4452652E1,3.3590633E1,2.2603672E1,6.2004562E1,2.614346E0,1.2150447E0,6.149082E0,6.117606E0,8.335046E0,9.74843E0,2.3842203E1,2.3727596E0,2.0230913E1,5.8828346E1,3.1762154E0],"tree_param":{"num_deleted":"0","num_feature":"3","num_nodes":"29","size_leaf_vector":"1"}},{"base_weights":[-8.37289E-3,1.9062708E-1,-1.3297414E0,4.0498063E-1,-2.2239338E-1,-5.3395295E-1,-1.4158121E-2,-2.974928E-1,6.0592484E-1,4.9244052E-1,-3.6501127E-1,2.6051886E-4,-9.355728E-3,3.4372497E-1,-6.3946325E-1,-5.2761966E-1,7.1774197E-1,9.479887E-1,-4.6611974E-1,-1.3514826E-2,-2.3861797E-1,-9.355728E-3,6.919265E-3,-1.3755953E-2,3.428167E-4,-9.602447E-3,7.3999814E-3,-8.323075E-3,7.7942666E-3,2.0115029E-3,1.0990688E-2,2.40278E-3,-9.826814E-3,-1.131742E-2,-1.2220019E-3],"categories":[],"categories_nodes":[],"categories_segments":[],"categories_sizes":[],"default_left":[0,0,0,0,0,0,0,0,0,0,0,0,0,0,0,0,0,0,0,0,0,0,0,0,0,0,0,0,0,0,0,0,0,0,0],"id":34,"left_children":[1,3,5,7,9,11,-1,13,15,17,19,-1,-1,21,23,25,27,29,31,-1,33,-1,-1,-1,-1,-1,-1,-1,-1,-1,-1,-1,-1,-1,-1],"loss_changes":[4.4220516E1,1.3033022E1,7.516289E-1,1.3815983E1,5.337863E0,8.686303E-1,0E0,5.078313E0,9.940968E0,4.302533E0,5.008273E0,0E0,0E0,4.3699875E0,7.3874154E0,4.7413692E0,7.2549133E0,4.9231863E-1,1.5200117E0,0E0,3.928494E0,0E0,0E0,0E0,0E0,0E0,0E0,0E0,0E0,0E0,0E0,0E0,0E0,0E0,0E0],"parents":[2147483647,0,0,1,1,2,2,3,3,4,4,5,5,7,7,8,8,9,9,10,10,13,13,14,14,15,15,16,16,17,17,18,18,20,20],"right_children":[2,4,6,8,10,12,-1,14,16,18,20,-1,-1,22,24,26,28,30,32,-1,34,-1,-1,-1,-1,-1,-1,-1,-1,-1,-1,-1,-1,-1,-1],"split_conditions":[6.356727E-1,7.617915E1,-2.9654045E0,-2.0693653E0,-3.0270128E0,3.6831899E0,-1.4158121E-2,2.43078E-2,1.1021687E-2,7.243174E2,5.8984607E2,2.6051886E-4,-9.355728E-3,2.0093694E-2,4.275363E-2,3.0794954E0,-3.6934757E0,1.0549969E-2,1.1096119E-2,-1.3514826E-2,-2.8120377E0,-9.355728E-3,6.919265E-3,-1.3755953E-2,3.428167E-4,-9.602447E-3,7.3999814E-3,-8.323075E-3,7.7942666E-3,2.0115029E-3,1.0990688E-2,2.40278E-3,-9.826814E-3,-1.131742E-2,-1.2220019E-3],"split_indices":[1,0,2,0,2,1,0,1,1,0,0,0,0,1,1,2,2,1,1,0,2,0,0,0,0,0,0,0,0,0,0,0,0,0,0],"split_type":[0,0,0,0,0,0,0,0,0,0,0,0,0,0,0,0,0,0,0,0,0,0,0,0,0,0,0,0,0,0,0,0,0,0,0],"sum_hessian":[1.6620535E2,1.4519458E2,2.1010775E1,9.559907E1,4.959551E1,2.7537706E0,1.8257006E1,2.1156914E1,7.4442154E1,7.841123E0,4.1754383E1,1.5406601E0,1.2131104E0,7.356969E0,1.3799944E1,6.3500476E0,6.80921E1,5.322619E0,2.5185041E0,3.6414008E0,3.8112984E1,1.2131104E0,6.1438584E0,6.0968385E0,7.7031054E0,4.9150662E0,1.4349812E0,2.1279056E0,6.59642E1,1.287836E0,4.034783E0,1.2896965E0,1.2288077E0,3.3893642E0,3.472362E1],"tree_param":{"num_deleted":"0","num_feature":"3","num_nodes":"35","size_leaf_vector":"1"}},{"base_weights":[-8.673604E-3,1.8859203E-1,-1.3218113E0,4.6279815E-1,-1.3076526E-1,-5.313185E-1,-1.4074894E-2,-2.8284836E-1,7.5210106E-1,-6.628816E-2,-1.2479318E-2,2.5893902E-4,-9.312792E-3,4.405441E-1,-5.573122E-1,9.9458396E-1,3.6563122E-1,-1.3176785E-1,1.0935709E-2,-9.312792E-3,9.029154E-3,-1.1434288E-2,4.282911E-4,1.4106616E-2,7.746491E-3,-9.597232E-3,5.5907685E-3,-4.7020614E-4,-1.3171004E-2],"categories":[],"categories_nodes":[],"categories_segments":[],"categories_sizes":[],"default_left":[0,0,0,0,0,0,0,0,0,0,0,0,0,0,0,0,0,0,0,0,0,0,0,0,0,0,0,0,0],"id":35,"left_children":[1,3,5,7,9,11,-1,13,15,17,-1,-1,-1,19,21,23,25,27,-1,-1,-1,-1,-1,-1,-1,-1,-1,-1,-1],"loss_changes":[4.3515472E1,1.2853379E1,7.380791E-1,1.7215702E1,4.8346796E0,8.6025083E-1,0E0,4.7643375E0,4.9836464E0,5.1261077E0,0E0,0E0,0E0,5.1658673E0,6.008024E0,2.0625496E0,6.582155E0,6.265176E0,0E0,0E0,0E0,0E0,0E0,0E0,0E0,0E0,0E0,0E0,0E0],"parents":[2147483647,0,0,1,1,2,2,3,3,4,4,5,5,7,7,8,8,9,9,13,13,14,14,15,15,16,16,17,17],"right_children":[2,4,6,8,10,12,-1,14,16,18,-1,-1,-1,20,22,24,26,28,-1,-1,-1,-1,-1,-1,-1,-1,-1,-1,-1],"split_conditions":[6.356727E-1,6.0844788E1,-2.9654045E0,-2.0069077E0,4.2101096E-2,3.6831899E0,-1.4074894E-2,2.2170652E-2,1.8198387E1,3.901726E-2,-1.2479318E-2,2.5893902E-4,-9.312792E-3,2.0093694E-2,4.275363E-2,4.0271085E-2,4.419711E1,2.423817E-2,1.0935709E-2,-9.312792E-3,9.029154E-3,-1.1434288E-2,4.282911E-4,1.4106616E-2,7.746491E-3,-9.597232E-3,5.5907685E-3,-4.7020614E-4,-1.3171004E-2],"split_indices":[1,0,2,0,1,1,0,1,0,1,0,0,0,1,1,1,0,1,0,0,0,0,0,0,0,0,0,0,0],"split_type":[0,0,0,0,0,0,0,0,0,0,0,0,0,0,0,0,0,0,0,0,0,0,0,0,0,0,0,0,0],"sum_hessian":[1.6602708E2,1.450877E2,2.0939367E1,7.782046E1,6.726725E1,2.7517948E0,1.8187572E1,2.1759653E1,5.6060806E1,6.4598305E1,2.6689456E0,1.5406582E0,1.2111365E0,5.818631E0,1.5941022E1,3.348057E1,2.2580236E1,6.198533E1,2.6129804E0,1.2111365E0,4.607495E0,7.6067586E0,8.334264E0,9.705494E0,2.3775076E1,2.371458E0,2.0208778E1,5.8819595E1,3.1657324E0],"tree_param":{"num_deleted":"0","num_feature":"3","num_nodes":"29","size_leaf_vector":"1"}},{"base_weights":[-8.788463E-3,1.8679297E-1,-1.3140092E0,4.5883173E-1,-1.2970813E-1,-5.2870494E-1,-1.3993101E-2,-2.8082383E-1,7.4586713E-1,-6.567567E-2,-1.24077685E-2,2.5736878E-4,-9.270262E-3,3.3903486E-1,-5.985624E-1,9.870768E-1,3.6198038E-1,-1.306818E-1,1.0861675E-2,-9.270262E-3,6.835689E-3,-1.361511E-2,4.2446837E-4,1.4016305E-2,7.6827984E-3,-9.529505E-3,5.540493E-3,-4.6558538E-4,-1.3091773E-2],"categories":[],"categories_nodes":[],"categories_segments":[],"categories_sizes":[],"default_left":[0,0,0,0,0,0,0,0,0,0,0,0,0,0,0,0,0,0,0,0,0,0,0,0,0,0,0,0,0],"id":36,"left_children":[1,3,5,7,9,11,-1,13,15,17,-1,-1,-1,19,21,23,25,27,-1,-1,-1,-1,-1,-1,-1,-1,-1,-1,-1],"loss_changes":[4.283628E1,1.2628022E1,7.249832E-1,1.6922659E1,4.7743354E0,8.519826E-1,0E0,4.6806545E0,4.91951E0,5.053097E0,0E0,0E0,0E0,4.2728977E0,7.5853634E0,2.0449638E0,6.480481E0,6.1826577E0,0E0,0E0,0E0,0E0,0E0,0E0,0E0,0E0,0E0,0E0,0E0],"parents":[2147483647,0,0,1,1,2,2,3,3,4,4,5,5,7,7,8,8,9,9,13,13,14,14,15,15,16,16,17,17],"right_children":[2,4,6,8,10,12,-1,14,16,18,-1,-1,-1,20,22,24,26,28,-1,-1,-1,-1,-1,-1,-1,-1,-1,-1,-1],"split_conditions":[6.356727E-1,6.0844788E1,-2.9654045E0,-2.0069077E0,4.2101096E-2,3.6831899E0,-1.3993101E-2,2.43078E-2,1.8198387E1,3.901726E-2,-1.24077685E-2,2.5736878E-4,-9.270262E-3,2.0093694E-2,4.275363E-2,4.0271085E-2,4.419711E1,2.423817E-2,1.0861675E-2,-9.270262E-3,6.835689E-3,-1.361511E-2,4.2446837E-4,1.4016305E-2,7.6827984E-3,-9.529505E-3,5.540493E-3,-4.6558538E-4,-1.3091773E-2],"split_indices":[1,0,2,0,1,1,0,1,0,1,0,0,0,1,1,1,0,1,0,0,0,0,0,0,0,0,0,0,0],"split_type":[0,0,0,0,0,0,0,0,0,0,0,0,0,0,0,0,0,0,0,0,0,0,0,0,0,0,0,0,0],"sum_hessian":[1.6584167E2,1.4497475E2,2.0866924E1,7.772173E1,6.725302E1,2.7497802E0,1.8117144E1,2.1734974E1,5.598676E1,6.458973E1,2.6632874E0,1.5406561E0,1.209124E0,7.3429646E0,1.439201E1,3.341786E1,2.25689E1,6.1978424E1,2.6113071E0,1.209124E0,6.1338406E0,6.05781E0,8.3342E0,9.676935E0,2.3740925E1,2.3715355E0,2.0197365E1,5.8819298E1,3.1591272E0],"tree_param":{"num_deleted":"0","num_feature":"3","num_nodes":"29","size_leaf_vector":"1"}},{"base_weights":[-8.9289155E-3,1.8498825E-1,-1.3063314E0,3.9469293E-1,-2.1818337E-1,-5.261119E-1,-1.3912699E-2,-2.9173684E-1,5.908633E-1,4.9075094E-1,-3.596889E-1,2.5580914E-4,-9.228131E-3,3.356563E-1,-6.267546E-1,-5.2580297E-1,7.0144176E-1,9.418134E-1,-4.5993987E-1,-1.3335145E-2,-2.3540278E-1,-9.228131E-3,6.78214E-3,-1.3540154E-2,3.322381E-4,-9.563813E-3,7.3626204E-3,-8.258674E-3,7.6243584E-3,2.0009968E-3,1.0918654E-2,2.394542E-3,-9.729743E-3,-1.1226926E-2,-1.1978224E-3],"categories":[],"categories_nodes":[],"categories_segments":[],"categories_sizes":[],"default_left":[0,0,0,0,0,0,0,0,0,0,0,0,0,0,0,0,0,0,0,0,0,0,0,0,0,0,0,0,0,0,0,0,0,0,0],"id":37,"left_children":[1,3,5,7,9,11,-1,13,15,17,19,-1,-1,21,23,25,27,29,31,-1,33,-1,-1,-1,-1,-1,-1,-1,-1,-1,-1,-1,-1,-1,-1],"loss_changes":[4.2168602E1,1.2417744E1,7.12307E-1,1.3140506E1,5.247656E0,8.4382355E-1,0E0,4.850177E0,9.658199E0,4.221426E0,4.8561893E0,0E0,0E0,4.219261E0,7.1194134E0,4.698286E0,7.0463257E0,4.8485613E-1,1.4940534E0,0E0,3.8763497E0,0E0,0E0,0E0,0E0,0E0,0E0,0E0,0E0,0E0,0E0,0E0,0E0,0E0,0E0],"parents":[2147483647,0,0,1,1,2,2,3,3,4,4,5,5,7,7,8,8,9,9,10,10,13,13,14,14,15,15,16,16,17,17,18,18,20,20],"right_children":[2,4,6,8,10,12,-1,14,16,18,20,-1,-1,22,24,26,28,30,32,-1,34,-1,-1,-1,-1,-1,-1,-1,-1,-1,-1,-1,-1,-1,-1],"split_conditions":[6.356727E-1,7.617915E1,-2.9654045E0,-2.0693653E0,-3.0270128E0,3.6831899E0,-1.3912699E-2,2.43078E-2,1.1021687E-2,7.243174E2,5.8984607E2,2.5580914E-4,-9.228131E-3,2.0093694E-2,4.275363E-2,3.0794954E0,-3.6934757E0,6.489852E2,1.1096119E-2,-1.3335145E-2,-2.8120377E0,-9.228131E-3,6.78214E-3,-1.3540154E-2,3.322381E-4,-9.563813E-3,7.3626204E-3,-8.258674E-3,7.6243584E-3,2.0009968E-3,1.0918654E-2,2.394542E-3,-9.729743E-3,-1.1226926E-2,-1.1978224E-3],"split_indices":[1,0,2,0,2,1,0,1,1,0,0,0,0,1,1,2,2,0,1,0,2,0,0,0,0,0,0,0,0,0,0,0,0,0,0],"split_type":[0,0,0,0,0,0,0,0,0,0,0,0,0,0,0,0,0,0,0,0,0,0,0,0,0,0,0,0,0,0,0,0,0,0,0],"sum_hessian":[1.6564883E2,1.4485535E2,2.079349E1,9.530479E1,4.9550564E1,2.7477276E0,1.8045761E1,2.1074556E1,7.423023E1,7.834104E0,4.171646E1,1.5406541E0,1.2070737E0,7.335444E0,1.3739113E1,6.3500323E0,6.7880196E1,5.3195443E0,2.51456E0,3.6203504E0,3.809611E1,1.2070737E0,6.1283703E0,6.0360746E0,7.7030377E0,4.9152927E0,1.4347396E0,2.125172E0,6.575503E1,1.2877376E0,4.0318065E0,1.2896729E0,1.2248873E0,3.3877614E0,3.470835E1],"tree_param":{"num_deleted":"0","num_feature":"3","num_nodes":"35","size_leaf_vector":"1"}},{"base_weights":[-9.221957E-3,1.8301493E-1,-1.2987747E0,4.514177E-1,-1.2860015E-1,-2.9327911E-3,-1.3495917E-2,-2.7751172E-1,7.3423374E-1,-6.52536E-2,-1.2301791E-2,4.315615E-1,-5.466205E-1,9.737103E-1,3.5413396E-1,-1.298617E-1,1.0796623E-2,-9.186392E-3,8.867825E-3,-1.1248104E-2,4.128206E-4,6.4941267E-3,1.2326773E-2,-9.485471E-3,5.447462E-3,-4.6721238E-4,-1.2974081E-2],"categories":[],"categories_nodes":[],"categories_segments":[],"categories_sizes":[],"default_left":[0,0,0,0,0,0,0,0,0,0,0,0,0,0,0,0,0,0,0,0,0,0,0,0,0,0,0],"id":38,"left_children":[1,3,5,7,9,-1,-1,11,13,15,-1,17,19,21,23,25,-1,-1,-1,-1,-1,-1,-1,-1,-1,-1,-1],"loss_changes":[4.150354E1,1.2247744E1,7.1396255E-1,1.6391336E1,4.6802483E0,0E0,0E0,4.5627394E0,4.829668E0,4.99025E0,0E0,4.9923534E0,5.7836647E0,2.0803375E0,6.362821E0,6.050668E0,0E0,0E0,0E0,0E0,0E0,0E0,0E0,0E0,0E0,0E0,0E0],"parents":[2147483647,0,0,1,1,2,2,3,3,4,4,7,7,8,8,9,9,11,11,12,12,13,13,14,14,15,15],"right_children":[2,4,6,8,10,-1,-1,12,14,16,-1,18,20,22,24,26,-1,-1,-1,-1,-1,-1,-1,-1,-1,-1,-1],"split_conditions":[6.356727E-1,6.0844788E1,-3.179306E1,-2.0069077E0,4.2101096E-2,-2.9327911E-3,-1.3495917E-2,2.2170652E-2,1.8198387E1,3.901726E-2,-1.2301791E-2,2.0093694E-2,4.275363E-2,-6.2632483E-1,4.419711E1,2.423817E-2,1.0796623E-2,-9.186392E-3,8.867825E-3,-1.1248104E-2,4.128206E-4,6.4941267E-3,1.2326773E-2,-9.485471E-3,5.447462E-3,-4.6721238E-4,-1.2974081E-2],"split_indices":[1,0,0,0,1,0,0,1,0,1,0,1,1,0,0,1,0,0,0,0,0,0,0,0,0,0,0],"split_type":[0,0,0,0,0,0,0,0,0,0,0,0,0,0,0,0,0,0,0,0,0,0,0,0,0,0,0],"sum_hessian":[1.6546194E2,1.4474284E2,2.0719103E1,7.752218E1,6.7220665E1,1.3225069E0,1.9396595E1,2.1675232E1,5.5846943E1,6.456696E1,2.6537008E0,5.797022E0,1.587821E1,3.330308E1,2.2543863E1,6.195726E1,2.6097E0,1.2049863E0,4.592036E0,7.544798E0,8.333412E0,1.6343836E1,1.6959248E1,2.370064E0,2.01738E1,5.880948E1,3.1477807E0],"tree_param":{"num_deleted":"0","num_feature":"3","num_nodes":"27","size_leaf_vector":"1"}},{"base_weights":[-9.3086595E-3,1.812556E-1,-1.290835E0,4.475394E-1,-1.2756309E-1,-5.158042E-1,-1.376008E-2,-2.7554613E-1,7.281437E-1,-6.465118E-2,-1.2232756E-2,3.1965718E-4,-9.135208E-3,4.2773503E-1,-5.423603E-1,8.8946325E-1,1.8693273E-1,-1.2879251E-1,1.0724353E-2,-9.14504E-3,8.805057E-3,-1.117153E-2,4.091362E-4,-5.489516E-3,9.585699E-3,4.5406627E-3,-6.748866E-3,-4.6262072E-4,-1.2897876E-2],"categories":[],"categories_nodes":[],"categories_segments":[],"categories_sizes":[],"default_left":[0,0,0,0,0,0,0,0,0,0,0,0,0,0,0,0,0,0,0,0,0,0,0,0,0,0,0,0,0],"id":39,"left_children":[1,3,5,7,9,11,-1,13,15,17,-1,-1,-1,19,21,23,25,27,-1,-1,-1,-1,-1,-1,-1,-1,-1,-1,-1],"loss_changes":[4.0839745E1,1.2032298E1,7.1922684E-1,1.6112001E1,4.6225324E0,8.446485E-1,0E0,4.4820395E0,4.7901974E0,4.919516E0,0E0,0E0,0E0,4.930806E0,5.698498E0,4.847103E0,3.5990543E0,5.972024E0,0E0,0E0,0E0,0E0,0E0,0E0,0E0,0E0,0E0,0E0,0E0],"parents":[2147483647,0,0,1,1,2,2,3,3,4,4,5,5,7,7,8,8,9,9,13,13,14,14,15,15,16,16,17,17],"right_children":[2,4,6,8,10,12,-1,14,16,18,-1,-1,-1,20,22,24,26,28,-1,-1,-1,-1,-1,-1,-1,-1,-1,-1,-1],"split_conditions":[6.356727E-1,6.0844788E1,-2.9654045E0,-2.0069077E0,4.2101096E-2,3.6831899E0,-1.376008E-2,2.2170652E-2,5.162291E1,3.901726E-2,-1.2232756E-2,3.1965718E-4,-9.135208E-3,2.0093694E-2,4.275363E-2,-3.5465E0,2.7653747E0,2.423817E-2,1.0724353E-2,-9.14504E-3,8.805057E-3,-1.117153E-2,4.091362E-4,-5.489516E-3,9.585699E-3,4.5406627E-3,-6.748866E-3,-4.6262072E-4,-1.2897876E-2],"split_indices":[1,0,2,0,1,1,0,1,0,1,0,0,0,1,1,2,2,1,0,0,0,0,0,0,0,0,0,0,0],"split_type":[0,0,0,0,0,0,0,0,0,0,0,0,0,0,0,0,0,0,0,0,0,0,0,0,0,0,0,0,0],"sum_hessian":[1.652719E2,1.4462463E2,2.0647264E1,7.7419365E1,6.720527E1,2.7430336E0,1.790423E1,2.1649385E1,5.5769978E1,6.45576E1,2.647664E0,1.5406895E0,1.2023441E0,5.7885466E0,1.5860838E1,4.246801E1,1.3301969E1,6.194984E1,2.6077626E0,1.2028632E0,4.5856833E0,7.5274897E0,8.333348E0,1.6284841E0,4.0839523E1,1.0515627E1,2.7863421E0,5.880918E1,3.1406589E0],"tree_param":{"num_deleted":"0","num_feature":"3","num_nodes":"29","size_leaf_vector":"1"}},{"base_weights":[-9.50944E-3,1.7943469E-1,-1.2835072E0,3.8458136E-1,-2.140679E-1,-5.133011E-1,-1.3683563E-2,-2.8590798E-1,5.760572E-1,4.8906818E-1,-3.544823E-1,3.1771846E-4,-9.094328E-3,3.2992917E-1,-6.151896E-1,-5.236262E-1,6.8539935E-1,9.3570584E-1,-4.5390445E-1,-1.3162819E-2,-2.3224424E-1,-9.104068E-3,6.6731647E-3,-1.334603E-2,3.220248E-4,-9.520691E-3,7.32553E-3,-8.193035E-3,7.4571893E-3,1.9498407E-3,1.0865101E-2,2.3863174E-3,-9.63545E-3,-8.452772E-4,-9.095945E-3],"categories":[],"categories_nodes":[],"categories_segments":[],"categories_sizes":[],"default_left":[0,0,0,0,0,0,0,0,0,0,0,0,0,0,0,0,0,0,0,0,0,0,0,0,0,0,0,0,0,0,0,0,0,0,0],"id":40,"left_children":[1,3,5,7,9,11,-1,13,15,17,19,-1,-1,21,23,25,27,29,31,-1,33,-1,-1,-1,-1,-1,-1,-1,-1,-1,-1,-1,-1,-1,-1],"loss_changes":[4.020566E1,1.1827803E1,7.07325E-1,1.2488944E1,5.1594715E0,8.3662474E-1,0E0,4.662753E0,9.377445E0,4.142214E0,4.7116046E0,0E0,0E0,4.0864077E0,6.879866E0,4.653265E0,6.842163E0,4.937024E-1,1.4688911E0,0E0,3.8330603E0,0E0,0E0,0E0,0E0,0E0,0E0,0E0,0E0,0E0,0E0,0E0,0E0,0E0,0E0],"parents":[2147483647,0,0,1,1,2,2,3,3,4,4,5,5,7,7,8,8,9,9,10,10,13,13,14,14,15,15,16,16,17,17,18,18,20,20],"right_children":[2,4,6,8,10,12,-1,14,16,18,20,-1,-1,22,24,26,28,30,32,-1,34,-1,-1,-1,-1,-1,-1,-1,-1,-1,-1,-1,-1,-1,-1],"split_conditions":[6.356727E-1,7.617915E1,-2.9654045E0,-2.0693653E0,-3.0270128E0,3.6831899E0,-1.3683563E-2,2.43078E-2,1.1021687E-2,7.243174E2,5.8984607E2,3.1771846E-4,-9.094328E-3,2.0093694E-2,4.275363E-2,3.0794954E0,-3.6934757E0,1.0549969E-2,1.1096119E-2,-1.3162819E-2,3.2285593E0,-9.104068E-3,6.6731647E-3,-1.334603E-2,3.220248E-4,-9.520691E-3,7.32553E-3,-8.193035E-3,7.4571893E-3,1.9498407E-3,1.0865101E-2,2.3863174E-3,-9.63545E-3,-8.452772E-4,-9.095945E-3],"split_indices":[1,0,2,0,2,1,0,1,1,0,0,0,0,1,1,2,2,1,1,0,2,0,0,0,0,0,0,0,0,0,0,0,0,0,0],"split_type":[0,0,0,0,0,0,0,0,0,0,0,0,0,0,0,0,0,0,0,0,0,0,0,0,0,0,0,0,0,0,0,0,0,0,0],"sum_hessian":[1.6506966E2,1.4449852E2,2.0571136E1,9.499629E1,4.950222E1,2.740867E0,1.783027E1,2.09928E1,7.4003494E1,7.826645E0,4.1675575E1,1.5406895E0,1.2001774E0,7.3132553E0,1.36795435E1,6.350086E0,6.7653404E1,5.3162956E0,2.5103495E0,3.5979352E0,3.807764E1,1.2007048E0,6.1125507E0,5.976576E0,7.7029676E0,4.915617E0,1.4344695E0,2.1225536E0,6.553085E1,1.2871277E0,4.0291677E0,1.2896479E0,1.2207016E0,3.2183792E1,5.8938475E0],"tree_param":{"num_deleted":"0","num_feature":"3","num_nodes":"35","size_leaf_vector":"1"}},{"base_weights":[-9.780204E-3,1.7753917E-1,-1.2762909E0,4.4022086E-1,-1.2644196E-1,-2.8263694E-3,-1.3270538E-2,-2.7209818E-1,7.1666914E-1,-6.431016E-2,-1.2114161E-2,3.2665023E-1,-5.7960904E-1,8.766491E-1,1.8164535E-1,1.8175986E-2,-9.6464E-1,-9.063473E-3,6.6211843E-3,-1.327537E-2,3.9782524E-4,-5.44605E-3,9.451665E-3,4.478476E-3,-6.754164E-3,-1.0620818E-2,9.0073765E-4,-1.42812105E-2,3.1542683E-3],"categories":[],"categories_nodes":[],"categories_segments":[],"categories_sizes":[],"default_left":[0,0,0,0,0,0,0,0,0,0,0,0,0,0,0,0,0,0,0,0,0,0,0,0,0,0,0,0,0],"id":41,"left_children":[1,3,5,7,9,-1,-1,11,13,15,-1,17,19,21,23,25,27,-1,-1,-1,-1,-1,-1,-1,-1,-1,-1,-1,-1],"loss_changes":[3.9578777E1,1.1664249E1,7.091141E-1,1.5596188E1,4.5174484E0,0E0,0E0,4.3489356E0,4.6869545E0,4.8842945E0,0E0,4.035453E0,7.134347E0,4.733734E0,3.5637407E0,4.834514E0,3.7245436E0,0E0,0E0,0E0,0E0,0E0,0E0,0E0,0E0,0E0,0E0,0E0,0E0],"parents":[2147483647,0,0,1,1,2,2,3,3,4,4,7,7,8,8,9,9,11,11,12,12,13,13,14,14,15,15,16,16],"right_children":[2,4,6,8,10,-1,-1,12,14,16,-1,18,20,22,24,26,28,-1,-1,-1,-1,-1,-1,-1,-1,-1,-1,-1,-1],"split_conditions":[6.356727E-1,6.0844788E1,-3.179306E1,-2.0069077E0,4.2101096E-2,-2.8263694E-3,-1.3270538E-2,2.43078E-2,5.162291E1,7.4458484E2,-1.2114161E-2,2.0093694E-2,4.275363E-2,-3.5465E0,2.7653747E0,6.2416527E1,7.634644E2,-9.063473E-3,6.6211843E-3,-1.327537E-2,3.9782524E-4,-5.44605E-3,9.451665E-3,4.478476E-3,-6.754164E-3,-1.0620818E-2,9.0073765E-4,-1.42812105E-2,3.1542683E-3],"split_indices":[1,0,0,0,1,0,0,1,0,0,0,1,1,2,2,0,0,0,0,0,0,0,0,0,0,0,0,0,0],"split_type":[0,0,0,0,0,0,0,0,0,0,0,0,0,0,0,0,0,0,0,0,0,0,0,0,0,0,0,0,0],"sum_hessian":[1.6487361E2,1.4437944E2,2.0494175E1,7.721061E1,6.716882E1,1.3153228E0,1.9178852E1,2.1591621E1,5.5618988E1,6.453259E1,2.6362295E0,7.305325E0,1.4286297E1,4.2324745E1,1.3294243E1,6.0014057E1,4.518538E0,1.1985122E0,6.106813E0,5.9537406E0,8.332556E0,1.6270245E0,4.069772E1,1.050795E1,2.7862937E0,2.885629E0,5.712843E1,3.2324758E0,1.2860622E0],"tree_param":{"num_deleted":"0","num_feature":"3","num_nodes":"29","size_leaf_vector":"1"}},{"base_weights":[-1.0074134E-2,1.7559765E-1,-1.2686841E0,4.36301E-1,-1.2567952E-1,-5.0325835E-1,-1.3538268E-2,-2.7043533E-1,7.106171E-1,-6.3988596E-2,-1.2047712E-2,3.80022E-4,-9.00436E-3,4.1908783E-1,-5.320893E-1,9.462385E-1,3.38693E-1,-1.2768029E-1,1.06526185E-2,-9.0232445E-3,8.649585E-3,-1.0994855E-2,3.9427678E-4,1.3666205E-2,7.2647426E-3,-9.498315E-3,5.279597E-3,-4.6034437E-4,-1.2790938E-2],"categories":[],"categories_nodes":[],"categories_segments":[],"categories_sizes":[],"default_left":[0,0,0,0,0,0,0,0,0,0,0,0,0,0,0,0,0,0,0,0,0,0,0,0,0,0,0,0,0],"id":42,"left_children":[1,3,5,7,9,11,-1,13,15,17,-1,-1,-1,19,21,23,25,27,-1,-1,-1,-1,-1,-1,-1,-1,-1,-1,-1],"loss_changes":[3.8938576E1,1.14635725E1,7.146225E-1,1.5332109E1,4.460286E0,8.373337E-1,0E0,4.2932615E0,4.633707E0,4.8491497E0,0E0,0E0,0E0,4.766514E0,5.48957E0,2.152956E0,6.2282515E0,5.85647E0,0E0,0E0,0E0,0E0,0E0,0E0,0E0,0E0,0E0,0E0,0E0],"parents":[2147483647,0,0,1,1,2,2,3,3,4,4,5,5,7,7,8,8,9,9,13,13,14,14,15,15,16,16,17,17],"right_children":[2,4,6,8,10,12,-1,14,16,18,-1,-1,-1,20,22,24,26,28,-1,-1,-1,-1,-1,-1,-1,-1,-1,-1,-1],"split_conditions":[6.356727E-1,6.0844788E1,-2.9654045E0,-2.0069077E0,4.2101096E-2,3.6831899E0,-1.3538268E-2,2.2170652E-2,1.8198387E1,3.901726E-2,-1.2047712E-2,3.80022E-4,-9.00436E-3,2.0093694E-2,4.275363E-2,4.0271085E-2,4.419711E1,2.423817E-2,1.06526185E-2,-9.0232445E-3,8.649585E-3,-1.0994855E-2,3.9427678E-4,1.3666205E-2,7.2647426E-3,-9.498315E-3,5.279597E-3,-4.6034437E-4,-1.2790938E-2],"split_indices":[1,0,2,0,1,1,0,1,0,1,0,0,0,1,1,1,0,1,0,0,0,0,0,0,0,0,0,0,0],"split_type":[0,0,0,0,0,0,0,0,0,0,0,0,0,0,0,0,0,0,0,0,0,0,0,0,0,0,0,0,0],"sum_hessian":[1.6467278E2,1.4425288E2,2.0419893E1,7.709356E1,6.7159325E1,2.7358258E0,1.7684067E1,2.1560406E1,5.5533157E1,6.452952E1,2.6298096E0,1.540628E0,1.1951977E0,5.765416E0,1.579499E1,3.30507E1,2.2482452E1,6.192384E1,2.6056788E0,1.196286E0,4.56913E0,7.462497E0,8.332492E0,9.554857E0,2.3495846E1,2.3647559E0,2.0117697E1,5.879473E1,3.1291084E0],"tree_param":{"num_deleted":"0","num_feature":"3","num_nodes":"29","size_leaf_vector":"1"}},{"base_weights":[-1.0175237E-2,1.7393105E-1,-1.261679E0,3.7486875E-1,-2.105096E-1,-5.0084156E-1,-1.3465329E-2,-2.805098E-1,5.618523E-1,4.8673114E-1,-3.4978184E-1,3.7771667E-4,-8.964668E-3,3.222773E-1,-6.032318E-1,-5.209649E-1,6.699653E-1,9.2859024E-1,-4.4750538E-1,-1.3024381E-2,-2.2916214E-1,-8.983382E-3,6.5429024E-3,-1.3148744E-2,3.1216728E-4,-9.468297E-3,7.2808694E-3,-8.112462E-3,7.2955433E-3,1.9320383E-3,1.0784647E-2,2.3871476E-3,-9.542935E-3,-1.1111487E-2,-1.1433237E-3],"categories":[],"categories_nodes":[],"categories_segments":[],"categories_sizes":[],"default_left":[0,0,0,0,0,0,0,0,0,0,0,0,0,0,0,0,0,0,0,0,0,0,0,0,0,0,0,0,0,0,0,0,0,0,0],"id":43,"left_children":[1,3,5,7,9,11,-1,13,15,17,19,-1,-1,21,23,25,27,29,31,-1,33,-1,-1,-1,-1,-1,-1,-1,-1,-1,-1,-1,-1,-1,-1],"loss_changes":[3.8345276E1,1.1289875E1,7.034073E-1,1.1881608E1,5.069971E0,8.2944024E-1,0E0,4.455372E0,9.101799E0,4.0559797E0,4.601078E0,0E0,0E0,3.9471757E0,6.63932E0,4.599021E0,6.63064E0,4.8735666E-1,1.4472535E0,0E0,3.8288975E0,0E0,0E0,0E0,0E0,0E0,0E0,0E0,0E0,0E0,0E0,0E0,0E0,0E0,0E0],"parents":[2147483647,0,0,1,1,2,2,3,3,4,4,5,5,7,7,8,8,9,9,10,10,13,13,14,14,15,15,16,16,17,17,18,18,20,20],"right_children":[2,4,6,8,10,12,-1,14,16,18,20,-1,-1,22,24,26,28,30,32,-1,34,-1,-1,-1,-1,-1,-1,-1,-1,-1,-1,-1,-1,-1,-1],"split_conditions":[6.356727E-1,7.617915E1,-2.9654045E0,-2.0693653E0,-3.0270128E0,3.6831899E0,-1.3465329E-2,2.43078E-2,1.1021687E-2,7.243174E2,5.8984607E2,3.7771667E-4,-8.964668E-3,2.0093694E-2,4.275363E-2,3.0794954E0,-3.6934757E0,6.489852E2,1.1096119E-2,-1.3024381E-2,-2.8120377E0,-8.983382E-3,6.5429024E-3,-1.3148744E-2,3.1216728E-4,-9.468297E-3,7.2808694E-3,-8.112462E-3,7.2955433E-3,1.9320383E-3,1.0784647E-2,2.3871476E-3,-9.542935E-3,-1.1111487E-2,-1.1433237E-3],"split_indices":[1,0,2,0,2,1,0,1,1,0,0,0,0,1,1,2,2,0,1,0,2,0,0,0,0,0,0,0,0,0,0,0,0,0,0],"split_type":[0,0,0,0,0,0,0,0,0,0,0,0,0,0,0,0,0,0,0,0,0,0,0,0,0,0,0,0,0,0,0,0,0,0,0],"sum_hessian":[1.6446973E2,1.4412831E2,2.0341413E1,9.4671E1,4.945731E1,2.7335546E0,1.7607859E1,2.0903591E1,7.376741E1,7.818853E0,4.163846E1,1.5406309E0,1.1929237E0,7.2894936E0,1.3614097E1,6.349966E0,6.741744E1,5.3123517E0,2.5065007E0,3.57839E0,3.8060066E1,