{"learner":{"attributes":{"scikit_learn":"{\"_estimator_type\": \"classifier\"}"},"feature_names":["frac_diff","volatility","signal_strength","order_flow_imbalance","effective_spread"],"feature_types":["float","float","float","float","float"],"gradient_booster":{"model":{"cats":{"enc":[],"feature_segments":[],"sorted_idx":[]},"gbtree_model_param":{"num_parallel_tree":"1","num_trees":"200"},"iteration_indptr":[0,1,2,3,4,5,6,7,8,9,10,11,12,13,14,15,16,17,18,19,20,21,22,23,24,25,26,27,28,29,30,31,32,33,34,35,36,37,38,39,40,41,42,43,44,45,46,47,48,49,50,51,52,53,54,55,56,57,58,59,60,61,62,63,64,65,66,67,68,69,70,71,72,73,74,75,76,77,78,79,80,81,82,83,84,85,86,87,88,89,90,91,92,93,94,95,96,97,98,99,100,101,102,103,104,105,106,107,108,109,110,111,112,113,114,115,116,117,118,119,120,121,122,123,124,125,126,127,128,129,130,131,132,133,134,135,136,137,138,139,140,141,142,143,144,145,146,147,148,149,150,151,152,153,154,155,156,157,158,159,160,161,162,163,164,165,166,167,168,169,170,171,172,173,174,175,176,177,178,179,180,181,182,183,184,185,186,187,188,189,190,191,192,193,194,195,196,197,198,199,200],"tree_info":[0,0,0,0,0,0,0,0,0,0,0,0,0,0,0,0,0,0,0,0,0,0,0,0,0,0,0,0,0,0,0,0,0,0,0,0,0,0,0,0,0,0,0,0,0,0,0,0,0,0,0,0,0,0,0,0,0,0,0,0,0,0,0,0,0,0,0,0,0,0,0,0,0,0,0,0,0,0,0,0,0,0,0,0,0,0,0,0,0,0,0,0,0,0,0,0,0,0,0,0,0,0,0,0,0,0,0,0,0,0,0,0,0,0,0,0,0,0,0,0,0,0,0,0,0,0,0,0,0,0,0,0,0,0,0,0,0,0,0,0,0,0,0,0,0,0,0,0,0,0,0,0,0,0,0,0,0,0,0,0,0,0,0,0,0,0,0,0,0,0,0,0,0,0,0,0,0,0,0,0,0,0,0,0,0,0,0,0,0,0,0,0,0,0,0,0,0,0,0,0],"trees":[{"base_weights":[3.8961515E-2,1.4636146E-1,-1.5564986E0,2.4064775E-1,-1.020338E0,-4.502924E-3,-1.6183455E-2,5.2284603E-3,-1.1101176E-3,-1.7419355E-2,-9.6222793E-4],"categories":[],"categories_nodes":[],"categories_segments":[],"categories_sizes":[],"default_left":[0,0,0,0,0,0,0,0,0,0,0],"id":0,"left_children":[1,3,5,7,9,-1,-1,-1,-1,-1,-1],"loss_changes":[3.3606342E1,2.0422768E1,1.1768913E-1,1.6979788E1,9.10527E0,0E0,0E0,0E0,0E0,0E0,0E0],"parents":[2147483647,0,0,1,1,2,2,3,3,4,4],"right_children":[2,4,6,8,10,-1,-1,-1,-1,-1,-1],"split_conditions":[2.7626622E-1,1.7188887E2,3.0140534E-1,4.5569282E-2,2.7366438E0,-4.502924E-3,-1.6183455E-2,5.2284603E-3,-1.1101176E-3,-1.7419355E-2,-9.6222793E-4],"split_indices":[1,0,1,1,2,0,0,0,0,0,0],"split_type":[0,0,0,0,0,0,0,0,0,0,0],"sum_hessian":[1.9379475E2,1.8242303E2,1.1371718E1,1.695173E2,1.2905728E1,1.0405728E0,1.0331145E1,9.377685E1,7.5740456E1,6.75E0,6.155728E0],"tree_param":{"num_deleted":"0","num_feature":"5","num_nodes":"11","size_leaf_vector":"1"}},{"base_weights":[2.2346007E-3,9.712521E-2,-1.5033377E0,1.1610225E0,-1.1949692E-2,-1.6359134E-2,-6.9222695E-1,1.4444714E-2,2.2225806E-3,7.2882685E-4,-9.7425515E-3,8.6391583E-4,-1.10474145E-2],"categories":[],"categories_nodes":[],"categories_segments":[],"categories_sizes":[],"default_left":[0,0,0,0,0,0,0,0,0,0,0,0,0],"id":1,"left_children":[1,3,5,7,9,-1,11,-1,-1,-1,-1,-1,-1],"loss_changes":[2.7399658E1,2.0947649E1,9.03492E-2,4.1453285E0,1.3508832E1,0E0,1.1653366E0,0E0,0E0,0E0,0E0,0E0,0E0],"parents":[2147483647,0,0,1,1,2,2,3,3,4,4,6,6],"right_children":[2,4,6,8,10,-1,12,-1,-1,-1,-1,-1,-1],"split_conditions":[2.7626622E-1,8.166239E-3,2.9559586E0,1.7372372E1,1.7188887E2,-1.6359134E-2,1.2401951E1,1.4444714E-2,2.2225806E-3,7.2882685E-4,-9.7425515E-3,8.6391583E-4,-1.10474145E-2],"split_indices":[1,1,2,0,0,0,0,0,0,0,0,0,0],"split_type":[0,0,0,0,0,0,0,0,0,0,0,0,0],"sum_hessian":[1.8976546E2,1.793944E2,1.0371069E1,1.5785094E1,1.636093E2,8.040046E0,2.331023E0,1.171054E1,4.0745544E0,1.512041E2,1.24051895E1,1.0810747E0,1.2499483E0],"tree_param":{"num_deleted":"0","num_feature":"5","num_nodes":"13","size_leaf_vector":"1"}},{"base_weights":[4.857164E-2,1.1154268E0,-8.66555E-2,1.5258032E0,4.53521E-1,7.601269E-3,-1.2686937E0,3.0209806E-3,1.6437462E-2,1.3904225E-2,-4.4552195E-3,6.072877E-4,-6.9051813E-3,-8.851453E-3,-1.6128302E-2],"categories":[],"categories_nodes":[],"categories_segments":[],"categories_sizes":[],"default_left":[0,0,0,0,0,0,0,0,0,0,0,0,0,0,0],"id":2,"left_children":[1,3,5,7,9,11,13,-1,-1,-1,-1,-1,-1,-1,-1],"loss_changes":[2.797616E1,5.2326527E0,1.9221722E1,1.3855915E0,8.849256E0,6.0020494E0,2.541008E-1,0E0,0E0,0E0,0E0,0E0,0E0,0E0,0E0],"parents":[2147483647,0,0,1,1,2,2,3,3,4,4,5,5,6,6],"right_children":[2,4,6,8,10,12,14,-1,-1,-1,-1,-1,-1,-1,-1],"split_conditions":[1.0297946E-2,-2.5003395E0,2.7626622E-1,4.999676E-3,4.5529488E-3,4.387604E2,1.2401951E1,3.0209806E-3,1.6437462E-2,1.3904225E-2,-4.4552195E-3,6.072877E-4,-6.9051813E-3,-8.851453E-3,-1.6128302E-2],"split_indices":[1,2,1,1,1,0,0,0,0,0,0,0,0,0,0],"split_type":[0,0,0,0,0,0,0,0,0,0,0,0,0,0,0],"sum_hessian":[1.922483E2,2.0811377E1,1.7143694E2,1.204093E1,8.770448E0,1.5969618E2,1.1740746E1,1.3715857E0,1.0669344E1,4.027153E0,4.7432947E0,1.4925105E2,1.0445126E1,7.241736E0,4.4990096E0],"tree_param":{"num_deleted":"0","num_feature":"5","num_nodes":"15","size_leaf_vector":"1"}},{"base_weights":[-8.281947E-3,1.0023834E0,-1.3691185E-1,1.5113882E0,2.762299E-1,-4.3180082E-2,-1.3476991E-2,6.6197093E-4,1.6365014E-2,-1.3899046E-2,8.975723E-3,4.6263574E-4,-9.283849E-3],"categories":[],"categories_nodes":[],"categories_segments":[],"categories_sizes":[],"default_left":[0,0,0,0,0,0,0,0,0,0,0,0,0],"id":3,"left_children":[1,3,5,7,9,11,-1,-1,-1,-1,-1,-1,-1],"loss_changes":[2.5973986E1,7.920555E0,2.0050146E1,2.2492294E0,1.2138269E1,1.3145384E1,0E0,0E0,0E0,0E0,0E0,0E0,0E0],"parents":[2147483647,0,0,1,1,2,2,3,3,4,4,5,5],"right_children":[2,4,6,8,10,12,-1,-1,-1,-1,-1,-1,-1],"split_conditions":[1.0002742E-2,-2.5003395E0,2.7626622E-1,4.999676E-3,2.6488533E0,1.7188887E2,-1.3476991E-2,6.6197093E-4,1.6365014E-2,-1.3899046E-2,8.975723E-3,4.6263574E-4,-9.283849E-3],"split_indices":[1,2,1,1,2,0,0,0,0,0,0,0,0],"split_type":[0,0,0,0,0,0,0,0,0,0,0,0,0],"sum_hessian":[1.9774147E2,2.1558693E1,1.7618279E2,1.2038688E1,9.520005E0,1.6448502E2,1.1697764E1,1.0810064E0,1.0957681E1,2.2499115E0,7.2700934E0,1.5025096E2,1.42340555E1],"tree_param":{"num_deleted":"0","num_feature":"5","num_nodes":"13","size_leaf_vector":"1"}},{"base_weights":[-5.476203E-2,4.5467023E-2,-1.4451883E0,1.0122304E0,-7.864085E-2,-4.270138E-3,-1.4973564E-2,1.6493361E-2,-6.9017665E-6,2.0070172E-5,-9.250909E-3],"categories":[],"categories_nodes":[],"categories_segments":[],"categories_sizes":[],"default_left":[0,0,0,0,0,0,0,0,0,0,0],"id":4,"left_children":[1,3,5,7,9,-1,-1,-1,-1,-1,-1],"loss_changes":[2.7264013E1,2.2037832E1,5.924797E-2,1.3484293E1,1.11370125E1,0E0,0E0,0E0,0E0,0E0,0E0],"parents":[2147483647,0,0,1,1,2,2,3,3,4,4],"right_children":[2,4,6,8,10,-1,-1,-1,-1,-1,-1],"split_conditions":[2.7626622E-1,1.2122774E-2,3.0140534E-1,-2.5003395E0,1.7188887E2,-4.270138E-3,-1.4973564E-2,1.6493361E-2,-6.9017665E-6,2.0070172E-5,-9.250909E-3],"split_indices":[1,1,1,2,0,0,0,0,0,0,0],"split_type":[0,0,0,0,0,0,0,0,0,0,0],"sum_hessian":[1.9416425E2,1.8201125E2,1.2153004E1,1.9893187E1,1.6211806E2,1.0400233E0,1.111298E1,1.1826359E1,8.066828E0,1.4892632E2,1.3191737E1],"tree_param":{"num_deleted":"0","num_feature":"5","num_nodes":"11","size_leaf_vector":"1"}},{"base_weights":[-1.1413887E-2,7.9962246E-2,-1.4744409E-2,1.0057889E0,-4.1100744E-2,-1.1220112E-2,1.1879401E-2,3.088897E-4,-7.6563256E-3],"categories":[],"categories_nodes":[],"categories_segments":[],"categories_sizes":[],"default_left":[0,0,0,0,0,0,0,0,0],"id":5,"left_children":[1,3,-1,5,7,-1,-1,-1,-1],"loss_changes":[2.6967323E1,2.1335152E1,0E0,9.863119E0,8.837089E0,0E0,0E0,0E0,0E0],"parents":[2147483647,0,0,1,1,3,3,4,4],"right_children":[2,4,-1,6,8,-1,-1,-1,-1],"split_conditions":[3.0140534E-1,1.0002742E-2,-1.4744409E-2,1.2401951E1,1.7188887E2,-1.1220112E-2,1.1879401E-2,3.088897E-4,-7.6563256E-3],"split_indices":[1,1,0,0,0,0,0,0,0],"split_type":[0,0,0,0,0,0,0,0,0],"sum_hessian":[1.9983984E2,1.8898196E2,1.0857883E1,2.1008896E1,1.6797307E2,1.2497818E0,1.9759113E1,1.5366248E2,1.4310587E1],"tree_param":{"num_deleted":"0","num_feature":"5","num_nodes":"9","size_leaf_vector":"1"}},{"base_weights":[-3.6881603E-2,1.042498E0,-1.6686092E-1,1.6084848E-2,2.1997152E-1,-7.3266625E-2,-1.3230116E0,1.3656132E-2,-8.356605E-3,1.517527E-4,-1.0359389E-2,-1.6232852E-2,-8.833766E-3],"categories":[],"categories_nodes":[],"categories_segments":[],"categories_sizes":[],"default_left":[0,0,0,0,0,0,0,0,0,0,0,0,0],"id":6,"left_children":[1,3,5,-1,7,9,11,-1,-1,-1,-1,-1,-1],"loss_changes":[2.73056E1,9.386568E0,1.8673489E1,0E0,1.2856409E1,1.3768654E1,2.732277E-1,0E0,0E0,0E0,0E0,0E0,0E0],"parents":[2147483647,0,0,1,1,2,2,4,4,5,5,6,6],"right_children":[2,4,6,-1,8,10,12,-1,-1,-1,-1,-1,-1],"split_conditions":[1.0297946E-2,-2.5003395E0,2.7626622E-1,1.6084848E-2,4.5529488E-3,1.7188887E2,2.5537333E0,1.3656132E-2,-8.356605E-3,1.517527E-4,-1.0359389E-2,-1.6232852E-2,-8.833766E-3],"split_indices":[1,2,1,0,1,0,2,0,0,0,0,0,0],"split_type":[0,0,0,0,0,0,0,0,0,0,0,0,0],"sum_hessian":[1.9238718E2,1.9922815E1,1.7246436E2,1.1235821E1,8.6869955E0,1.6053212E2,1.1932245E1,4.0250735E0,4.6619215E0,1.479262E2,1.2605927E1,5.490114E0,6.4421306E0],"tree_param":{"num_deleted":"0","num_feature":"5","num_nodes":"13","size_leaf_vector":"1"}},{"base_weights":[6.329738E-2,1.1517029E0,-7.11337E-2,-1.1138639E-2,1.345814E0,2.0102309E-2,-1.4215977E-2,1.628638E-2,6.6386703E-3,1.0971777E-3,-9.628303E-3],"categories":[],"categories_nodes":[],"categories_segments":[],"categories_sizes":[],"default_left":[0,0,0,0,0,0,0,0,0,0,0],"id":7,"left_children":[1,3,5,-1,7,9,-1,-1,-1,-1,-1],"loss_changes":[2.8718948E1,1.0986916E1,2.160854E1,0E0,2.8388596E0,1.4644108E1,0E0,0E0,0E0,0E0,0E0],"parents":[2147483647,0,0,1,1,2,2,4,4,5,5],"right_children":[2,4,6,-1,8,10,-1,-1,-1,-1,-1],"split_conditions":[1.0297946E-2,1.2401951E1,3.0140534E-1,-1.1138639E-2,-2.5003395E0,1.7188887E2,-1.4215977E-2,1.628638E-2,6.6386703E-3,1.0971777E-3,-9.628303E-3],"split_indices":[1,0,1,0,2,0,0,0,0,0,0],"split_type":[0,0,0,0,0,0,0,0,0,0,0],"sum_hessian":[1.9472098E2,2.0574524E1,1.7414645E2,1.2497535E0,1.9324772E1,1.6404861E2,1.0097848E1,1.2678426E1,6.646345E0,1.5115588E2,1.2892735E1],"tree_param":{"num_deleted":"0","num_feature":"5","num_nodes":"11","size_leaf_vector":"1"}},{"base_weights":[-7.064233E-3,8.962465E-2,-1.4599579E-2,9.884859E-1,-2.5952864E-2,1.4884862E-2,3.1310536E-3,4.2102317E-4,-8.145986E-3],"categories":[],"categories_nodes":[],"categories_segments":[],"categories_sizes":[],"default_left":[0,0,0,0,0,0,0,0,0],"id":8,"left_children":[1,3,-1,5,7,-1,-1,-1,-1],"loss_changes":[2.777636E1,1.929253E1,0E0,6.6778755E0,8.906325E0,0E0,0E0,0E0,0E0],"parents":[2147483647,0,0,1,1,3,3,4,4],"right_children":[2,4,-1,6,8,-1,-1,-1,-1],"split_conditions":[2.7626622E-1,1.0297946E-2,-1.4599579E-2,-2.5003395E0,1.7188887E2,1.4884862E-2,3.1310536E-3,4.2102317E-4,-8.145986E-3],"split_indices":[1,1,0,2,0,0,0,0,0],"split_type":[0,0,0,0,0,0,0,0,0],"sum_hessian":[1.9579507E2,1.8445786E2,1.1337206E1,2.0155256E1,1.6430261E2,1.0889544E1,9.265713E0,1.5212204E2,1.2180563E1],"tree_param":{"num_deleted":"0","num_feature":"5","num_nodes":"9","size_leaf_vector":"1"}},{"base_weights":[2.2728594E-2,1.2350101E-1,-1.32136E0,9.055902E-1,-2.5950016E-3,-9.1423774E-1,-1.604627E-2,1.417926E-2,2.551082E-5,8.394525E-4,-8.844381E-3,3.5697948E-3,-1.3760256E-2],"categories":[],"categories_nodes":[],"categories_segments":[],"categories_sizes":[],"default_left":[0,0,0,0,0,0,0,0,0,0,0,0,0],"id":9,"left_children":[1,3,5,7,9,11,-1,-1,-1,-1,-1,-1,-1],"loss_changes":[2.6514929E1,1.7940933E1,1.0770798E-1,1.1682434E1,1.2104579E1,5.1444864E0,0E0,0E0,0E0,0E0,0E0,0E0,0E0],"parents":[2147483647,0,0,1,1,2,2,3,3,4,4,5,5],"right_children":[2,4,6,8,10,12,-1,-1,-1,-1,-1,-1,-1],"split_conditions":[2.7626622E-1,1.4313714E-2,1.2401951E1,-2.5003395E0,1.7188887E2,8.6439246E-1,-1.604627E-2,1.417926E-2,2.551082E-5,8.394525E-4,-8.844381E-3,3.5697948E-3,-1.3760256E-2],"split_indices":[1,1,0,2,0,1,0,0,0,0,0,0,0],"split_type":[0,0,0,0,0,0,0,0,0,0,0,0,0],"sum_hessian":[1.9355379E2,1.8089908E2,1.2654709E1,2.4258442E1,1.5664064E2,6.9267693E0,5.7279396E0,1.5113619E1,9.144823E0,1.4346628E2,1.3174351E1,1.90623E0,5.0205393E0],"tree_param":{"num_deleted":"0","num_feature":"5","num_nodes":"13","size_leaf_vector":"1"}},{"base_weights":[3.0310057E-2,2.6781234E-1,-5.294306E-1,4.2056346E-1,-6.7615175E-1,6.896037E-1,-6.945675E-1,-2.2898226E-3,8.143389E-3,-1.3908988E-2,4.670767E-4,-7.949463E-3,1.6025415E-2,-1.4978009E-2,-3.5682358E-3],"categories":[],"categories_nodes":[],"categories_segments":[],"categories_sizes":[],"default_left":[0,0,0,0,0,0,0,0,0,0,0,0,0,0,0],"id":10,"left_children":[1,3,5,7,9,11,13,-1,-1,-1,-1,-1,-1,-1,-1],"loss_changes":[2.6726166E1,2.062466E1,1.2539074E1,3.1399572E1,1.0414218E1,1.1640833E1,1.3914228E1,0E0,0E0,0E0,0E0,0E0,0E0,0E0,0E0],"parents":[2147483647,0,0,1,1,2,2,3,3,4,4,5,5,6,6],"right_children":[2,4,6,8,10,12,14,-1,-1,-1,-1,-1,-1,-1,-1],"split_conditions":[6.951899E-2,9.517639E1,-1.74231E1,-1.0099427E0,2.6717463E0,-2.635895E0,8.95388E-2,-2.2898226E-3,8.143389E-3,-1.3908988E-2,4.670767E-4,-7.949463E-3,1.6025415E-2,-1.4978009E-2,-3.5682358E-3],"split_indices":[1,0,0,0,2,2,1,0,0,0,0,0,0,0,0],"split_type":[0,0,0,0,0,0,0,0,0,0,0,0,0,0,0],"sum_hessian":[1.9897322E2,1.4006436E2,5.8908844E1,1.2103336E2,1.9031002E1,6.649144E0,5.22597E1,4.5838963E1,7.5194405E1,9.104507E0,9.926494E0,2.5811377E0,4.0680065E0,1.4452819E1,3.780688E1],"tree_param":{"num_deleted":"0","num_feature":"5","num_nodes":"15","size_leaf_vector":"1"}},{"base_weights":[3.0483544E-2,1.0680329E0,-1.09461926E-1,-1.1169463E-2,1.2481178E0,-2.0391492E-2,-1.3066237E0,1.5833668E-2,5.8091246E-3,4.494984E-4,-6.9239247E-3,-1.4365075E-2,-3.9396435E-3],"categories":[],"categories_nodes":[],"categories_segments":[],"categories_sizes":[],"default_left":[0,0,0,0,0,0,0,0,0,0,0,0,0],"id":11,"left_children":[1,3,5,-1,7,9,11,-1,-1,-1,-1,-1,-1],"loss_changes":[2.762898E1,1.0291607E1,1.7873022E1,0E0,3.8586311E0,6.9361343E0,8.1014824E-1,0E0,0E0,0E0,0E0,0E0,0E0],"parents":[2147483647,0,0,1,1,2,2,4,4,5,5,6,6],"right_children":[2,4,6,-1,8,10,12,-1,-1,-1,-1,-1,-1],"split_conditions":[1.0297946E-2,1.2401951E1,3.0140534E-1,-1.1169463E-2,-2.5003395E0,1.7188887E2,2.9559586E0,1.5833668E-2,5.8091246E-3,4.494984E-4,-6.9239247E-3,-1.4365075E-2,-3.9396435E-3],"split_indices":[1,0,1,0,2,0,2,0,0,0,0,0,0],"split_type":[0,0,0,0,0,0,0,0,0,0,0,0,0],"sum_hessian":[1.8847665E2,2.1612295E1,1.6686435E2,1.2495164E0,2.0362778E1,1.5625575E2,1.0608603E1,1.2638971E1,7.723807E0,1.432592E2,1.2996552E1,8.784472E0,1.8241304E0],"tree_param":{"num_deleted":"0","num_feature":"5","num_nodes":"13","size_leaf_vector":"1"}},{"base_weights":[2.2014925E-2,1.0548033E0,-1.16338186E-1,1.58726E-2,1.9682707E-1,-2.8611764E-2,-1.2562437E0,1.301029E-2,-6.380046E-3,5.0623197E-4,-9.55863E-3,-6.5230075E-3,-1.4044366E-2],"categories":[],"categories_nodes":[],"categories_segments":[],"categories_sizes":[],"default_left":[0,0,0,0,0,0,0,0,0,0,0,0,0],"id":12,"left_children":[1,3,5,-1,7,9,11,-1,-1,-1,-1,-1,-1],"loss_changes":[2.8683105E1,1.052002E1,1.7680584E1,0E0,1.0252818E1,1.2209898E1,2.1488953E-1,0E0,0E0,0E0,0E0,0E0,0E0],"parents":[2147483647,0,0,1,1,2,2,4,4,5,5,6,6],"right_children":[2,4,6,-1,8,10,12,-1,-1,-1,-1,-1,-1],"split_conditions":[1.0297946E-2,-2.5003395E0,2.4943806E-1,1.58726E-2,4.5529488E-3,4.387604E2,8.3359116E-1,1.301029E-2,-6.380046E-3,5.0623197E-4,-9.55863E-3,-6.5230075E-3,-1.4044366E-2],"split_indices":[1,2,1,0,1,0,1,0,0,0,0,0,0],"split_type":[0,0,0,0,0,0,0,0,0,0,0,0,0],"sum_hessian":[1.9887749E2,2.2711916E1,1.7616557E2,1.3490044E1,9.221873E0,1.6452864E2,1.1636922E1,3.7299583E0,5.491915E0,1.5244722E2,1.208143E1,3.3571095E0,8.279813E0],"tree_param":{"num_deleted":"0","num_feature":"5","num_nodes":"13","size_leaf_vector":"1"}},{"base_weights":[5.6373663E-2,1.8435861E-1,-9.131526E-1,1.0077268E0,7.304761E-2,-1.607291E-2,-5.837803E-1,1.5244934E-2,2.0971475E-3,-4.485044E-4,7.889112E-3,-1.6344739E-3,-1.5565493E-2],"categories":[],"categories_nodes":[],"categories_segments":[],"categories_sizes":[],"default_left":[0,0,0,0,0,0,0,0,0,0,0,0,0],"id":13,"left_children":[1,3,5,7,9,-1,11,-1,-1,-1,-1,-1,-1],"loss_changes":[2.4095173E1,1.5614311E1,4.241125E0,8.054516E0,1.2852668E1,0E0,6.6698008E0,0E0,0E0,0E0,0E0,0E0,0E0],"parents":[2147483647,0,0,1,1,2,2,3,3,4,4,6,6],"right_children":[2,4,6,8,10,-1,12,-1,-1,-1,-1,-1,-1],"split_conditions":[1.6251951E-1,1.0297946E-2,-4.049655E0,-2.5003395E0,9.277017E-2,-1.607291E-2,3.1731443E0,1.5244934E-2,2.0971475E-3,-4.485044E-4,7.889112E-3,-1.6344739E-3,-1.5565493E-2],"split_indices":[1,1,0,2,1,0,2,0,0,0,0,0,0],"split_type":[0,0,0,0,0,0,0,0,0,0,0,0,0],"sum_hessian":[1.9182645E2,1.7017224E2,2.1654203E1,1.930676E1,1.5086548E2,5.7198963E0,1.5934307E1,1.1165792E1,8.140968E0,1.3033716E2,2.0528328E1,1.1942139E1,3.9921687E0],"tree_param":{"num_deleted":"0","num_feature":"5","num_nodes":"13","size_leaf_vector":"1"}},{"base_weights":[2.3710638E-2,1.1508213E-1,-1.3156308E-2,9.839584E-1,-7.762486E-5,1.447597E-2,2.5580272E-3,7.693276E-4,-9.108045E-3],"categories":[],"categories_nodes":[],"categories_segments":[],"categories_sizes":[],"default_left":[0,0,0,0,0,0,0,0,0],"id":14,"left_children":[1,3,-1,5,7,-1,-1,-1,-1],"loss_changes":[2.3618689E1,1.8054235E1,0E0,6.758457E0,1.1314055E1,0E0,0E0,0E0,0E0],"parents":[2147483647,0,0,1,1,3,3,4,4],"right_children":[2,4,-1,6,8,-1,-1,-1,-1],"split_conditions":[2.7626622E-1,1.0297946E-2,-1.3156308E-2,-2.5003395E0,4.9493628E2,1.447597E-2,2.5580272E-3,7.693276E-4,-9.108045E-3],"split_indices":[1,1,0,2,0,0,0,0,0],"split_type":[0,0,0,0,0,0,0,0,0],"sum_hessian":[1.9076122E2,1.7943408E2,1.1327134E1,2.0115915E1,1.5931816E2,1.1686645E1,8.429271E0,1.4774083E2,1.1577329E1],"tree_param":{"num_deleted":"0","num_feature":"5","num_nodes":"9","size_leaf_vector":"1"}},{"base_weights":[-8.230998E-2,1.0531448E0,-2.0700821E-1,1.4285048E0,3.492265E-1,-1.0840615E-1,-1.3631945E0,3.9597014E-3,1.5503765E-2,1.0783733E-2,-1.0444179E-2,1.3691845E-4,-8.278791E-3,-3.9103073E-3,-1.4115308E-2],"categories":[],"categories_nodes":[],"categories_segments":[],"categories_sizes":[],"default_left":[0,0,0,0,0,0,0,0,0,0,0,0,0,0,0],"id":15,"left_children":[1,3,5,7,9,11,13,-1,-1,-1,-1,-1,-1,-1,-1],"loss_changes":[2.7860502E1,4.649046E0,2.0001793E1,9.4441605E-1,9.356867E0,1.4413235E1,9.664154E-2,0E0,0E0,0E0,0E0,0E0,0E0,0E0,0E0],"parents":[2147483647,0,0,1,1,2,2,3,3,4,4,5,5,6,6],"right_children":[2,4,6,8,10,12,14,-1,-1,-1,-1,-1,-1,-1,-1],"split_conditions":[1.0297946E-2,2.5703633E0,2.7626622E-1,4.999676E-3,6.784381E-3,9.14652E1,3.0140534E-1,3.9597014E-3,1.5503765E-2,1.0783733E-2,-1.0444179E-2,1.3691845E-4,-8.278791E-3,-3.9103073E-3,-1.4115308E-2],"split_indices":[1,2,1,1,1,0,1,0,0,0,0,0,0,0,0],"split_type":[0,0,0,0,0,0,0,0,0,0,0,0,0,0,0],"sum_hessian":[1.9423024E2,1.8483248E1,1.75747E2,1.1383634E1,7.099613E0,1.629445E2,1.2802496E1,1.650359E0,9.733274E0,4.8095207E0,2.2900927E0,1.401426E2,2.2801899E1,1.0369364E0,1.176556E1],"tree_param":{"num_deleted":"0","num_feature":"5","num_nodes":"15","size_leaf_vector":"1"}},{"base_weights":[2.1481363E-2,1.0105985E-1,-1.2524445E-2,2.8291E-1,-3.4749097E-1,-1.9531061E-3,7.404136E-3,2.4054002E-3,-5.359537E-3],"categories":[],"categories_nodes":[],"categories_segments":[],"categories_sizes":[],"default_left":[0,0,0,0,0,0,0,0,0],"id":16,"left_children":[1,3,-1,5,7,-1,-1,-1,-1],"loss_changes":[1.9505373E1,1.4849423E1,0E0,2.8417723E1,5.959906E0,0E0,0E0,0E0,0E0],"parents":[2147483647,0,0,1,1,3,3,4,4],"right_children":[2,4,-1,6,8,-1,-1,-1,-1],"split_conditions":[2.7626622E-1,2.8561165E1,-1.2524445E-2,-5.550738E-1,-2.7222645E0,-1.9531061E-3,7.404136E-3,2.4054002E-3,-5.359537E-3],"split_indices":[1,0,0,0,2,0,0,0,0],"split_type":[0,0,0,0,0,0,0,0,0],"sum_hessian":[1.9015565E2,1.798421E2,1.0313548E1,1.2822627E2,5.1615833E1,6.2973873E1,6.52524E1,1.24606085E1,3.9155224E1],"tree_param":{"num_deleted":"0","num_feature":"5","num_nodes":"9","size_leaf_vector":"1"}},{"base_weights":[2.0499867E-3,9.719701E-2,-1.5402863E-2,8.117365E-1,-1.4782609E-2,1.4011614E-2,-1.3924648E-4,4.8446225E-4,-6.9670733E-3],"categories":[],"categories_nodes":[],"categories_segments":[],"categories_sizes":[],"default_left":[0,0,0,0,0,0,0,0,0],"id":17,"left_children":[1,3,-1,5,7,-1,-1,-1,-1],"loss_changes":[2.8212881E1,1.4499451E1,0E0,1.1966536E1,6.82529E0,0E0,0E0,0E0,0E0],"parents":[2147483647,0,0,1,1,3,3,4,4],"right_children":[2,4,-1,6,8,-1,-1,-1,-1],"split_conditions":[3.0140534E-1,1.2122774E-2,-1.5402863E-2,-2.5003395E0,4.387604E2,1.4011614E-2,-1.3924648E-4,4.8446225E-4,-6.9670733E-3],"split_indices":[1,1,0,2,0,0,0,0,0],"split_type":[0,0,0,0,0,0,0,0,0],"sum_hessian":[1.9023283E2,1.8006177E2,1.0171065E1,2.3548748E1,1.5651302E2,1.3333313E1,1.0215435E1,1.4408249E2,1.2430534E1],"tree_param":{"num_deleted":"0","num_feature":"5","num_nodes":"9","size_leaf_vector":"1"}},{"base_weights":[4.3309532E-2,1.27948E-1,-1.3328325E-2,8.9417154E-1,3.1750366E-2,1.31739145E-2,2.4712891E-3,9.792949E-4,-7.1448395E-3],"categories":[],"categories_nodes":[],"categories_segments":[],"categories_sizes":[],"default_left":[0,0,0,0,0,0,0,0,0],"id":18,"left_children":[1,3,-1,5,7,-1,-1,-1,-1],"loss_changes":[2.3070019E1,1.3690754E1,0E0,5.3496227E0,8.287736E0,0E0,0E0,0E0,0E0],"parents":[2147483647,0,0,1,1,3,3,4,4],"right_children":[2,4,-1,6,8,-1,-1,-1,-1],"split_conditions":[3.0140534E-1,1.0297946E-2,-1.3328325E-2,-2.5003395E0,1.7188887E2,1.31739145E-2,2.4712891E-3,9.792949E-4,-7.1448395E-3],"split_indices":[1,1,0,2,0,0,0,0,0],"split_type":[0,0,0,0,0,0,0,0,0],"sum_hessian":[1.9560503E2,1.8512604E2,1.0478998E1,1.972437E1,1.6540166E2,1.1298309E1,8.42606E0,1.5272606E2,1.2675604E1],"tree_param":{"num_deleted":"0","num_feature":"5","num_nodes":"9","size_leaf_vector":"1"}},{"base_weights":[-7.990202E-2,1.4078209E-2,-1.3763673E-2,1.3938503E-1,-7.9056734E-1,3.8595009E-3,-1.9265629E-3,-1.4485208E-2,-1.5517045E-3],"categories":[],"categories_nodes":[],"categories_segments":[],"categories_sizes":[],"default_left":[0,0,0,0,0,0,0,0,0],"id":19,"left_children":[1,3,-1,5,7,-1,-1,-1,-1],"loss_changes":[2.3331852E1,1.8197765E1,0E0,1.2851702E1,9.943334E0,0E0,0E0,0E0,0E0],"parents":[2147483647,0,0,1,1,3,3,4,4],"right_children":[2,4,-1,6,8,-1,-1,-1,-1],"split_conditions":[3.0140534E-1,9.14652E1,-1.3763673E-2,4.5569282E-2,2.5874228E0,3.8595009E-3,-1.9265629E-3,-1.4485208E-2,-1.5517045E-3],"split_indices":[1,0,0,1,2,0,0,0,0],"split_type":[0,0,0,0,0,0,0,0,0],"sum_hessian":[1.903335E2,1.7839113E2,1.1942358E1,1.5506912E2,2.3322016E1,8.88954E1,6.617372E1,1.08289385E1,1.2493078E1],"tree_param":{"num_deleted":"0","num_feature":"5","num_nodes":"9","size_leaf_vector":"1"}},{"base_weights":[-4.626715E-2,3.1100351E-2,-1.2440518E0,8.047688E-1,-7.220659E-2,-8.304015E-1,-1.49910515E-2,1.3356649E-2,1.7844934E-4,4.5975525E-5,-8.971899E-3,-1.3860868E-2,2.6520304E-3],"categories":[],"categories_nodes":[],"categories_segments":[],"categories_sizes":[],"default_left":[0,0,0,0,0,0,0,0,0,0,0,0,0],"id":20,"left_children":[1,3,5,7,9,11,-1,-1,-1,-1,-1,-1,-1],"loss_changes":[1.8312374E1,1.49404545E1,1.997757E-2,9.174274E0,1.0470676E1,4.5163083E0,0E0,0E0,0E0,0E0,0E0,0E0,0E0],"parents":[2147483647,0,0,1,1,2,2,3,3,4,4,5,5],"right_children":[2,4,6,8,10,12,-1,-1,-1,-1,-1,-1,-1],"split_conditions":[2.7626622E-1,1.0297946E-2,9.281851E0,-2.5003395E0,4.387604E2,-2.3802683E0,-1.49910515E-2,1.3356649E-2,1.7844934E-4,4.5975525E-5,-8.971899E-3,-1.3860868E-2,2.6520304E-3],"split_indices":[1,1,0,2,0,0,0,0,0,0,0,0,0],"split_type":[0,0,0,0,0,0,0,0,0,0,0,0,0],"sum_hessian":[1.9619177E2,1.8520314E2,1.0988636E1,2.1016903E1,1.6418623E2,5.814449E0,5.1741867E0,1.2133645E1,8.883258E0,1.5111243E2,1.3073809E1,3.6818817E0,2.1325672E0],"tree_param":{"num_deleted":"0","num_feature":"5","num_nodes":"13","size_leaf_vector":"1"}},{"base_weights":[3.818824E-2,1.6011314E-1,-8.920197E-1,9.0469164E-1,5.1016625E-2,-4.710398E-1,-1.2959423E0,-1.1248437E-2,1.0778833E-2,1.3646383E-3,-7.719271E-3,8.005379E-4,-1.2041415E-2,-1.4404007E-2,-4.3857377E-3],"categories":[],"categories_nodes":[],"categories_segments":[],"categories_sizes":[],"default_left":[0,0,0,0,0,0,0,0,0,0,0,0,0,0,0],"id":21,"left_children":[1,3,5,7,9,11,13,-1,-1,-1,-1,-1,-1,-1,-1],"loss_changes":[2.2542746E1,1.4206917E1,3.3072815E0,9.073309E0,1.0941366E1,5.2889433E0,7.5382996E-1,0E0,0E0,0E0,0E0,0E0,0E0,0E0,0E0],"parents":[2147483647,0,0,1,1,2,2,3,3,4,4,5,5,6,6],"right_children":[2,4,6,8,10,12,14,-1,-1,-1,-1,-1,-1,-1,-1],"split_conditions":[1.6251951E-1,1.0002742E-2,3.0140534E-1,1.2401951E1,1.7188887E2,2.8145854E0,2.9352264E0,-1.1248437E-2,1.0778833E-2,1.3646383E-3,-7.719271E-3,8.005379E-4,-1.2041415E-2,-1.4404007E-2,-4.3857377E-3],"split_indices":[1,1,1,0,0,2,2,0,0,0,0,0,0,0,0],"split_type":[0,0,0,0,0,0,0,0,0,0,0,0,0,0,0],"sum_hessian":[1.9650316E2,1.7446361E2,2.203955E1,2.1363842E1,1.5309978E2,1.1852596E1,1.01869545E1,1.2477201E0,2.0116121E1,1.3945425E2,1.3645522E1,7.274755E0,4.5778413E0,8.136078E0,2.0508764E0],"tree_param":{"num_deleted":"0","num_feature":"5","num_nodes":"15","size_leaf_vector":"1"}},{"base_weights":[-5.680995E-2,2.353768E-1,-3.7353185E-1,6.856004E-1,-1.5555303E-1,-2.6239756E-1,-1.1720394E0,-4.685815E-3,1.0468278E-2,7.333039E-3,-3.1954434E-3,-5.525117E-3,2.1216045E-3,-1.4348262E-2,-7.516178E-3],"categories":[],"categories_nodes":[],"categories_segments":[],"categories_sizes":[],"default_left":[0,0,0,0,0,0,0,0,0,0,0,0,0,0,0],"id":22,"left_children":[1,3,5,7,9,11,13,-1,-1,-1,-1,-1,-1,-1,-1],"loss_changes":[1.7776798E1,1.7713676E1,7.866252E0,1.9951366E1,8.157985E0,1.1426358E1,1.3295269E-1,0E0,0E0,0E0,0E0,0E0,0E0,0E0,0E0],"parents":[2147483647,0,0,1,1,2,2,3,3,4,4,5,5,6,6],"right_children":[2,4,6,8,10,12,14,-1,-1,-1,-1,-1,-1,-1,-1],"split_conditions":[4.288637E-2,-2.5776455E0,3.0140534E-1,-1.6715702E1,-1.5949059E1,8.95388E-2,2.5537333E0,-4.685815E-3,1.0468278E-2,7.333039E-3,-3.1954434E-3,-5.525117E-3,2.1216045E-3,-1.4348262E-2,-7.516178E-3],"split_indices":[1,2,1,0,0,1,2,0,0,0,0,0,0,0,0],"split_type":[0,0,0,0,0,0,0,0,0,0,0,0,0,0,0],"sum_hessian":[1.9014444E2,9.903662E1,9.110783E1,4.5677395E1,5.3359226E1,8.1143135E1,9.964689E0,1.0817257E1,3.4860138E1,7.7704806E0,4.5588745E1,5.025575E1,3.0887384E1,4.6471405E0,5.3175483E0],"tree_param":{"num_deleted":"0","num_feature":"5","num_nodes":"15","size_leaf_vector":"1"}},{"base_weights":[-8.70492E-4,7.8987944E-1,-1.2547737E-1,1.3394058E0,-1.1996718E-1,-4.017701E-2,-1.1739527E-2,-1.5768362E-3,1.4761535E-2,1.0083021E-2,-1.4490801E-2,5.9231935E-4,-6.6050333E-3],"categories":[],"categories_nodes":[],"categories_segments":[],"categories_sizes":[],"default_left":[0,0,0,0,0,0,0,0,0,0,0,0,0],"id":23,"left_children":[1,3,5,7,9,11,-1,-1,-1,-1,-1,-1,-1],"loss_changes":[1.970554E1,1.3772558E1,1.5403593E1,3.7244015E0,1.8210411E1,9.954818E0,0E0,0E0,0E0,0E0,0E0,0E0,0E0],"parents":[2147483647,0,0,1,1,2,2,3,3,4,4,5,5],"right_children":[2,4,6,8,10,12,-1,-1,-1,-1,-1,-1,-1],"split_conditions":[1.4313714E-2,-2.5003395E0,2.7626622E-1,-1.6715702E1,6.448633E-3,1.00789085E2,-1.1739527E-2,-1.5768362E-3,1.4761535E-2,1.0083021E-2,-1.4490801E-2,5.9231935E-4,-6.6050333E-3],"split_indices":[1,2,1,0,1,0,0,0,0,0,0,0,0],"split_type":[0,0,0,0,0,0,0,0,0,0,0,0,0],"sum_hessian":[1.979836E2,2.6224575E1,1.7175902E2,1.6055376E1,1.0169199E1,1.5979681E2,1.1962201E1,1.3309783E0,1.4724399E1,5.6307173E0,4.538481E0,1.3850546E2,2.1291355E1],"tree_param":{"num_deleted":"0","num_feature":"5","num_nodes":"13","size_leaf_vector":"1"}},{"base_weights":[-1.2354122E-2,1.0605742E0,-1.3236918E-1,1.4259058E0,4.3282625E-1,-6.4067855E-2,-1.0382633E0,4.405649E-3,1.4848187E-2,1.2207309E-2,-8.814309E-3,-6.9321126E-5,-7.234027E-3,-6.349176E-3,-1.4310298E-2],"categories":[],"categories_nodes":[],"categories_segments":[],"categories_sizes":[],"default_left":[0,0,0,0,0,0,0,0,0,0,0,0,0,0,0],"id":24,"left_children":[1,3,5,7,9,11,13,-1,-1,-1,-1,-1,-1,-1,-1],"loss_changes":[2.5164398E1,3.8920002E0,1.0803024E1,4.201889E-2,1.0052812E1,6.1890287E0,1.0321856E0,0E0,0E0,0E0,0E0,0E0,0E0,0E0,0E0],"parents":[2147483647,0,0,1,1,2,2,3,3,4,4,5,5,6,6],"right_children":[2,4,6,8,10,12,14,-1,-1,-1,-1,-1,-1,-1,-1],"split_conditions":[1.0002742E-2,-2.5003395E0,2.7626622E-1,1.4665781E1,6.448633E-3,1.7188887E2,1.2401951E1,4.405649E-3,1.4848187E-2,1.2207309E-2,-8.814309E-3,-6.9321126E-5,-7.234027E-3,-6.349176E-3,-1.4310298E-2],"split_indices":[1,2,1,0,1,0,0,0,0,0,0,0,0,0,0],"split_type":[0,0,0,0,0,0,0,0,0,0,0,0,0,0,0],"sum_hessian":[1.9333475E2,1.8661842E1,1.7467291E2,1.0992851E1,7.668992E0,1.6342216E2,1.125075E1,1.0984865E0,9.894364E0,4.839092E0,2.8299E0,1.5131981E2,1.2102351E1,6.8415008E0,4.4092493E0],"tree_param":{"num_deleted":"0","num_feature":"5","num_nodes":"15","size_leaf_vector":"1"}},{"base_weights":[7.03176E-2,1.5432423E-1,-1.0952725E0,2.5186977E-1,-4.815109E-1,-1.4297548E-2,-7.3913866E-1,-7.3469046E-4,4.7037047E-3,-1.3784317E-2,1.8560616E-3,9.793103E-4,-1.38636E-2],"categories":[],"categories_nodes":[],"categories_segments":[],"categories_sizes":[],"default_left":[0,0,0,0,0,0,0,0,0,0,0,0,0],"id":25,"left_children":[1,3,5,7,9,-1,11,-1,-1,-1,-1,-1,-1],"loss_changes":[1.9589762E1,1.1650148E1,5.4623985E-1,1.1537379E1,1.5254776E1,0E0,4.788427E0,0E0,0E0,0E0,0E0,0E0,0E0],"parents":[2147483647,0,0,1,1,2,2,3,3,4,4,6,6],"right_children":[2,4,6,8,10,-1,12,-1,-1,-1,-1,-1,-1],"split_conditions":[2.7626622E-1,9.14652E1,-2.5308697E0,-7.8019524E-1,2.6256785E0,-1.4297548E-2,1.2401951E1,-7.3469046E-4,4.7037047E-3,-1.3784317E-2,1.8560616E-3,9.793103E-4,-1.38636E-2],"split_indices":[1,0,2,0,2,0,0,0,0,0,0,0,0],"split_type":[0,0,0,0,0,0,0,0,0,0,0,0,0],"sum_hessian":[1.9733813E2,1.8488095E2,1.2457174E1,1.6081386E2,2.4067099E1,4.869277E0,7.5878973E0,6.487755E1,9.593631E1,9.810668E0,1.425643E1,3.6787527E0,3.9091449E0],"tree_param":{"num_deleted":"0","num_feature":"5","num_nodes":"13","size_leaf_vector":"1"}},{"base_weights":[4.1435007E-2,7.3719376E-1,-1.09062664E-1,1.2952089E0,-1.0005275E-1,-2.4090996E-2,-1.1819094E0,-4.8465547E-3,1.4940128E-2,9.856708E-3,-8.850581E-3,6.948787E-4,-9.858221E-3,-1.3012721E-2,-4.1661593E-3],"categories":[],"categories_nodes":[],"categories_segments":[],"categories_sizes":[],"default_left":[0,0,0,0,0,0,0,0,0,0,0,0,0,0,0],"id":26,"left_children":[1,3,5,7,9,11,13,-1,-1,-1,-1,-1,-1,-1,-1],"loss_changes":[2.0207142E1,1.6160065E1,1.4457275E1,8.034908E0,1.3359341E1,1.3411653E1,5.212364E-1,0E0,0E0,0E0,0E0,0E0,0E0,0E0,0E0],"parents":[2147483647,0,0,1,1,2,2,3,3,4,4,5,5,6,6],"right_children":[2,4,6,8,10,12,14,-1,-1,-1,-1,-1,-1,-1,-1],"split_conditions":[1.5765775E-2,-2.5003395E0,2.7626622E-1,-1.967074E1,6.448633E-3,1.7188887E2,2.9559586E0,-4.8465547E-3,1.4940128E-2,9.856708E-3,-8.850581E-3,6.948787E-4,-9.858221E-3,-1.3012721E-2,-4.1661593E-3],"split_indices":[1,2,1,0,1,0,2,0,0,0,0,0,0,0,0],"split_type":[0,0,0,0,0,0,0,0,0,0,0,0,0,0,0],"sum_hessian":[1.9121399E2,3.3312084E1,1.5790192E2,1.9661161E1,1.3650924E1,1.47261E2,1.0640918E1,1.8309608E0,1.78302E1,5.621008E0,8.029916E0,1.350482E2,1.2212785E1,8.599325E0,2.0415933E0],"tree_param":{"num_deleted":"0","num_feature":"5","num_nodes":"15","size_leaf_vector":"1"}},{"base_weights":[3.4189183E-2,1.2001343E-1,-1.2903476E0,9.896625E-1,1.6078917E-2,-1.4181281E-2,-5.1744866E-1,1.34376045E-2,3.0878554E-3,7.7955786E-4,-6.454058E-3,2.246094E-3,-9.716062E-3],"categories":[],"categories_nodes":[],"categories_segments":[],"categories_sizes":[],"default_left":[0,0,0,0,0,0,0,0,0,0,0,0,0],"id":27,"left_children":[1,3,5,7,9,-1,11,-1,-1,-1,-1,-1,-1],"loss_changes":[2.2539564E1,1.678211E1,4.580307E-1,4.364443E0,6.8866673E0,0E0,1.3258505E0,0E0,0E0,0E0,0E0,0E0,0E0],"parents":[2147483647,0,0,1,1,2,2,3,3,4,4,6,6],"right_children":[2,4,6,8,10,-1,12,-1,-1,-1,-1,-1,-1],"split_conditions":[2.7626622E-1,1.0297946E-2,2.9559586E0,-2.5003395E0,1.7188887E2,-1.4181281E-2,3.1731443E0,1.34376045E-2,3.0878554E-3,7.7955786E-4,-6.454058E-3,2.246094E-3,-9.716062E-3],"split_indices":[1,1,2,2,0,0,2,0,0,0,0,0,0],"split_type":[0,0,0,0,0,0,0,0,0,0,0,0,0],"sum_hessian":[1.9591434E2,1.8484648E2,1.106786E1,1.8823448E1,1.6602303E2,8.781267E0,2.2865922E0,1.1742863E1,7.0805855E0,1.5262799E2,1.3395038E1,1.0600275E0,1.2265648E0],"tree_param":{"num_deleted":"0","num_feature":"5","num_nodes":"13","size_leaf_vector":"1"}},{"base_weights":[-7.0481948E-3,9.574206E-1,-1.2538524E-1,-4.1145114E-3,1.085516E0,-3.666777E-2,-1.113278E0,1.2933304E-2,3.3176085E-3,4.0177442E-4,-9.39302E-3,-1.4149179E-2,-7.959971E-3],"categories":[],"categories_nodes":[],"categories_segments":[],"categories_sizes":[],"default_left":[0,0,0,0,0,0,0,0,0,0,0,0,0],"id":28,"left_children":[1,3,5,-1,7,9,11,-1,-1,-1,-1,-1,-1],"loss_changes":[2.2391771E1,4.206423E0,1.5270237E1,0E0,2.6852856E0,1.1228475E1,2.4821663E-1,0E0,0E0,0E0,0E0,0E0,0E0],"parents":[2147483647,0,0,1,1,2,2,4,4,5,5,6,6],"right_children":[2,4,6,-1,8,10,12,-1,-1,-1,-1,-1,-1],"split_conditions":[1.0002742E-2,1.4665781E1,2.7626622E-1,-4.1145114E-3,1.7372372E1,1.7188887E2,-2.5308697E0,1.2933304E-2,3.3176085E-3,4.0177442E-4,-9.39302E-3,-1.4149179E-2,-7.959971E-3],"split_indices":[1,0,1,0,0,0,2,0,0,0,0,0,0],"split_type":[0,0,0,0,0,0,0,0,0,0,0,0,0],"sum_hessian":[1.9413939E2,2.0442076E1,1.7369731E2,1.5599409E0,1.8882135E1,1.6033554E2,1.3361775E1,1.4240188E1,4.6419473E0,1.4863692E2,1.1698626E1,5.076255E0,8.285521E0],"tree_param":{"num_deleted":"0","num_feature":"5","num_nodes":"13","size_leaf_vector":"1"}},{"base_weights":[-1.4157228E-2,6.616268E-2,-1.2595433E-2,1.4448771E-1,-9.096401E-1,-1.8138974E-3,3.3814856E-3,-1.4159933E-2,-1.8138903E-3],"categories":[],"categories_nodes":[],"categories_segments":[],"categories_sizes":[],"default_left":[0,0,0,0,0,0,0,0,0],"id":29,"left_children":[1,3,-1,5,7,-1,-1,-1,-1],"loss_changes":[1.9434542E1,1.4093984E1,0E0,1.0788321E1,4.799161E0,0E0,0E0,0E0,0E0],"parents":[2147483647,0,0,1,1,3,3,4,4],"right_children":[2,4,-1,6,8,-1,-1,-1,-1],"split_conditions":[3.0140534E-1,1.7188887E2,-1.2595433E-2,-7.8019524E-1,2.6717463E0,-1.8138974E-3,3.3814856E-3,-1.4159933E-2,-1.8138903E-3],"split_indices":[1,0,0,0,2,0,0,0,0],"split_type":[0,0,0,0,0,0,0,0,0],"sum_hessian":[1.9245541E2,1.8168471E2,1.0770697E1,1.6897359E2,1.271112E1,6.3009487E1,1.059641E2,6.940802E0,5.770318E0],"tree_param":{"num_deleted":"0","num_feature":"5","num_nodes":"9","size_leaf_vector":"1"}},{"base_weights":[4.2639796E-2,9.311772E-1,-7.013908E-2,1.2931243E0,2.73415E-1,-7.6890686E-3,-1.0132755E0,1.2460779E-3,1.4058567E-2,1.1867111E-2,-4.7707004E-3,5.881022E-4,-7.4377325E-3,-1.3651028E-2,-5.7204906E-3],"categories":[],"categories_nodes":[],"categories_segments":[],"categories_sizes":[],"default_left":[0,0,0,0,0,0,0,0,0,0,0,0,0,0,0],"id":30,"left_children":[1,3,5,7,9,11,13,-1,-1,-1,-1,-1,-1,-1,-1],"loss_changes":[1.9766123E1,4.93482E0,1.0322225E1,1.6769867E0,6.8395357E0,8.1448765E0,9.087305E-1,0E0,0E0,0E0,0E0,0E0,0E0,0E0,0E0],"parents":[2147483647,0,0,1,1,2,2,3,3,4,4,5,5,6,6],"right_children":[2,4,6,8,10,12,14,-1,-1,-1,-1,-1,-1,-1,-1],"split_conditions":[1.2122774E-2,-2.5003395E0,2.7626622E-1,4.999676E-3,4.5529488E-3,1.7188887E2,2.5537333E0,1.2460779E-3,1.4058567E-2,1.1867111E-2,-4.7707004E-3,5.881022E-4,-7.4377325E-3,-1.3651028E-2,-5.7204906E-3],"split_indices":[1,2,1,1,1,0,2,0,0,0,0,0,0,0,0],"split_type":[0,0,0,0,0,0,0,0,0,0,0,0,0,0,0],"sum_hessian":[1.955987E2,2.121308E1,1.743856E2,1.3060389E1,8.152691E0,1.6450127E2,9.884339E0,1.334377E0,1.1726012E1,3.4152608E0,4.73743E0,1.5171513E2,1.2786139E1,4.334328E0,5.5500107E0],"tree_param":{"num_deleted":"0","num_feature":"5","num_nodes":"15","size_leaf_vector":"1"}},{"base_weights":[-1.2869551E-3,1.1178357E-1,-9.345909E-1,-2.6594514E-1,2.9525194E-1,-7.4039894E-1,-1.46939205E-2,2.440403E-3,-7.323795E-3,8.464045E-3,-1.7072811E-3,-9.552281E-3,5.4667806E-3],"categories":[],"categories_nodes":[],"categories_segments":[],"categories_sizes":[],"default_left":[0,0,0,0,0,0,0,0,0,0,0,0,0],"id":31,"left_children":[1,3,5,7,9,11,-1,-1,-1,-1,-1,-1,-1],"loss_changes":[2.0974434E1,1.2364783E1,1.1425571E0,1.4090969E1,3.0912817E1,5.4360924E0,0E0,0E0,0E0,0E0,0E0,0E0,0E0],"parents":[2147483647,0,0,1,1,2,2,3,3,4,4,5,5],"right_children":[2,4,6,8,10,12,-1,-1,-1,-1,-1,-1,-1],"split_conditions":[1.6251951E-1,-7.8019524E-1,3.1731443E0,-1.5811073E1,2.5035107E0,2.9559586E0,-1.46939205E-2,2.440403E-3,-7.323795E-3,8.464045E-3,-1.7072811E-3,-9.552281E-3,5.4667806E-3],"split_indices":[1,0,2,0,2,2,0,0,0,0,0,0,0],"split_type":[0,0,0,0,0,0,0,0,0,0,0,0,0],"sum_hessian":[1.9676486E2,1.7628769E2,2.0477169E1,5.7485573E1,1.1880212E2,1.6771645E1,3.7055244E0,2.7688543E1,2.9797031E1,5.405292E1,6.47492E1,1.4593618E1,2.1780257E0],"tree_param":{"num_deleted":"0","num_feature":"5","num_nodes":"13","size_leaf_vector":"1"}},{"base_weights":[-4.4821527E-2,8.3821934E-1,-1.5747277E-1,1.2305028E0,2.8820127E-1,-7.218927E-2,-1.1410491E0,-1.0090864E-3,1.3601722E-2,-1.17108915E-2,8.982065E-3,-6.404065E-5,-7.576127E-3,-1.4154349E-2,-7.6632327E-3],"categories":[],"categories_nodes":[],"categories_segments":[],"categories_sizes":[],"default_left":[0,0,0,0,0,0,0,0,0,0,0,0,0,0,0],"id":32,"left_children":[1,3,5,7,9,11,13,-1,-1,-1,-1,-1,-1,-1,-1],"loss_changes":[1.9441137E1,4.4179163E0,1.44285E1,2.3134499E0,1.04113865E1,7.221143E0,3.2756615E-1,0E0,0E0,0E0,0E0,0E0,0E0,0E0,0E0],"parents":[2147483647,0,0,1,1,2,2,3,3,4,4,5,5,6,6],"right_children":[2,4,6,8,10,12,14,-1,-1,-1,-1,-1,-1,-1,-1],"split_conditions":[1.0297946E-2,-2.5003395E0,2.7626622E-1,4.999676E-3,2.6488533E0,1.7188887E2,2.5537333E0,-1.0090864E-3,1.3601722E-2,-1.17108915E-2,8.982065E-3,-6.404065E-5,-7.576127E-3,-1.4154349E-2,-7.6632327E-3],"split_indices":[1,2,1,1,2,0,2,0,0,0,0,0,0,0,0],"split_type":[0,0,0,0,0,0,0,0,0,0,0,0,0,0,0],"sum_hessian":[1.9310919E2,2.1119402E1,1.7198979E2,1.1605168E1,9.514234E0,1.5925461E2,1.2735184E1,1.049631E0,1.0555537E1,2.5335426E0,6.980691E0,1.4622925E2,1.3025369E1,5.7486153E0,6.9865685E0],"tree_param":{"num_deleted":"0","num_feature":"5","num_nodes":"15","size_leaf_vector":"1"}},{"base_weights":[-9.075337E-3,1.8890439E-1,-4.8814604E-1,-2.3104289E-1,5.897043E-1,-1.0022026E0,-1.5186028E-1,3.4296135E-3,-7.375268E-3,1.2879015E-2,-2.625743E-4,6.1509483E-3,-1.18516E-2,8.022453E-3,-5.5066952E-3],"categories":[],"categories_nodes":[],"categories_segments":[],"categories_sizes":[],"default_left":[0,0,0,0,0,0,0,0,0,0,0,0,0,0,0],"id":33,"left_children":[1,3,5,7,9,11,13,-1,-1,-1,-1,-1,-1,-1,-1],"loss_changes":[1.8654234E1,2.3565645E1,9.788946E0,2.0224138E1,3.0785522E1,7.405472E0,1.4118278E1,0E0,0E0,0E0,0E0,0E0,0E0,0E0,0E0],"parents":[2147483647,0,0,1,1,2,2,3,3,4,4,5,5,6,6],"right_children":[2,4,6,8,10,12,14,-1,-1,-1,-1,-1,-1,-1,-1],"split_conditions":[2.8561165E1,-7.8019524E-1,7.164721E1,-1.5811073E1,-2.5003395E0,-2.736502E0,9.14652E1,3.4296135E-3,-7.375268E-3,1.2879015E-2,-2.625743E-4,6.1509483E-3,-1.18516E-2,8.022453E-3,-5.5066952E-3],"split_indices":[0,0,0,0,2,2,0,0,0,0,0,0,0,0,0],"split_type":[0,0,0,0,0,0,0,0,0,0,0,0,0,0,0],"sum_hessian":[1.9470636E2,1.3819986E2,5.6506493E1,6.769471E1,7.050515E1,2.1563566E1,3.494293E1,3.1883556E1,3.5811157E1,3.253528E1,3.7969868E1,1.951434E0,1.9612131E1,1.0002202E1,2.4940725E1],"tree_param":{"num_deleted":"0","num_feature":"5","num_nodes":"15","size_leaf_vector":"1"}},{"base_weights":[1.2605953E-3,7.721304E-1,-1.0118805E-1,-1.1209867E-2,9.331879E-1,-2.9395139E-2,-1.0534141E0,1.2998454E-2,3.5234503E-3,2.6672197E-4,-6.676813E-3,-6.376476E-3,-1.3877346E-2],"categories":[],"categories_nodes":[],"categories_segments":[],"categories_sizes":[],"default_left":[0,0,0,0,0,0,0,0,0,0,0,0,0],"id":34,"left_children":[1,3,5,-1,7,9,11,-1,-1,-1,-1,-1,-1],"loss_changes":[1.5368305E1,8.006375E0,1.17125E1,0E0,4.1387424E0,5.7711477E0,7.851429E-1,0E0,0E0,0E0,0E0,0E0,0E0],"parents":[2147483647,0,0,1,1,2,2,4,4,5,5,6,6],"right_children":[2,4,6,-1,8,10,12,-1,-1,-1,-1,-1,-1],"split_conditions":[1.0297946E-2,1.2401951E1,2.7626622E-1,-1.1209867E-2,-2.5003395E0,1.7188887E2,1.2401951E1,1.2998454E-2,3.5234503E-3,2.6672197E-4,-6.676813E-3,-6.376476E-3,-1.3877346E-2],"split_indices":[1,0,1,0,2,0,0,0,0,0,0,0,0],"split_type":[0,0,0,0,0,0,0,0,0,0,0,0,0],"sum_hessian":[1.9260884E2,2.1828041E1,1.7078079E2,1.2441205E0,2.0583921E1,1.5976613E2,1.10146675E1,1.1859649E1,8.724273E0,1.4774625E2,1.2019881E1,6.205143E0,4.8095245E0],"tree_param":{"num_deleted":"0","num_feature":"5","num_nodes":"13","size_leaf_vector":"1"}},{"base_weights":[-6.6371732E-3,8.269275E-1,-1.1125021E-1,1.3690218E-2,1.7598805E-1,-3.1339325E-2,-1.1134896E0,1.2795072E-2,-6.479291E-3,2.6309938E-4,-7.010347E-3,-6.762607E-3,-1.3097126E-2],"categories":[],"categories_nodes":[],"categories_segments":[],"categories_sizes":[],"default_left":[0,0,0,0,0,0,0,0,0,0,0,0,0],"id":35,"left_children":[1,3,5,-1,7,9,11,-1,-1,-1,-1,-1,-1],"loss_changes":[1.7896336E1,7.834634E0,1.4564583E1,0E0,1.1326959E1,6.5761786E0,2.666893E-1,0E0,0E0,0E0,0E0,0E0,0E0],"parents":[2147483647,0,0,1,1,2,2,4,4,5,5,6,6],"right_children":[2,4,6,-1,8,10,12,-1,-1,-1,-1,-1,-1],"split_conditions":[1.2122774E-2,-2.5003395E0,2.7626622E-1,1.3690218E-2,4.5529488E-3,1.7188887E2,8.6439246E-1,1.2795072E-2,-6.479291E-3,2.6309938E-4,-7.010347E-3,-6.762607E-3,-1.3097126E-2],"split_indices":[1,2,1,0,1,0,1,0,0,0,0,0,0],"split_type":[0,0,0,0,0,0,0,0,0,0,0,0,0],"sum_hessian":[2.0317415E2,2.1885351E1,1.812888E2,1.1339123E1,1.0546229E1,1.6885674E2,1.2432071E1,4.271803E0,6.274426E0,1.5635773E2,1.2499E1,5.228404E0,7.203666E0],"tree_param":{"num_deleted":"0","num_feature":"5","num_nodes":"13","size_leaf_vector":"1"}},{"base_weights":[5.1363E-2,1.2602635E-1,-1.1187704E0,8.7850744E-1,3.1162404E-2,-1.2253966E-2,-4.672203E-1,1.2645854E-2,2.6576412E-3,7.994895E-4,-5.4772752E-3,2.4776866E-3,-9.209322E-3],"categories":[],"categories_nodes":[],"categories_segments":[],"categories_sizes":[],"default_left":[0,0,0,0,0,0,0,0,0,0,0,0,0],"id":36,"left_children":[1,3,5,7,9,-1,11,-1,-1,-1,-1,-1,-1],"loss_changes":[1.7005657E1,1.2989724E1,2.3887444E-1,4.484826E0,4.646573E0,0E0,1.2853274E0,0E0,0E0,0E0,0E0,0E0,0E0],"parents":[2147483647,0,0,1,1,2,2,3,3,4,4,6,6],"right_children":[2,4,6,8,10,-1,12,-1,-1,-1,-1,-1,-1],"split_conditions":[3.0140534E-1,1.0297946E-2,2.9559586E0,-2.5003395E0,1.7188887E2,-1.2253966E-2,3.2093515E0,1.2645854E-2,2.6576412E-3,7.994895E-4,-5.4772752E-3,2.4776866E-3,-9.209322E-3],"split_indices":[1,1,2,2,0,0,2,0,0,0,0,0,0],"split_type":[0,0,0,0,0,0,0,0,0,0,0,0,0],"sum_hessian":[1.9203444E2,1.8135492E2,1.0679516E1,1.9378645E1,1.6197627E2,8.420722E0,2.2587936E0,1.1235538E1,8.143107E0,1.5018147E2,1.1794808E1,1.0531222E0,1.2056714E0],"tree_param":{"num_deleted":"0","num_feature":"5","num_nodes":"13","size_leaf_vector":"1"}},{"base_weights":[7.933549E-3,7.84431E-1,-9.217873E-2,-1.1164503E-2,9.465256E-1,-1.9114185E-2,-1.0541971E0,1.2503222E-2,3.2039065E-4,4.231895E-4,-6.7048674E-3,-1.350824E-2,-6.7535955E-3],"categories":[],"categories_nodes":[],"categories_segments":[],"categories_sizes":[],"default_left":[0,0,0,0,0,0,0,0,0,0,0,0,0],"id":37,"left_children":[1,3,5,-1,7,9,11,-1,-1,-1,-1,-1,-1],"loss_changes":[1.5458136E1,8.053781E0,1.2365773E1,0E0,5.923441E0,6.62271E0,4.8339367E-1,0E0,0E0,0E0,0E0,0E0,0E0],"parents":[2147483647,0,0,1,1,2,2,4,4,5,5,6,6],"right_children":[2,4,6,-1,8,10,12,-1,-1,-1,-1,-1,-1],"split_conditions":[1.0297946E-2,1.2401951E1,2.7626622E-1,-1.1164503E-2,1.7163542E1,1.7188887E2,2.5537333E0,1.2503222E-2,3.2039065E-4,4.231895E-4,-6.7048674E-3,-1.350824E-2,-6.7535955E-3],"split_indices":[1,0,1,0,0,0,2,0,0,0,0,0,0],"split_type":[0,0,0,0,0,0,0,0,0,0,0,0,0],"sum_hessian":[1.9692175E2,2.1708597E1,1.7521315E2,1.2431029E0,2.0465494E1,1.6379306E2,1.1420087E1,1.5086462E1,5.3790326E0,1.50531E2,1.3262054E1,4.9660225E0,6.454065E0],"tree_param":{"num_deleted":"0","num_feature":"5","num_nodes":"13","size_leaf_vector":"1"}},{"base_weights":[-1.0788704E-2,8.23308E-1,-1.08654514E-1,1.1770815E0,2.5234473E-1,-1.2707134E-2,-8.254779E-1,2.3231795E-3,1.2936598E-2,8.418459E-3,-1.0520242E-2,-1.3858844E-3,6.8459413E-3,-1.3063555E-2,-5.71893E-3],"categories":[],"categories_nodes":[],"categories_segments":[],"categories_sizes":[],"default_left":[0,0,0,0,0,0,0,0,0,0,0,0,0,0,0],"id":38,"left_children":[1,3,5,7,9,11,13,-1,-1,-1,-1,-1,-1,-1,-1],"loss_changes":[1.5976538E1,3.8547373E0,1.2030356E1,1.0671597E0,7.91073E0,1.373709E1,1.7711954E0,0E0,0E0,0E0,0E0,0E0,0E0,0E0,0E0],"parents":[2147483647,0,0,1,1,2,2,3,3,4,4,5,5,6,6],"right_children":[2,4,6,8,10,12,14,-1,-1,-1,-1,-1,-1,-1,-1],"split_conditions":[1.0297946E-2,-2.5003395E0,1.7484815E-1,5.391152E-3,6.448633E-3,8.95388E-2,-1.6402278E0,2.3231795E-3,1.2936598E-2,8.418459E-3,-1.0520242E-2,-1.3858844E-3,6.8459413E-3,-1.3063555E-2,-5.71893E-3],"split_indices":[1,2,1,1,1,1,0,0,0,0,0,0,0,0,0],"split_type":[0,0,0,0,0,0,0,0,0,0,0,0,0,0,0],"sum_hessian":[1.9362415E2,1.9554157E1,1.7406999E2,1.1417938E1,8.13622E0,1.5441866E2,1.9651333E1,1.5828837E0,9.835054E0,5.8478956E0,2.288324E0,1.3148364E2,2.293502E1,5.351547E0,1.4299786E1],"tree_param":{"num_deleted":"0","num_feature":"5","num_nodes":"15","size_leaf_vector":"1"}},{"base_weights":[-2.63221E-2,9.154791E-1,-1.3637948E-1,-4.1073794E-3,1.0150819E0,-7.409261E-2,-1.036928E0,1.4136161E-2,6.7620566E-3,-1.262862E-3,5.662674E-3,-1.3144006E-2,-6.079822E-3],"categories":[],"categories_nodes":[],"categories_segments":[],"categories_sizes":[],"default_left":[0,0,0,0,0,0,0,0,0,0,0,0,0],"id":39,"left_children":[1,3,5,-1,7,9,11,-1,-1,-1,-1,-1,-1],"loss_changes":[1.8813528E1,2.9260578E0,9.027348E0,0E0,1.4691353E0,5.181309E0,4.4140434E-1,0E0,0E0,0E0,0E0,0E0,0E0],"parents":[2147483647,0,0,1,1,2,2,4,4,5,5,6,6],"right_children":[2,4,6,-1,8,10,12,-1,-1,-1,-1,-1,-1],"split_conditions":[1.2122774E-2,1.2401951E1,3.0140534E-1,-4.1073794E-3,-2.8917434E0,3.7418606E0,2.5537333E0,1.4136161E-2,6.7620566E-3,-1.262862E-3,5.662674E-3,-1.3144006E-2,-6.079822E-3],"split_indices":[1,0,1,0,2,2,2,0,0,0,0,0,0],"split_type":[0,0,0,0,0,0,0,0,0,0,0,0,0],"sum_hessian":[1.793018E2,1.7994877E1,1.6130693E2,1.0388443E0,1.6956032E1,1.5188408E2,9.422859E0,6.334677E0,1.0621355E1,1.4117978E2,1.0704301E1,4.4682317E0,4.954627E0],"tree_param":{"num_deleted":"0","num_feature":"5","num_nodes":"13","size_leaf_vector":"1"}},{"base_weights":[7.274656E-2,1.7984365E-1,-8.2111216E-1,1.0533586E0,8.953659E-2,-4.458339E-1,-1.0895189E0,1.2516298E-2,6.4087515E-3,-3.5005585E-5,5.8568097E-3,2.3001022E-4,-1.3883827E-2,-1.21812755E-2,-2.4008623E-3],"categories":[],"categories_nodes":[],"categories_segments":[],"categories_sizes":[],"default_left":[0,0,0,0,0,0,0,0,0,0,0,0,0,0,0],"id":40,"left_children":[1,3,5,7,9,11,13,-1,-1,-1,-1,-1,-1,-1,-1],"loss_changes":[1.8820034E1,1.3710774E1,1.6344957E0,5.3129387E-1,7.373746E0,4.6585703E0,9.725361E-1,0E0,0E0,0E0,0E0,0E0,0E0,0E0,0E0],"parents":[2147483647,0,0,1,1,2,2,3,3,4,4,5,5,6,6],"right_children":[2,4,6,8,10,12,14,-1,-1,-1,-1,-1,-1,-1,-1],"split_conditions":[1.6251951E-1,7.446414E-3,3.0140534E-1,-2.5003395E0,9.104425E-2,3.1354449E0,2.9559586E0,1.2516298E-2,6.4087515E-3,-3.5005585E-5,5.8568097E-3,2.3001022E-4,-1.3883827E-2,-1.21812755E-2,-2.4008623E-3],"split_indices":[1,1,1,2,1,2,2,0,0,0,0,0,0,0,0],"split_type":[0,0,0,0,0,0,0,0,0,0,0,0,0,0,0],"sum_hessian":[1.9405301E2,1.7400368E2,2.0049335E1,1.5304394E1,1.5869928E2,9.469876E0,1.0579459E1,8.962127E0,6.3422666E0,1.3447536E2,2.4223919E1,6.975685E0,2.4941912E0,8.811328E0,1.7681313E0],"tree_param":{"num_deleted":"0","num_feature":"5","num_nodes":"15","size_leaf_vector":"1"}},{"base_weights":[1.3661834E-2,9.4313055E-2,-1.2033388E-2,8.192378E-1,7.6995683E-3,1.2384809E-2,9.29632E-4,7.0572755E-4,-7.743529E-3],"categories":[],"categories_nodes":[],"categories_segments":[],"categories_sizes":[],"default_left":[0,0,0,0,0,0,0,0,0],"id":41,"left_children":[1,3,-1,5,7,-1,-1,-1,-1],"loss_changes":[1.9285128E1,1.1553789E1,0E0,5.865078E0,8.190928E0,0E0,0E0,0E0,0E0],"parents":[2147483647,0,0,1,1,3,3,4,4],"right_children":[2,4,-1,6,8,-1,-1,-1,-1],"split_conditions":[3.0140534E-1,1.0297946E-2,-1.2033388E-2,-2.5003395E0,4.387604E2,1.2384809E-2,9.29632E-4,7.0572755E-4,-7.743529E-3],"split_indices":[1,1,0,2,0,0,0,0,0],"split_type":[0,0,0,0,0,0,0,0,0],"sum_hessian":[1.9432483E2,1.8311238E2,1.1212441E1,1.8640375E1,1.6447202E2,1.1371125E1,7.26925E0,1.5307527E2,1.1396742E1],"tree_param":{"num_deleted":"0","num_feature":"5","num_nodes":"9","size_leaf_vector":"1"}},{"base_weights":[4.7259267E-2,1.2951915E-1,-1.1348423E0,9.7669816E-1,4.7983438E-2,-3.0629754E-3,-1.1807346E-2,1.2965978E-2,2.5668533E-3,1.3518629E-3,-4.5018704E-3],"categories":[],"categories_nodes":[],"categories_segments":[],"categories_sizes":[],"default_left":[0,0,0,0,0,0,0,0,0,0,0],"id":42,"left_children":[1,3,5,7,9,-1,-1,-1,-1,-1,-1],"loss_changes":[1.902656E1,1.2553933E1,1.2254906E-1,3.3441648E0,7.335518E0,0E0,0E0,0E0,0E0,0E0,0E0],"parents":[2147483647,0,0,1,1,2,2,3,3,4,4],"right_children":[2,4,6,8,10,-1,-1,-1,-1,-1,-1],"split_conditions":[2.7626622E-1,7.446414E-3,3.0140534E-1,1.7163542E1,8.994945E1,-3.0629754E-3,-1.1807346E-2,1.2965978E-2,2.5668533E-3,1.3518629E-3,-4.5018704E-3],"split_indices":[1,1,1,0,0,0,0,0,0,0,0],"split_type":[0,0,0,0,0,0,0,0,0,0,0],"sum_hessian":[1.9315533E2,1.8142107E2,1.1734266E1,1.4963836E1,1.6645724E2,1.018601E0,1.0715665E1,9.806179E0,5.157656E0,1.4228026E2,2.4176987E1],"tree_param":{"num_deleted":"0","num_feature":"5","num_nodes":"11","size_leaf_vector":"1"}},{"base_weights":[-6.470944E-2,7.472883E-1,-1.8744248E-1,1.2492825E0,-6.5922335E-2,-1.2586354E-1,-1.0469335E0,-1.5874787E-3,1.3584931E-2,8.269507E-3,-1.3265358E-2,-3.4264359E-3,1.04631545E-4,-1.1526041E-2,-4.364701E-3],"categories":[],"categories_nodes":[],"categories_segments":[],"categories_sizes":[],"default_left":[0,0,0,0,0,0,0,0,0,0,0,0,0,0,0],"id":43,"left_children":[1,3,5,7,9,11,13,-1,-1,-1,-1,-1,-1,-1,-1],"loss_changes":[1.9224112E1,1.0428551E1,8.714863E0,2.6330814E0,1.3054326E1,4.6466722E0,2.0897865E-1,0E0,0E0,0E0,0E0,0E0,0E0,0E0,0E0],"parents":[2147483647,0,0,1,1,2,2,3,3,4,4,5,5,6,6],"right_children":[2,4,6,8,10,12,14,-1,-1,-1,-1,-1,-1,-1,-1],"split_conditions":[1.4313714E-2,-2.5003395E0,3.0140534E-1,4.999676E-3,6.784381E-3,-9.7579384E-1,2.9559586E0,-1.5874787E-3,1.3584931E-2,8.269507E-3,-1.3265358E-2,-3.4264359E-3,1.04631545E-4,-1.1526041E-2,-4.364701E-3],"split_indices":[1,2,1,1,1,0,2,0,0,0,0,0,0,0,0],"split_type":[0,0,0,0,0,0,0,0,0,0,0,0,0,0,0],"sum_hessian":[1.9049347E2,2.4344217E1,1.6614926E2,1.4720828E1,9.623389E0,1.56111E2,1.003826E1,1.0269535E0,1.3693875E1,5.834741E0,3.7886481E0,5.968671E1,9.6424286E1,7.800007E0,2.2382534E0],"tree_param":{"num_deleted":"0","num_feature":"5","num_nodes":"15","size_leaf_vector":"1"}},{"base_weights":[-2.210493E-2,7.838328E-1,-1.2586078E-1,1.2519234E0,-3.3420354E-2,-6.3129894E-2,-9.6167505E-1,-1.5791497E-3,1.3794545E-2,1.2318368E-2,-6.7010014E-3,-3.185467E-3,8.733169E-4,-1.2913304E-2,-5.526493E-3],"categories":[],"categories_nodes":[],"categories_segments":[],"categories_sizes":[],"default_left":[0,0,0,0,0,0,0,0,0,0,0,0,0,0,0],"id":44,"left_children":[1,3,5,7,9,11,13,-1,-1,-1,-1,-1,-1,-1,-1],"loss_changes":[1.5674988E1,8.222236E0,8.637109E0,2.6671257E0,7.883403E0,5.9990788E0,8.3847904E-1,0E0,0E0,0E0,0E0,0E0,0E0,0E0,0E0],"parents":[2147483647,0,0,1,1,2,2,3,3,4,4,5,5,6,6],"right_children":[2,4,6,8,10,12,14,-1,-1,-1,-1,-1,-1,-1,-1],"split_conditions":[1.0297946E-2,-2.5003395E0,3.0140534E-1,4.999676E-3,4.5529488E-3,-7.8019524E-1,2.5537333E0,-1.5791497E-3,1.3794545E-2,1.2318368E-2,-6.7010014E-3,-3.185467E-3,8.733169E-4,-1.2913304E-2,-5.526493E-3],"split_indices":[1,2,1,1,1,0,2,0,0,0,0,0,0,0,0],"split_type":[0,0,0,0,0,0,0,0,0,0,0,0,0,0,0],"sum_hessian":[1.8527354E2,2.0383938E1,1.648896E2,1.2622433E1,7.7615047E0,1.5437846E2,1.0511132E1,1.0273179E0,1.1595115E1,2.2852683E0,5.4762363E0,5.681491E1,9.756356E1,4.6258373E0,5.885295E0],"tree_param":{"num_deleted":"0","num_feature":"5","num_nodes":"15","size_leaf_vector":"1"}},{"base_weights":[-1.06561985E-2,1.6491292E-1,-4.0284774E-1,2.833632E-1,-6.4061856E-1,-1.2098864E0,-1.0208033E-1,-2.1842027E-3,6.00611E-3,-1.227153E-2,5.210582E-4,5.841391E-3,-1.3830958E-2,1.7824336E-3,-8.471946E-3],"categories":[],"categories_nodes":[],"categories_segments":[],"categories_sizes":[],"default_left":[0,0,0,0,0,0,0,0,0,0,0,0,0,0,0],"id":45,"left_children":[1,3,5,7,9,11,13,-1,-1,-1,-1,-1,-1,-1,-1],"loss_changes":[1.3291614E1,1.2908443E1,1.436361E1,1.8752934E1,7.1360927E0,5.8145714E0,9.460889E0,0E0,0E0,0E0,0E0,0E0,0E0,0E0,0E0],"parents":[2147483647,0,0,1,1,2,2,3,3,4,4,5,5,6,6],"right_children":[2,4,6,8,10,12,14,-1,-1,-1,-1,-1,-1,-1,-1],"split_conditions":[6.951899E-2,9.14652E1,8.95388E-2,-1.0463263E0,2.6717463E0,-1.763643E1,2.4943806E-1,-2.1842027E-3,6.00611E-3,-1.227153E-2,5.210582E-4,5.841391E-3,-1.3830958E-2,1.7824336E-3,-8.471946E-3],"split_indices":[1,0,1,0,2,0,1,0,0,0,0,0,0,0,0],"split_type":[0,0,0,0,0,0,0,0,0,0,0,0,0,0,0],"sum_hessian":[1.910681E2,1.3238425E2,5.868384E1,1.1597832E2,1.6405935E1,1.5111913E1,4.357193E1,4.5044308E1,7.0934006E1,8.466122E0,7.9398127E0,1.1216744E0,1.3990238E1,3.2213493E1,1.1358438E1],"tree_param":{"num_deleted":"0","num_feature":"5","num_nodes":"15","size_leaf_vector":"1"}},{"base_weights":[-1.6773397E-2,1.0434368E0,-1.11460894E-1,1.3567142E-2,4.3806738E-1,-4.9514648E-2,-9.853819E-1,-1.1249363E-2,1.4287278E-2,-1.4833048E-3,3.4807913E-3,-5.5171163E-3,-1.313317E-2],"categories":[],"categories_nodes":[],"categories_segments":[],"categories_sizes":[],"default_left":[0,0,0,0,0,0,0,0,0,0,0,0,0],"id":46,"left_children":[1,3,5,-1,7,9,11,-1,-1,-1,-1,-1,-1],"loss_changes":[1.9864857E1,2.4827614E0,9.77669E0,0E0,1.2461552E1,6.7517147E0,9.764013E-1,0E0,0E0,0E0,0E0,0E0,0E0],"parents":[2147483647,0,0,1,1,2,2,4,4,5,5,6,6],"right_children":[2,4,6,-1,8,10,12,-1,-1,-1,-1,-1,-1],"split_conditions":[7.446414E-3,1.7163542E1,2.7626622E-1,1.3567142E-2,2.6488533E0,9.104425E-2,1.2415129E0,-1.1249363E-2,1.4287278E-2,-1.4833048E-3,3.4807913E-3,-5.5171163E-3,-1.313317E-2],"split_indices":[1,0,1,0,2,1,1,0,0,0,0,0,0],"split_type":[0,0,0,0,0,0,0,0,0,0,0,0,0],"sum_hessian":[1.9572101E2,1.522523E1,1.8049577E2,9.215232E0,6.0099983E0,1.6953525E2,1.0960529E1,2.2789183E0,3.73108E0,1.362895E2,3.3245735E1,5.8744197E0,5.08611E0],"tree_param":{"num_deleted":"0","num_feature":"5","num_nodes":"13","size_leaf_vector":"1"}},{"base_weights":[-2.4429897E-2,8.428503E-1,-1.2735611E-1,1.2082456E-2,2.6769316E-1,-6.7600004E-2,-1.0199335E0,9.439159E-3,-1.1171257E-2,1.8670659E-4,-6.3601504E-3,-1.2772344E-2,-6.3251206E-3],"categories":[],"categories_nodes":[],"categories_segments":[],"categories_sizes":[],"default_left":[0,0,0,0,0,0,0,0,0,0,0,0,0],"id":47,"left_children":[1,3,5,-1,7,9,11,-1,-1,-1,-1,-1,-1],"loss_changes":[1.7536598E1,4.057309E0,9.286685E0,0E0,9.840801E0,8.126165E0,2.822008E-1,0E0,0E0,0E0,0E0,0E0,0E0],"parents":[2147483647,0,0,1,1,2,2,4,4,5,5,6,6],"right_children":[2,4,6,-1,8,10,12,-1,-1,-1,-1,-1,-1],"split_conditions":[1.0297946E-2,-2.5244815E0,3.0140534E-1,1.2082456E-2,6.448633E-3,9.517639E1,2.6130044E0,9.439159E-3,-1.1171257E-2,1.8670659E-4,-6.3601504E-3,-1.2772344E-2,-6.3251206E-3],"split_indices":[1,2,1,0,1,0,2,0,0,0,0,0,0],"split_type":[0,0,0,0,0,0,0,0,0,0,0,0,0],"sum_hessian":[1.9425107E2,1.9844852E1,1.7440622E2,1.1462221E1,8.38263E0,1.6447098E2,9.935237E0,5.8462324E0,2.5363982E0,1.4363766E2,2.0833319E1,4.5900536E0,5.345184E0],"tree_param":{"num_deleted":"0","num_feature":"5","num_nodes":"13","size_leaf_vector":"1"}},{"base_weights":[-2.8969552E-2,8.1051536E-2,-8.3673936E-1,1.6743518E-1,-1.1698933E0,-1.3137143E0,-5.6816626E-1,4.8103174E-3,1.8622048E-4,-1.5297671E-2,5.5125685E-5,-1.4332431E-2,-3.6859438E-3,3.2533826E-3,-1.1477604E-2],"categories":[],"categories_nodes":[],"categories_segments":[],"categories_sizes":[],"default_left":[0,0,0,0,0,0,0,0,0,0,0,0,0,0,0],"id":48,"left_children":[1,3,5,7,9,11,13,-1,-1,-1,-1,-1,-1,-1,-1],"loss_changes":[1.7256054E1,1.8688612E1,2.2349148E0,7.50227E0,4.7372684E0,3.3272743E-1,8.996601E0,0E0,0E0,0E0,0E0,0E0,0E0,0E0,0E0],"parents":[2147483647,0,0,1,1,2,2,3,3,4,4,5,5,6,6],"right_children":[2,4,6,8,10,12,14,-1,-1,-1,-1,-1,-1,-1,-1],"split_conditions":[1.6251951E-1,4.9493628E2,-1.6402278E0,2.3349302E-2,2.998724E0,-2.635895E0,9.281851E0,4.8103174E-3,1.8622048E-4,-1.5297671E-2,5.5125685E-5,-1.4332431E-2,-3.6859438E-3,3.2533826E-3,-1.1477604E-2],"split_indices":[1,0,0,1,2,2,0,0,0,0,0,0,0,0,0],"split_type":[0,0,0,0,0,0,0,0,0,0,0,0,0,0,0],"sum_hessian":[1.92405E2,1.7013206E2,2.2272926E1,1.5995273E2,1.0179338E1,6.621663E0,1.5651263E1,5.075769E1,1.0919504E2,7.5624604E0,2.6168783E0,5.4197617E0,1.2019014E0,6.3306255E0,9.320638E0],"tree_param":{"num_deleted":"0","num_feature":"5","num_nodes":"15","size_leaf_vector":"1"}},{"base_weights":[-2.5866574E-2,8.098358E-1,-1.2129894E-1,-6.9004577E-3,9.479243E-1,-6.986093E-2,-1.0348994E0,1.2403644E-2,2.3537434E-3,-9.186406E-5,-7.513321E-3,-1.20276045E-2,-1.9941279E-3],"categories":[],"categories_nodes":[],"categories_segments":[],"categories_sizes":[],"default_left":[0,0,0,0,0,0,0,0,0,0,0,0,0],"id":49,"left_children":[1,3,5,-1,7,9,11,-1,-1,-1,-1,-1,-1],"loss_changes":[1.554416E1,4.7922525E0,8.137147E0,0E0,3.6081963E0,6.8755937E0,1.0558796E0,0E0,0E0,0E0,0E0,0E0,0E0],"parents":[2147483647,0,0,1,1,2,2,4,4,5,5,6,6],"right_children":[2,4,6,-1,8,10,12,-1,-1,-1,-1,-1,-1],"split_conditions":[1.0297946E-2,1.4378711E1,3.0140534E-1,-6.9004577E-3,1.72863E1,4.387604E2,2.9419987E0,1.2403644E-2,2.3537434E-3,-9.186406E-5,-7.513321E-3,-1.20276045E-2,-1.9941279E-3],"split_indices":[1,0,1,0,0,0,2,0,0,0,0,0,0],"split_type":[0,0,0,0,0,0,0,0,0,0,0,0,0],"sum_hessian":[1.9267194E2,1.8979784E1,1.7369215E2,1.2631079E0,1.7716675E1,1.6545319E2,8.238964E0,1.2036141E1,5.6805344E0,1.528571E2,1.2596093E1,6.494529E0,1.7444353E0],"tree_param":{"num_deleted":"0","num_feature":"5","num_nodes":"13","size_leaf_vector":"1"}},{"base_weights":[1.0297266E-2,8.191333E-1,-8.12622E-2,1.1961683E0,1.2013491E-1,-1.3584867E-2,-9.8056036E-1,3.391839E-3,1.2450031E-2,7.6843146E-3,-1.0408705E-2,5.590512E-4,-7.634235E-3,-5.9678643E-3,-1.3127814E-2],"categories":[],"categories_nodes":[],"categories_segments":[],"categories_sizes":[],"default_left":[0,0,0,0,0,0,0,0,0,0,0,0,0,0,0],"id":50,"left_children":[1,3,5,7,9,11,13,-1,-1,-1,-1,-1,-1,-1,-1],"loss_changes":[1.4281595E1,5.0242157E0,1.0536463E1,1.0614395E-1,6.808106E0,8.495433E0,7.615328E-1,0E0,0E0,0E0,0E0,0E0,0E0,0E0,0E0],"parents":[2147483647,0,0,1,1,2,2,3,3,4,4,5,5,6,6],"right_children":[2,4,6,8,10,12,14,-1,-1,-1,-1,-1,-1,-1,-1],"split_conditions":[1.0002742E-2,-2.5003395E0,2.7626622E-1,4.999676E-3,6.448633E-3,4.387604E2,1.2401951E1,3.391839E-3,1.2450031E-2,7.6843146E-3,-1.0408705E-2,5.590512E-4,-7.634235E-3,-5.9678643E-3,-1.3127814E-2],"split_indices":[1,2,1,1,1,0,0,0,0,0,0,0,0,0,0],"split_type":[0,0,0,0,0,0,0,0,0,0,0,0,0,0,0],"sum_hessian":[1.9094823E2,1.8609095E1,1.7233914E2,1.1626551E1,6.982544E0,1.612214E2,1.1117727E1,1.0551763E0,1.0571374E1,4.6975822E0,2.2849617E0,1.4839464E2,1.282677E1,6.456121E0,4.6616063E0],"tree_param":{"num_deleted":"0","num_feature":"5","num_nodes":"15","size_leaf_vector":"1"}},{"base_weights":[-2.3728061E-2,2.1332344E-1,-2.7992502E-1,-1.1842732E0,3.0854252E-1,7.717149E-1,-3.66556E-1,-3.3189328E-3,-1.3858116E-2,5.4203654E-3,-3.3137174E-3,-4.6012737E-3,1.2594559E-2,-8.481025E-3,-9.946473E-4],"categories":[],"categories_nodes":[],"categories_segments":[],"categories_sizes":[],"default_left":[0,0,0,0,0,0,0,0,0,0,0,0,0,0,0],"id":51,"left_children":[1,3,5,7,9,11,13,-1,-1,-1,-1,-1,-1,-1,-1],"loss_changes":[1.1751992E1,1.374842E1,8.751734E0,6.775036E-1,1.4365802E1,5.0236535E0,1.1048816E1,0E0,0E0,0E0,0E0,0E0,0E0,0E0,0E0],"parents":[2147483647,0,0,1,1,2,2,3,3,4,4,5,5,6,6],"right_children":[2,4,6,8,10,12,14,-1,-1,-1,-1,-1,-1,-1,-1],"split_conditions":[4.288637E-2,-1.9830109E1,-1.9419632E1,-2.2188725E1,2.9844215E1,-2.635895E0,-7.8019524E-1,-3.3189328E-3,-1.3858116E-2,5.4203654E-3,-3.3137174E-3,-4.6012737E-3,1.2594559E-2,-8.481025E-3,-9.946473E-4],"split_indices":[1,0,0,0,0,2,0,0,0,0,0,0,0,0,0],"split_type":[0,0,0,0,0,0,0,0,0,0,0,0,0,0,0],"sum_hessian":[1.9152292E2,9.956536E1,9.195755E1,5.621234E0,9.394412E1,6.3967957E0,8.556075E1,1.5810776E0,4.0401564E0,6.894148E1,2.5002644E1,1.8304394E0,4.566356E0,2.9749392E1,5.5811363E1],"tree_param":{"num_deleted":"0","num_feature":"5","num_nodes":"15","size_leaf_vector":"1"}},{"base_weights":[1.502919E-3,6.380424E-2,-9.615334E-1,1.2422505E-1,-6.8301123E-1,-6.4180696E-1,-1.2756255E-2,-2.2303092E-3,3.2672312E-3,-1.3015972E-2,-2.9441036E-4,5.7305335E-3,-1.1022798E-2],"categories":[],"categories_nodes":[],"categories_segments":[],"categories_sizes":[],"default_left":[0,0,0,0,0,0,0,0,0,0,0,0,0],"id":52,"left_children":[1,3,5,7,9,11,-1,-1,-1,-1,-1,-1,-1],"loss_changes":[1.1704862E1,8.351855E0,3.717041E-1,1.2051147E1,5.5679407E0,5.043651E0,0E0,0E0,0E0,0E0,0E0,0E0,0E0],"parents":[2147483647,0,0,1,1,2,2,3,3,4,4,5,5],"right_children":[2,4,6,8,10,12,-1,-1,-1,-1,-1,-1,-1],"split_conditions":[2.7626622E-1,1.7188887E2,1.2401951E1,-9.126785E-1,2.6717463E0,1.2415129E0,-1.2756255E-2,-2.2303092E-3,3.2672312E-3,-1.3015972E-2,-2.9441036E-4,5.7305335E-3,-1.1022798E-2],"split_indices":[1,0,0,0,2,1,0,0,0,0,0,0,0],"split_type":[0,0,0,0,0,0,0,0,0,0,0,0,0],"sum_hessian":[1.930636E2,1.8220973E2,1.0853873E1,1.6934279E2,1.2866951E1,6.886853E0,3.9670203E0,6.2338886E1,1.070039E2,6.101002E0,6.7659483E0,1.8256837E0,5.0611696E0],"tree_param":{"num_deleted":"0","num_feature":"5","num_nodes":"13","size_leaf_vector":"1"}},{"base_weights":[-1.4052887E-2,6.0956802E-2,-9.900817E-1,9.3674576E-1,-5.089859E-4,-6.534142E-1,-1.3300468E-2,4.779705E-3,1.4138007E-2,5.826368E-4,-7.0416764E-3,-1.2493889E-2,1.7523064E-3],"categories":[],"categories_nodes":[],"categories_segments":[],"categories_sizes":[],"default_left":[0,0,0,0,0,0,0,0,0,0,0,0,0],"id":53,"left_children":[1,3,5,7,9,11,-1,-1,-1,-1,-1,-1,-1],"loss_changes":[1.4135358E1,9.661675E0,7.0793915E-1,1.900343E0,7.017854E0,4.608514E0,0E0,0E0,0E0,0E0,0E0,0E0,0E0],"parents":[2147483647,0,0,1,1,2,2,3,3,4,4,5,5],"right_children":[2,4,6,8,10,12,-1,-1,-1,-1,-1,-1,-1],"split_conditions":[2.3673844E-1,6.448633E-3,1.2401951E1,2.6488533E0,1.7188887E2,-2.5308697E0,-1.3300468E-2,4.779705E-3,1.4138007E-2,5.826368E-4,-7.0416764E-3,-1.2493889E-2,1.7523064E-3],"split_indices":[1,1,0,2,0,2,0,0,0,0,0,0,0],"split_type":[0,0,0,0,0,0,0,0,0,0,0,0,0],"sum_hessian":[1.9125098E2,1.7847256E2,1.2778414E1,1.0770473E1,1.677021E2,7.8884673E0,4.8899465E0,6.5109377E0,4.259535E0,1.5562114E2,1.2080963E1,4.2930713E0,3.5953958E0],"tree_param":{"num_deleted":"0","num_feature":"5","num_nodes":"13","size_leaf_vector":"1"}},{"base_weights":[-6.4415514E-2,9.252223E-2,-4.3072665E-1,-2.650108E-1,4.2674372E-1,3.646812E-1,-5.730418E-1,1.4315317E-3,-8.369889E-3,1.059006E-2,-6.672804E-4,1.30950175E-2,-1.0949671E-2,-9.538581E-3,-2.2721593E-3],"categories":[],"categories_nodes":[],"categories_segments":[],"categories_sizes":[],"default_left":[0,0,0,0,0,0,0,0,0,0,0,0,0,0,0],"id":54,"left_children":[1,3,5,7,9,11,13,-1,-1,-1,-1,-1,-1,-1,-1],"loss_changes":[1.1070059E1,1.6262325E1,6.743271E0,1.5507799E1,2.19836E1,1.4358436E1,6.282797E0,0E0,0E0,0E0,0E0,0E0,0E0,0E0,0E0],"parents":[2147483647,0,0,1,1,2,2,3,3,4,4,5,5,6,6],"right_children":[2,4,6,8,10,12,14,-1,-1,-1,-1,-1,-1,-1,-1],"split_conditions":[2.8561165E1,-9.7579384E-1,-3.0205085E0,-1.2949177E1,2.5035107E0,9.517639E1,7.686991E1,1.4315317E-3,-8.369889E-3,1.059006E-2,-6.672804E-4,1.30950175E-2,-1.0949671E-2,-9.538581E-3,-2.2721593E-3],"split_indices":[0,0,2,0,2,0,0,0,0,0,0,0,0,0,0],"split_type":[0,0,0,0,0,0,0,0,0,0,0,0,0,0,0],"sum_hessian":[1.908696E2,1.3414545E2,5.6724167E1,6.4912476E1,6.923296E1,8.371705E0,4.835246E1,3.831826E1,2.6594215E1,2.9846285E1,3.938668E1,5.144542E0,3.2271628E0,2.2175285E1,2.6177174E1],"tree_param":{"num_deleted":"0","num_feature":"5","num_nodes":"15","size_leaf_vector":"1"}},{"base_weights":[-4.3251973E-2,2.3271486E-1,-3.2039726E-1,-1.2610437E0,3.2382634E-1,5.812108E-1,-4.1063747E-1,7.61487E-4,-1.5814379E-2,5.6394427E-3,-3.9603557E-3,-9.265242E-3,1.481615E-2,-8.625388E-3,-1.5594597E-3],"categories":[],"categories_nodes":[],"categories_segments":[],"categories_sizes":[],"default_left":[0,0,0,0,0,0,0,0,0,0,0,0,0,0,0],"id":55,"left_children":[1,3,5,7,9,11,13,-1,-1,-1,-1,-1,-1,-1,-1],"loss_changes":[1.4925866E1,1.3729028E1,8.155358E0,2.6185932E0,1.630619E1,1.39531145E1,1.011314E1,0E0,0E0,0E0,0E0,0E0,0E0,0E0,0E0],"parents":[2147483647,0,0,1,1,2,2,3,3,4,4,5,5,6,6],"right_children":[2,4,6,8,10,12,14,-1,-1,-1,-1,-1,-1,-1,-1],"split_conditions":[4.178055E-2,-1.9830109E1,-1.8428E1,-3.5199528E0,2.8768667E1,-2.635895E0,-7.8019524E-1,7.61487E-4,-1.5814379E-2,5.6394427E-3,-3.9603557E-3,-9.265242E-3,1.481615E-2,-8.625388E-3,-1.5594597E-3],"split_indices":[1,0,0,2,0,2,0,0,0,0,0,0,0,0,0],"split_type":[0,0,0,0,0,0,0,0,0,0,0,0,0,0,0],"sum_hessian":[1.9317809E2,9.687517E1,9.6302925E1,4.8310003E0,9.204417E1,8.266815E0,8.803611E1,1.0811322E0,3.749868E0,6.918375E1,2.2860416E1,3.0801191E0,5.1866956E0,3.0872375E1,5.716374E1],"tree_param":{"num_deleted":"0","num_feature":"5","num_nodes":"15","size_leaf_vector":"1"}},{"base_weights":[6.16979E-2,1.651769E-1,-7.4175394E-1,1.0330906E0,9.569154E-2,-1.2627786E0,-4.3498203E-1,5.877613E-3,1.4295844E-2,-1.23254595E-5,7.2123376E-3,-1.3821301E-2,-3.3892053E-3,4.90456E-3,-9.852716E-3],"categories":[],"categories_nodes":[],"categories_segments":[],"categories_sizes":[],"default_left":[0,0,0,0,0,0,0,0,0,0,0,0,0,0,0],"id":56,"left_children":[1,3,5,7,9,11,13,-1,-1,-1,-1,-1,-1,-1,-1],"loss_changes":[1.5748446E1,9.991749E0,2.9073887E0,1.3316708E0,9.460351E0,3.57337E-1,8.192083E0,0E0,0E0,0E0,0E0,0E0,0E0,0E0,0E0],"parents":[2147483647,0,0,1,1,2,2,3,3,4,4,5,5,6,6],"right_children":[2,4,6,8,10,12,14,-1,-1,-1,-1,-1,-1,-1,-1],"split_conditions":[1.6251951E-1,6.448633E-3,-1.6402278E0,2.6424997E0,9.277017E-2,-2.635895E0,9.281851E0,5.877613E-3,1.4295844E-2,-1.23254595E-5,7.2123376E-3,-1.3821301E-2,-3.3892053E-3,4.90456E-3,-9.852716E-3],"split_indices":[1,1,0,2,1,2,0,0,0,0,0,0,0,0,0],"split_type":[0,0,0,0,0,0,0,0,0,0,0,0,0,0,0],"sum_hessian":[1.8694626E2,1.6631984E2,2.0626421E1,1.1300618E1,1.5501923E2,6.4890327E0,1.4137389E1,6.491721E0,4.8088965E0,1.3508641E2,1.9932814E1,5.3073454E0,1.1816872E0,5.312289E0,8.8251E0],"tree_param":{"num_deleted":"0","num_feature":"5","num_nodes":"15","size_leaf_vector":"1"}},{"base_weights":[-2.101569E-2,7.2443955E-2,-7.8037864E-1,-2.6497645E-2,6.9395655E-1,-1.3891608E-2,-5.004231E-1,1.0512962E-3,-1.0428228E-2,6.1391655E-4,1.2430971E-2,1.8772967E-3,-9.016366E-3],"categories":[],"categories_nodes":[],"categories_segments":[],"categories_sizes":[],"default_left":[0,0,0,0,0,0,0,0,0,0,0,0,0],"id":57,"left_children":[1,3,5,7,9,-1,11,-1,-1,-1,-1,-1,-1],"loss_changes":[1.3701084E1,1.0601674E1,2.9102E0,2.0100065E1,8.146641E0,0E0,4.6016254E0,0E0,0E0,0E0,0E0,0E0,0E0],"parents":[2147483647,0,0,1,1,2,2,3,3,4,4,6,6],"right_children":[2,4,6,8,10,-1,12,-1,-1,-1,-1,-1,-1],"split_conditions":[1.6251951E-1,8.95388E-2,-1.6402278E0,6.951899E-2,2.5424705E0,-1.3891608E-2,9.281851E0,1.0512962E-3,-1.0428228E-2,6.1391655E-4,1.2430971E-2,1.8772967E-3,-9.016366E-3],"split_indices":[1,1,0,1,2,0,0,0,0,0,0,0,0],"split_type":[0,0,0,0,0,0,0,0,0,0,0,0,0],"sum_hessian":[1.9125856E2,1.7110426E2,2.0154295E1,1.4843202E2,2.2672245E1,5.100607E0,1.5053688E1,1.3220618E2,1.6225851E1,1.10524845E1,1.1619761E1,5.740243E0,9.313445E0],"tree_param":{"num_deleted":"0","num_feature":"5","num_nodes":"13","size_leaf_vector":"1"}},{"base_weights":[4.4359874E-2,9.344691E-1,-5.569766E-2,1.2265879E0,4.355343E-1,1.3680366E-1,-2.9119974E-1,3.2039674E-3,1.286646E-2,8.600108E-3,-6.0403775E-3,3.4221609E-3,-3.4731594E-3,-6.2006996E-3,2.11269E-4],"categories":[],"categories_nodes":[],"categories_segments":[],"categories_sizes":[],"default_left":[0,0,0,0,0,0,0,0,0,0,0,0,0,0,0],"id":58,"left_children":[1,3,5,7,9,11,13,-1,-1,-1,-1,-1,-1,-1,-1],"loss_changes":[1.680051E1,2.243639E0,7.7464414E0,2.1203613E-1,4.309474E0,9.488199E0,7.899276E0,0E0,0E0,0E0,0E0,0E0,0E0,0E0,0E0],"parents":[2147483647,0,0,1,1,2,2,3,3,4,4,5,5,6,6],"right_children":[2,4,6,8,10,12,14,-1,-1,-1,-1,-1,-1,-1,-1],"split_conditions":[1.0297946E-2,-2.5003395E0,5.2135613E-2,4.999676E-3,6.448633E-3,2.8768667E1,9.277017E-2,3.2039674E-3,1.286646E-2,8.600108E-3,-6.0403775E-3,3.4221609E-3,-3.4731594E-3,-6.2006996E-3,2.11269E-4],"split_indices":[1,2,1,1,1,0,1,0,0,0,0,0,0,0,0],"split_type":[0,0,0,0,0,0,0,0,0,0,0,0,0,0,0],"sum_hessian":[1.870537E2,1.8059301E1,1.689944E2,1.0470544E1,7.588756E0,9.321709E1,7.5777306E1,1.0445509E0,9.425993E0,5.5111694E0,2.077587E0,6.56534E1,2.7563686E1,3.6431133E1,3.9346176E1],"tree_param":{"num_deleted":"0","num_feature":"5","num_nodes":"15","size_leaf_vector":"1"}},{"base_weights":[-2.3394842E-2,1.7657667E-1,-4.3869254E-1,-1.046383E0,2.5550693E-1,-1.2332996E0,-1.3724436E-1,-1.3851933E-2,5.7756784E-3,3.6404352E-3,-4.488027E-3,5.778427E-3,-1.3940826E-2,1.6558005E-3,-1.03247585E-2],"categories":[],"categories_nodes":[],"categories_segments":[],"categories_sizes":[],"default_left":[0,0,0,0,0,0,0,0,0,0,0,0,0,0,0],"id":59,"left_children":[1,3,5,7,9,11,13,-1,-1,-1,-1,-1,-1,-1,-1],"loss_changes":[1.623747E1,1.3014567E1,1.504841E1,5.3131495E0,9.707636E0,5.8572044E0,1.2962173E1,0E0,0E0,0E0,0E0,0E0,0E0,0E0,0E0],"parents":[2147483647,0,0,1,1,2,2,3,3,4,4,5,5,6,6],"right_children":[2,4,6,8,10,12,14,-1,-1,-1,-1,-1,-1,-1,-1],"split_conditions":[6.951899E-2,-1.9830109E1,8.796092E-2,2.5939863E0,9.14652E1,-1.763643E1,3.0140534E-1,-1.3851933E-2,5.7756784E-3,3.6404352E-3,-4.488027E-3,5.778427E-3,-1.3940826E-2,1.6558005E-3,-1.03247585E-2],"split_indices":[1,0,1,2,0,0,1,0,0,0,0,0,0,0,0],"split_type":[0,0,0,0,0,0,0,0,0,0,0,0,0,0,0],"sum_hessian":[1.9358702E2,1.310564E2,6.2530624E1,7.2024994E0,1.2385389E2,1.6347616E1,4.6183006E1,6.0808535E0,1.1216458E0,1.0773471E2,1.611918E1,1.1214216E0,1.5226194E1,3.5118675E1,1.1064334E1],"tree_param":{"num_deleted":"0","num_feature":"5","num_nodes":"15","size_leaf_vector":"1"}},{"base_weights":[-3.9955974E-2,2.3389128E-1,-3.3250362E-1,-1.4616604E0,3.3734012E-1,6.316985E-1,-4.1841277E-1,-1.5840257E-2,-4.4549787E-3,6.2874286E-3,-4.980237E-3,-6.8383887E-3,1.2718819E-2,-9.241884E-3,-1.1865594E-3],"categories":[],"categories_nodes":[],"categories_segments":[],"categories_sizes":[],"default_left":[0,0,0,0,0,0,0,0,0,0,0,0,0,0,0],"id":60,"left_children":[1,3,5,7,9,11,13,-1,-1,-1,-1,-1,-1,-1,-1],"loss_changes":[1.5772473E1,1.8344563E1,8.144453E0,4.533863E-2,2.3860912E1,7.7598095E0,1.3224535E1,0E0,0E0,0E0,0E0,0E0,0E0,0E0,0E0],"parents":[2147483647,0,0,1,1,2,2,3,3,4,4,5,5,6,6],"right_children":[2,4,6,8,10,12,14,-1,-1,-1,-1,-1,-1,-1,-1],"split_conditions":[4.288637E-2,-1.990257E1,-1.9419632E1,3.1076964E-2,2.8768667E1,-4.0764317E1,-5.129352E-1,-1.5840257E-2,-4.4549787E-3,6.2874286E-3,-4.980237E-3,-6.8383887E-3,1.2718819E-2,-9.241884E-3,-1.1865594E-3],"split_indices":[1,0,0,1,0,0,0,0,0,0,0,0,0,0,0],"split_type":[0,0,0,0,0,0,0,0,0,0,0,0,0,0,0],"sum_hessian":[1.9490619E2,1.00774216E2,9.413197E1,5.03989E0,9.573433E1,7.181153E0,8.695082E1,3.999449E0,1.0404406E0,7.115903E1,2.45753E1,2.3283484E0,4.852804E0,3.1581188E1,5.5369633E1],"tree_param":{"num_deleted":"0","num_feature":"5","num_nodes":"15","size_leaf_vector":"1"}},{"base_weights":[-6.368346E-3,-3.931106E-1,2.0248267E-1,-8.1849027E-1,2.7668455E-1,6.8562883E-1,-1.4600933E-1,-3.6848863E-3,-1.1843027E-2,1.0063476E-2,-6.351357E-3,9.9693E-3,-1.2316531E-2,9.122462E-3,-2.6446176E-3],"categories":[],"categories_nodes":[],"categories_segments":[],"categories_sizes":[],"default_left":[0,0,0,0,0,0,0,0,0,0,0,0,0,0,0],"id":61,"left_children":[1,3,5,7,9,11,13,-1,-1,-1,-1,-1,-1,-1,-1],"loss_changes":[1.5768829E1,1.9729904E1,2.144792E1,6.4968433E0,1.8825974E1,3.3043446E1,9.577979E0,0E0,0E0,0E0,0E0,0E0,0E0,0E0,0E0],"parents":[2147483647,0,0,1,1,2,2,3,3,4,4,5,5,6,6],"right_children":[2,4,6,8,10,12,14,-1,-1,-1,-1,-1,-1,-1,-1],"split_conditions":[-7.8019524E-1,-2.5776455E0,-2.5003395E0,4.5569282E-2,-1.5811073E1,9.517639E1,1.1524987E0,-3.6848863E-3,-1.1843027E-2,1.0063476E-2,-6.351357E-3,9.9693E-3,-1.2316531E-2,9.122462E-3,-2.6446176E-3],"split_indices":[0,2,2,1,0,0,0,0,0,0,0,0,0,0,0],"split_type":[0,0,0,0,0,0,0,0,0,0,0,0,0,0,0],"sum_hessian":[1.9324213E2,6.7453E1,1.2578913E2,4.1117638E1,2.6335365E1,5.230564E1,7.348349E1,1.9337305E1,2.1780333E1,1.4571329E1,1.1764037E1,4.541227E1,6.893372E0,6.722572E0,6.676092E1],"tree_param":{"num_deleted":"0","num_feature":"5","num_nodes":"15","size_leaf_vector":"1"}},{"base_weights":[4.3350533E-3,7.743848E-1,-6.5472916E-2,9.97863E-1,1.2523843E-1,-2.3379445E-2,-1.120234E0,1.0929589E-2,1.3998385E-3,-1.0754985E-2,1.1981199E-2,3.983303E-4,-8.2481075E-3,-1.2217651E-2,-3.5553162E-3],"categories":[],"categories_nodes":[],"categories_segments":[],"categories_sizes":[],"default_left":[0,0,0,0,0,0,0,0,0,0,0,0,0,0,0],"id":62,"left_children":[1,3,5,7,9,11,13,-1,-1,-1,-1,-1,-1,-1,-1],"loss_changes":[1.0459515E1,2.2211647E0,7.897163E0,8.167677E-1,8.097304E0,8.778489E0,9.5705986E-2,0E0,0E0,0E0,0E0,0E0,0E0,0E0,0E0],"parents":[2147483647,0,0,1,1,2,2,3,3,4,4,5,5,6,6],"right_children":[2,4,6,8,10,12,14,-1,-1,-1,-1,-1,-1,-1,-1],"split_conditions":[8.166239E-3,1.7163542E1,8.6439246E-1,2.9037964E0,2.6488533E0,4.387604E2,2.8687801E0,1.0929589E-2,1.3998385E-3,-1.0754985E-2,1.1981199E-2,3.983303E-4,-8.2481075E-3,-1.2217651E-2,-3.5553162E-3],"split_indices":[1,0,1,2,2,0,2,0,0,0,0,0,0,0,0],"split_type":[0,0,0,0,0,0,0,0,0,0,0,0,0,0,0],"sum_hessian":[1.9263214E2,1.5172429E1,1.7745972E2,1.0887169E1,4.2852607E0,1.7163237E2,5.8273497E0,9.554075E0,1.3330941E0,2.02099E0,2.2642708E0,1.5996547E2,1.1666896E1,4.6166825E0,1.210667E0],"tree_param":{"num_deleted":"0","num_feature":"5","num_nodes":"15","size_leaf_vector":"1"}},{"base_weights":[2.102988E-2,8.063519E-2,-9.653924E-3,1.6184536E-1,-4.756738E-1,9.621506E-4,9.942755E-3,-1.1736779E-2,1.3699799E-3],"categories":[],"categories_nodes":[],"categories_segments":[],"categories_sizes":[],"default_left":[0,0,0,0,0,0,0,0,0],"id":63,"left_children":[1,3,-1,5,7,-1,-1,-1,-1],"loss_changes":[1.1194629E1,8.173903E0,0E0,8.489236E0,1.003265E1,0E0,0E0,0E0,0E0],"parents":[2147483647,0,0,1,1,3,3,4,4],"right_children":[2,4,-1,6,8,-1,-1,-1,-1],"split_conditions":[2.7626622E-1,9.517639E1,-9.653924E-3,7.358572E1,2.5874228E0,9.621506E-4,9.942755E-3,-1.1736779E-2,1.3699799E-3],"split_indices":[1,0,0,0,2,0,0,0,0],"split_type":[0,0,0,0,0,0,0,0,0],"sum_hessian":[1.880738E2,1.7822281E2,9.850992E0,1.561387E2,2.2084105E1,1.4576215E2,1.0376566E1,9.895124E0,1.218898E1],"tree_param":{"num_deleted":"0","num_feature":"5","num_nodes":"9","size_leaf_vector":"1"}},{"base_weights":[-3.7910193E-2,1.3912138E-1,-4.09309E-1,2.6153687E-1,-7.00622E-1,-1.2282572E0,-9.066186E-2,1.4561375E-3,1.4582713E-2,-1.1289213E-2,-2.169509E-3,1.0571536E-2,-1.4542537E-2,4.6103927E-3,-6.508375E-3],"categories":[],"categories_nodes":[],"categories_segments":[],"categories_sizes":[],"default_left":[0,0,0,0,0,0,0,0,0,0,0,0,0,0,0],"id":64,"left_children":[1,3,5,7,9,11,13,-1,-1,-1,-1,-1,-1,-1,-1],"loss_changes":[1.2849274E1,1.380438E1,1.6343903E1,1.5932138E1,3.3037367E0,1.0618977E1,1.4663009E1,0E0,0E0,0E0,0E0,0E0,0E0,0E0,0E0],"parents":[2147483647,0,0,1,1,2,2,3,3,4,4,5,5,6,6],"right_children":[2,4,6,8,10,12,14,-1,-1,-1,-1,-1,-1,-1,-1],"split_conditions":[6.951899E-2,9.14652E1,8.796092E-2,5.2447834E1,2.6717463E0,-2.4276295E1,1.4821671E-1,1.4561375E-3,1.4582713E-2,-1.1289213E-2,-2.169509E-3,1.0571536E-2,-1.4542537E-2,4.6103927E-3,-6.508375E-3],"split_indices":[1,0,1,0,2,0,1,0,0,0,0,0,0,0,0],"split_type":[0,0,0,0,0,0,0,0,0,0,0,0,0,0,0],"sum_hessian":[1.9356218E2,1.3150446E2,6.205772E1,1.1537409E2,1.6130367E1,1.6583143E1,4.547458E1,1.06207825E2,9.16627E0,7.8473425E0,8.283026E0,1.1613317E0,1.5421812E1,2.299975E1,2.2474829E1],"tree_param":{"num_deleted":"0","num_feature":"5","num_nodes":"15","size_leaf_vector":"1"}},{"base_weights":[1.8485883E-3,1.7762356E-1,-3.6547822E-1,-2.5540358E-1,4.0728784E-1,-1.0658586E0,-9.685083E-2,-4.2454065E-3,8.665314E-3,5.9103225E-3,-6.1565745E-3,1.0406528E-2,-1.2838232E-2,3.8487779E-3,-6.9201593E-3],"categories":[],"categories_nodes":[],"categories_segments":[],"categories_sizes":[],"default_left":[0,0,0,0,0,0,0,0,0,0,0,0,0,0,0],"id":65,"left_children":[1,3,5,7,9,11,13,-1,-1,-1,-1,-1,-1,-1,-1],"loss_changes":[1.2417696E1,1.3039656E1,1.1608013E1,9.038471E0,1.6411633E1,9.213156E0,1.348098E1,0E0,0E0,0E0,0E0,0E0,0E0,0E0,0E0],"parents":[2147483647,0,0,1,1,2,2,3,3,4,4,5,5,6,6],"right_children":[2,4,6,8,10,12,14,-1,-1,-1,-1,-1,-1,-1,-1],"split_conditions":[6.879282E-2,-1.0099427E0,8.796092E-2,2.889488E0,1.7188887E2,-2.2979456E1,1.6251951E-1,-4.2454065E-3,8.665314E-3,5.9103225E-3,-6.1565745E-3,1.0406528E-2,-1.2838232E-2,3.8487779E-3,-6.9201593E-3],"split_indices":[1,0,1,2,0,0,1,0,0,0,0,0,0,0,0],"split_type":[0,0,0,0,0,0,0,0,0,0,0,0,0,0,0],"sum_hessian":[1.9031764E2,1.290706E2,6.1247036E1,4.469224E1,8.437836E1,1.6156113E1,4.5090923E1,3.93775E1,5.3147454E0,7.188787E1,1.2490485E1,1.1610241E0,1.499509E1,2.5115597E1,1.9975325E1],"tree_param":{"num_deleted":"0","num_feature":"5","num_nodes":"15","size_leaf_vector":"1"}},{"base_weights":[-3.6103856E-2,2.0907942E-2,-1.0397481E0,7.874291E-2,-7.9333204E-1,-1.1862514E-2,-2.5991395E-3,-2.0853207E-3,2.6459112E-3,-2.2193247E-3,-1.3987805E-2],"categories":[],"categories_nodes":[],"categories_segments":[],"categories_sizes":[],"default_left":[0,0,0,0,0,0,0,0,0,0,0],"id":66,"left_children":[1,3,5,7,9,-1,-1,-1,-1,-1,-1],"loss_changes":[1.1168881E1,8.789582E0,8.902807E-1,9.341839E0,3.9726853E0,0E0,0E0,0E0,0E0,0E0,0E0],"parents":[2147483647,0,0,1,1,2,2,3,3,4,4],"right_children":[2,4,6,8,10,-1,-1,-1,-1,-1,-1],"split_conditions":[3.0140534E-1,1.7188887E2,2.9559586E0,-5.550738E-1,2.1699054E-2,-1.1862514E-2,-2.5991395E-3,-2.0853207E-3,2.6459112E-3,-2.2193247E-3,-1.3987805E-2],"split_indices":[1,0,2,0,1,0,0,0,0,0,0],"split_type":[0,0,0,0,0,0,0,0,0,0,0],"sum_hessian":[1.9381349E2,1.8432228E2,9.49122E0,1.7294164E2,1.1380645E1,7.551417E0,1.9398036E0,6.788551E1,1.0505612E2,6.5580044E0,4.822641E0],"tree_param":{"num_deleted":"0","num_feature":"5","num_nodes":"11","size_leaf_vector":"1"}},{"base_weights":[2.4102597E-2,8.44531E-1,-5.1218502E-2,9.095475E-1,-4.956242E-4,7.101547E-2,-3.033638E-1,1.0968209E-2,9.041622E-4,-2.6613167E-3,4.7404165E-3,-7.870789E-3,4.9930863E-4],"categories":[],"categories_nodes":[],"categories_segments":[],"categories_sizes":[],"default_left":[0,0,0,0,0,0,0,0,0,0,0,0,0],"id":67,"left_children":[1,3,5,7,-1,9,11,-1,-1,-1,-1,-1,-1],"loss_changes":[1.2079442E1,1.0004702E0,5.5489025E0,2.259037E0,0E0,1.6648458E1,1.0078205E1,0E0,0E0,0E0,0E0,0E0,0E0],"parents":[2147483647,0,0,1,1,2,2,3,3,5,5,6,6],"right_children":[2,4,6,8,-1,10,12,-1,-1,-1,-1,-1,-1],"split_conditions":[7.446414E-3,3.370857E0,2.8561165E1,1.7372372E1,-4.956242E-4,-7.8019524E-1,7.358572E1,1.0968209E-2,9.041622E-4,-2.6613167E-3,4.7404165E-3,-7.870789E-3,4.9930863E-4],"split_indices":[1,2,0,0,0,0,0,0,0,0,0,0,0],"split_type":[0,0,0,0,0,0,0,0,0,0,0,0,0],"sum_hessian":[1.9377426E2,1.5435208E1,1.7833905E2,1.4372768E1,1.0624399E0,1.2059557E2,5.774348E1,1.1422337E1,2.9504316E0,6.584953E1,5.474604E1,2.3854774E1,3.3888706E1],"tree_param":{"num_deleted":"0","num_feature":"5","num_nodes":"13","size_leaf_vector":"1"}},{"base_weights":[1.2285596E-3,6.2233046E-2,-9.7867626E-1,8.4323436E-1,-2.45081E-3,-1.2123458E-2,-6.368765E-1,5.377361E-3,1.2127239E-2,5.305763E-4,-6.594499E-3,6.7907345E-4,-1.1434055E-2],"categories":[],"categories_nodes":[],"categories_segments":[],"categories_sizes":[],"default_left":[0,0,0,0,0,0,0,0,0,0,0,0,0],"id":68,"left_children":[1,3,5,7,9,-1,11,-1,-1,-1,-1,-1,-1],"loss_changes":[1.1472623E1,9.128269E0,1.2622929E-1,9.0790176E-1,6.155634E0,0E0,2.4601831E0,0E0,0E0,0E0,0E0,0E0,0E0],"parents":[2147483647,0,0,1,1,2,2,3,3,4,4,6,6],"right_children":[2,4,6,8,10,-1,12,-1,-1,-1,-1,-1,-1],"split_conditions":[2.7626622E-1,7.446414E-3,2.6130044E0,2.6488533E0,4.387604E2,-1.2123458E-2,1.2401951E1,5.377361E-3,1.2127239E-2,5.305763E-4,-6.594499E-3,6.7907345E-4,-1.1434055E-2],"split_indices":[1,1,2,2,0,0,0,0,0,0,0,0,0],"split_type":[0,0,0,0,0,0,0,0,0,0,0,0,0],"sum_hessian":[1.8989973E2,1.796519E2,1.0247831E1,1.2820406E1,1.668315E2,4.573936E0,5.673896E0,8.361977E0,4.458429E0,1.5468199E2,1.2149506E1,2.7347305E0,2.939165E0],"tree_param":{"num_deleted":"0","num_feature":"5","num_nodes":"13","size_leaf_vector":"1"}},{"base_weights":[-2.0429473E-4,6.572394E-2,-9.35672E-1,8.808E-1,9.027669E-3,-5.829656E-1,-1.2561781E-2,3.774288E-3,1.3732937E-2,-6.933062E-4,3.327202E-3,6.207414E-3,-1.0434202E-2],"categories":[],"categories_nodes":[],"categories_segments":[],"categories_sizes":[],"default_left":[0,0,0,0,0,0,0,0,0,0,0,0,0],"id":69,"left_children":[1,3,5,7,9,11,-1,-1,-1,-1,-1,-1,-1],"loss_changes":[1.176371E1,8.226348E0,6.872673E-1,2.3519726E0,4.2742786E0,4.9955063E0,0E0,0E0,0E0,0E0,0E0,0E0,0E0],"parents":[2147483647,0,0,1,1,2,2,3,3,4,4,5,5],"right_children":[2,4,6,8,10,12,-1,-1,-1,-1,-1,-1,-1],"split_conditions":[2.7626622E-1,6.448633E-3,1.2401951E1,2.6488533E0,8.95388E-2,1.2415129E0,-1.2561781E-2,3.774288E-3,1.3732937E-2,-6.933062E-4,3.327202E-3,6.207414E-3,-1.0434202E-2],"split_indices":[1,1,0,2,1,1,0,0,0,0,0,0,0],"split_type":[0,0,0,0,0,0,0,0,0,0,0,0,0],"sum_hessian":[1.8874387E2,1.771862E2,1.1557673E1,1.0578098E1,1.666081E2,6.8444624E0,4.7132115E0,6.1048136E0,4.4732847E0,1.3476942E2,3.183867E1,1.797468E0,5.046994E0],"tree_param":{"num_deleted":"0","num_feature":"5","num_nodes":"13","size_leaf_vector":"1"}},{"base_weights":[3.5855386E-3,2.349485E-1,-2.3290592E-1,-1.2556711E0,3.2986248E-1,6.6786504E-1,-3.1646976E-1,9.407761E-4,-1.5664002E-2,5.6772106E-3,-3.4704276E-3,-2.077549E-3,1.4936662E-2,-7.4049276E-3,-7.383778E-4],"categories":[],"categories_nodes":[],"categories_segments":[],"categories_sizes":[],"default_left":[0,0,0,0,0,0,0,0,0,0,0,0,0,0,0],"id":70,"left_children":[1,3,5,7,9,11,13,-1,-1,-1,-1,-1,-1,-1,-1],"loss_changes":[1.0616355E1,1.4289218E1,7.4343376E0,2.6968355E0,1.516935E1,6.4332685E0,9.049388E0,0E0,0E0,0E0,0E0,0E0,0E0,0E0,0E0],"parents":[2147483647,0,0,1,1,2,2,3,3,4,4,5,5,6,6],"right_children":[2,4,6,8,10,12,14,-1,-1,-1,-1,-1,-1,-1,-1],"split_conditions":[4.154483E-2,-1.990257E1,-2.1390919E1,-3.5384095E0,2.8768667E1,-3.563606E1,-7.8019524E-1,9.407761E-4,-1.5664002E-2,5.6772106E-3,-3.4704276E-3,-2.077549E-3,1.4936662E-2,-7.4049276E-3,-7.383778E-4],"split_indices":[1,0,0,2,0,0,0,0,0,0,0,0,0,0,0],"split_type":[0,0,0,0,0,0,0,0,0,0,0,0,0,0,0],"sum_hessian":[1.9202866E2,9.707011E1,9.495854E1,5.0787654E0,9.199134E1,7.467783E0,8.749076E1,1.0808766E0,3.9978886E0,6.819094E1,2.3800404E1,3.987814E0,3.479969E0,3.1095839E1,5.6394924E1],"tree_param":{"num_deleted":"0","num_feature":"5","num_nodes":"15","size_leaf_vector":"1"}},{"base_weights":[-4.515274E-2,6.50252E-1,-1.2777804E-1,1.1897762E0,1.3019836E-2,-7.354372E-2,-9.375604E-1,2.7875144E-3,1.25296805E-2,1.0691291E-2,-6.7954236E-3,-3.02798E-3,7.690995E-4,-1.054024E-2,-2.6584556E-3],"categories":[],"categories_nodes":[],"categories_segments":[],"categories_sizes":[],"default_left":[0,0,0,0,0,0,0,0,0,0,0,0,0,0,0],"id":71,"left_children":[1,3,5,7,9,11,13,-1,-1,-1,-1,-1,-1,-1,-1],"loss_changes":[1.124529E1,7.1338825E0,7.593509E0,2.9837513E-1,8.439542E0,5.700887E0,5.6988144E-1,0E0,0E0,0E0,0E0,0E0,0E0,0E0,0E0],"parents":[2147483647,0,0,1,1,2,2,3,3,4,4,5,5,6,6],"right_children":[2,4,6,8,10,12,14,-1,-1,-1,-1,-1,-1,-1,-1],"split_conditions":[1.0002742E-2,-2.5003395E0,3.0140534E-1,1.4665781E1,4.5529488E-3,-5.550738E-1,2.9559586E0,2.7875144E-3,1.25296805E-2,1.0691291E-2,-6.7954236E-3,-3.02798E-3,7.690995E-4,-1.054024E-2,-2.6584556E-3],"split_indices":[1,2,1,0,1,0,2,0,0,0,0,0,0,0,0],"split_type":[0,0,0,0,0,0,0,0,0,0,0,0,0,0,0],"sum_hessian":[1.9326706E2,1.9795023E1,1.7347203E2,1.0249769E1,9.545253E0,1.6360555E2,9.866489E0,1.015838E0,9.233932E0,3.5650578E0,5.980195E0,6.442507E1,9.918047E1,7.9235325E0,1.9429572E0],"tree_param":{"num_deleted":"0","num_feature":"5","num_nodes":"15","size_leaf_vector":"1"}},{"base_weights":[1.2069403E-2,9.1768E-1,-4.4588592E-2,1.1105837E-2,2.8175852E-1,-7.5479234E-3,-1.2056931E-2,-7.351683E-3,1.0428812E-2,3.9977056E-4,-6.19439E-3],"categories":[],"categories_nodes":[],"categories_segments":[],"categories_sizes":[],"default_left":[0,0,0,0,0,0,0,0,0,0,0],"id":72,"left_children":[1,3,5,-1,7,9,-1,-1,-1,-1,-1],"loss_changes":[9.7702E0,1.0623465E0,7.7068253E0,0E0,3.823415E0,5.109896E0,0E0,0E0,0E0,0E0,0E0],"parents":[2147483647,0,0,1,1,2,2,4,4,5,5],"right_children":[2,4,6,-1,8,10,-1,-1,-1,-1,-1],"split_conditions":[6.448633E-3,1.7333271E1,1.2415129E0,1.1105837E-2,2.6497288E0,4.9493628E2,-1.2056931E-2,-7.351683E-3,1.0428812E-2,3.9977056E-4,-6.19439E-3],"split_indices":[1,0,1,0,2,0,0,0,0,0,0],"split_type":[0,0,0,0,0,0,0,0,0,0,0],"sum_hessian":[1.8861734E2,1.021093E1,1.784064E2,7.261709E0,2.9492211E0,1.7386636E2,4.5400505E0,1.2770587E0,1.6721623E0,1.6220288E2,1.1663474E1],"tree_param":{"num_deleted":"0","num_feature":"5","num_nodes":"11","size_leaf_vector":"1"}},{"base_weights":[-1.6230196E-2,7.6274544E-1,-8.2107484E-2,1.0283486E0,2.3214068E-2,-2.6017321E-2,-8.7974113E-1,1.1425982E-2,1.0742449E-3,-1.2753559E-2,9.435833E-3,2.8100485E-4,-6.5884343E-3,-4.7930023E-3,-1.2401774E-2],"categories":[],"categories_nodes":[],"categories_segments":[],"categories_sizes":[],"default_left":[0,0,0,0,0,0,0,0,0,0,0,0,0,0,0],"id":73,"left_children":[1,3,5,7,9,11,13,-1,-1,-1,-1,-1,-1,-1,-1],"loss_changes":[9.860017E0,2.9193382E0,7.8931055E0,1.0347862E0,7.158422E0,5.7152314E0,1.0790272E0,0E0,0E0,0E0,0E0,0E0,0E0,0E0,0E0],"parents":[2147483647,0,0,1,1,2,2,3,3,4,4,5,5,6,6],"right_children":[2,4,6,8,10,12,14,-1,-1,-1,-1,-1,-1,-1,-1],"split_conditions":[8.166239E-3,1.72863E1,2.7626622E-1,2.9037964E0,2.6488533E0,1.7188887E2,1.2401951E1,1.1425982E-2,1.0742449E-3,-1.2753559E-2,9.435833E-3,2.8100485E-4,-6.5884343E-3,-4.7930023E-3,-1.2401774E-2],"split_indices":[1,0,1,2,2,0,0,0,0,0,0,0,0,0,0],"split_type":[0,0,0,0,0,0,0,0,0,0,0,0,0,0,0],"sum_hessian":[1.8991972E2,1.3984124E1,1.759356E2,1.0001529E1,3.982595E0,1.653413E2,1.0594299E1,8.683541E0,1.3179876E0,1.4919162E0,2.4906788E0,1.5319594E2,1.2145361E1,6.122284E0,4.4720154E0],"tree_param":{"num_deleted":"0","num_feature":"5","num_nodes":"15","size_leaf_vector":"1"}},{"base_weights":[-8.489271E-3,6.99906E-1,-9.216664E-2,1.1672782E0,1.11381814E-1,-1.7892154E-2,-6.6395414E-1,1.3029928E-2,5.5003157E-3,1.0782152E-2,-6.562101E-3,-8.85389E-4,7.5058853E-3,-1.29849715E-2,-4.142774E-3],"categories":[],"categories_nodes":[],"categories_segments":[],"categories_sizes":[],"default_left":[0,0,0,0,0,0,0,0,0,0,0,0,0,0,0],"id":74,"left_children":[1,3,5,7,9,11,13,-1,-1,-1,-1,-1,-1,-1,-1],"loss_changes":[1.1289413E1,5.404607E0,7.2182145E0,2.1396065E-1,8.137693E0,8.302288E0,2.5584793E0,0E0,0E0,0E0,0E0,0E0,0E0,0E0,0E0],"parents":[2147483647,0,0,1,1,2,2,3,3,4,4,5,5,6,6],"right_children":[2,4,6,8,10,12,14,-1,-1,-1,-1,-1,-1,-1,-1],"split_conditions":[1.0002742E-2,-2.5003395E0,1.6251951E-1,-2.7180023E0,4.5529488E-3,3.62102E0,-5.7977767E0,1.3029928E-2,5.5003157E-3,1.0782152E-2,-6.562101E-3,-8.85389E-4,7.5058853E-3,-1.29849715E-2,-4.142774E-3],"split_indices":[1,2,1,2,1,2,0,0,0,0,0,0,0,0,0],"split_type":[0,0,0,0,0,0,0,0,0,0,0,0,0,0,0],"sum_hessian":[1.8836467E2,1.9121517E1,1.6924316E2,1.0109631E1,9.011888E0,1.5069885E2,1.8544302E1,7.3767257E0,2.7329047E0,3.8092322E0,5.202656E0,1.388217E2,1.187715E1,4.050193E0,1.4494108E1],"tree_param":{"num_deleted":"0","num_feature":"5","num_nodes":"15","size_leaf_vector":"1"}},{"base_weights":[-5.272257E-2,9.014366E-2,-3.642796E-1,-1.0227154E0,1.7273846E-1,8.3594114E-1,-5.317398E-1,-1.28255E-2,2.9799226E-3,4.2552305E-3,-1.1153317E-3,-6.498682E-3,1.5642237E-2,-1.3362081E-2,-1.5177978E-3],"categories":[],"categories_nodes":[],"categories_segments":[],"categories_sizes":[],"default_left":[0,0,0,0,0,0,0,0,0,0,0,0,0,0,0],"id":75,"left_children":[1,3,5,7,9,11,13,-1,-1,-1,-1,-1,-1,-1,-1],"loss_changes":[8.760331E0,1.2606755E1,1.2874169E1,3.6380835E0,9.155277E0,9.630877E0,1.6572624E1,0E0,0E0,0E0,0E0,0E0,0E0,0E0,0E0],"parents":[2147483647,0,0,1,1,2,2,3,3,4,4,5,5,6,6],"right_children":[2,4,6,8,10,12,14,-1,-1,-1,-1,-1,-1,-1,-1],"split_conditions":[6.951899E-2,-1.9830109E1,-1.74231E1,2.529275E0,-2.5068376E0,-2.635895E0,9.55471E-2,-1.28255E-2,2.9799226E-3,4.2552305E-3,-1.1153317E-3,-6.498682E-3,1.5642237E-2,-1.3362081E-2,-1.5177978E-3],"split_indices":[1,0,0,2,2,2,1,0,0,0,0,0,0,0,0],"split_type":[0,0,0,0,0,0,0,0,0,0,0,0,0,0,0],"sum_hessian":[1.950751E2,1.3423264E2,6.0842464E1,8.48782E0,1.2574482E2,6.9608407E0,5.3881622E1,7.116599E0,1.3712204E0,6.629554E1,5.9449276E1,2.3250492E0,4.635792E0,1.6477665E1,3.740396E1],"tree_param":{"num_deleted":"0","num_feature":"5","num_nodes":"15","size_leaf_vector":"1"}},{"base_weights":[-6.982599E-3,1.5905248E-1,-3.640691E-1,2.62557E-1,-5.437127E-1,-1.0896637E0,-4.8985627E-2,1.5168596E-3,1.2846541E-2,-1.0040618E-2,-8.007551E-5,1.1445264E-2,-1.3525844E-2,2.1189228E-3,-9.717409E-3],"categories":[],"categories_nodes":[],"categories_segments":[],"categories_sizes":[],"default_left":[0,0,0,0,0,0,0,0,0,0,0,0,0,0,0],"id":76,"left_children":[1,3,5,7,9,11,13,-1,-1,-1,-1,-1,-1,-1,-1],"loss_changes":[1.1212092E1,9.534626E0,1.3667669E1,1.2634859E1,4.159927E0,1.2194275E1,1.05311985E1,0E0,0E0,0E0,0E0,0E0,0E0,0E0,0E0],"parents":[2147483647,0,0,1,1,2,2,3,3,4,4,5,5,6,6],"right_children":[2,4,6,8,10,12,14,-1,-1,-1,-1,-1,-1,-1,-1],"split_conditions":[6.951899E-2,9.14652E1,8.796092E-2,5.483718E1,2.6717463E0,-2.2979456E1,3.0140534E-1,1.5168596E-3,1.2846541E-2,-1.0040618E-2,-8.007551E-5,1.1445264E-2,-1.3525844E-2,2.1189228E-3,-9.717409E-3],"split_indices":[1,0,1,0,2,0,1,0,0,0,0,0,0,0,0],"split_type":[0,0,0,0,0,0,0,0,0,0,0,0,0,0,0],"sum_hessian":[1.8713283E2,1.2811676E2,5.9016068E1,1.12215805E2,1.5900951E1,1.7123842E1,4.1892227E1,1.02270515E2,9.9452915E0,8.081753E0,7.8191986E0,1.4499178E0,1.5673924E1,3.3259575E1,8.632652E0],"tree_param":{"num_deleted":"0","num_feature":"5","num_nodes":"15","size_leaf_vector":"1"}},{"base_weights":[5.1224176E-3,6.938029E-2,-8.989004E-1,3.150974E-1,-2.2839032E-1,-1.1466174E0,7.047656E-2,-9.604588E-3,4.0145633E-3,-5.616514E-3,4.0554884E-4,-6.839695E-3,-1.3710047E-2,-5.5549485E-3,7.84871E-3],"categories":[],"categories_nodes":[],"categories_segments":[],"categories_sizes":[],"default_left":[0,0,0,0,0,0,0,0,0,0,0,0,0,0,0],"id":77,"left_children":[1,3,5,7,9,11,13,-1,-1,-1,-1,-1,-1,-1,-1],"loss_changes":[1.1350792E1,1.3414536E1,3.1947317E0,1.1437671E1,7.464263E0,1.4048672E-1,2.0375633E0,0E0,0E0,0E0,0E0,0E0,0E0,0E0,0E0],"parents":[2147483647,0,0,1,1,2,2,3,3,4,4,5,5,6,6],"right_children":[2,4,6,8,10,12,14,-1,-1,-1,-1,-1,-1,-1,-1],"split_conditions":[1.7188887E2,5.2135613E-2,2.998724E0,-1.9830109E1,8.95388E-2,2.0629281E-2,6.0589825E2,-9.604588E-3,4.0145633E-3,-5.616514E-3,4.0554884E-4,-6.839695E-3,-1.3710047E-2,-5.5549485E-3,7.84871E-3],"split_indices":[0,1,2,0,1,1,0,0,0,0,0,0,0,0,0],"split_type":[0,0,0,0,0,0,0,0,0,0,0,0,0,0,0],"sum_hessian":[1.9332454E2,1.8135696E2,1.1967586E1,9.93315E1,8.202547E1,9.386178E0,2.581407E0,5.6567874E0,9.3674706E1,3.61465E1,4.5878963E1,4.387687E0,4.998491E0,1.4943998E0,1.0870073E0],"tree_param":{"num_deleted":"0","num_feature":"5","num_nodes":"15","size_leaf_vector":"1"}},{"base_weights":[-3.878839E-2,1.449665E-1,-4.5288935E-1,2.5515446E-1,-6.064617E-1,-1.1201457E0,-1.8812156E-1,-1.9295095E-3,5.355923E-3,-1.0870577E-2,-8.844721E-4,5.7569495E-3,-1.28327785E-2,2.576164E-3,-6.7317393E-3],"categories":[],"categories_nodes":[],"categories_segments":[],"categories_sizes":[],"default_left":[0,0,0,0,0,0,0,0,0,0,0,0,0,0,0],"id":78,"left_children":[1,3,5,7,9,11,13,-1,-1,-1,-1,-1,-1,-1,-1],"loss_changes":[1.436965E1,1.099808E1,1.0039453E1,1.4544437E1,4.1470757E0,5.2426376E0,9.413906E0,0E0,0E0,0E0,0E0,0E0,0E0,0E0,0E0],"parents":[2147483647,0,0,1,1,2,2,3,3,4,4,5,5,6,6],"right_children":[2,4,6,8,10,12,14,-1,-1,-1,-1,-1,-1,-1,-1],"split_conditions":[6.951899E-2,9.14652E1,8.796092E-2,-1.0099427E0,2.6717463E0,-1.763643E1,1.6251951E-1,-1.9295095E-3,5.355923E-3,-1.0870577E-2,-8.844721E-4,5.7569495E-3,-1.28327785E-2,2.576164E-3,-6.7317393E-3],"split_indices":[1,0,1,0,2,0,1,0,0,0,0,0,0,0,0],"split_type":[0,0,0,0,0,0,0,0,0,0,0,0,0,0,0],"sum_hessian":[1.8698026E2,1.2996083E2,5.7019436E1,1.1391674E2,1.6044086E1,1.5280218E1,4.1739216E1,4.397001E1,6.994673E1,7.752799E0,8.291287E0,1.1189687E0,1.4161249E1,2.199544E1,1.9743778E1],"tree_param":{"num_deleted":"0","num_feature":"5","num_nodes":"15","size_leaf_vector":"1"}},{"base_weights":[-7.492266E-2,8.912181E-1,-1.3244751E-1,3.7470815E-1,1.3419889E-2,-6.468522E-2,-6.0687953E-1,-8.739942E-3,1.1236548E-2,-1.4847234E-3,4.720941E-3,-1.2795598E-2,-4.0176036E-3],"categories":[],"categories_nodes":[],"categories_segments":[],"categories_sizes":[],"default_left":[0,0,0,0,0,0,0,0,0,0,0,0,0],"id":79,"left_children":[1,3,5,7,-1,9,11,-1,-1,-1,-1,-1,-1],"loss_changes":[1.0749887E1,2.030178E0,5.793131E0,7.021102E0,0E0,7.260075E0,2.5979347E0,0E0,0E0,0E0,0E0,0E0,0E0],"parents":[2147483647,0,0,1,1,2,2,3,3,5,5,6,6],"right_children":[2,4,6,8,-1,10,12,-1,-1,-1,-1,-1,-1],"split_conditions":[6.448633E-3,2.6488533E0,1.6251951E-1,4.999676E-3,1.3419889E-2,9.55471E-2,-5.7977767E0,-8.739942E-3,1.1236548E-2,-1.4847234E-3,4.720941E-3,-1.2795598E-2,-4.0176036E-3],"split_indices":[1,2,1,1,0,1,0,0,0,0,0,0,0],"split_type":[0,0,0,0,0,0,0,0,0,0,0,0,0],"sum_hessian":[1.9029909E2,9.87943E0,1.8041965E2,5.4573994E0,4.42203E0,1.5886551E2,2.1554138E1,1.9834583E0,3.473941E0,1.3804167E2,2.082384E1,3.812632E0,1.7741507E1],"tree_param":{"num_deleted":"0","num_feature":"5","num_nodes":"13","size_leaf_vector":"1"}},{"base_weights":[-3.111152E-2,2.2734188E-2,-8.572622E-1,-2.2653331E-1,1.6255245E-1,-1.1551573E-2,-5.1911783E-1,-7.9773115E-3,8.2012865E-4,6.505684E-3,-2.1576365E-3,1.8320994E-3,-1.1165005E-2],"categories":[],"categories_nodes":[],"categories_segments":[],"categories_sizes":[],"default_left":[0,0,0,0,0,0,0,0,0,0,0,0,0],"id":80,"left_children":[1,3,5,7,9,-1,11,-1,-1,-1,-1,-1,-1],"loss_changes":[8.45675E0,6.276594E0,5.719738E-1,1.1477781E1,2.142407E1,0E0,3.252137E0,0E0,0E0,0E0,0E0,0E0,0E0],"parents":[2147483647,0,0,1,1,2,2,3,3,4,4,6,6],"right_children":[2,4,6,8,10,-1,12,-1,-1,-1,-1,-1,-1],"split_conditions":[3.0140534E-1,-5.550738E-1,2.5537333E0,-2.8857756E0,2.5035107E0,-1.1551573E-2,1.2401951E1,-7.9773115E-3,8.2012865E-4,6.505684E-3,-2.1576365E-3,1.8320994E-3,-1.1165005E-2],"split_indices":[1,0,2,2,2,0,0,0,0,0,0,0,0],"split_type":[0,0,0,0,0,0,0,0,0,0,0,0,0],"sum_hessian":[1.8866672E2,1.7803546E2,1.0631268E1,6.3754307E1,1.1428115E2,4.3674808E0,6.263787E0,2.1804028E1,4.195028E1,4.9590855E1,6.46903E1,3.197674E0,3.0661125E0],"tree_param":{"num_deleted":"0","num_feature":"5","num_nodes":"13","size_leaf_vector":"1"}},{"base_weights":[-1.8229006E-2,6.2163967E-1,-9.116848E-2,1.0640621E0,5.7803966E-2,-3.899082E-2,-8.395399E-1,2.6264465E-3,1.1186284E-2,-1.1658047E-2,5.853373E-3,-1.3858747E-3,3.7505336E-3,-4.7806944E-3,-1.1969379E-2],"categories":[],"categories_nodes":[],"categories_segments":[],"categories_sizes":[],"default_left":[0,0,0,0,0,0,0,0,0,0,0,0,0,0,0],"id":81,"left_children":[1,3,5,7,9,11,13,-1,-1,-1,-1,-1,-1,-1,-1],"loss_changes":[8.990287E0,4.856398E0,6.7108736E0,1.8676186E-1,6.9600983E0,6.7527237E0,8.756485E-1,0E0,0E0,0E0,0E0,0E0,0E0,0E0,0E0],"parents":[2147483647,0,0,1,1,2,2,3,3,4,4,5,5,6,6],"right_children":[2,4,6,8,10,12,14,-1,-1,-1,-1,-1,-1,-1,-1],"split_conditions":[1.0002742E-2,-2.5003395E0,2.7626622E-1,4.999676E-3,2.6488533E0,8.95388E-2,1.2401951E1,2.6264465E-3,1.1186284E-2,-1.1658047E-2,5.853373E-3,-1.3858747E-3,3.7505336E-3,-4.7806944E-3,-1.1969379E-2],"split_indices":[1,2,1,1,2,1,0,0,0,0,0,0,0,0,0],"split_type":[0,0,0,0,0,0,0,0,0,0,0,0,0,0,0],"sum_hessian":[1.9041399E2,1.8714706E1,1.7169928E2,9.989278E0,8.725429E0,1.614919E2,1.0207373E1,1.0073649E0,8.981914E0,2.2640557E0,6.4613724E0,1.3071437E2,3.0777529E1,6.236972E0,3.970401E0],"tree_param":{"num_deleted":"0","num_feature":"5","num_nodes":"15","size_leaf_vector":"1"}},{"base_weights":[2.0151457E-2,1.632532E-1,-3.3318582E-1,-2.699139E-1,5.678239E-1,6.410005E-1,-4.8015946E-1,-4.6950825E-3,1.1507498E-2,1.099974E-2,1.2143769E-3,1.23761045E-2,-7.4806646E-3,-8.0084335E-3,-1.1818821E-3],"categories":[],"categories_nodes":[],"categories_segments":[],"categories_sizes":[],"default_left":[0,0,0,0,0,0,0,0,0,0,0,0,0,0,0],"id":82,"left_children":[1,3,5,7,9,11,13,-1,-1,-1,-1,-1,-1,-1,-1],"loss_changes":[9.871543E0,2.4488113E1,8.368168E0,1.974784E1,1.6998714E1,7.3966293E0,5.6497765E0,0E0,0E0,0E0,0E0,0E0,0E0,0E0,0E0],"parents":[2147483647,0,0,1,1,2,2,3,3,4,4,5,5,6,6],"right_children":[2,4,6,8,10,12,14,-1,-1,-1,-1,-1,-1,-1,-1],"split_conditions":[2.8561165E1,-7.8019524E-1,-3.0205085E0,2.91834E0,-2.5003395E0,9.517639E1,7.686991E1,-4.6950825E-3,1.1507498E-2,1.099974E-2,1.2143769E-3,1.23761045E-2,-7.4806646E-3,-8.0084335E-3,-1.1818821E-3],"split_indices":[0,0,2,2,2,0,0,0,0,0,0,0,0,0,0],"split_type":[0,0,0,0,0,0,0,0,0,0,0,0,0,0,0],"sum_hessian":[1.9315608E2,1.3786049E2,5.5295593E1,6.673803E1,7.112246E1,6.808099E0,4.8487495E1,5.910383E1,7.634202E0,3.177654E1,3.9345924E1,4.838835E0,1.9692641E0,2.5067133E1,2.3420362E1],"tree_param":{"num_deleted":"0","num_feature":"5","num_nodes":"15","size_leaf_vector":"1"}},{"base_weights":[-7.3380335E-3,1.5725617E-1,-3.763091E-1,-8.950802E-1,2.2556959E-1,-1.2324799E0,-6.936473E-2,-1.3452374E-2,1.0437772E-2,3.3018882E-3,-4.1926783E-3,5.7955366E-3,-1.4086154E-2,3.5570785E-3,-4.9268682E-3],"categories":[],"categories_nodes":[],"categories_segments":[],"categories_sizes":[],"default_left":[0,0,0,0,0,0,0,0,0,0,0,0,0,0,0],"id":83,"left_children":[1,3,5,7,9,11,13,-1,-1,-1,-1,-1,-1,-1,-1],"loss_changes":[1.1925872E1,9.966383E0,1.5832502E1,8.80642E0,8.7970085E0,5.8990765E0,8.388984E0,0E0,0E0,0E0,0E0,0E0,0E0,0E0,0E0],"parents":[2147483647,0,0,1,1,2,2,3,3,4,4,5,5,6,6],"right_children":[2,4,6,8,10,12,14,-1,-1,-1,-1,-1,-1,-1,-1],"split_conditions":[6.951899E-2,-1.990257E1,8.796092E-2,2.6794047E0,9.14652E1,-1.763643E1,1.5791777E-1,-1.3452374E-2,1.0437772E-2,3.3018882E-3,-4.1926783E-3,5.7955366E-3,-1.4086154E-2,3.5570785E-3,-4.9268682E-3],"split_indices":[1,0,1,2,0,0,1,0,0,0,0,0,0,0,0],"split_type":[0,0,0,0,0,0,0,0,0,0,0,0,0,0,0],"sum_hessian":[1.9439926E2,1.3482777E2,5.9571484E1,7.4811764E0,1.27346596E2,1.4925088E1,4.4646397E1,6.3199925E0,1.1611842E0,1.0998968E2,1.7356916E1,1.1193314E0,1.3805757E1,2.2356836E1,2.228956E1],"tree_param":{"num_deleted":"0","num_feature":"5","num_nodes":"15","size_leaf_vector":"1"}},{"base_weights":[-5.730609E-3,4.993838E-2,-9.8805225E-1,1.7820475E-1,-2.656033E-1,-1.2311243E-2,-3.107808E-1,-4.1449914E-4,8.144777E-3,-1.2527994E-2,-1.4679715E-3,2.5490946E-3,-8.465049E-3],"categories":[],"categories_nodes":[],"categories_segments":[],"categories_sizes":[],"default_left":[0,0,0,0,0,0,0,0,0,0,0,0,0],"id":84,"left_children":[1,3,5,7,9,-1,11,-1,-1,-1,-1,-1,-1],"loss_changes":[1.0542468E1,7.4355254E0,1.3194752E0,1.825644E1,6.0508795E0,0E0,1.4487097E0,0E0,0E0,0E0,0E0,0E0,0E0],"parents":[2147483647,0,0,1,1,2,2,3,3,4,4,6,6],"right_children":[2,4,6,8,10,-1,12,-1,-1,-1,-1,-1,-1],"split_conditions":[3.0140534E-1,2.8768667E1,2.8145854E0,1.2401951E1,3.1478703E1,-1.2311243E-2,1.2401951E1,-4.1449914E-4,8.144777E-3,-1.2527994E-2,-1.4679715E-3,2.5490946E-3,-8.465049E-3],"split_indices":[1,0,2,0,0,0,0,0,0,0,0,0,0],"split_type":[0,0,0,0,0,0,0,0,0,0,0,0,0],"sum_hessian":[1.9088359E2,1.8154448E2,9.339115E0,1.293852E2,5.215929E1,6.27077E0,3.068345E0,9.687633E1,3.2508865E1,4.5776153E0,4.7581676E1,1.7473905E0,1.3209546E0],"tree_param":{"num_deleted":"0","num_feature":"5","num_nodes":"13","size_leaf_vector":"1"}},{"base_weights":[-4.7022454E-2,1.3793688E-1,-3.391364E-1,2.8508684E-1,-3.11522E-1,-6.9481385E-1,-1.01176135E-1,5.7882746E-4,7.2087976E-3,-7.0190397E-3,5.284385E-3,-1.0508109E-2,2.6684147E-3,5.6555443E-3,-4.6454454E-3],"categories":[],"categories_nodes":[],"categories_segments":[],"categories_sizes":[],"default_left":[0,0,0,0,0,0,0,0,0,0,0,0,0,0,0],"id":85,"left_children":[1,3,5,7,9,11,13,-1,-1,-1,-1,-1,-1,-1,-1],"loss_changes":[1.0070875E1,7.6491833E0,6.0420904E0,8.536844E0,9.772715E0,1.01326275E1,1.1029209E1,0E0,0E0,0E0,0E0,0E0,0E0,0E0,0E0],"parents":[2147483647,0,0,1,1,2,2,3,3,4,4,5,5,6,6],"right_children":[2,4,6,8,10,12,14,-1,-1,-1,-1,-1,-1,-1,-1],"split_conditions":[5.8505613E-2,2.8768667E1,8.95388E-2,1.1761547E1,3.1815067E-2,7.906316E1,1.2287672E-1,5.7882746E-4,7.2087976E-3,-7.0190397E-3,5.284385E-3,-1.0508109E-2,2.6684147E-3,5.6555443E-3,-4.6454454E-3],"split_indices":[1,0,1,0,1,0,1,0,0,0,0,0,0,0,0],"split_type":[0,0,0,0,0,0,0,0,0,0,0,0,0,0,0],"sum_hessian":[1.845311E2,1.1331233E2,7.121877E1,8.564004E1,2.767229E1,2.7778528E1,4.3440243E1,5.7036453E1,2.8603584E1,1.9004211E1,8.66808E0,2.0205795E1,7.5727334E0,1.5127309E1,2.8312933E1],"tree_param":{"num_deleted":"0","num_feature":"5","num_nodes":"15","size_leaf_vector":"1"}},