{"learner":{"attributes":{"scikit_learn":"{\"_estimator_type\": \"classifier\"}"},"feature_names":["frac_diff","volatility","signal_strength"],"feature_types":["float","float","float"],"gradient_booster":{"model":{"cats":{"enc":[],"feature_segments":[],"sorted_idx":[]},"gbtree_model_param":{"num_parallel_tree":"1","num_trees":"100"},"iteration_indptr":[0,1,2,3,4,5,6,7,8,9,10,11,12,13,14,15,16,17,18,19,20,21,22,23,24,25,26,27,28,29,30,31,32,33,34,35,36,37,38,39,40,41,42,43,44,45,46,47,48,49,50,51,52,53,54,55,56,57,58,59,60,61,62,63,64,65,66,67,68,69,70,71,72,73,74,75,76,77,78,79,80,81,82,83,84,85,86,87,88,89,90,91,92,93,94,95,96,97,98,99,100],"tree_info":[0,0,0,0,0,0,0,0,0,0,0,0,0,0,0,0,0,0,0,0,0,0,0,0,0,0,0,0,0,0,0,0,0,0,0,0,0,0,0,0,0,0,0,0,0,0,0,0,0,0,0,0,0,0,0,0,0,0,0,0,0,0,0,0,0,0,0,0,0,0,0,0,0,0,0,0,0,0,0,0,0,0,0,0,0,0,0,0,0,0,0,0,0,0,0,0,0,0,0,0],"trees":[{"base_weights":[-2.3160504E-2,4.735955E-1,-6.620321E-1,-2.2380017E-1,6.8546534E-1,-4.4008595E-1,-1.7714286E-2,7.028494E-1,-7.803734E-1,1.0153917E0,-5.556474E-3,-5.093019E-1,1.1261426E-2,-1.1111111E-2,1.2968002E-2,-1.6521739E-2,1.2487744E-1,1.2513704E0,6.8767536E-1,-1.3592972E0,7.8092325E-1,-1.1871285E0,-3.7157562E-1,5.4994584E-3,-7.214315E-3,1.6775716E-2,8.067047E-3,5.3370505E-4,1.3155131E-2,-1.458398E-2,-4.1292277E-3,1.3989311E-2,4.4989798E-4,-1.6E-2,-1.7626014E-3,2.8041278E-3,-6.058389E-3],"categories":[],"categories_nodes":[],"categories_segments":[],"categories_sizes":[],"default_left":[0,0,0,0,0,0,0,0,0,0,0,0,0,0,0,0,0,0,0,0,0,0,0,0,0,0,0,0,0,0,0,0,0,0,0,0,0],"id":0,"left_children":[1,3,5,7,9,11,-1,13,15,17,19,21,-1,-1,-1,-1,23,25,27,29,31,33,35,-1,-1,-1,-1,-1,-1,-1,-1,-1,-1,-1,-1,-1,-1],"loss_changes":[3.9529816E1,1.0511085E1,1.2632282E1,9.361523E0,1.2319527E1,5.6383305E0,0E0,8.916221E0,9.0055485E0,1.9670105E0,2.0703693E1,3.8000784E0,0E0,0E0,0E0,0E0,2.6989286E0,2.4439735E0,6.9094133E0,6.783581E-2,5.5332565E0,2.7298641E0,6.1593766E0,0E0,0E0,0E0,0E0,0E0,0E0,0E0,0E0,0E0,0E0,0E0,0E0,0E0,0E0],"parents":[2147483647,0,0,1,1,2,2,3,3,4,4,5,5,7,7,8,8,9,9,10,10,11,11,16,16,17,17,18,18,19,19,20,20,21,21,22,22],"right_children":[2,4,6,8,10,12,-1,14,16,18,20,22,-1,-1,-1,-1,24,26,28,30,32,34,36,-1,-1,-1,-1,-1,-1,-1,-1,-1,-1,-1,-1,-1,-1],"split_conditions":[4.5679543E1,-1.8633363E0,2.3748202E-2,2.6404126E-2,2.8462713E0,2.342793E-2,-1.7714286E-2,2.1268046E-2,4.6292532E-2,4.7051378E-2,3.308167E1,4.904752E1,1.1261426E-2,-1.1111111E-2,1.2968002E-2,-1.6521739E-2,-2.2146795E0,2.2880894E-1,-5.3667074E-1,3.5489414E-2,1.6431121E-2,-2.5137086E0,5.1190494E2,5.4994584E-3,-7.214315E-3,1.6775716E-2,8.067047E-3,5.3370505E-4,1.3155131E-2,-1.458398E-2,-4.1292277E-3,1.3989311E-2,4.4989798E-4,-1.6E-2,-1.7626014E-3,2.8041278E-3,-6.058389E-3],"split_indices":[0,0,1,1,0,1,0,1,1,1,0,0,0,0,0,0,0,0,0,1,1,2,0,0,0,0,0,0,0,0,0,0,0,0,0,0,0],"split_type":[0,0,0,0,0,0,0,0,0,0,0,0,0,0,0,0,0,0,0,0,0,0,0,0,0,0,0,0,0,0,0,0,0,0,0,0,0],"sum_hessian":[1.2256904E2,6.909937E1,5.3469666E1,1.6087866E1,5.301151E1,4.5719666E1,7.75E0,5.938285E0,1.0149582E1,3.5562763E1,1.7448746E1,4.443096E1,1.288703E0,1.25E0,4.688285E0,4.75E0,5.399582E0,1.9036612E1,1.6526152E1,6.1443515E0,1.1304394E1,6.216527E0,3.8214436E1,3.827406E0,1.5721757E0,8.304394E0,1.0732218E1,8.76046E0,7.765691E0,5.072176E0,1.0721757E0,5.654812E0,5.649582E0,4E0,2.2165272E0,1.0049164E1,2.8165272E1],"tree_param":{"num_deleted":"0","num_feature":"3","num_nodes":"37","size_leaf_vector":"1"}},{"base_weights":[-2.4004666E-2,6.2711096E-1,-5.424926E-1,-1.3513003E-1,1.1332031E0,-2.7131373E-1,-1.8156514E-2,6.6116875E-1,-5.0099313E-1,8.186524E-1,1.3342127E0,-1.0276659E-1,-1.0388184E0,-5.8080936E-3,1.0203886E0,-1.3003529E0,6.1493326E-2,1.1203297E0,-4.2381912E-1,1.4140772E-2,6.3286793E-1,-1.9243169E-1,8.462028E-1,-2.6522146E-3,-1.1567331E-2,-2.867912E-4,1.5158415E-2,-1.6057618E-2,-8.7590975E-4,1.0527611E-2,-3.3321534E-3,1.5842982E-2,7.332474E-3,1.3321784E-3,-7.2343713E-3,-4.1973875E-3,1.2258907E-2,9.769981E-4,-7.616986E-3,1.3865924E-2,-4.110815E-3],"categories":[],"categories_nodes":[],"categories_segments":[],"categories_sizes":[],"default_left":[0,0,0,0,0,0,0,0,0,0,0,0,0,0,0,0,0,0,0,0,0,0,0,0,0,0,0,0,0,0,0,0,0,0,0,0,0,0,0,0,0],"id":1,"left_children":[1,3,5,7,9,11,-1,13,15,17,19,21,23,-1,25,27,29,31,33,-1,35,37,39,-1,-1,-1,-1,-1,-1,-1,-1,-1,-1,-1,-1,-1,-1,-1,-1,-1,-1],"loss_changes":[4.1198418E1,2.1028927E1,2.2954153E1,6.882426E0,9.707794E-1,7.287808E0,0E0,3.9432638E0,7.2634625E0,6.213153E0,1.3119125E-1,4.2453756E0,6.220865E-1,0E0,3.2597919E0,2.3201962E0,4.3935246E0,1.0999212E0,7.166507E-1,0E0,2.8135166E0,7.449255E0,3.5100887E0,0E0,0E0,0E0,0E0,0E0,0E0,0E0,0E0,0E0,0E0,0E0,0E0,0E0,0E0,0E0,0E0,0E0,0E0],"parents":[2147483647,0,0,1,1,2,2,3,3,4,4,5,5,7,7,8,8,9,9,10,10,11,11,12,12,14,14,15,15,16,16,17,17,18,18,20,20,21,21,22,22],"right_children":[2,4,6,8,10,12,-1,14,16,18,20,22,24,-1,26,28,30,32,34,-1,36,38,40,-1,-1,-1,-1,-1,-1,-1,-1,-1,-1,-1,-1,-1,-1,-1,-1,-1,-1],"split_conditions":[5.6236863E0,-1.448584E0,2.4414517E-2,2.6787432E-2,-2.5237029E0,6.743138E2,-1.8156514E-2,2.1537751E-2,4.6292532E-2,-2.5688953E0,1.03456736E-1,2.2311267E-2,-3.0532575E0,-5.8080936E-3,-2.842494E0,-2.1955392E0,4.7275238E-2,7.350735E-2,-2.559188E0,1.4140772E-2,1.189121E-1,1.7677724E-2,-2.510129E0,-2.6522146E-3,-1.1567331E-2,-2.867912E-4,1.5158415E-2,-1.6057618E-2,-8.7590975E-4,1.0527611E-2,-3.3321534E-3,1.5842982E-2,7.332474E-3,1.3321784E-3,-7.2343713E-3,-4.1973875E-3,1.2258907E-2,9.769981E-4,-7.616986E-3,1.3865924E-2,-4.110815E-3],"split_indices":[0,0,1,1,2,0,0,1,1,2,1,1,2,0,0,0,1,0,2,0,0,1,2,0,0,0,0,0,0,0,0,0,0,0,0,0,0,0,0,0,0],"split_type":[0,0,0,0,0,0,0,0,0,0,0,0,0,0,0,0,0,0,0,0,0,0,0,0,0,0,0,0,0,0,0,0,0,0,0,0,0,0,0,0,0],"sum_hessian":[1.20027084E2,5.3115414E1,6.6911674E1,2.1486673E1,3.162874E1,5.6162365E1,1.0749308E1,6.5101733E0,1.49765005E1,1.430936E1,1.7319382E1,4.6979393E1,9.18297E0,1.3221313E0,5.1880417E0,5.643965E0,9.332536E0,1.1592868E1,2.7164912E0,1.4636443E1,2.6829383E0,4.365207E1,3.327325E0,1.6443365E0,7.538634E0,1.966438E0,3.2216039E0,4.24971E0,1.394255E0,2.1829958E0,7.14954E0,3.866018E0,7.72685E0,1.1443462E0,1.572145E0,1.0721294E0,1.610809E0,2.9463919E1,1.4188149E1,2.2551837E0,1.0721413E0],"tree_param":{"num_deleted":"0","num_feature":"3","num_nodes":"41","size_leaf_vector":"1"}},{"base_weights":[2.2991553E-2,6.2020737E-1,-4.2818603E-1,-2.564747E-1,1.0513184E0,-1.5192519E-1,-1.7034458E-2,7.068249E-1,-6.2279934E-1,7.7658224E-1,1.2454001E0,4.85007E-1,-3.3111337E-1,-5.823675E-3,1.2579796E-2,-1.3642973E0,2.1418251E-1,1.3677595E-2,1.8720701E-2,1.6149366E-2,8.7888527E-1,1.2641634E0,-3.1539053E-1,-1.4268699E-2,-1.6887558E-1,-9.771531E-4,-1.6423848E-2,4.894706E-3,-5.8597964E-3,3.6956163E-3,-8.32481E-3,1.0895892E-3,1.5109792E-2,3.7229646E-3,1.436207E-2,-9.198962E-3,9.499184E-3,3.1045298E-3,-4.687688E-3],"categories":[],"categories_nodes":[],"categories_segments":[],"categories_sizes":[],"default_left":[0,0,0,0,0,0,0,0,0,0,0,0,0,0,0,0,0,0,0,0,0,0,0,0,0,0,0,0,0,0,0,0,0,0,0,0,0,0,0],"id":2,"left_children":[1,3,5,7,9,11,-1,13,15,17,19,21,23,-1,-1,25,27,-1,29,-1,31,33,35,-1,37,-1,-1,-1,-1,-1,-1,-1,-1,-1,-1,-1,-1,-1,-1],"loss_changes":[3.2971455E1,2.0166473E1,2.4309334E1,6.8478193E0,9.2502975E-1,6.8277054E0,0E0,4.6200795E0,8.786579E0,7.746463E0,1.1728916E0,8.650452E0,7.9694486E0,0E0,0E0,2.4435215E0,1.8934612E0,0E0,2.8806381E0,0E0,5.5794725E0,5.247278E-1,6.478309E0,0E0,6.091322E0,0E0,0E0,0E0,0E0,0E0,0E0,0E0,0E0,0E0,0E0,0E0,0E0,0E0,0E0],"parents":[2147483647,0,0,1,1,2,2,3,3,4,4,5,5,7,7,8,8,9,9,10,10,11,11,12,12,15,15,16,16,18,18,20,20,21,21,22,22,24,24],"right_children":[2,4,6,8,10,12,-1,14,16,18,20,22,24,-1,-1,26,28,-1,30,-1,32,34,36,-1,38,-1,-1,-1,-1,-1,-1,-1,-1,-1,-1,-1,-1,-1,-1],"split_conditions":[5.6236863E0,-1.7231529E0,2.4414517E-2,2.3410147E-2,-2.5237029E0,4.5679543E1,-1.7034458E-2,2.2732006E-2,4.6292532E-2,-2.7172456E0,4.476001E-2,1.6431121E-2,1.0969819E-2,-5.823675E-3,1.2579796E-2,2.6404126E-2,-2.6791298E0,1.3677595E-2,-2.559188E0,1.6149366E-2,-9.075164E-3,-3.5007775E0,2.1537751E-2,-1.4268699E-2,1.5230691E-2,-9.771531E-4,-1.6423848E-2,4.894706E-3,-5.8597964E-3,3.6956163E-3,-8.32481E-3,1.0895892E-3,1.5109792E-2,3.7229646E-3,1.436207E-2,-9.198962E-3,9.499184E-3,3.1045298E-3,-4.687688E-3],"split_indices":[0,0,1,1,2,0,0,1,1,2,1,1,1,0,0,1,2,0,2,0,0,2,1,0,1,0,0,0,0,0,0,0,0,0,0,0,0,0,0],"split_type":[0,0,0,0,0,0,0,0,0,0,0,0,0,0,0,0,0,0,0,0,0,0,0,0,0,0,0,0,0,0,0,0,0,0,0,0,0,0,0],"sum_hessian":[1.20380005E2,5.1644478E1,6.873553E1,1.7158022E1,3.4486458E1,5.741647E1,1.13190565E1,4.4711175E0,1.2686905E1,1.6347183E1,1.8139273E1,1.2231693E1,4.5184776E1,1.3220685E0,3.149049E0,6.3931093E0,6.2937956E0,8.731404E0,7.615779E0,7.336294E0,1.0802979E1,5.904484E0,6.327209E0,4.8219976E0,4.0362778E1,1.3942447E0,4.9988647E0,4.9716372E0,1.3221582E0,5.7936416E0,1.8221374E0,5.399031E0,5.403948E0,1.4664476E0,4.4380364E0,4.466372E0,1.8608373E0,1.5520566E1,2.4842213E1],"tree_param":{"num_deleted":"0","num_feature":"3","num_nodes":"39","size_leaf_vector":"1"}},{"base_weights":[-3.655048E-2,5.766086E-1,-5.503045E-1,-3.8304478E-1,9.955692E-1,-2.552896E-1,-1.7117342E-2,7.561851E-1,-7.513216E-1,7.2807395E-1,1.2031095E0,3.8291243E-1,-4.7848195E-1,-8.9013367E-4,1.1178517E-2,-1.3412137E0,-1.2846768E-1,9.299482E-1,-8.271229E-3,1.7153945E-2,8.169281E-1,9.8162806E-1,-2.7010608E-1,-1.5668396E-2,-3.2843214E-1,-4.0984554E-3,-1.4381751E-2,8.35939E-3,-7.0303814E-3,6.1570434E-3,1.595503E-2,1.2050007E-3,1.3301203E-2,1.2191943E-2,-8.1412186E-4,-6.0604173E-3,5.62825E-3,1.6891288E-3,-6.5823775E-3],"categories":[],"categories_nodes":[],"categories_segments":[],"categories_sizes":[],"default_left":[0,0,0,0,0,0,0,0,0,0,0,0,0,0,0,0,0,0,0,0,0,0,0,0,0,0,0,0,0,0,0,0,0,0,0,0,0,0,0],"id":3,"left_children":[1,3,5,7,9,11,-1,13,15,17,19,21,23,-1,-1,25,27,29,-1,-1,31,33,35,-1,37,-1,-1,-1,-1,-1,-1,-1,-1,-1,-1,-1,-1,-1,-1],"loss_changes":[3.9291058E1,2.3255236E1,2.2803858E1,8.12497E0,1.3380547E0,8.05525E0,0E0,1.5968947E0,5.0130916E0,7.034521E0,2.7381935E0,6.0808334E0,6.244708E0,0E0,0E0,5.5579185E-2,5.0044165E0,2.8103352E0,0E0,0E0,4.7860785E0,2.113514E0,2.5513332E0,0E0,6.285205E0,0E0,0E0,0E0,0E0,0E0,0E0,0E0,0E0,0E0,0E0,0E0,0E0,0E0,0E0],"parents":[2147483647,0,0,1,1,2,2,3,3,4,4,5,5,7,7,8,8,9,9,10,10,11,11,12,12,15,15,16,16,17,17,20,20,21,21,22,22,24,24],"right_children":[2,4,6,8,10,12,-1,14,16,18,20,22,24,-1,-1,26,28,30,-1,-1,32,34,36,-1,38,-1,-1,-1,-1,-1,-1,-1,-1,-1,-1,-1,-1,-1,-1],"split_conditions":[5.6236863E0,-1.7231529E0,2.4414517E-2,2.3410147E-2,-2.5237029E0,4.7226246E1,-1.7117342E-2,2.2732006E-2,-2.4068868E0,-2.559188E0,4.569128E-2,1.614635E-2,4.904752E1,-8.9013367E-4,1.1178517E-2,-3.425447E0,-2.2536366E0,1.8220353E0,-8.271229E-3,1.7153945E-2,-9.075164E-3,4.5679543E1,2.1537751E-2,-1.5668396E-2,6.0781213E2,-4.0984554E-3,-1.4381751E-2,8.35939E-3,-7.0303814E-3,6.1570434E-3,1.595503E-2,1.2050007E-3,1.3301203E-2,1.2191943E-2,-8.1412186E-4,-6.0604173E-3,5.62825E-3,1.6891288E-3,-6.5823775E-3],"split_indices":[0,0,1,1,2,0,0,1,0,2,1,1,0,0,0,0,0,0,0,0,0,0,1,0,0,0,0,0,0,0,0,0,0,0,0,0,0,0,0],"split_type":[0,0,0,0,0,0,0,0,0,0,0,0,0,0,0,0,0,0,0,0,0,0,0,0,0,0,0,0,0,0,0,0,0,0,0,0,0,0,0],"sum_hessian":[1.227211E2,5.5892155E1,6.682894E1,1.7011673E1,3.888048E1,5.426491E1,1.2564028E1,3.8985538E0,1.3113118E1,1.8956223E1,1.9924261E1,1.3874937E1,4.0389977E1,1.3942156E0,2.5043383E0,6.1424217E0,6.9706964E0,1.7134142E1,1.8220798E0,7.084478E0,1.2839784E1,6.9759073E0,6.8990297E0,3.7497501E0,3.664023E1,1.0720155E0,5.0704064E0,2.4326468E0,4.5380497E0,1.2946507E1,4.1876345E0,5.9712706E0,6.868513E0,5.581639E0,1.3942683E0,5.110339E0,1.7886903E0,1.4803887E1,2.183634E1],"tree_param":{"num_deleted":"0","num_feature":"3","num_nodes":"39","size_leaf_vector":"1"}},{"base_weights":[-5.0377935E-2,6.0194385E-1,-5.471799E-1,-2.9015183E-1,1.0004746E0,-2.496106E-1,-1.7130767E0,8.337912E-3,-5.218343E-1,8.255073E-1,1.248096E0,-1.7812576E-2,-1.1601121E0,-5.4748454E-3,-1.7880276E-2,-7.240667E-1,3.389665E-1,1.0162126E0,-3.530398E-1,1.2417061E-3,1.3388362E-2,-1.1110744E-1,1.0131348E-2,-1.2973832E0,-7.136146E-4,8.2105893E-4,-1.13548385E-2,8.161989E-3,-4.09296E-3,1.3170365E-2,6.6393386E-3,-1.3454932E-2,1.1024416E-2,2.6176688E-3,-5.440176E-3,-5.5927825E-3,-1.6699292E-2],"categories":[],"categories_nodes":[],"categories_segments":[],"categories_sizes":[],"default_left":[0,0,0,0,0,0,0,0,0,0,0,0,0,0,0,0,0,0,0,0,0,0,0,0,0,0,0,0,0,0,0,0,0,0,0,0,0],"id":4,"left_children":[1,3,5,7,9,11,13,-1,15,17,19,21,23,-1,-1,25,27,29,31,-1,-1,33,-1,35,-1,-1,-1,-1,-1,-1,-1,-1,-1,-1,-1,-1,-1],"loss_changes":[4.1379066E1,1.9929064E1,2.4700546E1,5.0785627E0,6.336632E-1,1.2404501E1,2.927742E-1,0E0,2.9262304E0,6.0806046E0,1.2562599E0,4.7236786E0,1.6905403E0,0E0,0E0,4.3349543E0,1.6234565E0,1.4750385E0,7.6771793E0,0E0,0E0,7.38444E0,0E0,1.9634571E0,0E0,0E0,0E0,0E0,0E0,0E0,0E0,0E0,0E0,0E0,0E0,0E0,0E0],"parents":[2147483647,0,0,1,1,2,2,3,3,4,4,5,5,6,6,8,8,9,9,10,10,11,11,12,12,15,15,16,16,17,17,18,18,21,21,23,23],"right_children":[2,4,6,8,10,12,14,-1,16,18,20,22,24,-1,-1,26,28,30,32,-1,-1,34,-1,36,-1,-1,-1,-1,-1,-1,-1,-1,-1,-1,-1,-1,-1],"split_conditions":[5.6236863E0,-1.7231529E0,2.4414517E-2,-3.5315049E0,6.1604295E-2,6.715443E2,6.2843146E0,8.337912E-3,6.8302736E-2,5.014901E-2,-1.4257976E0,2.2311267E-2,7.004754E2,-5.4748454E-3,-1.7880276E-2,2.6404126E-2,-2.7610092E0,1.189121E-1,-5.3667074E-1,1.2417061E-3,1.3388362E-2,1.6536223E-2,1.0131348E-2,-2.5065944E0,-7.136146E-4,8.2105893E-4,-1.13548385E-2,8.161989E-3,-4.09296E-3,1.3170365E-2,6.6393386E-3,-1.3454932E-2,1.1024416E-2,2.6176688E-3,-5.440176E-3,-5.5927825E-3,-1.6699292E-2],"split_indices":[0,0,1,2,1,0,0,0,1,1,0,1,0,0,0,1,2,0,0,0,0,1,0,2,0,0,0,0,0,0,0,0,0,0,0,0,0],"split_type":[0,0,0,0,0,0,0,0,0,0,0,0,0,0,0,0,0,0,0,0,0,0,0,0,0,0,0,0,0,0,0,0,0,0,0,0,0],"sum_hessian":[1.25667366E2,5.4238415E1,7.1428955E1,1.6832176E1,3.740624E1,5.7872402E1,1.3556551E1,2.4325385E0,1.4399637E1,2.44581E1,1.2948139E1,4.6941475E1,1.0930929E1,1.3208015E0,1.223575E1,1.1788864E1,2.6107733E0,2.1170206E1,3.2878933E0,1.1442056E0,1.1803934E1,4.386424E1,3.0772355E0,9.536881E0,1.3940474E0,4.253857E0,7.5350075E0,1.5386496E0,1.0721238E0,9.941862E0,1.1228345E1,1.999831E0,1.2880623E0,2.377859E1,2.008565E1,4.0379496E0,5.498932E0],"tree_param":{"num_deleted":"0","num_feature":"3","num_nodes":"37","size_leaf_vector":"1"}},{"base_weights":[-3.3580232E-3,5.1401967E-1,-4.3010682E-1,-2.4664609E-1,9.701053E-1,-1.220858E-1,-1.6859923E-2,1.0128721E0,-4.9723727E-1,5.8666867E-1,1.1038401E0,5.4170262E-2,-9.186721E-1,3.7608182E-3,1.2264416E-2,9.6428014E-2,-6.989233E-1,1.2100141E-2,4.2495903E-2,7.14158E-1,1.3417567E-2,8.048911E-1,-8.401627E-2,-1.4016837E-2,-5.926975E-1,-4.3349057E-3,1.1051913E-2,-1.4484757E-2,-8.235457E-4,-1.0223297E-2,1.4133344E-2,1.8739738E-3,1.3844355E-2,-5.7608355E-3,1.188561E-2,-4.258206E-3,1.8243737E-3,1.1416092E-2,-1.0955167E-2],"categories":[],"categories_nodes":[],"categories_segments":[],"categories_sizes":[],"default_left":[0,0,0,0,0,0,0,0,0,0,0,0,0,0,0,0,0,0,0,0,0,0,0,0,0,0,0,0,0,0,0,0,0,0,0,0,0,0,0],"id":5,"left_children":[1,3,5,7,9,11,-1,13,15,17,19,21,23,-1,-1,25,27,-1,29,31,-1,33,35,-1,37,-1,-1,-1,-1,-1,-1,-1,-1,-1,-1,-1,-1,-1,-1],"loss_changes":[2.8389221E1,2.0403328E1,2.7049713E1,7.631543E0,1.2260399E0,8.145156E0,0E0,9.3203545E-2,2.40301E0,3.8775277E0,1.448143E0,5.0633245E0,8.227577E-1,0E0,0E0,3.5930698E0,6.6657295E0,0E0,1.1984672E1,3.9694734E0,0E0,4.7012663E0,3.864173E0,0E0,8.229553E0,0E0,0E0,0E0,0E0,0E0,0E0,0E0,0E0,0E0,0E0,0E0,0E0,0E0,0E0],"parents":[2147483647,0,0,1,1,2,2,3,3,4,4,5,5,7,7,8,8,9,9,10,10,11,11,12,12,15,15,16,16,18,18,19,19,21,21,22,22,24,24],"right_children":[2,4,6,8,10,12,-1,14,16,18,20,22,24,-1,-1,26,28,-1,30,32,-1,34,36,-1,38,-1,-1,-1,-1,-1,-1,-1,-1,-1,-1,-1,-1,-1,-1],"split_conditions":[5.6236863E0,-1.448584E0,2.4414517E-2,-3.487783E0,-5.3667074E-1,6.743138E2,-1.6859923E-2,-2.7230532E0,2.6787432E-2,5.014901E-2,-2.5237029E0,4.1482117E1,1.1322611E-2,3.7608182E-3,1.2264416E-2,-2.5428874E0,4.6292532E-2,1.2100141E-2,9.911626E-2,1.8220353E0,1.3417567E-2,3.308167E1,5.5148434E1,-1.4016837E-2,1.33194355E-2,-4.3349057E-3,1.1051913E-2,-1.4484757E-2,-8.235457E-4,-1.0223297E-2,1.4133344E-2,1.8739738E-3,1.3844355E-2,-5.7608355E-3,1.188561E-2,-4.258206E-3,1.8243737E-3,1.1416092E-2,-1.0955167E-2],"split_indices":[0,0,1,2,0,0,0,0,1,1,2,0,1,0,0,2,1,0,1,0,0,0,0,0,1,0,0,0,0,0,0,0,0,0,0,0,0,0,0],"split_type":[0,0,0,0,0,0,0,0,0,0,0,0,0,0,0,0,0,0,0,0,0,0,0,0,0,0,0,0,0,0,0,0,0,0,0,0,0,0,0],"sum_hessian":[1.2657868E2,5.7121616E1,6.945707E1,2.1583527E1,3.553809E1,5.665818E1,1.2798889E1,3.0768368E0,1.850669E1,1.0582725E1,2.4955364E1,4.7156197E1,9.501984E0,1.4661677E0,1.6106691E0,4.825288E0,1.3681401E1,4.3622355E0,6.220489E0,1.0977349E1,1.3978015E1,6.5807157E0,4.057548E1,2.4990492E0,7.0029345E0,3.537343E0,1.2879446E0,5.565844E0,8.115558E0,3.6440964E0,2.5763927E0,6.863228E0,4.1141214E0,1.3217446E0,5.2589707E0,1.75125E1,2.3062983E1,1.2884477E0,5.7144866E0],"tree_param":{"num_deleted":"0","num_feature":"3","num_nodes":"39","size_leaf_vector":"1"}},{"base_weights":[5.8294944E-2,4.3619514E-1,-4.762476E-1,-3.2100025E-1,6.4633745E-1,1.3344868E-2,-1.189524E0,5.26196E-1,-8.288117E-1,9.606226E-1,7.235146E-2,-1.0399605E0,1.9651124E-1,-1.7473018E-2,-6.161769E-1,-1.0988001E-2,1.0836581E0,-1.5890567E-2,2.596124E-2,1.1947522E0,6.538302E-1,-1.2837211E0,6.6124815E-1,-1.4410155E-2,1.4630313E-3,6.853632E-1,-2.520409E-1,1.124787E-2,-9.296493E-1,1.45466775E-2,1.5227876E-3,3.1661766E-3,-5.803802E-3,1.6424645E-2,6.5692416E-3,-8.318621E-3,8.6721415E-3,-4.0095286E-3,-1.3774328E-2,1.1386188E-2,1.0452627E-3,-2.6722087E-3,1.0863685E-2,4.340476E-5,-1.3107485E-2,-4.6248115E-3,-1.4772947E-2],"categories":[],"categories_nodes":[],"categories_segments":[],"categories_sizes":[],"default_left":[0,0,0,0,0,0,0,0,0,0,0,0,0,0,0,0,0,0,0,0,0,0,0,0,0,0,0,0,0,0,0,0,0,0,0,0,0,0,0,0,0,0,0,0,0,0,0],"id":6,"left_children":[1,3,5,7,9,11,13,15,17,19,21,23,25,-1,27,-1,29,-1,31,33,35,37,39,-1,-1,41,43,-1,45,-1,-1,-1,-1,-1,-1,-1,-1,-1,-1,-1,-1,-1,-1,-1,-1,-1,-1],"loss_changes":[2.5448254E1,1.1938141E1,1.825468E1,7.613633E0,1.0400494E1,6.3702297E0,5.7251797E0,7.408721E0,7.072117E0,1.9068604E0,1.811165E1,2.5388117E0,6.326892E0,0E0,7.6125207E0,0E0,1.7185011E0,0E0,1.2547522E0,3.7407246E0,6.5566773E0,1.72863E-2,4.061861E0,0E0,0E0,5.5230074E0,4.176889E0,0E0,2.0656385E0,0E0,0E0,0E0,0E0,0E0,0E0,0E0,0E0,0E0,0E0,0E0,0E0,0E0,0E0,0E0,0E0,0E0,0E0],"parents":[2147483647,0,0,1,1,2,2,3,3,4,4,5,5,6,6,7,7,8,8,9,9,10,10,11,11,12,12,14,14,16,16,18,18,19,19,20,20,21,21,22,22,25,25,26,26,28,28],"right_children":[2,4,6,8,10,12,14,16,18,20,22,24,26,-1,28,-1,30,-1,32,34,36,38,40,-1,-1,42,44,-1,46,-1,-1,-1,-1,-1,-1,-1,-1,-1,-1,-1,-1,-1,-1,-1,-1,-1,-1],"split_conditions":[4.6749542E1,-1.8633363E0,1.8419966E-2,2.6404126E-2,2.8462713E0,4.904752E1,5.722582E2,2.1268046E-2,4.6292532E-2,4.7051378E-2,3.308167E1,-2.559188E0,6.307326E2,-1.7473018E-2,5.892379E2,-1.0988001E-2,2.3410147E-2,-1.5890567E-2,-2.2536366E0,2.2880894E-1,-1.448584E0,5.8498015E0,1.7102774E-2,-1.4410155E-2,1.4630313E-3,1.3389049E-2,2.9425752E0,1.124787E-2,2.3748202E-2,1.45466775E-2,1.5227876E-3,3.1661766E-3,-5.803802E-3,1.6424645E-2,6.5692416E-3,-8.318621E-3,8.6721415E-3,-4.0095286E-3,-1.3774328E-2,1.1386188E-2,1.0452627E-3,-2.6722087E-3,1.0863685E-2,4.340476E-5,-1.3107485E-2,-4.6248115E-3,-1.4772947E-2],"split_indices":[0,0,1,1,0,0,0,1,1,1,0,2,0,0,0,0,1,0,0,0,0,0,1,0,0,1,2,0,1,0,0,0,0,0,0,0,0,0,0,0,0,0,0,0,0,0,0],"split_type":[0,0,0,0,0,0,0,0,0,0,0,0,0,0,0,0,0,0,0,0,0,0,0,0,0,0,0,0,0,0,0,0,0,0,0,0,0,0,0,0,0,0,0,0,0,0,0],"sum_hessian":[1.2395074E2,7.2722694E1,5.1228046E1,1.5683517E1,5.7039173E1,3.095906E1,2.0268988E1,5.864089E0,9.819428E0,3.6422493E1,2.061668E1,3.8932264E0,2.7065834E1,9.236126E0,1.1032862E1,1.2498152E0,4.6142735E0,4.742423E0,5.077006E0,1.901602E1,1.7406475E1,5.885065E0,1.4731615E1,2.7490644E0,1.144162E0,1.2698501E1,1.4367332E1,1.2885205E0,9.744342E0,2.898021E0,1.7162526E0,3.7548838E0,1.3221219E0,9.256559E0,9.759461E0,1.8220397E0,1.55844345E1,1.0713629E0,4.813702E0,7.368311E0,7.363304E0,3.86081E0,8.837691E0,1.2368115E1,1.9992176E0,6.2539268E0,3.4904146E0],"tree_param":{"num_deleted":"0","num_feature":"3","num_nodes":"47","size_leaf_vector":"1"}},{"base_weights":[2.7380783E-2,5.3118545E-1,-6.803004E-1,-3.1914093E-2,7.0147216E-1,-4.5657063E-1,-1.6842313E-2,7.321093E-1,-4.9682716E-1,1.0647608E0,4.5925073E-2,-1.5825821E-2,-2.981212E-1,-5.712261E-3,1.1186397E0,-1.50383385E-2,1.5264814E-1,1.6276324E-2,9.1305333E-1,-1.2889872E0,6.708154E-1,-5.7724603E-2,-1.0009685E0,1.4588357E-3,1.4797586E-2,4.6947864E-3,-7.1274615E-3,-5.230269E-4,9.801555E-3,-1.3935342E-2,-3.5983783E-3,1.1863301E-2,2.7725818E-3,-1.7719822E-3,1.041993E-2,-1.4261072E-2,-6.517676E-3],"categories":[],"categories_nodes":[],"categories_segments":[],"categories_sizes":[],"default_left":[0,0,0,0,0,0,0,0,0,0,0,0,0,0,0,0,0,0,0,0,0,0,0,0,0,0,0,0,0,0,0,0,0,0,0,0,0],"id":7,"left_children":[1,3,5,7,9,11,-1,13,15,17,19,-1,21,-1,23,-1,25,-1,27,29,31,33,35,-1,-1,-1,-1,-1,-1,-1,-1,-1,-1,-1,-1,-1,-1],"loss_changes":[4.511612E1,7.107355E0,1.1054457E1,6.797422E0,1.3472229E1,7.453207E0,0E0,4.2946067E0,7.98386E0,1.6294556E0,1.8623795E1,0E0,6.7296624E0,0E0,1.8688469E0,0E0,2.559752E0,0E0,2.0604877E0,1.9121265E-1,2.7465987E0,4.2569146E0,5.813675E-1,0E0,0E0,0E0,0E0,0E0,0E0,0E0,0E0,0E0,0E0,0E0,0E0,0E0,0E0],"parents":[2147483647,0,0,1,1,2,2,3,3,4,4,5,5,7,7,8,8,9,9,10,10,12,12,14,14,16,16,18,18,19,19,20,20,21,21,22,22],"right_children":[2,4,6,8,10,12,-1,14,16,18,20,-1,22,-1,24,-1,26,-1,28,30,32,34,36,-1,-1,-1,-1,-1,-1,-1,-1,-1,-1,-1,-1,-1,-1],"split_conditions":[4.7285297E1,-1.8633363E0,2.3748202E-2,2.6404126E-2,2.8462713E0,4.9934616E1,-1.6842313E-2,2.1537751E-2,4.6292532E-2,2.4356496E-2,3.308167E1,-1.5825821E-2,6.743138E2,-5.712261E-3,-2.842494E0,-1.50383385E-2,-2.2146795E0,1.6276324E-2,2.6662836E-2,3.3460736E-2,4.1482117E1,2.2311267E-2,1.1294158E-2,1.4588357E-3,1.4797586E-2,4.6947864E-3,-7.1274615E-3,-5.230269E-4,9.801555E-3,-1.3935342E-2,-3.5983783E-3,1.1863301E-2,2.7725818E-3,-1.7719822E-3,1.041993E-2,-1.4261072E-2,-6.517676E-3],"split_indices":[0,0,1,1,0,0,0,1,1,1,0,0,0,0,0,0,0,0,1,1,0,1,1,0,0,0,0,0,0,0,0,0,0,0,0,0,0],"split_type":[0,0,0,0,0,0,0,0,0,0,0,0,0,0,0,0,0,0,0,0,0,0,0,0,0,0,0,0,0,0,0,0,0,0,0,0,0],"sum_hessian":[1.2452764E2,7.288766E1,5.1639984E1,1.7112638E1,5.577502E1,4.341874E1,8.221245E0,6.2563796E0,1.0856259E1,3.5485542E1,2.0289478E1,4.2473397E0,3.91714E1,1.3217533E0,4.9346266E0,3.7407672E0,7.115492E0,5.468248E0,3.0017294E1,6.1305165E0,1.4158961E1,2.9994452E1,9.176948E0,1.7160445E0,3.218582E0,5.5434647E0,1.5720272E0,1.9652377E0,2.8052055E1,5.0612345E0,1.0692819E0,5.257658E0,8.901303E0,2.7811836E1,2.1826158E0,2.7477496E0,6.429198E0],"tree_param":{"num_deleted":"0","num_feature":"3","num_nodes":"37","size_leaf_vector":"1"}},{"base_weights":[-1.4631278E-2,4.0990612E-1,-5.54292E-1,-3.4819594E-1,6.478134E-1,-3.2875645E-1,-1.6708016E-2,-6.082846E-1,4.206846E-1,9.342493E-1,2.290413E-3,-1.5768322E-1,-9.702402E-1,1.8569638E-1,-1.2023916E0,1.2034354E-2,-1.0978248E-2,6.6346776E-1,1.1756136E0,-1.4388072E-2,8.1628364E-1,-1.0127105E0,4.473151E-2,-1.4192668E-2,-6.006939E-1,-1.0896787E-2,6.7648278E-3,-1.5745243E-2,-2.6508446E-3,1.3072454E-2,2.3394737E-3,7.577228E-3,1.4378001E-2,1.4815999E-2,5.296111E-4,-3.1477448E-3,-1.479024E-2,7.781E-3,-1.9199867E-3,1.1375203E-2,-1.17411455E-2],"categories":[],"categories_nodes":[],"categories_segments":[],"categories_sizes":[],"default_left":[0,0,0,0,0,0,0,0,0,0,0,0,0,0,0,0,0,0,0,0,0,0,0,0,0,0,0,0,0,0,0,0,0,0,0,0,0,0,0,0,0],"id":8,"left_children":[1,3,5,7,9,11,-1,13,15,17,19,21,23,25,27,-1,-1,29,31,-1,33,35,37,-1,39,-1,-1,-1,-1,-1,-1,-1,-1,-1,-1,-1,-1,-1,-1,-1,-1],"loss_changes":[2.9289E1,1.3134131E1,1.3621893E1,3.8047106E0,1.0135204E1,5.1216025E0,0E0,6.6712365E0,7.3554897E0,1.7018013E0,2.2116903E1,6.819079E0,7.944069E-1,4.9414096E0,2.3565006E0,0E0,0E0,5.2773743E0,9.6834373E-1,0E0,6.0395565E0,1.9865146E0,5.8099084E0,0E0,8.490383E0,0E0,0E0,0E0,0E0,0E0,0E0,0E0,0E0,0E0,0E0,0E0,0E0,0E0,0E0,0E0,0E0],"parents":[2147483647,0,0,1,1,2,2,3,3,4,4,5,5,7,7,8,8,9,9,10,10,11,11,12,12,13,13,14,14,17,17,18,18,20,20,21,21,22,22,24,24],"right_children":[2,4,6,8,10,12,-1,14,16,18,20,22,24,26,28,-1,-1,30,32,-1,34,36,38,-1,40,-1,-1,-1,-1,-1,-1,-1,-1,-1,-1,-1,-1,-1,-1,-1,-1],"split_conditions":[4.5679543E1,-1.8633363E0,2.3748202E-2,5.2571777E-2,2.8462713E0,6.743138E2,-1.6708016E-2,2.4871517E-2,-2.2536366E0,-2.5237029E0,3.308167E1,4.904752E1,1.1322611E-2,2.1268046E-2,-2.4283035E0,1.2034354E-2,-1.0978248E-2,-2.9053698E0,-4.470452E-1,-1.4388072E-2,1.6431121E-2,4.7285297E1,-2.7904654E0,-1.4192668E-2,1.33194355E-2,-1.0896787E-2,6.7648278E-3,-1.5745243E-2,-2.6508446E-3,1.3072454E-2,2.3394737E-3,7.577228E-3,1.4378001E-2,1.4815999E-2,5.296111E-4,-3.1477448E-3,-1.479024E-2,7.781E-3,-1.9199867E-3,1.1375203E-2,-1.17411455E-2],"split_indices":[0,0,1,1,0,0,0,1,0,2,0,0,1,1,0,0,0,2,0,0,1,0,2,0,1,0,0,0,0,0,0,0,0,0,0,0,0,0,0,0,0],"split_type":[0,0,0,0,0,0,0,0,0,0,0,0,0,0,0,0,0,0,0,0,0,0,0,0,0,0,0,0,0,0,0,0,0,0,0,0,0,0,0,0,0],"sum_hessian":[1.2584859E2,7.05719E1,5.5276684E1,1.6746109E1,5.3825794E1,4.7064148E1,8.212535E0,1.2669333E1,4.0767756E0,3.6972725E1,1.685307E1,3.813893E1,8.92522E0,5.716749E0,6.9525843E0,2.8270144E0,1.249761E0,1.9191269E1,1.7781458E1,5.806183E0,1.1046886E1,6.5342455E0,3.1604685E1,2.7469282E0,6.1782913E0,1.2494953E0,4.4672537E0,4.49008E0,2.4625041E0,6.8623204E0,1.2328948E1,8.354885E0,9.426573E0,5.3995867E0,5.6472993E0,3.288037E0,3.2462084E0,7.154337E0,2.4450348E1,1.2885513E0,4.88974E0],"tree_param":{"num_deleted":"0","num_feature":"3","num_nodes":"41","size_leaf_vector":"1"}},{"base_weights":[2.2267109E-2,5.7853734E-1,-4.2756063E-1,-2.6826733E-1,9.867454E-1,-1.4145912E-1,-1.5553027E0,6.0015374E-1,-6.7078125E-1,1.6128836E-2,8.340115E-1,5.430595E-2,-1.083969E0,-3.512994E-3,-1.627157E-2,-5.843916E-3,1.0065756E0,-1.5810648E-2,8.735902E-2,-1.2693556E-3,8.803952E-1,3.31151E-1,-4.3044373E-1,-1.2675898E0,1.6770238E-3,1.4336614E-3,1.3810333E-2,9.458406E-3,-3.0366096E-3,1.5429873E-3,9.318472E-3,-4.258893E-3,5.6049167E-3,-9.453827E-3,5.378667E-3,-3.8175874E-3,-1.6050758E-2],"categories":[],"categories_nodes":[],"categories_segments":[],"categories_sizes":[],"default_left":[0,0,0,0,0,0,0,0,0,0,0,0,0,0,0,0,0,0,0,0,0,0,0,0,0,0,0,0,0,0,0,0,0,0,0,0,0],"id":9,"left_children":[1,3,5,7,9,11,13,15,17,-1,19,21,23,-1,-1,-1,25,-1,27,-1,29,31,33,35,-1,-1,-1,-1,-1,-1,-1,-1,-1,-1,-1,-1,-1],"loss_changes":[3.1699461E1,1.9837841E1,2.2388493E1,7.115243E0,2.3290024E0,1.0574513E1,6.4643097E-1,3.7703197E0,9.519609E0,0E0,1.5806999E0,6.6033177E0,2.476303E0,0E0,0E0,0E0,1.5114517E0,0E0,3.0950146E0,0E0,1.0354595E0,5.656988E0,9.451262E0,1.9900217E0,0E0,0E0,0E0,0E0,0E0,0E0,0E0,0E0,0E0,0E0,0E0,0E0,0E0],"parents":[2147483647,0,0,1,1,2,2,3,3,4,4,5,5,6,6,7,7,8,8,10,10,11,11,12,12,16,16,18,18,20,20,21,21,22,22,23,23],"right_children":[2,4,6,8,10,12,14,16,18,-1,20,22,24,-1,-1,-1,26,-1,28,-1,30,32,34,36,-1,-1,-1,-1,-1,-1,-1,-1,-1,-1,-1,-1,-1],"split_conditions":[5.6236863E0,-1.8100182E0,2.367093E-2,2.6404126E-2,2.342793E-2,6.715443E2,6.2843146E0,2.2732006E-2,4.6292532E-2,1.6128836E-2,2.4414517E-2,1.8049523E-2,7.0016736E2,-3.512994E-3,-1.627157E-2,-5.843916E-3,-2.842494E0,-1.5810648E-2,4.7275238E-2,-1.2693556E-3,-1.448584E0,1.2024446E-2,2.1537751E-2,-2.6518657E0,1.6770238E-3,1.4336614E-3,1.3810333E-2,9.458406E-3,-3.0366096E-3,1.5429873E-3,9.318472E-3,-4.258893E-3,5.6049167E-3,-9.453827E-3,5.378667E-3,-3.8175874E-3,-1.6050758E-2],"split_indices":[0,0,1,1,1,0,0,1,1,0,1,1,0,0,0,0,0,0,1,0,0,1,1,2,0,0,0,0,0,0,0,0,0,0,0,0,0],"split_type":[0,0,0,0,0,0,0,0,0,0,0,0,0,0,0,0,0,0,0,0,0,0,0,0,0,0,0,0,0,0,0,0,0,0,0,0,0],"sum_hessian":[1.2469489E2,5.5623325E1,6.907157E1,1.8203665E1,3.741966E1,5.5992134E1,1.3079438E1,5.6097193E0,1.25939455E1,5.463156E0,3.1956503E1,4.714269E1,8.849443E0,1.0682764E0,1.2011162E1,1.321173E0,4.2885466E0,5.229518E0,7.364427E0,1.3915071E0,3.0564997E1,3.020767E1,1.6935019E1,7.7062197E0,1.143224E0,1.7158921E0,2.5726545E0,1.8605957E0,5.5038314E0,2.2871659E0,2.827783E1,6.824239E0,2.338343E1,1.1071155E1,5.863865E0,2.7139215E0,4.992298E0],"tree_param":{"num_deleted":"0","num_feature":"3","num_nodes":"37","size_leaf_vector":"1"}},{"base_weights":[3.3392997E-3,4.0570253E-1,-5.7609266E-1,-5.0815225E-1,6.786505E-1,-3.5162508E-1,-1.6396137E-2,4.368375E-1,-9.599114E-1,1.6571308E-2,5.3442115E-1,-1.1200272E0,-1.6699341E-1,-7.079626E-3,9.416444E-1,-1.5811868E-2,-2.5591093E-1,9.0673155E-1,-6.392224E-1,-1.6161984E-1,-1.4307177E-2,1.2132946E-1,-7.9650044E-1,1.4246205E-3,1.3197679E-2,8.1288805E-3,-6.996903E-3,6.1620907E-3,1.1440819E-2,1.6069454E-4,-1.2575814E-2,-4.0694512E-3,1.5088128E-3,1.2281815E-2,4.798853E-6,-3.773111E-3,-1.0638302E-2],"categories":[],"categories_nodes":[],"categories_segments":[],"categories_sizes":[],"default_left":[0,0,0,0,0,0,0,0,0,0,0,0,0,0,0,0,0,0,0,0,0,0,0,0,0,0,0,0,0,0,0,0,0,0,0,0,0],"id":10,"left_children":[1,3,5,7,9,11,-1,13,15,-1,17,19,21,-1,23,-1,25,27,29,31,-1,33,35,-1,-1,-1,-1,-1,-1,-1,-1,-1,-1,-1,-1,-1,-1],"loss_changes":[3.008513E1,1.9339977E1,1.204895E1,8.140324E0,7.450224E0,6.189073E0,0E0,4.4443264E0,5.084012E0,0E0,2.3718689E1,2.3092012E0,6.8868394E0,0E0,1.312552E0,0E0,3.924965E0,2.0956497E0,5.425469E0,3.0795214E-1,0E0,3.5477178E0,9.303942E-1,0E0,0E0,0E0,0E0,0E0,0E0,0E0,0E0,0E0,0E0,0E0,0E0,0E0,0E0],"parents":[2147483647,0,0,1,1,2,2,3,3,4,4,5,5,7,7,8,8,10,10,11,11,12,12,14,14,16,16,17,17,18,18,19,19,21,21,22,22],"right_children":[2,4,6,8,10,12,-1,14,16,-1,18,20,22,-1,24,-1,26,28,30,32,-1,34,36,-1,-1,-1,-1,-1,-1,-1,-1,-1,-1,-1,-1,-1,-1],"split_conditions":[4.6191864E1,-1.8633363E0,2.3748202E-2,2.6404126E-2,1.6431121E-2,5.0491222E1,-1.6396137E-2,2.2732006E-2,4.6292532E-2,1.6571308E-2,5.6236863E0,4.7285297E1,6.706453E2,-7.079626E-3,-2.842494E0,-1.5811868E-2,4.7275238E-2,-2.5237029E0,-2.510129E0,4.6749542E1,-1.4307177E-2,-3.4530785E0,2.5265665E0,1.4246205E-3,1.3197679E-2,8.1288805E-3,-6.996903E-3,6.1620907E-3,1.1440819E-2,1.6069454E-4,-1.2575814E-2,-4.0694512E-3,1.5088128E-3,1.2281815E-2,4.798853E-6,-3.773111E-3,-1.0638302E-2],"split_indices":[0,0,1,1,1,0,0,1,1,0,0,0,0,0,0,0,1,2,2,0,0,2,2,0,0,0,0,0,0,0,0,0,0,0,0,0,0],"split_type":[0,0,0,0,0,0,0,0,0,0,0,0,0,0,0,0,0,0,0,0,0,0,0,0,0,0,0,0,0,0,0,0,0,0,0,0,0],"sum_hessian":[1.2703953E2,7.515263E1,5.1886898E1,1.7085869E1,5.8066765E1,4.3942898E1,7.943999E0,5.5368714E0,1.1548997E1,6.112027E0,5.195474E1,7.5315857E0,3.6411312E1,1.5712198E0,3.965652E0,5.4730597E0,6.0759373E0,3.961519E1,1.233955E1,2.2159855E0,5.3156E0,2.5526903E1,1.088441E1,1.7158599E0,2.249792E0,1.5386093E0,4.5373282E0,1.9429377E1,2.0185812E1,6.463751E0,5.8757997E0,1.0721147E0,1.1438708E0,1.6108013E0,2.3916101E1,5.1773767E0,5.7070327E0],"tree_param":{"num_deleted":"0","num_feature":"3","num_nodes":"37","size_leaf_vector":"1"}},{"base_weights":[1.3529322E-2,5.8138E-1,-4.454069E-1,-3.5585827E-1,1.0279932E0,-1.3064061E-1,-1.551473E0,5.0785977E-1,-6.2484753E-1,7.808885E-1,1.1912053E0,1.1072605E0,-2.4745953E-1,-5.063514E-3,-1.6171133E-2,1.00557655E-2,-2.8340204E-3,-1.3038621E0,1.4344858E-1,1.0055248E0,-5.569706E-3,8.3016276E-1,1.4810017E-2,1.2229417E-3,1.3879306E-2,1.1353499E-1,-5.7935137E-1,-9.312683E-4,-1.5603139E-2,4.881253E-3,-7.125231E-3,1.3104922E-3,1.1066933E-2,1.4147367E-2,4.7014846E-4,-8.175988E-3,5.7362863E-3,-1.216856E-2,-2.7624073E-3],"categories":[],"categories_nodes":[],"categories_segments":[],"categories_sizes":[],"default_left":[0,0,0,0,0,0,0,0,0,0,0,0,0,0,0,0,0,0,0,0,0,0,0,0,0,0,0,0,0,0,0,0,0,0,0,0,0,0,0],"id":11,"left_children":[1,3,5,7,9,11,13,15,17,19,21,23,25,-1,-1,-1,-1,27,29,31,-1,33,-1,-1,-1,35,37,-1,-1,-1,-1,-1,-1,-1,-1,-1,-1,-1,-1],"loss_changes":[3.1141685E1,2.2718267E1,2.281112E1,4.493908E0,5.387802E-1,7.8733397E0,1.7948532E-1,2.1834846E0,7.572076E0,5.7866926E0,8.664646E-1,1.133493E0,5.916911E0,0E0,0E0,0E0,0E0,2.218749E0,2.5730402E0,1.203907E0,0E0,5.0587153E0,0E0,0E0,0E0,1.0848782E1,4.612133E0,0E0,0E0,0E0,0E0,0E0,0E0,0E0,0E0,0E0,0E0,0E0,0E0],"parents":[2147483647,0,0,1,1,2,2,3,3,4,4,5,5,6,6,7,7,8,8,9,9,10,10,11,11,12,12,17,17,18,18,19,19,21,21,25,25,26,26],"right_children":[2,4,6,8,10,12,14,16,18,20,22,24,26,-1,-1,-1,-1,28,30,32,-1,34,-1,-1,-1,36,38,-1,-1,-1,-1,-1,-1,-1,-1,-1,-1,-1,-1],"split_conditions":[5.6236863E0,-1.7846153E0,2.3134395E-2,2.3410147E-2,-2.5237029E0,4.1482117E1,6.2843146E0,-2.570443E0,4.6292532E-2,-2.5631678E0,-9.075164E-3,3.7146744E1,1.5302261E-2,-5.063514E-3,-1.6171133E-2,1.00557655E-2,-2.8340204E-3,2.6404126E-2,-2.7610092E0,-1.448584E0,-5.569706E-3,4.569128E-2,1.4810017E-2,1.2229417E-3,1.3879306E-2,1.1294158E-2,5.211054E1,-9.312683E-4,-1.5603139E-2,4.881253E-3,-7.125231E-3,1.3104922E-3,1.1066933E-2,1.4147367E-2,4.7014846E-4,-8.175988E-3,5.7362863E-3,-1.216856E-2,-2.7624073E-3],"split_indices":[0,0,1,1,2,0,0,0,1,2,0,0,1,0,0,0,0,1,2,0,0,1,0,0,0,1,0,0,0,0,0,0,0,0,0,0,0,0,0],"split_type":[0,0,0,0,0,0,0,0,0,0,0,0,0,0,0,0,0,0,0,0,0,0,0,0,0,0,0,0,0,0,0,0,0,0,0,0,0,0,0],"sum_hessian":[1.17502975E2,5.2400288E1,6.5102684E1,1.6976831E1,3.5423454E1,5.1550472E1,1.3552214E1,3.8206825E0,1.315615E1,1.639133E1,1.9032124E1,3.7141466E0,4.7836327E1,1.3158205E0,1.2236393E1,2.179125E0,1.6415575E0,6.61382E0,6.5423293E0,1.4247483E1,2.143848E0,1.0195149E1,8.836974E0,1.1420456E0,2.572101E0,2.3228691E1,2.4607635E1,1.3943046E0,5.219516E0,4.97056E0,1.5717692E0,1.7153957E0,1.2532087E1,5.375889E0,4.8192606E0,7.425003E0,1.5803688E1,6.9583073E0,1.7649328E1],"tree_param":{"num_deleted":"0","num_feature":"3","num_nodes":"39","size_leaf_vector":"1"}},{"base_weights":[1.3615194E-2,5.568032E-1,-4.300811E-1,-1.9010709E-1,1.0285294E0,-1.4386103E-1,-1.5974186E-2,6.4310765E-1,-6.367783E-1,8.4733397E-1,1.3043009E-2,5.170234E-1,-3.2263404E-1,-4.0792027E-3,1.0122013E0,-1.3560377E0,-1.17745474E-1,1.0777454E0,-1.8762906E-1,1.2542747E-2,-1.508195E-1,-3.9040408E-1,1.1131114E-2,-2.7326352E-4,1.4688947E-2,-1.4862197E-2,-3.715497E-3,1.0368366E-2,-5.764413E-3,7.5736567E-3,1.4027487E-2,-5.713981E-3,5.8458224E-3,-7.90022E-3,8.178801E-3,-2.0128365E-3,-9.94277E-3],"categories":[],"categories_nodes":[],"categories_segments":[],"categories_sizes":[],"default_left":[0,0,0,0,0,0,0,0,0,0,0,0,0,0,0,0,0,0,0,0,0,0,0,0,0,0,0,0,0,0,0,0,0,0,0,0,0],"id":12,"left_children":[1,3,5,7,9,11,-1,13,15,17,-1,19,21,-1,23,25,27,29,31,-1,33,35,-1,-1,-1,-1,-1,-1,-1,-1,-1,-1,-1,-1,-1,-1,-1],"loss_changes":[3.0144106E1,2.0004417E1,2.2776989E1,8.823207E0,6.244583E-1,6.830231E0,0E0,3.6665204E0,5.5221562E0,5.8642597E0,0E0,6.290701E0,4.8137255E0,0E0,3.1234112E0,2.532072E-1,5.859507E0,9.7514534E-1,1.8676918E0,0E0,5.224996E0,4.7927012E0,0E0,0E0,0E0,0E0,0E0,0E0,0E0,0E0,0E0,0E0,0E0,0E0,0E0,0E0,0E0],"parents":[2147483647,0,0,1,1,2,2,3,3,4,4,5,5,7,7,8,8,9,9,11,11,12,12,14,14,15,15,16,16,17,17,18,18,20,20,21,21],"right_children":[2,4,6,8,10,12,-1,14,16,18,-1,20,22,-1,24,26,28,30,32,-1,34,36,-1,-1,-1,-1,-1,-1,-1,-1,-1,-1,-1,-1,-1,-1,-1],"split_conditions":[5.6236863E0,-1.448584E0,2.4414517E-2,2.6787432E-2,6.1604295E-2,4.5679543E1,-1.5974186E-2,2.2732006E-2,4.6292532E-2,4.659161E-2,1.3043009E-2,1.6431121E-2,2.342793E-2,-4.0792027E-3,-2.842494E0,-2.2607095E0,4.7275238E-2,-2.5237029E0,3.0118482E0,1.2542747E-2,2.1268046E-2,1.8419966E-2,1.1131114E-2,-2.7326352E-4,1.4688947E-2,-1.4862197E-2,-3.715497E-3,1.0368366E-2,-5.764413E-3,7.5736567E-3,1.4027487E-2,-5.713981E-3,5.8458224E-3,-7.90022E-3,8.178801E-3,-2.0128365E-3,-9.94277E-3],"split_indices":[0,0,1,1,1,0,0,1,1,1,0,1,1,0,0,0,1,2,2,0,1,1,0,0,0,0,0,0,0,0,0,0,0,0,0,0,0],"split_type":[0,0,0,0,0,0,0,0,0,0,0,0,0,0,0,0,0,0,0,0,0,0,0,0,0,0,0,0,0,0,0,0,0,0,0,0,0],"sum_hessian":[1.2308021E2,5.522139E1,6.785882E1,2.1606932E1,3.361446E1,5.5398796E1,1.246002E1,7.387188E0,1.4219744E1,2.2743471E1,1.0870988E1,1.1392217E1,4.400658E1,1.8926108E0,5.494577E0,5.284301E0,8.935444E0,1.8568312E1,4.1751585E0,4.9973726E0,6.394844E0,4.2718277E1,1.2883041E0,1.9640846E0,3.5304923E0,4.217032E0,1.0672687E0,2.1822093E0,6.753234E0,1.1027763E1,7.540549E0,2.962782E0,1.2123765E0,3.963774E0,2.43107E0,3.354576E1,9.172513E0],"tree_param":{"num_deleted":"0","num_feature":"3","num_nodes":"37","size_leaf_vector":"1"}},{"base_weights":[5.1410243E-2,4.6731764E-1,-4.05585E-1,-1.4137654E-1,7.165376E-1,-1.842819E-1,-1.604897E-2,4.7431388E-1,-4.8495352E-1,9.213223E-1,8.8444844E-2,-1.2561598E0,-6.883734E-2,-5.5751354E-3,7.8894347E-1,-1.5261111E-2,3.5790357E-1,7.664637E-1,1.3605663E0,-1.0093653E0,1.1912699E-2,-3.7352466E-3,-1.4087316E-2,3.33068E-1,-3.2573247E-1,-4.08181E-4,1.1929253E-2,9.846938E-3,-5.18153E-3,9.298523E-3,-1.23982495E-2,1.5522265E-2,4.6999636E-3,-4.2913455E-4,-1.2552513E-2,-2.2157377E-3,1.1845727E-2,-9.922424E-3,-2.8013194E-4],"categories":[],"categories_nodes":[],"categories_segments":[],"categories_sizes":[],"default_left":[0,0,0,0,0,0,0,0,0,0,0,0,0,0,0,0,0,0,0,0,0,0,0,0,0,0,0,0,0,0,0,0,0,0,0,0,0,0,0],"id":13,"left_children":[1,3,5,7,9,11,-1,13,15,17,19,21,23,-1,25,-1,27,29,31,33,-1,-1,-1,35,37,-1,-1,-1,-1,-1,-1,-1,-1,-1,-1,-1,-1,-1,-1],"loss_changes":[2.3120872E1,9.753624E0,1.5103423E1,4.3166857E0,5.746376E0,6.114436E0,0E0,2.850299E0,1.1861281E1,1.2741394E0,1.6029388E1,1.2213659E-1,4.88854E0,0E0,2.0948014E0,0E0,4.867688E0,1.015897E1,5.657406E-1,1.5332198E0,0E0,0E0,0E0,9.022159E0,5.6770153E0,0E0,0E0,0E0,0E0,0E0,0E0,0E0,0E0,0E0,0E0,0E0,0E0,0E0,0E0],"parents":[2147483647,0,0,1,1,2,2,3,3,4,4,5,5,7,7,8,8,9,9,10,10,11,11,12,12,14,14,16,16,17,17,18,18,19,19,23,23,24,24],"right_children":[2,4,6,8,10,12,-1,14,16,18,20,22,24,-1,26,-1,28,30,32,34,-1,-1,-1,36,38,-1,-1,-1,-1,-1,-1,-1,-1,-1,-1,-1,-1,-1,-1],"split_conditions":[4.1482117E1,-1.7231529E0,2.3748202E-2,2.6404126E-2,2.8462713E0,1.0767484E-2,-1.604897E-2,2.1537751E-2,4.6292532E-2,9.911626E-2,3.308167E1,-3.1109185E0,1.5230691E-2,-5.5751354E-3,-2.842494E0,-1.5261111E-2,-2.2536366E0,9.29469E-2,2.8591433E0,6.2843146E0,1.1912699E-2,-3.7352466E-3,-1.4087316E-2,1.3125714E-2,5.211054E1,-4.08181E-4,1.1929253E-2,9.846938E-3,-5.18153E-3,9.298523E-3,-1.23982495E-2,1.5522265E-2,4.6999636E-3,-4.2913455E-4,-1.2552513E-2,-2.2157377E-3,1.1845727E-2,-9.922424E-3,-2.8013194E-4],"split_indices":[0,0,1,1,0,1,0,1,1,1,0,2,1,0,0,0,0,1,2,0,0,0,0,1,0,0,0,0,0,0,0,0,0,0,0,0,0,0,0],"split_type":[0,0,0,0,0,0,0,0,0,0,0,0,0,0,0,0,0,0,0,0,0,0,0,0,0,0,0,0,0,0,0,0,0,0,0,0,0,0,0],"sum_hessian":[1.19648254E2,6.2628246E1,5.702001E1,1.8318909E1,4.4309338E1,4.9111385E1,7.908624E0,6.4249225E0,1.1893987E1,3.3062656E1,1.1246678E1,3.8144038E0,4.529698E1,1.3209385E0,5.1039844E0,4.958389E0,6.935598E0,2.6474016E1,6.588643E0,5.678623E0,5.5680556E0,1.070382E0,2.7440217E0,1.7547651E1,2.7749332E1,1.9656284E0,3.1383557E0,3.9706905E0,2.9649076E0,2.4976503E1,1.4975116E0,4.810428E0,1.7782146E0,1.3899531E0,4.28867E0,1.1074123E1,6.473528E0,7.8477054E0,1.9901627E1],"tree_param":{"num_deleted":"0","num_feature":"3","num_nodes":"39","size_leaf_vector":"1"}},{"base_weights":[3.2751173E-2,5.932944E-1,-3.8440716E-1,4.2732656E-2,8.9345634E-1,-1.3954419E-1,-1.4634145E0,7.3848575E-1,-3.0127168E-1,1.3236439E-2,7.1064854E-1,3.961738E-1,-3.2276046E-1,-3.2124745E-3,-1.5398128E0,-8.848816E-4,9.735048E-1,-1.3396331E-2,8.16928E-2,-5.038527E-1,8.762518E-1,9.683979E-1,-2.5443545E-1,-1.3012698E0,-1.8233089E-1,-4.8187906E-3,-1.6269172E-2,-9.878793E-4,1.3838076E-2,-7.6460075E-3,4.8184562E-3,3.020323E-3,-1.1615217E-2,5.1558767E-3,1.3368032E-2,1.3125617E-2,-2.6179233E-3,-5.8035646E-3,5.5094645E-3,-3.8380881E-3,-1.4426156E-2,-1.1279492E-2,-7.1198953E-4],"categories":[],"categories_nodes":[],"categories_segments":[],"categories_sizes":[],"default_left":[0,0,0,0,0,0,0,0,0,0,0,0,0,0,0,0,0,0,0,0,0,0,0,0,0,0,0,0,0,0,0,0,0,0,0,0,0,0,0,0,0,0,0],"id":14,"left_children":[1,3,5,7,9,11,13,15,17,-1,19,21,23,-1,25,-1,27,-1,29,31,33,35,37,39,41,-1,-1,-1,-1,-1,-1,-1,-1,-1,-1,-1,-1,-1,-1,-1,-1,-1,-1],"loss_changes":[2.8339548E1,8.503557E0,1.816671E1,4.8387136E0,1.6860008E0,5.7987733E0,6.18351E-1,1.3826675E0,5.524011E0,0E0,5.5900908E0,5.895209E0,5.754385E0,0E0,2.9343796E-1,0E0,2.4588237E0,0E0,4.056276E0,2.3153422E0,3.1132698E0,3.849629E0,2.391354E0,1.3483047E-1,4.0490565E0,0E0,0E0,0E0,0E0,0E0,0E0,0E0,0E0,0E0,0E0,0E0,0E0,0E0,0E0,0E0,0E0,0E0,0E0],"parents":[2147483647,0,0,1,1,2,2,3,3,4,4,5,5,6,6,7,7,8,8,10,10,11,11,12,12,14,14,16,16,18,18,19,19,20,20,21,21,22,22,23,23,24,24],"right_children":[2,4,6,8,10,12,14,16,18,-1,20,22,24,-1,26,-1,28,-1,30,32,34,36,38,40,42,-1,-1,-1,-1,-1,-1,-1,-1,-1,-1,-1,-1,-1,-1,-1,-1,-1,-1],"split_conditions":[2.8462713E0,-1.448584E0,2.4414517E-2,2.6787432E-2,2.871293E-2,4.6749542E1,6.3654175E0,2.2732006E-2,4.0888365E-2,1.3236439E-2,3.3188634E-2,1.7102774E-2,4.904752E1,-3.2124745E-3,2.6662836E-2,-8.848816E-4,-2.842494E0,-1.3396331E-2,-2.5304441E0,3.1186953E-2,-9.075164E-3,4.5679543E1,2.1268046E-2,4.7285297E1,1.0767484E-2,-4.8187906E-3,-1.6269172E-2,-9.878793E-4,1.3838076E-2,-7.6460075E-3,4.8184562E-3,3.020323E-3,-1.1615217E-2,5.1558767E-3,1.3368032E-2,1.3125617E-2,-2.6179233E-3,-5.8035646E-3,5.5094645E-3,-3.8380881E-3,-1.4426156E-2,-1.1279492E-2,-7.1198953E-4],"split_indices":[0,0,1,1,1,0,0,1,1,0,1,1,0,0,1,0,0,0,0,1,0,0,1,0,1,0,0,0,0,0,0,0,0,0,0,0,0,0,0,0,0,0,0],"split_type":[0,0,0,0,0,0,0,0,0,0,0,0,0,0,0,0,0,0,0,0,0,0,0,0,0,0,0,0,0,0,0,0,0,0,0,0,0,0,0,0,0,0,0],"sum_hessian":[1.1921917E2,5.0687386E1,6.8531784E1,1.8287159E1,3.2400227E1,5.67766E1,1.1755188E1,5.670919E0,1.261624E1,7.8013268E0,2.45989E1,1.4172979E1,4.260362E1,1.0633168E0,1.0691872E1,1.3929516E0,4.2779675E0,2.7262592E0,9.88998E0,2.7066123E0,2.1892286E1,7.2808633E0,6.8921156E0,4.3094115E0,3.829421E1,1.3102565E0,9.381615E0,1.3940264E0,2.8839412E0,2.8826394E0,7.007341E0,1.4592502E0,1.2473623E0,1.3466213E1,8.426074E0,5.6368995E0,1.6439638E0,5.10545E0,1.7866656E0,1.0712737E0,3.238138E0,3.0649548E0,3.522925E1],"tree_param":{"num_deleted":"0","num_feature":"3","num_nodes":"43","size_leaf_vector":"1"}},{"base_weights":[-3.7685223E-2,4.4535187E-1,-4.2737117E-1,-3.1536755E-1,8.892883E-1,-1.7326789E-1,-1.6394136E-2,3.9342365E-1,-6.2530226E-1,1.3705511E-2,6.802461E-1,-2.1076588E-4,-9.173649E-1,-7.06426E-3,8.341228E-1,-1.50518315E-2,-5.4403123E-2,7.9106346E-2,9.180583E-1,2.2680017E-1,-2.4579455E-1,-4.3377334E-1,-1.1983266E0,-2.7235216E-3,1.37245655E-2,9.182881E-3,-3.7914205E-3,-2.332374E-3,1.0549261E-2,3.8974532E-3,1.3525135E-2,1.10497475E-2,-5.383828E-4,-5.346657E-3,5.3869556E-3,7.530334E-3,-1.3652118E-2,-1.2983825E-2,-3.626197E-3],"categories":[],"categories_nodes":[],"categories_segments":[],"categories_sizes":[],"default_left":[0,0,0,0,0,0,0,0,0,0,0,0,0,0,0,0,0,0,0,0,0,0,0,0,0,0,0,0,0,0,0,0,0,0,0,0,0,0,0],"id":15,"left_children":[1,3,5,7,9,11,-1,13,15,-1,17,19,21,-1,23,-1,25,27,29,31,33,35,37,-1,-1,-1,-1,-1,-1,-1,-1,-1,-1,-1,-1,-1,-1,-1,-1],"loss_changes":[2.3496733E1,1.911666E1,2.0979408E1,4.923559E0,2.637474E0,7.493429E0,0E0,4.026679E0,7.5538435E0,0E0,3.7477312E0,2.743634E0,9.720869E-1,0E0,3.6627812E0,0E0,3.5879273E0,2.8884187E0,3.8463268E0,6.362192E0,5.6450233E0,7.2211714E0,6.2475204E-2,0E0,0E0,0E0,0E0,0E0,0E0,0E0,0E0,0E0,0E0,0E0,0E0,0E0,0E0,0E0,0E0],"parents":[2147483647,0,0,1,1,2,2,3,3,4,4,5,5,7,7,8,8,10,10,11,11,12,12,14,14,16,16,17,17,18,18,19,19,20,20,21,21,22,22],"right_children":[2,4,6,8,10,12,-1,14,16,-1,18,20,22,-1,24,-1,26,28,30,32,34,36,38,-1,-1,-1,-1,-1,-1,-1,-1,-1,-1,-1,-1,-1,-1,-1,-1],"split_conditions":[5.6236863E0,-1.448584E0,2.4414517E-2,2.6787432E-2,-2.7172456E0,6.715443E2,-1.6394136E-2,2.2732006E-2,4.6292532E-2,1.3705511E-2,-2.5237029E0,1.6536223E-2,2.5265665E0,-7.06426E-3,-2.842494E0,-1.50518315E-2,4.7275238E-2,9.911626E-2,-9.075164E-3,4.5679543E1,2.1268046E-2,6.939962E2,1.6727842E-2,-2.7235216E-3,1.37245655E-2,9.182881E-3,-3.7914205E-3,-2.332374E-3,1.0549261E-2,3.8974532E-3,1.3525135E-2,1.10497475E-2,-5.383828E-4,-5.346657E-3,5.3869556E-3,7.530334E-3,-1.3652118E-2,-1.2983825E-2,-3.626197E-3],"split_indices":[0,0,1,1,2,0,0,1,1,0,2,1,2,0,0,0,1,1,0,0,1,0,1,0,0,0,0,0,0,0,0,0,0,0,0,0,0,0,0],"split_type":[0,0,0,0,0,0,0,0,0,0,0,0,0,0,0,0,0,0,0,0,0,0,0,0,0,0,0,0,0,0,0,0,0,0,0,0,0,0,0],"sum_hessian":[1.22816925E2,5.4776096E1,6.8040825E1,2.0292662E1,3.4483437E1,5.7193275E1,1.0847549E1,6.0918365E0,1.4200826E1,8.759873E0,2.5723562E1,4.721306E1,9.980214E0,1.5701809E0,4.5216556E0,4.9442053E0,9.256619E0,7.669443E0,1.805412E1,2.4574007E1,2.2639053E1,4.602417E0,5.3777976E0,1.6416142E0,2.8800414E0,1.8593951E0,7.397225E0,6.386283E0,1.2831602E0,9.003109E0,9.051009E0,5.239909E0,1.9334097E1,1.6779009E1,5.8600445E0,2.108006E0,2.494411E0,4.308343E0,1.0694548E0],"tree_param":{"num_deleted":"0","num_feature":"3","num_nodes":"39","size_leaf_vector":"1"}},{"base_weights":[4.4823807E-2,3.2412294E-1,-5.8818996E-1,-4.0431008E-1,5.1925755E-1,-3.5483435E-2,-1.1423119E0,-8.681286E-1,2.1686803E-1,9.617907E-1,2.8672196E-2,2.0673044E-1,-1.2906982E-2,-7.519339E-1,-1.5734533E-2,5.301036E-2,-1.508305E-2,5.314456E-1,-7.070986E-3,7.954708E-1,1.3146912E0,-1.0569249E0,3.3020574E-1,4.3227142E-1,-1.1276178E-2,-9.883805E-1,6.724282E-3,-1.0659104E-2,6.6969087E-3,1.19978655E-2,9.836274E-4,1.4094144E-2,6.4577917E-3,1.4576552E-2,4.4695926E-3,-3.4979295E-3,-1.2432241E-2,9.267342E-3,-3.1723175E-4,-5.259832E-3,6.299827E-3,-5.0047314E-4,-1.1314927E-2],"categories":[],"categories_nodes":[],"categories_segments":[],"categories_sizes":[],"default_left":[0,0,0,0,0,0,0,0,0,0,0,0,0,0,0,0,0,0,0,0,0,0,0,0,0,0,0,0,0,0,0,0,0,0,0,0,0,0,0,0,0,0,0],"id":16,"left_children":[1,3,5,7,9,11,13,15,17,19,21,23,-1,25,-1,27,-1,29,-1,31,33,35,37,39,-1,41,-1,-1,-1,-1,-1,-1,-1,-1,-1,-1,-1,-1,-1,-1,-1,-1,-1],"loss_changes":[2.0886309E1,1.18464775E1,1.1043728E1,5.333699E0,1.4085304E1,6.0893E0,1.853239E0,6.2271686E0,2.8273673E0,9.583874E-1,1.0778202E1,5.578061E0,0E0,4.498298E0,0E0,4.3297405E0,0E0,1.8685126E0,0E0,1.4554214E0,5.1532745E-1,5.088711E-1,5.5772524E0,3.209665E0,0E0,1.3087254E0,0E0,0E0,0E0,0E0,0E0,0E0,0E0,0E0,0E0,0E0,0E0,0E0,0E0,0E0,0E0,0E0,0E0],"parents":[2147483647,0,0,1,1,2,2,3,3,4,4,5,5,6,6,7,7,8,8,9,9,10,10,11,11,13,13,15,15,17,17,19,19,20,20,21,21,22,22,23,23,25,25],"right_children":[2,4,6,8,10,12,14,16,18,20,22,24,-1,26,-1,28,-1,30,-1,32,34,36,38,40,-1,42,-1,-1,-1,-1,-1,-1,-1,-1,-1,-1,-1,-1,-1,-1,-1,-1,-1],"split_conditions":[6.017848E1,-1.7231529E0,2.5265665E0,4.6292532E-2,2.8462713E0,6.8850653E2,2.1791458E-2,2.4760377E-2,-2.6791298E0,3.0162544E0,3.308167E1,2.367093E-2,-1.2906982E-2,2.0651946E-2,-1.5734533E-2,2.1268046E-2,-1.508305E-2,4.7275238E-2,-7.070986E-3,2.2732006E-2,9.29469E-2,6.2843146E0,4.494977E1,5.673405E2,-1.1276178E-2,1.33194355E-2,6.724282E-3,-1.0659104E-2,6.6969087E-3,1.19978655E-2,9.836274E-4,1.4094144E-2,6.4577917E-3,1.4576552E-2,4.4695926E-3,-3.4979295E-3,-1.2432241E-2,9.267342E-3,-3.1723175E-4,-5.259832E-3,6.299827E-3,-5.0047314E-4,-1.1314927E-2],"split_indices":[0,0,2,1,0,0,1,1,2,2,0,1,0,1,0,1,0,1,0,1,1,0,0,0,0,1,0,0,0,0,0,0,0,0,0,0,0,0,0,0,0,0,0],"split_type":[0,0,0,0,0,0,0,0,0,0,0,0,0,0,0,0,0,0,0,0,0,0,0,0,0,0,0,0,0,0,0,0,0,0,0,0,0,0,0,0,0,0,0],"sum_hessian":[1.1605679E2,8.086528E1,3.5191513E1,1.6859015E1,6.400626E1,1.8150957E1,1.7040556E1,9.424454E0,7.434561E0,3.31462E1,3.0860064E1,1.5915171E1,2.2357855E0,1.0383153E1,6.657402E0,4.240322E0,5.1841316E0,5.8631797E0,1.5713812E0,2.4740326E1,8.405874E0,6.163769E0,2.4696295E1,1.4192327E1,1.7228444E0,9.167432E0,1.2157211E0,1.2478062E0,2.9925158E0,1.6093161E0,4.253864E0,3.2000809E0,2.1540245E1,6.633174E0,1.7727002E0,1.8853122E0,4.278456E0,8.736431E0,1.5959865E1,2.1434124E0,1.2048914E1,1.3917775E0,7.775655E0],"tree_param":{"num_deleted":"0","num_feature":"3","num_nodes":"43","size_leaf_vector":"1"}},{"base_weights":[4.824655E-2,5.6969357E-1,-3.4850213E-1,-1.19727634E-1,9.349713E-1,-7.969036E-2,-1.4541054E0,5.513338E-1,-4.8387095E-1,1.4548838E-2,8.221134E-1,8.755028E-2,-9.015559E-1,-3.2078966E-3,-1.5255627E-2,-4.004762E-3,9.6869546E-1,-1.4247151E-2,9.081987E-2,4.8760355E-1,1.0036054E0,5.7844836E-1,-8.235838E-2,-1.0449581E0,-2.8713353E-4,-1.0256658E-3,1.3799723E-2,4.3601403E-3,-8.116789E-3,1.261094E-2,1.8966825E-4,5.587071E-3,1.1913321E-2,1.1655844E-2,-1.2398668E-3,-8.874353E-3,1.4217573E-3,-5.136056E-3,-1.4292942E-2],"categories":[],"categories_nodes":[],"categories_segments":[],"categories_sizes":[],"default_left":[0,0,0,0,0,0,0,0,0,0,0,0,0,0,0,0,0,0,0,0,0,0,0,0,0,0,0,0,0,0,0,0,0,0,0,0,0,0,0],"id":17,"left_children":[1,3,5,7,9,11,13,15,17,-1,19,21,23,-1,-1,-1,25,-1,27,29,31,33,35,37,-1,-1,-1,-1,-1,-1,-1,-1,-1,-1,-1,-1,-1,-1,-1],"loss_changes":[2.511364E1,1.3312164E1,2.0394878E1,4.9195123E0,8.2102394E-1,7.8549404E0,5.9902763E-1,3.2342398E0,7.0909843E0,0E0,1.3650398E0,4.0445027E0,1.178379E0,0E0,0E0,0E0,2.464932E0,0E0,3.1368806E0,4.5754514E0,9.092655E-1,5.2774935E0,6.719415E0,9.534788E-1,0E0,0E0,0E0,0E0,0E0,0E0,0E0,0E0,0E0,0E0,0E0,0E0,0E0,0E0,0E0],"parents":[2147483647,0,0,1,1,2,2,3,3,4,4,5,5,6,6,7,7,8,8,10,10,11,11,12,12,16,16,18,18,19,19,20,20,21,21,22,22,23,23],"right_children":[2,4,6,8,10,12,14,16,18,-1,20,22,24,-1,-1,-1,26,-1,28,30,32,34,36,38,-1,-1,-1,-1,-1,-1,-1,-1,-1,-1,-1,-1,-1,-1,-1],"split_conditions":[5.6236863E0,-1.7231529E0,2.3748202E-2,2.6404126E-2,2.342793E-2,6.743138E2,6.2843146E0,2.2732006E-2,4.6292532E-2,1.4548838E-2,-2.5237029E0,4.5679543E1,7.004754E2,-3.2078966E-3,-1.5255627E-2,-4.004762E-3,-3.1496375E0,-1.4247151E-2,-2.6791298E0,-2.9620075E0,-5.3667074E-1,1.6431121E-2,4.904752E1,-2.5065944E0,-2.8713353E-4,-1.0256658E-3,1.3799723E-2,4.3601403E-3,-8.116789E-3,1.261094E-2,1.8966825E-4,5.587071E-3,1.1913321E-2,1.1655844E-2,-1.2398668E-3,-8.874353E-3,1.4217573E-3,-5.136056E-3,-1.4292942E-2],"split_indices":[0,0,1,1,1,0,0,1,1,0,2,0,0,0,0,0,0,0,2,2,0,1,0,2,0,0,0,0,0,0,0,0,0,0,0,0,0,0,0],"split_type":[0,0,0,0,0,0,0,0,0,0,0,0,0,0,0,0,0,0,0,0,0,0,0,0,0,0,0,0,0,0,0,0,0,0,0,0,0,0,0],"sum_hessian":[1.1943066E2,5.1417156E1,6.8013504E1,1.8040306E1,3.337685E1,5.557364E1,1.2439863E1,6.165028E0,1.18752775E1,3.83206E0,2.954479E1,4.6919506E1,8.654132E0,1.0634094E0,1.1376453E1,1.8916049E0,4.273423E0,3.942231E0,7.933047E0,1.1688406E1,1.7856384E1,1.1445845E1,3.5473663E1,7.263584E0,1.3905479E0,1.3937377E0,2.8796856E0,6.1121206E0,1.820926E0,3.771883E0,7.916523E0,6.4786463E0,1.1377738E1,5.8754516E0,5.5703926E0,7.0921407E0,2.8381521E1,4.0293164E0,3.2342677E0],"tree_param":{"num_deleted":"0","num_feature":"3","num_nodes":"39","size_leaf_vector":"1"}},{"base_weights":[5.2399658E-2,5.516596E-1,-3.378121E-1,-3.3753034E-1,9.500466E-1,-3.900923E-2,-1.5471776E0,5.899313E-3,-5.832482E-1,1.2010529E0,5.979008E-1,9.66275E-2,-7.4532324E-1,-4.80309E-3,-1.619094E-2,-1.3321633E-2,-3.2161266E-1,1.53439045E-2,8.476091E-1,-1.2426147E-1,9.565182E-1,3.9470148E-1,-2.1829258E-1,-1.3377206E-2,-3.4285164E-1,-7.0527503E-3,3.0544433E-3,1.7853555E-3,1.4227453E-2,-7.1664625E-3,1.1278167E-2,1.452998E-2,5.868382E-3,1.2519216E-2,1.1262253E-3,-5.4614116E-3,5.7198545E-3,1.1359634E-2,-8.765751E-3],"categories":[],"categories_nodes":[],"categories_segments":[],"categories_sizes":[],"default_left":[0,0,0,0,0,0,0,0,0,0,0,0,0,0,0,0,0,0,0,0,0,0,0,0,0,0,0,0,0,0,0,0,0,0,0,0,0,0,0],"id":18,"left_children":[1,3,5,7,9,11,13,-1,15,17,19,21,23,-1,-1,-1,25,-1,27,29,31,33,35,-1,37,-1,-1,-1,-1,-1,-1,-1,-1,-1,-1,-1,-1,-1,-1],"loss_changes":[2.467635E1,1.999093E1,2.5661316E1,4.42762E0,2.6945877E0,5.6384406E0,3.0236435E-1,0E0,2.4457426E0,1.2384224E0,4.795724E0,4.7447357E0,1.8004451E0,0E0,0E0,0E0,3.1478324E0,0E0,4.6307125E0,5.909134E0,1.3831224E0,6.110153E0,6.731654E0,0E0,6.5101275E0,0E0,0E0,0E0,0E0,0E0,0E0,0E0,0E0,0E0,0E0,0E0,0E0,0E0,0E0],"parents":[2147483647,0,0,1,1,2,2,3,3,4,4,5,5,6,6,8,8,9,9,10,10,11,11,12,12,16,16,18,18,19,19,20,20,21,21,22,22,24,24],"right_children":[2,4,6,8,10,12,14,-1,16,18,20,22,24,-1,-1,-1,26,-1,28,30,32,34,36,-1,38,-1,-1,-1,-1,-1,-1,-1,-1,-1,-1,-1,-1,-1,-1],"split_conditions":[5.6236863E0,-1.7846153E0,2.3748202E-2,-3.487783E0,4.7051378E-2,6.743138E2,6.2843146E0,5.899313E-3,-3.074871E0,2.2880894E-1,6.1604295E-2,1.6536223E-2,1.1322611E-2,-4.80309E-3,-1.619094E-2,-1.3321633E-2,4.6292532E-2,1.53439045E-2,1.8220353E0,-5.555464E-1,8.5289784E-2,4.5679543E1,2.1537751E-2,-1.3377206E-2,1.33194355E-2,-7.0527503E-3,3.0544433E-3,1.7853555E-3,1.4227453E-2,-7.1664625E-3,1.1278167E-2,1.452998E-2,5.868382E-3,1.2519216E-2,1.1262253E-3,-5.4614116E-3,5.7198545E-3,1.1359634E-2,-8.765751E-3],"split_indices":[0,0,1,2,1,0,0,0,2,0,1,1,1,0,0,0,1,0,0,0,1,0,1,0,1,0,0,0,0,0,0,0,0,0,0,0,0,0,0],"split_type":[0,0,0,0,0,0,0,0,0,0,0,0,0,0,0,0,0,0,0,0,0,0,0,0,0,0,0,0,0,0,0,0,0,0,0,0,0,0,0],"sum_hessian":[1.2470762E2,5.4527798E1,7.0179825E1,1.691862E1,3.760918E1,5.710333E1,1.3076497E1,3.250136E0,1.3668483E1,2.0550383E1,1.7058796E1,4.862822E1,8.475106E0,1.3107324E0,1.1765764E1,2.479473E0,1.118901E1,8.856471E0,1.1693911E1,5.87718E0,1.1181617E1,2.4852152E1,2.377607E1,2.488509E0,5.9865975E0,6.864347E0,4.3246627E0,6.0112557E0,5.682655E0,4.279902E0,1.5972779E0,3.5216384E0,7.6599784E0,5.3018794E0,1.9550272E1,1.7022976E1,6.753093E0,1.2883966E0,4.698201E0],"tree_param":{"num_deleted":"0","num_feature":"3","num_nodes":"39","size_leaf_vector":"1"}},{"base_weights":[-6.820044E-2,4.7887194E-1,-4.7255927E-1,-3.6067867E-1,9.872587E-1,-2.2309552E-1,-1.4478072E0,6.080927E-1,-8.561174E-1,1.4917425E-2,8.544574E-1,-4.8989907E-2,-9.790555E-1,-4.777076E-3,-1.5097188E0,-1.0545297E-2,1.1103034E0,-1.37244165E-2,-5.545681E-1,4.841476E-1,9.818351E-1,4.957635E-1,-1.6980903E-1,-1.3887836E-2,-6.3816375E-1,-5.775935E-3,-1.586489E-2,3.8610767E-3,1.25164455E-2,1.0147735E-3,-8.43437E-3,7.4624238E-3,-6.1317747E-3,1.4406481E-2,6.292548E-3,-7.728209E-3,9.318897E-3,-6.0883854E-3,3.9163904E-4,1.1312515E-2,-1.1738111E-2],"categories":[],"categories_nodes":[],"categories_segments":[],"categories_sizes":[],"default_left":[0,0,0,0,0,0,0,0,0,0,0,0,0,0,0,0,0,0,0,0,0,0,0,0,0,0,0,0,0,0,0,0,0,0,0,0,0,0,0,0,0],"id":19,"left_children":[1,3,5,7,9,11,13,15,17,-1,19,21,23,-1,25,-1,27,-1,29,31,33,35,37,-1,39,-1,-1,-1,-1,-1,-1,-1,-1,-1,-1,-1,-1,-1,-1,-1,-1],"loss_changes":[2.7051128E1,2.2564697E1,1.6762941E1,1.0291382E1,9.145298E-1,7.4681597E0,1.270256E-1,7.410602E0,1.4006386E0,0E0,8.55175E-1,3.2084124E0,5.9948826E-1,0E0,5.302429E-4,0E0,1.540575E-1,0E0,2.0647018E0,3.1012876E0,2.3313122E0,5.6287074E0,3.6566553E0,0E0,8.584717E0,0E0,0E0,0E0,0E0,0E0,0E0,0E0,0E0,0E0,0E0,0E0,0E0,0E0,0E0,0E0,0E0],"parents":[2147483647,0,0,1,1,2,2,3,3,4,4,5,5,6,6,7,7,8,8,10,10,11,11,12,12,14,14,16,16,18,18,19,19,20,20,21,21,22,22,24,24],"right_children":[2,4,6,8,10,12,14,16,18,-1,20,22,24,-1,26,-1,28,-1,30,32,34,36,38,-1,40,-1,-1,-1,-1,-1,-1,-1,-1,-1,-1,-1,-1,-1,-1,-1,-1],"split_conditions":[5.6236863E0,-1.448584E0,2.4414517E-2,2.6787432E-2,-2.9053698E0,6.743138E2,6.2843146E0,2.1268046E-2,4.0888365E-2,1.4917425E-2,-2.5237029E0,4.2471565E1,1.1322611E-2,-4.777076E-3,2.6662836E-2,-1.0545297E-2,-3.2212217E0,-1.37244165E-2,4.7275238E-2,-2.559188E0,4.5245964E-2,3.308167E1,5.0286476E1,-1.3887836E-2,1.33194355E-2,-5.775935E-3,-1.586489E-2,3.8610767E-3,1.25164455E-2,1.0147735E-3,-8.43437E-3,7.4624238E-3,-6.1317747E-3,1.4406481E-2,6.292548E-3,-7.728209E-3,9.318897E-3,-6.0883854E-3,3.9163904E-4,1.1312515E-2,-1.1738111E-2],"split_indices":[0,0,1,1,2,0,0,1,1,0,2,0,1,0,1,0,0,0,1,2,1,0,0,0,1,0,0,0,0,0,0,0,0,0,0,0,0,0,0,0,0],"split_type":[0,0,0,0,0,0,0,0,0,0,0,0,0,0,0,0,0,0,0,0,0,0,0,0,0,0,0,0,0,0,0,0,0,0,0,0,0,0,0,0,0],"sum_hessian":[1.2026216E2,5.1033173E1,6.922899E1,1.9357203E1,3.167597E1,5.610608E1,1.3122909E1,6.4728785E0,1.2884324E1,4.468438E0,2.7207531E1,4.646866E1,9.637421E0,1.3101399E0,1.1812769E1,1.246484E0,5.2263947E0,3.4410784E0,9.443246E0,8.192208E0,1.9015324E1,7.8719563E0,3.8596703E1,2.9807703E0,6.65665E0,1.5474683E0,1.0265301E1,1.462854E0,3.7635405E0,3.085203E0,6.3580427E0,6.8710175E0,1.3211904E0,6.921873E0,1.2093451E1,1.8164206E0,6.055536E0,1.1829894E1,2.676681E1,1.2884743E0,5.368176E0],"tree_param":{"num_deleted":"0","num_feature":"3","num_nodes":"41","size_leaf_vector":"1"}},{"base_weights":[4.1462198E-2,4.1143566E-1,-5.1184773E-1,-3.3503172E-1,6.8894315E-1,-2.8810346E-1,-1.5284608E-2,3.275543E-1,-6.082984E-1,1.0484043E0,2.523583E-2,-1.1928053E0,-1.23927064E-1,-1.0490177E-2,8.288173E-1,-1.2925494E-2,-1.17795214E-1,1.3575006E-2,8.859853E-1,7.006066E-1,-8.4105176E-1,-1.4750609E-2,-3.4050464E-3,1.3117807E-1,-7.536161E-1,-2.6009916E-3,1.357349E-2,3.9884327E-3,-6.4735347E-3,2.9143773E-4,1.1365252E-2,8.658941E-3,6.2783965E-4,-1.1544121E-2,9.438786E-6,-5.5223452E-5,8.516633E-3,-1.3163362E-2,-4.2661843E-3],"categories":[],"categories_nodes":[],"categories_segments":[],"categories_sizes":[],"default_left":[0,0,0,0,0,0,0,0,0,0,0,0,0,0,0,0,0,0,0,0,0,0,0,0,0,0,0,0,0,0,0,0,0,0,0,0,0,0,0],"id":20,"left_children":[1,3,5,7,9,11,-1,13,15,17,19,21,23,-1,25,-1,27,-1,29,31,33,-1,-1,35,37,-1,-1,-1,-1,-1,-1,-1,-1,-1,-1,-1,-1,-1,-1],"loss_changes":[2.5545986E1,1.570977E1,1.0941596E1,3.98773E0,1.3047497E1,6.1268477E0,0E0,5.533754E0,4.9371805E0,5.8063126E-1,1.2452612E1,1.0308056E0,6.02189E0,0E0,3.5264237E0,0E0,2.9756856E0,0E0,5.583908E0,1.2043557E0,2.4647465E0,0E0,0E0,2.673098E0,1.4219065E0,0E0,0E0,0E0,0E0,0E0,0E0,0E0,0E0,0E0,0E0,0E0,0E0,0E0,0E0],"parents":[2147483647,0,0,1,1,2,2,3,3,4,4,5,5,7,7,8,8,9,9,10,10,11,11,12,12,14,14,16,16,18,18,19,19,20,20,23,23,24,24],"right_children":[2,4,6,8,10,12,-1,14,16,18,20,22,24,-1,26,-1,28,-1,30,32,34,-1,-1,36,38,-1,-1,-1,-1,-1,-1,-1,-1,-1,-1,-1,-1,-1,-1],"split_conditions":[4.6749542E1,-1.448584E0,2.3748202E-2,2.6787432E-2,2.8462713E0,5.0491222E1,-1.5284608E-2,2.1268046E-2,4.6292532E-2,-2.722208E0,2.050472E-2,2.6710835E0,6.715443E2,-1.0490177E-2,-2.842494E0,-1.2925494E-2,-2.2536366E0,1.3575006E-2,-2.5547676E0,4.5679543E1,3.4793102E1,-1.4750609E-2,-3.4050464E-3,6.6382574E2,1.1294158E-2,-2.6009916E-3,1.357349E-2,3.9884327E-3,-6.4735347E-3,2.9143773E-4,1.1365252E-2,8.658941E-3,6.2783965E-4,-1.1544121E-2,9.438786E-6,-5.5223452E-5,8.516633E-3,-1.3163362E-2,-4.2661843E-3],"split_indices":[0,0,1,1,0,0,0,1,1,2,1,2,0,0,0,0,0,0,2,0,0,0,0,0,1,0,0,0,0,0,0,0,0,0,0,0,0,0,0],"split_type":[0,0,0,0,0,0,0,0,0,0,0,0,0,0,0,0,0,0,0,0,0,0,0,0,0,0,0,0,0,0,0,0,0,0,0,0,0,0,0],"sum_hessian":[1.2276235E2,7.3723305E1,4.9039047E1,1.9923578E1,5.379973E1,4.124493E1,7.794117E0,5.7596273E0,1.4163951E1,3.4522736E1,1.9276995E1,5.37275E0,3.587218E1,1.2457609E0,4.5138664E0,5.231236E0,8.932714E0,9.357211E0,2.5165524E1,1.0939585E1,8.33741E0,3.4872117E0,1.8855381E0,2.6092882E1,9.779299E0,1.6409516E0,2.872915E0,4.6464567E0,4.2862577E0,5.946145E0,1.9219378E1,8.404131E0,2.5354533E0,5.8056965E0,2.5317132E0,2.276578E1,3.3271031E0,2.4822135E0,7.2970853E0],"tree_param":{"num_deleted":"0","num_feature":"3","num_nodes":"39","size_leaf_vector":"1"}},{"base_weights":[3.85789E-2,5.037557E-1,-2.9312995E-1,-2.5311342E-1,9.0749675E-1,-3.972722E-2,-1.4174072E0,6.113485E-1,-6.038993E-1,7.315158E-1,1.2851875E0,6.3462996E-1,-1.4334676E-1,-4.6888976E-3,-1.4802898E-2,-1.8078531E-4,9.208863E-1,-1.2191726E0,-1.8975526E-1,1.1700257E-2,4.0507665E-1,1.438659E-2,2.4460214E-3,-7.643938E-3,1.1390378E0,-5.776164E-1,-3.939042E-4,1.0057528E-3,1.2062562E-2,-1.3539616E-2,-3.3712783E-3,1.0087112E-2,-6.7713396E-3,1.9181615E-3,9.479531E-3,1.3652586E-2,5.9119016E-3,1.0330032E-4,-1.49864815E-2,-1.2453258E-2,9.3365496E-4],"categories":[],"categories_nodes":[],"categories_segments":[],"categories_sizes":[],"default_left":[0,0,0,0,0,0,0,0,0,0,0,0,0,0,0,0,0,0,0,0,0,0,0,0,0,0,0,0,0,0,0,0,0,0,0,0,0,0,0,0,0],"id":21,"left_children":[1,3,5,7,9,11,13,15,17,19,21,23,25,-1,-1,-1,27,29,31,-1,33,-1,-1,-1,35,37,39,-1,-1,-1,-1,-1,-1,-1,-1,-1,-1,-1,-1,-1,-1],"loss_changes":[1.9540068E1,1.6328157E1,2.1024607E1,6.163617E0,1.3578415E0,4.3823686E0,1.1597633E-1,1.1880963E0,3.360403E0,3.2343721E0,1.1920404E0,6.7730007E0,3.3551946E0,0E0,0E0,0E0,8.266978E-1,1.958313E-1,6.2958336E0,0E0,1.7145591E0,0E0,0E0,0E0,4.5404434E-3,7.2637568E0,4.9795527E0,0E0,0E0,0E0,0E0,0E0,0E0,0E0,0E0,0E0,0E0,0E0,0E0,0E0,0E0],"parents":[2147483647,0,0,1,1,2,2,3,3,4,4,5,5,6,6,7,7,8,8,9,9,10,10,11,11,12,12,16,16,17,17,18,18,20,20,24,24,25,25,26,26],"right_children":[2,4,6,8,10,12,14,16,18,20,22,24,26,-1,-1,-1,28,30,32,-1,34,-1,-1,-1,36,38,40,-1,-1,-1,-1,-1,-1,-1,-1,-1,-1,-1,-1,-1,-1],"split_conditions":[5.6236863E0,-1.448584E0,2.4414517E-2,2.6787432E-2,3.0162544E0,4.1482117E1,6.2843146E0,-3.1496375E0,4.6292532E-2,-2.7172456E0,9.29469E-2,3.308167E1,4.904752E1,-4.6888976E-3,-1.4802898E-2,-1.8078531E-4,2.2827957E-2,-2.1955392E0,4.7275238E-2,1.1700257E-2,9.911626E-2,1.438659E-2,2.4460214E-3,-7.643938E-3,1.8428305E-2,4.6749542E1,1.04180835E-2,1.0057528E-3,1.2062562E-2,-1.3539616E-2,-3.3712783E-3,1.0087112E-2,-6.7713396E-3,1.9181615E-3,9.479531E-3,1.3652586E-2,5.9119016E-3,1.0330032E-4,-1.49864815E-2,-1.2453258E-2,9.3365496E-4],"split_indices":[0,0,1,1,2,0,0,0,1,2,1,0,0,0,0,0,1,0,1,0,1,0,0,0,1,0,1,0,0,0,0,0,0,0,0,0,0,0,0,0,0],"split_type":[0,0,0,0,0,0,0,0,0,0,0,0,0,0,0,0,0,0,0,0,0,0,0,0,0,0,0,0,0,0,0,0,0,0,0,0,0,0,0,0,0],"sum_hessian":[1.2467721E2,5.16818E1,7.299541E1,1.8108313E1,3.357349E1,6.0413944E1,1.2581464E1,5.0126224E0,1.3095691E1,2.490574E1,8.6677475E0,7.364043E0,5.30499E1,1.3080169E0,1.1273447E1,1.9628586E0,3.0497637E0,4.4864936E0,8.609198E0,9.525633E0,1.5380109E1,7.2203074E0,1.4474404E0,1.8148776E0,5.5491657E0,1.2385122E1,4.066478E1,1.136183E0,1.9135807E0,3.4276705E0,1.0588229E0,2.1796825E0,6.429515E0,1.2013949E1,3.366159E0,2.8714345E0,2.6777315E0,8.163003E0,4.22212E0,1.987866E0,3.867691E1],"tree_param":{"num_deleted":"0","num_feature":"3","num_nodes":"41","size_leaf_vector":"1"}},{"base_weights":[-4.0966817E-3,2.671011E-1,-6.2573355E-1,7.717144E-2,6.5654135E-1,-3.5094926E-1,-1.5032273E-2,3.6927664E-1,-2.5863102E-1,9.804706E-1,2.0874657E-1,-1.8138416E-2,-1.016264E0,6.5843195E-1,-5.640976E-1,-1.0266784E0,1.34939E-1,1.3459892E-2,6.4547086E-1,1.0629131E0,-1.2282254E0,2.755805E-1,-4.8655382E-1,-1.1782055E0,-2.0668558E-4,2.5481924E-3,9.332384E-3,-1.4077963E-2,1.4574134E-3,-2.9791882E-3,-1.1401628E-2,-7.960417E-3,4.487969E-3,-4.9902634E-3,9.671062E-3,-9.044289E-4,1.2982034E-2,-1.4027448E-2,-2.703697E-3,-2.3737125E-4,1.1221916E-2,-1.243814E-2,-9.5884624E-4,-5.9253257E-3,-1.4655807E-2],"categories":[],"categories_nodes":[],"categories_segments":[],"categories_sizes":[],"default_left":[0,0,0,0,0,0,0,0,0,0,0,0,0,0,0,0,0,0,0,0,0,0,0,0,0,0,0,0,0,0,0,0,0,0,0,0,0,0,0,0,0,0,0,0,0],"id":22,"left_children":[1,3,5,7,9,11,-1,13,15,17,19,21,23,25,27,29,31,-1,33,35,37,39,41,43,-1,-1,-1,-1,-1,-1,-1,-1,-1,-1,-1,-1,-1,-1,-1,-1,-1,-1,-1,-1,-1],"loss_changes":[2.0522415E1,6.2192125E0,8.387692E0,5.7956533E0,3.8068123E0,6.5050316E0,0E0,8.87019E0,8.488089E0,1.0630093E0,1.7112942E1,2.9760027E0,1.5565443E0,2.479968E0,4.9882727E0,4.4391632E-1,5.951954E0,0E0,4.220155E0,2.4548635E0,5.009055E-1,3.4055128E0,2.3427753E0,5.4802036E-1,0E0,0E0,0E0,0E0,0E0,0E0,0E0,0E0,0E0,0E0,0E0,0E0,0E0,0E0,0E0,0E0,0E0,0E0,0E0,0E0,0E0],"parents":[2147483647,0,0,1,1,2,2,3,3,4,4,5,5,7,7,8,8,9,9,10,10,11,11,12,12,13,13,14,14,15,15,16,16,18,18,19,19,20,20,21,21,22,22,23,23],"right_children":[2,4,6,8,10,12,-1,14,16,18,20,22,24,26,28,30,32,-1,34,36,38,40,42,44,-1,-1,-1,-1,-1,-1,-1,-1,-1,-1,-1,-1,-1,-1,-1,-1,-1,-1,-1,-1,-1],"split_conditions":[6.017848E1,2.6567333E0,2.367093E-2,2.871293E-2,1.0550953E0,6.743138E2,-1.5032273E-2,4.5679543E1,4.135943E-2,4.476001E-2,1.8298764E-2,2.6624663E0,7.004754E2,2.1268046E-2,1.2597078E-2,3.0711189E-2,-2.4068868E0,1.3459892E-2,-5.3667074E-1,1.2982936E-2,3.185955E-2,2.0665549E-2,2.9300692E0,-2.5065944E0,-2.0668558E-4,2.5481924E-3,9.332384E-3,-1.4077963E-2,1.4574134E-3,-2.9791882E-3,-1.1401628E-2,-7.960417E-3,4.487969E-3,-4.9902634E-3,9.671062E-3,-9.044289E-4,1.2982034E-2,-1.4027448E-2,-2.703697E-3,-2.3737125E-4,1.1221916E-2,-1.243814E-2,-9.5884624E-4,-5.9253257E-3,-1.4655807E-2],"split_indices":[0,2,1,1,0,0,0,0,1,1,1,2,0,1,1,1,0,0,0,1,1,1,2,2,0,0,0,0,0,0,0,0,0,0,0,0,0,0,0,0,0,0,0,0,0],"split_type":[0,0,0,0,0,0,0,0,0,0,0,0,0,0,0,0,0,0,0,0,0,0,0,0,0,0,0,0,0,0,0,0,0,0,0,0,0,0,0,0,0,0,0,0,0],"sum_hessian":[1.1974082E2,8.376673E1,3.5974087E1,5.7111607E1,2.6655125E1,2.8461428E1,7.512658E0,3.0489744E1,2.6621864E1,1.4776461E1,1.1878665E1,1.9656105E1,8.805324E0,2.3503141E1,6.986603E0,8.474786E0,1.814708E1,5.623152E0,9.153309E0,7.6134057E0,4.2652593E0,1.23338585E1,7.322246E0,7.415685E0,1.3896382E0,1.0301066E1,1.3202075E1,2.743033E0,4.24357E0,1.630357E0,6.8444285E0,4.188029E0,1.395905E1,1.8870307E0,7.2662783E0,1.3943133E0,6.2190924E0,3.2150238E0,1.0502353E0,9.830328E0,2.5035303E0,1.7487409E0,5.573505E0,3.4488263E0,3.9668586E0],"tree_param":{"num_deleted":"0","num_feature":"3","num_nodes":"45","size_leaf_vector":"1"}},{"base_weights":[-1.5067362E-2,4.3841916E-1,-3.7933132E-1,-4.795224E-1,8.180867E-1,-1.3436164E-1,-1.4760888E-2,2.3184724E-1,-8.298366E-1,1.0719036E0,5.060687E-1,-4.7876596E-2,-1.3883796E-2,-6.821779E-3,6.661171E-1,-1.456471E-2,-1.1895474E-1,1.4820297E-2,7.0428264E-1,-6.4926236E-3,7.0039225E-1,-9.8400426E-1,6.7448795E-2,-2.8718023E-3,1.2406917E-2,6.0985023E-3,-3.9804117E-3,7.391359E-4,1.3699104E-2,-1.7241538E-3,1.0909647E-2,-3.8718586E-4,-1.4125902E-2,2.983264E-3,-2.1426415E-3],"categories":[],"categories_nodes":[],"categories_segments":[],"categories_sizes":[],"default_left":[0,0,0,0,0,0,0,0,0,0,0,0,0,0,0,0,0,0,0,0,0,0,0,0,0,0,0,0,0,0,0,0,0,0,0],"id":23,"left_children":[1,3,5,7,9,11,-1,13,15,17,19,21,-1,-1,23,-1,25,-1,27,-1,29,31,33,-1,-1,-1,-1,-1,-1,-1,-1,-1,-1,-1,-1],"loss_changes":[2.092134E1,2.005944E1,1.8665867E1,4.464182E0,2.6483154E0,6.2773714E0,0E0,3.009769E0,5.040469E0,2.17107E0,4.937541E0,6.085684E0,0E0,0E0,3.0238988E0,0E0,1.5795602E0,0E0,5.416168E0,0E0,6.178775E0,2.4488502E0,3.3534384E0,0E0,0E0,0E0,0E0,0E0,0E0,0E0,0E0,0E0,0E0,0E0,0E0],"parents":[2147483647,0,0,1,1,2,2,3,3,4,4,5,5,7,7,8,8,9,9,10,10,11,11,14,14,16,16,18,18,20,20,21,21,22,22],"right_children":[2,4,6,8,10,12,-1,14,16,18,20,22,-1,-1,24,-1,26,-1,28,-1,30,32,34,-1,-1,-1,-1,-1,-1,-1,-1,-1,-1,-1,-1],"split_conditions":[5.6236863E0,-1.8633363E0,2.4414517E-2,2.6404126E-2,4.7051378E-2,3.5010312E0,-1.4760888E-2,2.2732006E-2,4.6292532E-2,2.2880894E-1,-1.448584E0,1.0910112E-2,-1.3883796E-2,-6.821779E-3,-2.842494E0,-1.456471E-2,4.7275238E-2,1.4820297E-2,1.8220353E0,-6.4926236E-3,6.1604295E-2,-3.1212268E0,2.5390723E0,-2.8718023E-3,1.2406917E-2,6.0985023E-3,-3.9804117E-3,7.391359E-4,1.3699104E-2,-1.7241538E-3,1.0909647E-2,-3.8718586E-4,-1.4125902E-2,2.983264E-3,-2.1426415E-3],"split_indices":[0,0,1,1,1,2,0,1,1,0,0,1,0,0,0,0,1,0,0,0,1,2,2,0,0,0,0,0,0,0,0,0,0,0,0],"split_type":[0,0,0,0,0,0,0,0,0,0,0,0,0,0,0,0,0,0,0,0,0,0,0,0,0,0,0,0,0,0,0,0,0,0,0],"sum_hessian":[1.2464431E2,5.543167E1,6.921264E1,1.6141804E1,3.9289867E1,5.7493507E1,1.1719133E1,5.437749E0,1.0704056E1,2.0322643E1,1.8967224E1,5.4755405E1,2.738102E0,1.5675666E0,3.870182E0,5.131698E0,5.572357E0,8.17312E0,1.2149524E1,2.3938274E0,1.6573397E1,5.179508E0,4.9575897E1,1.6435299E0,2.2266524E0,1.2148188E0,4.3575387E0,6.810666E0,5.338858E0,5.296323E0,1.1277075E1,1.9559101E0,3.2235982E0,2.7213842E1,2.2362055E1],"tree_param":{"num_deleted":"0","num_feature":"3","num_nodes":"35","size_leaf_vector":"1"}},{"base_weights":[1.5130427E-2,3.5747722E-1,-4.8450902E-1,-3.342573E-1,5.5511427E-1,-2.645533E-1,-1.4951604E-2,3.977605E-1,-7.112876E-1,8.492785E-1,1.247946E-2,-1.3977248E-2,-1.3873896E-1,-5.3311074E-3,7.3698497E-1,-1.4768612E-2,2.991584E-1,1.1049944E0,5.396575E-1,4.9575284E-1,-1.1204065E0,1.7450882E-1,-8.1943333E-1,-1.0554725E-3,1.0741968E-2,6.7211175E-3,-5.6482884E-3,1.456936E-2,7.5390534E-3,-3.7195272E-4,1.1563516E-2,9.104557E-3,1.4734322E-3,-1.2313928E-2,-2.634544E-3,-6.401079E-3,2.7446742E-3,-1.1413533E-3,-9.553921E-3],"categories":[],"categories_nodes":[],"categories_segments":[],"categories_sizes":[],"default_left":[0,0,0,0,0,0,0,0,0,0,0,0,0,0,0,0,0,0,0,0,0,0,0,0,0,0,0,0,0,0,0,0,0,0,0,0,0,0,0],"id":24,"left_children":[1,3,5,7,9,11,-1,13,15,17,19,-1,21,-1,23,-1,25,27,29,31,33,35,37,-1,-1,-1,-1,-1,-1,-1,-1,-1,-1,-1,-1,-1,-1,-1,-1],"loss_changes":[2.1577116E1,1.04157095E1,1.1008974E1,5.0446057E0,9.339663E0,5.9861712E0,0E0,2.4475198E0,9.528404E0,2.4099655E0,1.2384998E1,0E0,8.698966E0,0E0,1.5875037E0,0E0,2.2791336E0,1.3531857E0,6.848142E0,2.1543753E0,3.192625E-1,2.4804778E0,1.1204443E0,0E0,0E0,0E0,0E0,0E0,0E0,0E0,0E0,0E0,0E0,0E0,0E0,0E0,0E0,0E0,0E0],"parents":[2147483647,0,0,1,1,2,2,3,3,4,4,5,5,7,7,8,8,9,9,10,10,12,12,14,14,16,16,17,17,18,18,19,19,20,20,21,21,22,22],"right_children":[2,4,6,8,10,12,-1,14,16,18,20,-1,22,-1,24,-1,26,28,30,32,34,36,38,-1,-1,-1,-1,-1,-1,-1,-1,-1,-1,-1,-1,-1,-1,-1,-1],"split_conditions":[4.7285297E1,-1.8633363E0,2.3748202E-2,2.6404126E-2,2.8462713E0,4.904752E1,-1.4951604E-2,2.1537751E-2,4.6292532E-2,4.7051378E-2,2.2550037E-2,-1.3977248E-2,6.706453E2,-5.3311074E-3,-2.842494E0,-1.4768612E-2,-2.2607095E0,2.2880894E-1,-5.3667074E-1,-2.722208E0,3.5489414E-2,1.1831076E-2,-3.0532575E0,-1.0554725E-3,1.0741968E-2,6.7211175E-3,-5.6482884E-3,1.456936E-2,7.5390534E-3,-3.7195272E-4,1.1563516E-2,9.104557E-3,1.4734322E-3,-1.2313928E-2,-2.634544E-3,-6.401079E-3,2.7446742E-3,-1.1413533E-3,-9.553921E-3],"split_indices":[0,0,1,1,0,0,0,1,1,1,1,0,0,0,0,0,0,0,0,2,1,1,2,0,0,0,0,0,0,0,0,0,0,0,0,0,0,0,0],"split_type":[0,0,0,0,0,0,0,0,0,0,0,0,0,0,0,0,0,0,0,0,0,0,0,0,0,0,0,0,0,0,0,0,0,0,0,0,0,0,0],"sum_hessian":[1.2413254E2,7.3829796E1,5.030274E1,1.6252918E1,5.757688E1,4.234799E1,7.954748E0,5.506625E0,1.0746292E1,3.697014E1,2.060674E1,3.2216997E0,3.912629E1,1.3180864E0,4.188539E0,5.8513618E0,4.8949304E0,1.8840725E1,1.8129414E1,1.4839021E1,5.767721E0,2.7304636E1,1.1821652E1,1.3935983E0,2.7949407E0,3.5741677E0,1.3207628E0,7.835968E0,1.1004757E1,9.852819E0,8.276593E0,6.038443E0,8.800577E0,4.719536E0,1.0481853E0,2.3936625E0,2.4910975E1,2.2078297E0,9.613822E0],"tree_param":{"num_deleted":"0","num_feature":"3","num_nodes":"39","size_leaf_vector":"1"}},{"base_weights":[1.00135915E-2,5.4638785E-1,-4.212676E-1,-2.1824177E-1,9.310273E-1,-1.626316E-1,-1.4764068E-2,1.1787188E-2,-5.230531E-1,7.9782516E-1,1.4015225E-2,1.1448891E-2,-8.8126135E-1,-7.670589E-1,4.6991667E-1,9.1202486E-1,-5.965334E-2,-1.09503284E-1,1.1216969E-2,-1.0045732E0,-6.2643616E-5,2.2904628E-3,-1.081045E-2,9.435322E-3,-4.107716E-3,1.3397849E-2,7.600476E-3,1.0074446E-2,-7.594261E-3,1.1777222E-3,-8.058808E-3,-5.394465E-3,-1.2656392E-2],"categories":[],"categories_nodes":[],"categories_segments":[],"categories_sizes":[],"default_left":[0,0,0,0,0,0,0,0,0,0,0,0,0,0,0,0,0,0,0,0,0,0,0,0,0,0,0,0,0,0,0,0,0],"id":25,"left_children":[1,3,5,7,9,11,-1,-1,13,15,-1,17,19,21,23,25,27,29,-1,31,-1,-1,-1,-1,-1,-1,-1,-1,-1,-1,-1,-1,-1],"loss_changes":[2.916104E1,1.6724955E1,1.8832142E1,8.967176E0,1.2360535E0,7.1724553E0,0E0,0E0,4.4288054E0,3.1486015E0,0E0,6.4445233E0,1.1997156E0,4.5821533E0,2.0277872E0,7.9844475E-1,4.239047E0,6.9578533E0,0E0,5.0609875E-1,0E0,0E0,0E0,0E0,0E0,0E0,0E0,0E0,0E0,0E0,0E0,0E0,0E0],"parents":[2147483647,0,0,1,1,2,2,3,3,4,4,5,5,8,8,9,9,11,11,12,12,13,13,14,14,15,15,16,16,17,17,19,19],"right_children":[2,4,6,8,10,12,-1,-1,14,16,-1,18,20,22,24,26,28,30,-1,32,-1,-1,-1,-1,-1,-1,-1,-1,-1,-1,-1,-1,-1],"split_conditions":[5.6236863E0,-1.448584E0,2.4414517E-2,-3.487783E0,1.8220353E0,6.715443E2,-1.4764068E-2,1.1787188E-2,6.8302736E-2,1.0550953E0,1.4015225E-2,2.2311267E-2,7.004754E2,2.3970913E-2,-2.2536366E0,-1.0986521E0,-3.3379452E0,1.8428305E-2,1.1216969E-2,2.5265665E0,-6.2643616E-5,2.2904628E-3,-1.081045E-2,9.435322E-3,-4.107716E-3,1.3397849E-2,7.600476E-3,1.0074446E-2,-7.594261E-3,1.1777222E-3,-8.058808E-3,-5.394465E-3,-1.2656392E-2],"split_indices":[0,0,1,2,0,0,0,0,1,0,0,1,0,1,0,0,2,1,0,2,0,0,0,0,0,0,0,0,0,0,0,0,0],"split_type":[0,0,0,0,0,0,0,0,0,0,0,0,0,0,0,0,0,0,0,0,0,0,0,0,0,0,0,0,0,0,0,0,0],"sum_hessian":[1.2406419E2,5.5176094E1,6.88881E1,1.8611221E1,3.6564873E1,5.6253387E1,1.2634713E1,2.820004E0,1.5791217E1,3.0597982E1,5.9668922E0,4.6076023E1,1.0177363E1,1.2858872E1,2.932344E0,2.6945717E1,3.652265E0,4.236237E1,3.7136528E0,8.790452E0,1.386912E0,3.1466863E0,9.712187E0,1.8604666E0,1.0718774E0,5.0149064E0,2.193081E1,1.2723533E0,2.379912E0,3.2565052E1,9.797319E0,4.262505E0,4.5279465E0],"tree_param":{"num_deleted":"0","num_feature":"3","num_nodes":"33","size_leaf_vector":"1"}},{"base_weights":[7.4760586E-2,5.8034617E-1,-3.062559E-1,-1.4541256E-1,9.772709E-1,-5.9835818E-2,-1.4439576E-2,5.7080746E-1,-4.3318424E-1,8.286838E-1,1.4919349E-2,1.066992E-1,-7.2580904E-1,-4.1154004E-3,8.673213E-1,-1.2461287E0,1.5632223E-1,9.808005E-1,-3.4974238E-1,2.9600635E-1,-2.924939E-1,-1.30522E-1,-1.1767601E0,1.3349327E-3,1.2171439E-2,-1.3740559E-2,-3.1941363E-3,8.932781E-3,-1.4945535E-3,1.2472255E-2,7.813075E-3,5.267351E-3,-9.107934E-3,-2.3130334E-3,5.0019426E-3,-1.0969632E-2,6.1695348E-3,-1.05045345E-2,1.0779558E-2,-3.45664E-3,-1.27462465E-2],"categories":[],"categories_nodes":[],"categories_segments":[],"categories_sizes":[],"default_left":[0,0,0,0,0,0,0,0,0,0,0,0,0,0,0,0,0,0,0,0,0,0,0,0,0,0,0,0,0,0,0,0,0,0,0,0,0,0,0,0,0],"id":26,"left_children":[1,3,5,7,9,11,-1,13,15,17,-1,19,21,-1,23,25,27,29,31,33,35,37,39,-1,-1,-1,-1,-1,-1,-1,-1,-1,-1,-1,-1,-1,-1,-1,-1,-1,-1],"loss_changes":[2.354914E1,1.5261337E1,1.9493322E1,4.251176E0,1.3681526E0,6.559904E0,0E0,2.1044903E0,7.1086016E0,5.4837E0,0E0,3.68589E0,3.0195174E0,0E0,1.1031821E0,2.932377E-1,2.2181964E0,3.8945007E-1,2.454484E0,3.6477842E0,1.2254023E1,8.04674E0,9.627819E-2,0E0,0E0,0E0,0E0,0E0,0E0,0E0,0E0,0E0,0E0,0E0,0E0,0E0,0E0,0E0,0E0,0E0,0E0],"parents":[2147483647,0,0,1,1,2,2,3,3,4,4,5,5,7,7,8,8,9,9,11,11,12,12,14,14,15,15,16,16,17,17,18,18,19,19,20,20,21,21,22,22],"right_children":[2,4,6,8,10,12,-1,14,16,18,-1,20,22,-1,24,26,28,30,32,34,36,38,40,-1,-1,-1,-1,-1,-1,-1,-1,-1,-1,-1,-1,-1,-1,-1,-1,-1,-1],"split_conditions":[2.8462713E0,-1.448584E0,2.4414517E-2,2.6404126E-2,1.8220353E0,6.706453E2,-1.4439576E-2,2.2732006E-2,4.6292532E-2,1.0550953E0,1.4919349E-2,1.8428305E-2,1.33194355E-2,-4.1154004E-3,-2.842494E0,-2.2146795E0,4.7275238E-2,4.5245964E-2,-3.3157566E0,1.2597078E-2,2.1537751E-2,1.1294158E-2,-2.6518657E0,1.3349327E-3,1.2171439E-2,-1.3740559E-2,-3.1941363E-3,8.932781E-3,-1.4945535E-3,1.2472255E-2,7.813075E-3,5.267351E-3,-9.107934E-3,-2.3130334E-3,5.0019426E-3,-1.0969632E-2,6.1695348E-3,-1.05045345E-2,1.0779558E-2,-3.45664E-3,-1.27462465E-2],"split_indices":[0,0,1,1,0,0,0,1,1,0,0,1,1,0,0,0,1,1,2,1,1,1,2,0,0,0,0,0,0,0,0,0,0,0,0,0,0,0,0,0,0],"split_type":[0,0,0,0,0,0,0,0,0,0,0,0,0,0,0,0,0,0,0,0,0,0,0,0,0,0,0,0,0,0,0,0,0,0,0,0,0,0,0,0,0],"sum_hessian":[1.20323906E2,5.1484272E1,6.883964E1,1.8426292E1,3.305798E1,5.744907E1,1.1390565E1,4.9995723E0,1.342672E1,2.767745E1,5.3805294E0,4.6628746E1,1.0820323E1,1.0692451E0,3.9303272E0,5.1755934E0,8.251126E0,2.4661705E1,3.0157447E0,3.1804676E1,1.482407E1,5.2195663E0,5.6007566E0,1.7147896E0,2.2155375E0,4.1236343E0,1.0519587E0,1.8561873E0,6.394939E0,8.310701E0,1.6351004E1,1.2008824E0,1.8148621E0,8.840787E0,2.296389E1,7.756617E0,7.067453E0,3.0378342E0,2.1817322E0,1.0674772E0,4.5332794E0],"tree_param":{"num_deleted":"0","num_feature":"3","num_nodes":"41","size_leaf_vector":"1"}},{"base_weights":[7.083725E-3,3.7476227E-1,-4.5786098E-1,-2.8580886E-1,5.886458E-1,-2.9032335E-1,-1.4467747E-2,6.796098E-1,-5.939566E-1,8.3630675E-1,4.2770136E-2,-1.3755353E-1,-1.039093E0,1.2997543E-2,-5.6420057E-3,-1.1541126E0,-4.8856214E-2,1.1245354E-2,6.734699E-1,1.2427413E-2,-5.991062E-1,-1.1306096E-2,2.8963586E-2,-1.34240985E-2,-6.753254E-1,-9.348125E-4,-1.4012013E-2,8.924505E-3,-4.595331E-3,-6.5839076E-3,8.177078E-3,2.3495804E-3,-9.401811E-3,-6.447175E-3,1.9671745E-3,6.43225E-3,-1.1694863E-2],"categories":[],"categories_nodes":[],"categories_segments":[],"categories_sizes":[],"default_left":[0,0,0,0,0,0,0,0,0,0,0,0,0,0,0,0,0,0,0,0,0,0,0,0,0,0,0,0,0,0,0,0,0,0,0,0,0],"id":27,"left_children":[1,3,5,7,9,11,-1,13,15,17,19,21,23,-1,-1,25,27,-1,29,-1,31,-1,33,-1,35,-1,-1,-1,-1,-1,-1,-1,-1,-1,-1,-1,-1],"loss_changes":[2.18659E1,1.0258052E1,8.939216E0,5.800297E0,7.3016453E0,5.5258713E0,0E0,4.478636E0,4.305383E0,9.924278E-1,1.4603091E1,7.029491E0,3.1738281E-3,0E0,0E0,1.7037525E0,3.612459E0,0E0,5.5937347E0,0E0,3.74759E0,0E0,4.3321295E0,0E0,4.506179E0,0E0,0E0,0E0,0E0,0E0,0E0,0E0,0E0,0E0,0E0,0E0,0E0],"parents":[2147483647,0,0,1,1,2,2,3,3,4,4,5,5,7,7,8,8,9,9,10,10,11,11,12,12,15,15,16,16,18,18,20,20,22,22,24,24],"right_children":[2,4,6,8,10,12,-1,14,16,18,20,22,24,-1,-1,26,28,-1,30,-1,32,-1,34,-1,36,-1,-1,-1,-1,-1,-1,-1,-1,-1,-1,-1,-1],"split_conditions":[4.5679543E1,-1.7231529E0,2.3748202E-2,2.3256266E-2,2.8462713E0,3.0471275E0,-1.4467747E-2,-2.4283035E0,4.6292532E-2,3.1024557E-2,1.6431121E-2,1.0969819E-2,5.5148434E1,1.2997543E-2,-5.6420057E-3,2.6404126E-2,4.7275238E-2,1.1245354E-2,3.3188634E-2,1.2427413E-2,-2.7083793E0,-1.1306096E-2,5.0286476E1,-1.34240985E-2,6.1977787E1,-9.348125E-4,-1.4012013E-2,8.924505E-3,-4.595331E-3,-6.5839076E-3,8.177078E-3,2.3495804E-3,-9.401811E-3,-6.447175E-3,1.9671745E-3,6.43225E-3,-1.1694863E-2],"split_indices":[0,0,1,1,0,2,0,0,1,1,1,1,0,0,0,1,1,0,1,0,2,0,0,0,0,0,0,0,0,0,0,0,0,0,0,0,0],"split_type":[0,0,0,0,0,0,0,0,0,0,0,0,0,0,0,0,0,0,0,0,0,0,0,0,0,0,0,0,0,0,0,0,0,0,0,0,0],"sum_hessian":[1.25904274E2,7.041445E1,5.5489826E1,1.7140474E1,5.327398E1,4.8557068E1,6.9327583E0,3.855579E0,1.3284895E1,3.6281296E1,1.699268E1,4.131198E1,7.245086E0,2.5428E0,1.3127788E0,6.0009503E0,7.2839446E0,1.0965666E1,2.5315632E1,5.5956497E0,1.139703E1,5.1010656E0,3.6210915E1,2.483771E0,4.7613153E0,1.3942871E0,4.606663E0,1.8562164E0,5.427728E0,2.125416E0,2.3190216E1,3.3982005E0,7.99883E0,6.6523943E0,2.9558521E1,1.2157434E0,3.5455718E0],"tree_param":{"num_deleted":"0","num_feature":"3","num_nodes":"37","size_leaf_vector":"1"}},{"base_weights":[-1.620137E-2,4.5475325E-1,-5.4978E-1,-1.6946957E-1,6.891356E-1,-3.8409358E-1,-1.4517182E-2,5.0735694E-1,-5.53023E-1,8.832706E-1,1.754761E-2,-4.463365E-1,1.0830596E-2,-1.0362759E-2,1.0100999E0,-1.3923445E-2,1.436808E-1,5.36714E-1,1.1328256E0,-9.672811E-1,1.2065313E-2,-1.4178414E-2,-3.4421527E-1,3.444376E-3,1.1528676E-2,3.8612764E-3,-5.6844554E-3,1.2931453E-2,8.9064386E-4,7.2857533E-3,1.4654996E-2,-3.2285934E-3,-1.1450977E-2,1.1211137E-3,-6.1481884E-3],"categories":[],"categories_nodes":[],"categories_segments":[],"categories_sizes":[],"default_left":[0,0,0,0,0,0,0,0,0,0,0,0,0,0,0,0,0,0,0,0,0,0,0,0,0,0,0,0,0,0,0,0,0,0,0],"id":28,"left_children":[1,3,5,7,9,11,-1,13,15,17,19,21,-1,-1,23,-1,25,27,29,31,-1,-1,33,-1,-1,-1,-1,-1,-1,-1,-1,-1,-1,-1,-1],"loss_changes":[3.0233492E1,9.469496E0,7.869604E0,5.0190372E0,6.069582E0,4.9581256E0,0E0,6.57523E0,7.292648E0,2.5215397E0,1.4616948E1,4.245764E0,0E0,0E0,1.61726E-1,0E0,1.5202754E0,5.657956E0,1.6403389E0,4.13805E-1,0E0,0E0,5.5635176E0,0E0,0E0,0E0,0E0,0E0,0E0,0E0,0E0,0E0,0E0,0E0,0E0],"parents":[2147483647,0,0,1,1,2,2,3,3,4,4,5,5,7,7,8,8,9,9,10,10,11,11,14,14,16,16,17,17,18,18,19,19,22,22],"right_children":[2,4,6,8,10,12,-1,14,16,18,20,22,-1,-1,24,-1,26,28,30,32,-1,-1,34,-1,-1,-1,-1,-1,-1,-1,-1,-1,-1,-1,-1],"split_conditions":[4.1482117E1,-1.8100182E0,2.3748202E-2,2.4871517E-2,2.8462713E0,2.342793E-2,-1.4517182E-2,2.1268046E-2,4.6292532E-2,-3.2216135E-1,3.308167E1,1.0767484E-2,1.0830596E-2,-1.0362759E-2,-2.842494E0,-1.3923445E-2,-2.2146795E0,4.5245964E-2,-2.5479388E0,6.2843146E0,1.2065313E-2,-1.4178414E-2,1.5302261E-2,3.444376E-3,1.1528676E-2,3.8612764E-3,-5.6844554E-3,1.2931453E-2,8.9064386E-4,7.2857533E-3,1.4654996E-2,-3.2285934E-3,-1.1450977E-2,1.1211137E-3,-6.1481884E-3],"split_indices":[0,0,1,1,0,1,0,1,1,0,0,1,0,0,0,0,0,1,2,0,0,0,1,0,0,0,0,0,0,0,0,0,0,0,0],"split_type":[0,0,0,0,0,0,0,0,0,0,0,0,0,0,0,0,0,0,0,0,0,0,0,0,0,0,0,0,0,0,0,0,0,0,0],"sum_hessian":[1.183176E2,6.292531E1,5.5392284E1,1.725298E1,4.5672333E1,4.800044E1,7.3918467E0,6.123876E0,1.1129103E1,3.5185974E1,1.0486356E1,4.6714394E1,1.2860442E0,1.243761E0,4.880115E0,4.5950074E0,6.534096E0,1.6049183E1,1.9136791E1,5.837582E0,4.6487737E0,3.2178903E0,4.3496506E1,1.4644786E0,3.4156365E0,5.2160487E0,1.3180469E0,5.2645254E0,1.07846575E1,1.0079142E1,9.057651E0,1.8713491E0,3.966233E0,1.6409832E1,2.7086674E1],"tree_param":{"num_deleted":"0","num_feature":"3","num_nodes":"35","size_leaf_vector":"1"}},{"base_weights":[3.390654E-2,4.949072E-1,-3.5789818E-1,-3.4145612E-1,8.810665E-1,-8.454653E-2,-1.4430053E-2,3.532292E-1,-6.984165E-1,1.4023705E-2,7.342982E-1,5.2971333E-2,-9.621617E-1,-1.0309629E-2,8.2726026E-1,-1.4262853E-2,5.8918517E-2,-3.893145E-3,8.0521756E-1,2.2487287E-1,-5.8442974E-1,1.6364527E-3,-1.3231632E0,-1.0440841E-3,1.1452366E-2,-6.9821225E-3,3.9351475E-3,6.61006E-3,1.3031872E-2,9.5835974E-4,1.2819375E-2,-1.3375884E-2,-1.1618423E-3,-3.4999736E-3,-1.46824615E-2],"categories":[],"categories_nodes":[],"categories_segments":[],"categories_sizes":[],"default_left":[0,0,0,0,0,0,0,0,0,0,0,0,0,0,0,0,0,0,0,0,0,0,0,0,0,0,0,0,0,0,0,0,0,0,0],"id":29,"left_children":[1,3,5,7,9,11,-1,13,15,-1,17,19,21,-1,23,-1,25,-1,27,29,31,-1,33,-1,-1,-1,-1,-1,-1,-1,-1,-1,-1,-1,-1],"loss_changes":[2.2519459E1,1.8790714E1,1.9883808E1,4.909668E0,1.988245E0,6.6812296E0,0E0,5.4766474E0,7.116403E0,0E0,2.9334602E0,5.4393215E0,3.2623968E0,0E0,1.8389981E0,0E0,2.1019099E0,0E0,1.3829327E0,5.179766E0,3.5713513E0,0E0,3.0287457E-1,0E0,0E0,0E0,0E0,0E0,0E0,0E0,0E0,0E0,0E0,0E0,0E0],"parents":[2147483647,0,0,1,1,2,2,3,3,4,4,5,5,7,7,8,8,10,10,11,11,12,12,14,14,16,16,18,18,19,19,20,20,22,22],"right_children":[2,4,6,8,10,12,-1,14,16,-1,18,20,22,-1,24,-1,26,-1,28,30,32,-1,34,-1,-1,-1,-1,-1,-1,-1,-1,-1,-1,-1,-1],"split_conditions":[5.6236863E0,-1.8100182E0,2.4414517E-2,2.6404126E-2,-2.9053698E0,3.1162477E0,-1.4430053E-2,2.1268046E-2,4.6292532E-2,1.4023705E-2,-2.8236167E0,6.715443E2,1.5302261E-2,-1.0309629E-2,-2.842494E0,-1.4262853E-2,-2.5783596E0,-3.893145E-3,9.911626E-2,6.6382574E2,1.1322611E-2,1.6364527E-3,1.6536223E-2,-1.0440841E-3,1.1452366E-2,-6.9821225E-3,3.9351475E-3,6.61006E-3,1.3031872E-2,9.5835974E-4,1.2819375E-2,-1.3375884E-2,-1.1618423E-3,-3.4999736E-3,-1.46824615E-2],"split_indices":[0,0,1,1,2,2,0,1,1,0,2,0,1,0,0,0,0,0,1,0,1,0,1,0,0,0,0,0,0,0,0,0,0,0,0],"split_type":[0,0,0,0,0,0,0,0,0,0,0,0,0,0,0,0,0,0,0,0,0,0,0,0,0,0,0,0,0,0,0,0,0,0,0],"sum_hessian":[1.2269646E2,5.6249584E1,6.644687E1,1.780417E1,3.844541E1,5.393732E1,1.2509551E1,6.0468225E0,1.1757348E1,6.5665984E0,3.1878815E1,4.7442898E1,6.494421E0,1.2428268E0,4.8039956E0,5.5448956E0,6.212453E0,1.6261005E0,3.0252714E1,3.7875427E1,9.567471E0,1.7096026E0,4.784818E0,1.3932955E0,3.4107E0,1.5709487E0,4.641504E0,2.5263756E1,4.9889593E0,3.472694E1,3.1484888E0,2.9560912E0,6.611379E0,1.0635169E0,3.7213016E0],"tree_param":{"num_deleted":"0","num_feature":"3","num_nodes":"35","size_leaf_vector":"1"}},{"base_weights":[9.235678E-3,4.572453E-1,-3.51145E-1,-3.0073994E-1,7.822728E-1,-9.1262415E-2,-1.4291729E0,-5.299878E-1,3.2435694E-1,6.1980706E-1,1.2255716E-2,4.2813335E-2,-8.612699E-1,-2.6407847E-3,-1.5063952E-2,2.0689692E-1,-1.068691E0,1.2012126E-2,-1.149188E-2,4.1490614E-1,1.2400029E0,4.2435572E-1,-1.8064833E-1,-4.4003382E-1,-1.2913715E-2,-5.221114E-3,4.974582E-3,-1.358395E-2,-3.1445203E-3,6.0087987E-3,-5.5171945E-3,1.4293633E-2,4.1767503E-3,1.8118691E-3,1.2319295E-2,-7.975531E-3,-3.6301135E-4,8.6151725E-3,-1.1055774E-2],"categories":[],"categories_nodes":[],"categories_segments":[],"categories_sizes":[],"default_left":[0,0,0,0,0,0,0,0,0,0,0,0,0,0,0,0,0,0,0,0,0,0,0,0,0,0,0,0,0,0,0,0,0,0,0,0,0,0,0],"id":30,"left_children":[1,3,5,7,9,11,13,15,17,19,-1,21,23,-1,-1,25,27,-1,-1,29,31,33,35,37,-1,-1,-1,-1,-1,-1,-1,-1,-1,-1,-1,-1,-1,-1,-1],"loss_changes":[2.028068E1,1.402911E1,1.9376888E1,2.6833434E0,2.0825977E0,5.9392886E0,8.1292534E-1,5.461998E0,8.258179E0,3.4126005E0,0E0,4.3094945E0,9.764447E-1,0E0,0E0,1.6182356E0,1.2748032E0,0E0,0E0,4.777404E0,5.1969624E-1,3.436404E0,2.8215313E0,5.9976807E0,0E0,0E0,0E0,0E0,0E0,0E0,0E0,0E0,0E0,0E0,0E0,0E0,0E0,0E0,0E0],"parents":[2147483647,0,0,1,1,2,2,3,3,4,4,5,5,6,6,7,7,8,8,9,9,11,11,12,12,15,15,16,16,19,19,20,20,21,21,22,22,23,23],"right_children":[2,4,6,8,10,12,14,16,18,20,-1,22,24,-1,-1,26,28,-1,-1,30,32,34,36,38,-1,-1,-1,-1,-1,-1,-1,-1,-1,-1,-1,-1,-1,-1,-1],"split_conditions":[5.6236863E0,-1.8633363E0,2.4414517E-2,5.2571777E-2,3.0162544E0,6.784031E2,6.2843146E0,2.6404126E-2,-2.2536366E0,1.8220353E0,1.2255716E-2,-2.7083793E0,2.6567333E0,-2.6407847E-3,-1.5063952E-2,2.1537751E-2,4.569128E-2,1.2012126E-2,-1.149188E-2,9.171879E-1,-2.559188E0,2.0764302E-2,1.2597078E-2,6.939962E2,-1.2913715E-2,-5.221114E-3,4.974582E-3,-1.358395E-2,-3.1445203E-3,6.0087987E-3,-5.5171945E-3,1.4293633E-2,4.1767503E-3,1.8118691E-3,1.2319295E-2,-7.975531E-3,-3.6301135E-4,8.6151725E-3,-1.1055774E-2],"split_indices":[0,0,1,1,2,0,0,1,0,0,0,2,2,0,0,1,1,0,0,0,2,1,1,0,0,0,0,0,0,0,0,0,0,0,0,0,0,0,0],"split_type":[0,0,0,0,0,0,0,0,0,0,0,0,0,0,0,0,0,0,0,0,0,0,0,0,0,0,0,0,0,0,0,0,0,0,0,0,0,0,0],"sum_hessian":[1.2361828E2,5.4989246E1,6.8629036E1,1.652548E1,3.8463768E1,5.6172146E1,1.2456886E1,1.2202493E1,4.3229876E0,2.9902786E1,8.560981E0,4.864615E1,7.5259976E0,1.049048E0,1.1407839E1,5.4134474E0,6.7890453E0,2.8260922E0,1.4968954E0,2.3731382E1,6.171405E0,1.7635675E1,3.1010473E1,4.824266E0,2.7017317E0,1.3156416E0,4.097806E0,4.326296E0,2.4627492E0,2.0219608E1,3.511774E0,4.416264E0,1.7551409E0,1.4495338E1,3.1403368E0,5.022081E0,2.5988392E1,1.5326085E0,3.2916574E0],"tree_param":{"num_deleted":"0","num_feature":"3","num_nodes":"39","size_leaf_vector":"1"}},{"base_weights":[-7.478355E-3,4.168763E-1,-5.870067E-1,-1.899352E-1,6.259705E-1,-4.2783043E-1,-1.4171793E-2,5.716496E-1,-3.7914726E-1,8.6120576E-1,1.0759883E-1,-1.9768621E-1,-1.1669327E0,7.718414E-3,1.7340659E-3,3.4285626E-1,-6.042139E-1,1.33650405E-2,7.7241254E-1,-1.2705314E-2,7.9829407E-1,-8.714818E-1,3.4788602E-3,-1.22703975E-2,-3.2110082E-3,8.889701E-3,-5.490201E-3,-1.4067516E-2,7.323665E-4,5.3172098E-3,1.0695693E-2,1.2799621E-2,1.272091E-3,-2.034487E-3,-1.4029853E-2,2.3043884E-3,-4.1326736E-3],"categories":[],"categories_nodes":[],"categories_segments":[],"categories_sizes":[],"default_left":[0,0,0,0,0,0,0,0,0,0,0,0,0,0,0,0,0,0,0,0,0,0,0,0,0,0,0,0,0,0,0,0,0,0,0,0,0],"id":31,"left_children":[1,3,5,7,9,11,-1,13,15,17,19,21,23,-1,-1,25,27,-1,29,-1,31,33,35,-1,-1,-1,-1,-1,-1,-1,-1,-1,-1,-1,-1,-1,-1],"loss_changes":[3.0770061E1,9.284773E0,6.3820133E0,2.9950583E0,6.48715E0,7.561289E0,0E0,2.0384312E-1,2.8144095E0,5.2807426E-1,1.8134634E1,4.900938E0,1.486187E-1,0E0,0E0,2.6559613E0,6.950015E0,0E0,1.8289566E0,0E0,3.9085178E0,2.665814E0,2.8214686E0,0E0,0E0,0E0,0E0,0E0,0E0,0E0,0E0,0E0,0E0,0E0,0E0,0E0,0E0],"parents":[2147483647,0,0,1,1,2,2,3,3,4,4,5,5,7,7,8,8,9,9,10,10,11,11,12,12,15,15,16,16,18,18,20,20,21,21,22,22],"right_children":[2,4,6,8,10,12,-1,14,16,18,20,22,24,-1,-1,26,28,-1,30,-1,32,34,36,-1,-1,-1,-1,-1,-1,-1,-1,-1,-1,-1,-1,-1,-1],"split_conditions":[4.5679543E1,-1.7231529E0,2.367093E-2,-3.487783E0,2.743015E0,6.706453E2,-1.4171793E-2,2.4871517E-2,2.3256266E-2,2.2952545E-2,3.308167E1,4.904752E1,7.004754E2,7.718414E-3,1.7340659E-3,-2.4794054E0,4.6292532E-2,1.33650405E-2,6.1604295E-2,-1.2705314E-2,1.6431121E-2,4.7285297E1,1.7803347E-2,-1.22703975E-2,-3.2110082E-3,8.889701E-3,-5.490201E-3,-1.4067516E-2,7.323665E-4,5.3172098E-3,1.0695693E-2,1.2799621E-2,1.272091E-3,-2.034487E-3,-1.4029853E-2,2.3043884E-3,-4.1326736E-3],"split_indices":[0,0,1,2,0,0,0,1,1,1,0,0,0,0,0,0,1,0,1,0,1,0,1,0,0,0,0,0,0,0,0,0,0,0,0,0,0],"split_type":[0,0,0,0,0,0,0,0,0,0,0,0,0,0,0,0,0,0,0,0,0,0,0,0,0,0,0,0,0,0,0,0,0,0,0,0,0],"sum_hessian":[1.2312437E2,7.124009E1,5.188428E1,1.8280357E1,5.2959732E1,4.4808174E1,7.07611E0,3.235629E0,1.5044727E1,3.5973644E1,1.6986086E1,3.513514E1,9.673033E0,1.5289356E0,1.7066935E0,3.4509342E0,1.1593793E1,3.4506927E0,3.2522953E1,5.390678E0,1.15954075E1,7.3119245E0,2.7823215E1,8.61046E0,1.0625725E0,2.142374E0,1.3085601E0,4.8141737E0,6.7796197E0,1.9509764E1,1.3013188E1,6.2221713E0,5.373236E0,3.8525429E0,3.4593816E0,1.8302647E1,9.520569E0],"tree_param":{"num_deleted":"0","num_feature":"3","num_nodes":"37","size_leaf_vector":"1"}},{"base_weights":[2.7076881E-2,5.78977E-1,-3.994279E-1,-2.436891E-1,9.167818E-1,-1.482385E-1,-1.419037E0,-7.876178E-4,-1.2432251E-2,1.1281554E0,6.403234E-1,3.1529024E-2,-8.704356E-1,-5.082181E-3,-1.4911079E-2,-4.677376E-1,9.622115E-1,1.49135E-2,8.6106217E-1,1.1847493E-1,1.3651608E-2,-7.222122E-2,1.04428455E-2,-1.3187453E-2,-5.574539E-1,2.373395E-3,-1.3096631E-2,1.6481926E-3,1.332492E-2,1.1774406E-2,1.011663E-3,1.0957361E-2,-1.3330734E-3,2.9496881E-3,-5.5160313E-3,7.412941E-3,-1.1078668E-2],"categories":[],"categories_nodes":[],"categories_segments":[],"categories_sizes":[],"default_left":[0,0,0,0,0,0,0,0,0,0,0,0,0,0,0,0,0,0,0,0,0,0,0,0,0,0,0,0,0,0,0,0,0,0,0,0,0],"id":32,"left_children":[1,3,5,7,9,11,13,15,-1,17,19,21,23,-1,-1,25,27,-1,29,31,-1,33,-1,-1,35,-1,-1,-1,-1,-1,-1,-1,-1,-1,-1,-1,-1],"loss_changes":[2.900129E1,1.5143301E1,1.7598846E1,3.985167E0,1.5139465E0,7.4156656E0,1.367855E-1,6.839451E0,0E0,6.923828E-1,6.985223E0,4.9645867E0,8.612108E-1,0E0,0E0,6.3906784E0,1.246944E0,0E0,3.2724257E0,3.1185699E0,0E0,7.7568045E0,0E0,0E0,6.8488464E0,0E0,0E0,0E0,0E0,0E0,0E0,0E0,0E0,0E0,0E0,0E0,0E0],"parents":[2147483647,0,0,1,1,2,2,3,3,4,4,5,5,6,6,7,7,9,9,10,10,11,11,12,12,15,15,16,16,18,18,19,19,21,21,24,24],"right_children":[2,4,6,8,10,12,14,16,-1,18,20,22,24,-1,-1,26,28,-1,30,32,-1,34,-1,-1,36,-1,-1,-1,-1,-1,-1,-1,-1,-1,-1,-1,-1],"split_conditions":[5.6236863E0,-1.8633363E0,2.4414517E-2,-2.2146795E0,4.7051378E-2,6.715443E2,2.6662836E-2,4.569128E-2,-1.2432251E-2,-4.8691282E-1,-9.075164E-3,2.2311267E-2,1.1322611E-2,-5.082181E-3,-1.4911079E-2,2.6404126E-2,-2.4794054E0,1.49135E-2,3.1186953E-2,-3.060388E0,1.3651608E-2,1.6536223E-2,1.04428455E-2,-1.3187453E-2,1.33194355E-2,2.373395E-3,-1.3096631E-2,1.6481926E-3,1.332492E-2,1.1774406E-2,1.011663E-3,1.0957361E-2,-1.3330734E-3,2.9496881E-3,-5.5160313E-3,7.412941E-3,-1.1078668E-2],"split_indices":[0,0,1,0,1,0,1,1,0,0,0,1,1,0,0,1,0,0,1,2,0,1,0,0,1,0,0,0,0,0,0,0,0,0,0,0,0],"split_type":[0,0,0,0,0,0,0,0,0,0,0,0,0,0,0,0,0,0,0,0,0,0,0,0,0,0,0,0,0,0,0,0,0,0,0,0,0],"sum_hessian":[1.2122385E2,5.2687878E1,6.8535965E1,1.5418167E1,3.726971E1,5.590795E1,1.2628014E1,1.3208983E1,2.2091832E0,1.937517E1,1.789454E1,4.5530865E1,1.0377088E1,1.5163476E0,1.1111666E1,9.241939E0,3.9670455E0,6.268118E0,1.3107053E1,1.1080534E1,6.814007E0,4.2142345E1,3.3885214E0,2.9450948E0,7.4319925E0,5.4205527E0,3.8213854E0,1.716251E0,2.2507946E0,8.866187E0,4.240865E0,1.5832868E0,9.497248E0,2.4081463E1,1.806088E1,2.1089478E0,5.323045E0],"tree_param":{"num_deleted":"0","num_feature":"3","num_nodes":"37","size_leaf_vector":"1"}},{"base_weights":[3.5691027E-2,5.7498777E-1,-3.8338634E-1,-2.0951903E-1,8.962693E-1,-1.6170202E-1,-1.3151546E0,6.3532656E-1,-5.6474036E-1,1.1590256E-2,5.302823E-1,-6.1262106E-3,-1.0206566E0,-4.067429E-3,-1.3780068E0,9.8170644E-1,-4.0731286E-3,-1.3489998E-2,6.527255E-2,-3.7290654E-1,9.225538E-1,6.1078113E-1,-1.2571514E-1,-5.306514E-1,-1.2281835E0,-4.9598855E-3,-1.4566302E-2,1.243557E-2,1.305624E-3,-6.3386806E-3,4.9326243E-3,3.9262343E-3,-9.375997E-3,1.37353735E-2,6.1254846E-3,-6.273986E-3,9.887888E-3,-5.150289E-3,7.4942654E-4,-1.1992E-2,6.7522572E-3,-3.2797842E-3,-1.3702255E-2],"categories":[],"categories_nodes":[],"categories_segments":[],"categories_sizes":[],"default_left":[0,0,0,0,0,0,0,0,0,0,0,0,0,0,0,0,0,0,0,0,0,0,0,0,0,0,0,0,0,0,0,0,0,0,0,0,0,0,0,0,0,0,0],"id":33,"left_children":[1,3,5,7,9,11,13,15,17,-1,19,21,23,-1,25,27,-1,-1,29,31,33,35,37,39,41,-1,-1,-1,-1,-1,-1,-1,-1,-1,-1,-1,-1,-1,-1,-1,-1,-1,-1],"loss_changes":[2.8340857E1,1.4001894E1,1.4373494E1,5.3809667E0,3.1428566E0,7.7689824E0,2.0638657E-1,2.358754E0,6.1706133E0,0E0,6.782373E0,3.7852764E0,2.5495338E-1,0E0,1.1964798E-1,8.1040907E-1,0E0,0E0,2.6407664E0,3.0547123E0,9.7019196E-1,4.520502E0,3.3925924E0,4.367836E0,2.5422192E-1,0E0,0E0,0E0,0E0,0E0,0E0,0E0,0E0,0E0,0E0,0E0,0E0,0E0,0E0,0E0,0E0,0E0,0E0],"parents":[2147483647,0,0,1,1,2,2,3,3,4,4,5,5,6,6,7,7,8,8,10,10,11,11,12,12,14,14,15,15,18,18,19,19,20,20,21,21,22,22,23,23,24,24],"right_children":[2,4,6,8,10,12,14,16,18,-1,20,22,24,-1,26,28,-1,-1,30,32,34,36,38,40,42,-1,-1,-1,-1,-1,-1,-1,-1,-1,-1,-1,-1,-1,-1,-1,-1,-1,-1],"split_conditions":[5.6236863E0,-1.7846153E0,2.4414517E-2,2.6404126E-2,4.7051378E-2,6.743138E2,6.2843146E0,-2.4283035E0,4.6292532E-2,1.1590256E-2,6.1604295E-2,4.1482117E1,1.33194355E-2,-4.067429E-3,2.6662836E-2,2.3410147E-2,-4.0731286E-3,-1.3489998E-2,-2.4068868E0,5.014901E-2,8.5289784E-2,3.308167E1,4.904752E1,1.1294158E-2,-2.6518657E0,-4.9598855E-3,-1.4566302E-2,1.243557E-2,1.305624E-3,-6.3386806E-3,4.9326243E-3,3.9262343E-3,-9.375997E-3,1.37353735E-2,6.1254846E-3,-6.273986E-3,9.887888E-3,-5.150289E-3,7.4942654E-4,-1.1992E-2,6.7522572E-3,-3.2797842E-3,-1.3702255E-2],"split_indices":[0,0,1,1,1,0,0,0,1,0,1,0,1,0,1,1,0,0,0,1,1,0,0,1,2,0,0,0,0,0,0,0,0,0,0,0,0,0,0,0,0,0,0],"split_type":[0,0,0,0,0,0,0,0,0,0,0,0,0,0,0,0,0,0,0,0,0,0,0,0,0,0,0,0,0,0,0,0,0,0,0,0,0,0,0,0,0,0,0],"sum_hessian":[1.2342272E2,5.3807545E1,6.961517E1,1.5734596E1,3.807295E1,5.7183697E1,1.2431479E1,4.4240522E0,1.1310544E1,2.090068E1,1.7172266E1,4.9267403E1,7.9162927E0,1.2879518E0,1.1143528E1,3.3646936E0,1.0593588E0,4.5301046E0,6.7804394E0,5.214791E0,1.1957476E1,7.332887E0,4.1934517E1,3.413495E0,4.502798E0,1.5101926E0,9.633335E0,2.220519E0,1.1441745E0,2.3919868E0,4.3884525E0,2.3430855E0,2.8717053E0,3.47357E0,8.483906E0,1.5607702E0,5.772117E0,1.3729672E1,2.8204845E1,2.199571E0,1.213924E0,1.0646299E0,3.438168E0],"tree_param":{"num_deleted":"0","num_feature":"3","num_nodes":"43","size_leaf_vector":"1"}},{"base_weights":[-4.699122E-2,3.1952614E-1,-5.758108E-1,-2.891769E-1,5.380723E-1,-3.7518242E-1,-1.4135562E-2,6.4259386E-1,-7.8688544E-1,7.963617E-1,-2.0237314E-2,-1.3104261E-1,-1.1083854E0,-3.9830175E-3,1.0884389E0,-1.3967493E-2,-1.0331814E-1,1.1726002E-2,6.196179E-1,1.2580759E-2,-7.937758E-1,-1.2717444E-2,1.0950215E-1,-4.2324635E-4,-1.2772346E0,1.0780229E-3,1.3325714E-2,-8.133824E-3,2.9268744E-3,-7.224946E-4,8.918014E-3,-4.439114E-3,-1.3900621E-2,-3.6451308E-4,1.3073182E-2,-1.3749574E-2,-3.030387E-3],"categories":[],"categories_nodes":[],"categories_segments":[],"categories_sizes":[],"default_left":[0,0,0,0,0,0,0,0,0,0,0,0,0,0,0,0,0,0,0,0,0,0,0,0,0,0,0,0,0,0,0,0,0,0,0,0,0],"id":34,"left_children":[1,3,5,7,9,11,-1,13,15,17,19,21,23,-1,25,-1,27,-1,29,-1,31,-1,33,-1,35,-1,-1,-1,-1,-1,-1,-1,-1,-1,-1,-1,-1],"loss_changes":[2.2796106E1,9.407766E0,7.556612E0,9.328195E0,7.4463415E0,7.047105E0,0E0,3.762948E0,5.2126713E0,1.6176643E0,1.8078207E1,8.721352E0,1.7284842E0,0E0,1.1229777E0,0E0,2.2454226E0,0E0,4.9805326E0,0E0,1.755784E0,0E0,4.724376E0,0E0,3.9392948E-1,0E0,0E0,0E0,0E0,0E0,0E0,0E0,0E0,0E0,0E0,0E0,0E0],"parents":[2147483647,0,0,1,1,2,2,3,3,4,4,5,5,7,7,8,8,9,9,10,10,11,11,12,12,14,14,16,16,18,18,20,20,22,22,24,24],"right_children":[2,4,6,8,10,12,-1,14,16,18,20,22,24,-1,26,-1,28,-1,30,-1,32,-1,34,-1,36,-1,-1,-1,-1,-1,-1,-1,-1,-1,-1,-1,-1],"split_conditions":[4.6191864E1,-1.5771359E0,2.3748202E-2,2.6404126E-2,2.8462713E0,6.706453E2,-1.4135562E-2,2.2732006E-2,4.6292532E-2,-2.7172456E0,1.6431121E-2,4.9934616E1,-3.0532575E0,-3.9830175E-3,-3.1496375E0,-1.3967493E-2,-2.4068868E0,1.1726002E-2,-2.5237029E0,1.2580759E-2,4.106803E1,-1.2717444E-2,6.609963E2,-4.2324635E-4,7.004754E2,1.0780229E-3,1.3325714E-2,-8.133824E-3,2.9268744E-3,-7.224946E-4,8.918014E-3,-4.439114E-3,-1.3900621E-2,-3.6451308E-4,1.3073182E-2,-1.3749574E-2,-3.030387E-3],"split_indices":[0,0,1,1,0,0,0,1,1,2,1,0,2,0,0,0,0,0,2,0,0,0,0,0,0,0,0,0,0,0,0,0,0,0,0,0,0],"split_type":[0,0,0,0,0,0,0,0,0,0,0,0,0,0,0,0,0,0,0,0,0,0,0,0,0,0,0,0,0,0,0,0,0,0,0,0,0],"sum_hessian":[1.15664635E2,6.854963E1,4.7115E1,1.802435E1,5.052528E1,3.9179825E1,7.935177E0,6.174268E0,1.1850082E1,3.4252674E1,1.6272608E1,3.0277004E1,8.902822E0,1.8835227E0,4.290745E0,5.7112803E0,6.138802E0,9.146931E0,2.5105743E1,5.898551E0,1.0374058E1,4.526183E0,2.575082E1,1.3882853E0,7.514536E0,1.1426197E0,3.1481252E0,1.8205208E0,4.318281E0,7.295575E0,1.7810167E1,7.6373734E0,2.7366843E0,2.3818155E1,1.9326651E0,6.4555902E0,1.0589455E0],"tree_param":{"num_deleted":"0","num_feature":"3","num_nodes":"37","size_leaf_vector":"1"}},{"base_weights":[2.6928047E-2,4.4497243E-1,-2.8649825E-1,-1.6888055E-1,8.020736E-1,-5.825203E-2,-1.2986827E0,9.105616E-3,-3.8156396E-1,1.216608E0,6.2625235E-1,5.1677987E-2,-1.0555348E0,-2.461724E-3,-1.3678671E-2,4.7859964E-1,-6.632034E-1,6.764084E-1,1.43291885E-2,1.28576E-1,8.033087E-1,-7.549033E-1,1.280866E-1,-1.2955045E-2,-4.1616405E-3,-5.883521E-3,1.0066745E-2,-9.09356E-3,-2.0849974E-4,1.2160779E-2,-5.75401E-3,-1.7761458E-3,9.958967E-3,1.3126796E-2,4.4591464E-3,-1.0552047E-2,1.2399173E-4,3.9719045E-3,-1.5501739E-3],"categories":[],"categories_nodes":[],"categories_segments":[],"categories_sizes":[],"default_left":[0,0,0,0,0,0,0,0,0,0,0,0,0,0,0,0,0,0,0,0,0,0,0,0,0,0,0,0,0,0,0,0,0,0,0,0,0,0,0],"id":35,"left_children":[1,3,5,7,9,11,13,-1,15,17,19,21,23,-1,-1,25,27,29,-1,31,33,35,37,-1,-1,-1,-1,-1,-1,-1,-1,-1,-1,-1,-1,-1,-1,-1,-1],"loss_changes":[1.6684725E1,1.20905905E1,1.6749607E1,5.1420302E0,1.7637978E0,6.6844163E0,6.356602E-1,0E0,4.714696E0,1.1278534E-1,2.222456E0,3.51242E0,3.8924122E-1,0E0,0E0,3.4421668E0,2.2094293E0,3.7680116E0,0E0,2.332364E0,2.924014E0,1.151613E0,3.983717E0,0E0,0E0,0E0,0E0,0E0,0E0,0E0,0E0,0E0,0E0,0E0,0E0,0E0,0E0,0E0,0E0],"parents":[2147483647,0,0,1,1,2,2,3,3,4,4,5,5,6,6,8,8,9,9,10,10,11,11,12,12,15,15,16,16,17,17,19,19,20,20,21,21,22,22],"right_children":[2,4,6,8,10,12,14,-1,16,18,20,22,24,-1,-1,26,28,30,-1,32,34,36,38,-1,-1,-1,-1,-1,-1,-1,-1,-1,-1,-1,-1,-1,-1,-1,-1],"split_conditions":[5.6236863E0,-1.448584E0,2.4414517E-2,-3.487783E0,-2.7172456E0,6.8850653E2,6.2843146E0,9.105616E-3,2.3970913E-2,2.6662836E-2,-2.5237029E0,1.0910112E-2,1.6536223E-2,-2.461724E-3,-1.3678671E-2,2.2815825E-2,6.635709E-2,2.2732006E-2,1.43291885E-2,9.911626E-2,4.5245964E-2,6.3852344E2,1.6536223E-2,-1.2955045E-2,-4.1616405E-3,-5.883521E-3,1.0066745E-2,-9.09356E-3,-2.0849974E-4,1.2160779E-2,-5.75401E-3,-1.7761458E-3,9.958967E-3,1.3126796E-2,4.4591464E-3,-1.0552047E-2,1.2399173E-4,3.9719045E-3,-1.5501739E-3],"split_indices":[0,0,1,2,2,0,0,0,1,1,2,1,1,0,0,1,1,1,0,1,1,0,1,0,0,0,0,0,0,0,0,0,0,0,0,0,0,0,0],"split_type":[0,0,0,0,0,0,0,0,0,0,0,0,0,0,0,0,0,0,0,0,0,0,0,0,0,0,0,0,0,0,0,0,0,0,0,0,0,0,0],"sum_hessian":[1.25365974E2,5.353796E1,7.182802E1,1.9884241E1,3.3653717E1,5.9474213E1,1.2353805E1,2.732838E0,1.7151403E1,8.259852E0,2.5393864E1,5.4423336E1,5.050877E0,1.0431079E0,1.1310697E1,4.058101E0,1.3093303E1,3.5418088E0,4.718044E0,7.116562E0,1.8277302E1,3.941061E0,5.0482277E1,2.9263406E0,2.1245368E0,1.3057489E0,2.7523522E0,9.165414E0,3.927889E0,2.494811E0,1.0469978E0,5.8474493E0,1.2691128E0,6.43417E0,1.1843133E1,2.5628264E0,1.3782346E0,2.5674475E1,2.4807802E1],"tree_param":{"num_deleted":"0","num_feature":"3","num_nodes":"39","size_leaf_vector":"1"}},{"base_weights":[2.559939E-2,5.202939E-1,-3.3927065E-1,-1.676725E-1,8.660173E-1,-9.9229924E-2,-1.3826046E0,7.2130805E-1,-3.867276E-1,7.5092435E-1,1.2564588E-2,6.52308E-2,-7.713261E-1,-4.009782E-3,-1.4546823E-2,9.120075E-3,1.3194729E-3,3.1095123E-1,-6.134532E-1,5.9756774E-1,1.2615628E-2,-1.6636034E-2,1.1157807E-2,-1.3174046E-2,-4.1241062E-1,-5.5951723E-3,8.553033E-3,-1.2113904E-2,4.7998317E-4,7.202789E-3,-2.7821574E-3,7.0538423E-3,-1.5429317E-3,7.3538814E-3,-9.067491E-3],"categories":[],"categories_nodes":[],"categories_segments":[],"categories_sizes":[],"default_left":[0,0,0,0,0,0,0,0,0,0,0,0,0,0,0,0,0,0,0,0,0,0,0,0,0,0,0,0,0,0,0,0,0,0,0],"id":36,"left_children":[1,3,5,7,9,11,13,15,17,19,-1,21,23,-1,-1,-1,-1,25,27,29,-1,31,-1,-1,33,-1,-1,-1,-1,-1,-1,-1,-1,-1,-1],"loss_changes":[2.2303467E1,1.2615703E1,1.7683441E1,3.8569493E0,6.3186646E-1,6.56348E0,3.5289574E-1,3.2713866E-1,2.6255162E0,1.5610752E0,0E0,4.169405E0,1.742424E0,0E0,0E0,0E0,0E0,2.5818496E0,4.7857842E0,2.8477516E0,0E0,4.6568704E0,0E0,0E0,5.4855886E0,0E0,0E0,0E0,0E0,0E0,0E0,0E0,0E0,0E0,0E0],"parents":[2147483647,0,0,1,1,2,2,3,3,4,4,5,5,6,6,7,7,8,8,9,9,11,11,12,12,17,17,18,18,19,19,21,21,24,24],"right_children":[2,4,6,8,10,12,14,16,18,20,-1,22,24,-1,-1,-1,-1,26,28,30,-1,32,-1,-1,34,-1,-1,-1,-1,-1,-1,-1,-1,-1,-1],"split_conditions":[5.6236863E0,-1.8100182E0,2.4414517E-2,-3.487783E0,3.438168E0,6.706453E2,6.2843146E0,-4.1085777E0,2.3256266E-2,1.8220353E0,1.2564588E-2,6.6382574E2,1.1322611E-2,-4.009782E-3,-1.4546823E-2,9.120075E-3,1.3194729E-3,2.2732006E-2,4.6292532E-2,9.171879E-1,1.2615628E-2,4.1482117E1,1.1157807E-2,-1.3174046E-2,1.33194355E-2,-5.5951723E-3,8.553033E-3,-1.2113904E-2,4.7998317E-4,7.202789E-3,-2.7821574E-3,7.0538423E-3,-1.5429317E-3,7.3538814E-3,-9.067491E-3],"split_indices":[0,0,1,2,2,0,0,2,1,0,0,0,1,0,0,0,0,1,1,0,0,0,0,0,1,0,0,0,0,0,0,0,0,0,0],"split_type":[0,0,0,0,0,0,0,0,0,0,0,0,0,0,0,0,0,0,0,0,0,0,0,0,0,0,0,0,0,0,0,0,0,0,0],"sum_hessian":[1.2158751E2,5.1430943E1,7.015656E1,1.7373617E1,3.4057323E1,5.7924854E1,1.2231711E1,2.9814262E0,1.4392191E1,2.8561378E1,5.495947E0,4.72627E1,1.0662153E1,1.2856457E0,1.0946065E1,1.8389465E0,1.1424798E0,3.4388115E0,1.095338E1,2.3633827E1,4.9275513E0,4.475891E1,2.5037901E0,3.1694381E0,7.492715E0,1.3123635E0,2.126448E0,5.316222E0,5.6371574E0,2.088506E1,2.7487679E0,6.5066915E0,3.8252216E1,2.1087687E0,5.3839464E0],